\data\
ngram 1=1869
ngram 2=4974
ngram 3=5539

\1-grams:
-3.7548678	<unk>	0
0	<s>	-0.34729317
-0.94350547	</s>	0
-3.64095	Weak	-0.071939245
-2.0683112	-	-0.14524579
-3.4485278	minded	-0.10183258
-3.2986717	dull	-0.12296949
-3.4485278	In	-0.07193921
-1.976542	a	-0.15349951
-3.4485278	critical	-0.071939245
-1.6121275	or	-0.09287055
-2.9563003	serious	-0.12833469
-3.1525707	condition	-0.12296949
-3.4485278	One	-0.0967053
-2.4066591	who	-0.12729526
-2.9563003	always	-0.071939245
-3.2986717	stay	-0.12296949
-1.8673985	in	-0.2345197
-1.8738806	the	-0.1108699
-3.1525707	house	-0.0967053
-3.64095	Slowfoot	-0.071939245
-1.9295459	,	-0.10986285
-3.4485278	habitually	-0.071939245
-3.4485278	sluggish	-0.15092486
-3.64095	Treacherous	-0.071939245
-3.64095	People	-0.071939245
-3.64095	charged	-0.071939245
-2.0483406	with	-0.19443256
-3.1525707	law	-0.071939245
-3.4485278	enforcement	-0.071939245
-1.2693812	;	-0.2257707
-3.64095	policemen	-0.071939245
-3.64095	detective	-0.071939245
-3.64095	etc	-0.071939245
-1.984894	.	-0.9871347
-3.64095	Drunk	-0.071939245
-3.64095	Rumor	-0.071939245
-3.2986717	gossip	-0.2980981
-3.64095	To	-0.071939245
-3.64095	forget	-0.071939245
-3.64095	Old	-0.07193921
-3.4485278	Already	-0.07193921
-3.64095	Changeable	-0.071939245
-2.4295213	as	-0.19647019
-1.6533413	to	-0.19369046
-3.64095	residence	-0.071939245
-3.64095	Repellent	-0.071939245
-3.64095	odor	-0.071939245
-1.6945374	of	-0.19000499
-3.64095	armpit	-0.071939245
-3.64095	intoxicated	-0.071939245
-3.64095	Stingy	-0.071939245
-3.4485278	miserly	-0.15092486
-2.8837564	weak	-0.10963884
-3.64095	kneed	-0.071939245
-3.64095	Destitute	-0.071939245
-2.8837564	poor	-0.10963884
-2.7672594	man	-0.13201907
-2.9563003	usually	-0.10183258
-2.8216133	referring	-0.7240668
-3.64095	laborer	-0.071939245
-3.64095	A	-0.071939245
-3.64095	bastard	-0.071939245
-2.8216133	an	-0.10183261
-3.64095	illegitimate	-0.071939245
-3.2986717	child	-0.12296949
-3.64095	Traitor	-0.071939245
-3.64095	smallpox	-0.071939245
-3.64095	Small	-0.071939245
-3.64095	children	-0.071939245
-3.64095	Brittle	-0.071939245
-3.64095	Long	-0.071939245
-3.64095	certain	-0.07193921
-3.1525707	place	-0.19316193
-2.0109591	for	-0.20173012
-3.64095	instance	-0.071939245
-3.1525707	girl	-0.071939245
-3.1525707	being	-0.07193921
-3.64095	courted	-0.071939245
-3.64095	overstaying	-0.071939245
-3.4485278	gambling	-0.07193921
-3.64095	den	-0.071939245
-3.64095	theater	-0.071939245
-3.64095	Not	-0.071939245
-3.2986717	real	-0.071939245
-3.1525707	wife	-0.10963884
-3.64095	concubine	-0.071939245
-3.64095	There	-0.071939245
-3.1525707	will	-0.15092486
-2.7672594	be	-0.07712865
-3.64095	bloodshed	-0.071939245
-3.64095	Dirty	-0.071939245
-3.64095	filthy	-0.071939245
-3.64095	Brave	-0.071939245
-3.4485278	courageous	-0.071939245
-3.4485278	fight	-0.071939245
-3.043441	quarrel	-0.19316193
-3.4485278	Referring	-0.15092486
-2.8837564	long	-0.071939245
-3.1525707	hair	-0.10963884
-3.64095	newcomer	-0.071939245
-2.9563003	has	-0.16254051
-3.1525707	just	-0.071939245
-3.64095	arrived	-0.071939245
-3.2986717	new	-0.07193921
-3.64095	pair	-0.071939245
-3.64095	shoes	-0.071939245
-3.64095	New	-0.071939245
-2.8837564	life	-0.1654936
-2.8837564	way	-0.33928996
-3.64095	Young	-0.071939245
-3.1525707	bachelor	-0.22960705
-3.64095	Very	-0.071939245
-3.2986717	boastful	-0.12296949
-3.64095	Afraid	-0.071939245
-3.64095	Prison	-0.071939245
-3.64095	Dirt	-0.071939245
-3.64095	stain	-0.071939245
-2.1588798	(	-0.19083574
-2.7189574	used	-0.22428218
-3.64095	figurative	-0.071939245
-3.4485278	sense	-0.071939245
-2.171654	)	-0.4649477
-3.64095	Thick	-0.071939245
-3.64095	skinned	-0.071939245
-3.4485278	shameless	-0.071939245
-3.64095	Thin	-0.071939245
-1.984894	and	-0.09293163
-3.64095	smooth	-0.071939245
-3.64095	skin	-0.071939245
-3.64095	Full	-0.071939245
-3.64095	exertion	-0.071939245
-3.4485278	effort	-0.12296949
-2.1848152	one	-0.35971993
-2.6359875	&apos;s	-0.07694869
-3.1525707	work	-0.12296949
-3.64095	exert	-0.071939245
-3.2986717	doing	-0.07193921
-3.64095	Lost	-0.071939245
-3.64095	False	-0.071939245
-3.2986717	news	-0.07193921
-3.64095	unreliable	-0.071939245
-3.64095	information	-0.071939245
-3.64095	Heavily	-0.071939245
-3.043441	debt	-0.19316193
-3.64095	Worthless	-0.071939245
-2.8837564	no	-0.071939245
-3.4485278	value	-0.07193921
-3.4485278	The	-0.071939245
-3.64095	guard	-0.071939245
-3.64095	steals	-0.071939245
-3.4485278	dishonest	-0.071939245
-3.4485278	custodian	-0.071939245
-3.1525707	does	-0.32651705
-2.3849404	not	-0.10348122
-3.2986717	know	-0.09307965
-3.64095	losses	-0.071939245
-3.2986717	under	-0.07193921
-2.5353217	his	-0.1089063
-3.1525707	care	-0.15092486
-3.64095	Too	-0.071939245
-3.4485278	many	-0.071939245
-3.4485278	debts	-0.15092486
-3.64095	Bad	-0.07193921
-3.4485278	record	-0.15092486
-3.64095	pitiful	-0.071939245
-3.1525707	state	-0.22960705
-3.64095	abandoned	-0.071939245
-3.64095	Dull	-0.071939245
-3.4485278	either	-0.071939245
-3.64095	understand	-0.071939245
-3.64095	unreasonably	-0.071939245
-3.64095	persistent	-0.071939245
-3.64095	Sweetheart	-0.071939245
-3.64095	employee	-0.071939245
-3.64095	Sturdy	-0.071939245
-3.2986717	working	-0.07193921
-3.64095	accustom	-0.071939245
-3.043441	body	-0.071939245
-3.4485278	Lazy	-0.071939245
-3.64095	Strong	-0.071939245
-3.64095	willed	-0.071939245
-3.4485278	brave	-0.07193921
-3.64095	Anything	-0.071939245
-2.8837564	means	-0.10528475
-3.64095	attaining	-0.071939245
-3.64095	success	-0.071939245
-3.1525707	useless	-0.10963884
-2.4792075	person	-0.3074453
-3.043441	cannot	-0.32651705
-3.64095	stand	-0.071939245
-2.6359875	on	-0.11465532
-3.4485278	own	-0.071939245
-3.64095	feet	-0.071939245
-3.64095	Well	-0.071939245
-3.2986717	do	-0.0967053
-3.1525707	intelligent	-0.10963884
-3.4485278	influential	-0.15092486
-3.64095	Giving	-0.071939245
-3.1525707	each	-0.4230368
-3.043441	other	-0.0903801
-3.4485278	attitude	-0.071939245
-3.64095	reciprocity	-0.071939245
-3.64095	Dowry	-0.071939245
-3.64095	Something	-0.071939245
-2.8837564	given	-0.09307965
-3.64095	shown	-0.071939245
-3.64095	please	-0.07193921
-2.3642564	someone	-0.39626908
-3.4485278	sleepy	-0.15092486
-3.64095	fool	-0.071939245
-3.4485278	make	-0.07193921
-3.64095	fun	-0.071939245
-3.64095	Being	-0.071939245
-3.64095	favored	-0.071939245
-3.64095	Forced	-0.071939245
-3.4485278	give	-0.07193921
-2.9563003	out	-0.071939245
-3.1525707	big	-0.071939245
-3.64095	amount	-0.071939245
-3.64095	Employed	-0.071939245
-3.2986717	foul	-0.2980981
-3.4485278	pass	-0.15092486
-3.4485278	examination	-0.15092486
-3.64095	Died	-0.07193921
-2.8837564	married	-0.15404633
-3.2986717	women	-0.07193921
-3.64095	birth	-0.071939245
-3.64095	Entrusted	-0.071939245
-3.64095	Believed	-0.071939245
-3.4485278	everything	-0.071939245
-3.1525707	said	-0.071939245
-2.4792075	by	-0.17367746
-3.64095	Cheated	-0.071939245
-3.64095	Searched	-0.071939245
-3.64095	intensively	-0.071939245
-3.64095	studied	-0.071939245
-3.2986717	carefully	-0.12296949
-3.64095	Similar	-0.071939245
-3.64095	alike	-0.071939245
-3.64095	Revealed	-0.071939245
-3.2986717	feelings	-0.12296949
-3.64095	Made	-0.07193921
-3.64095	personal	-0.071939245
-3.64095	decision	-0.071939245
-3.64095	Misfortune	-0.071939245
-3.4485278	mishap	-0.071939245
-3.64095	Laborer	-0.071939245
-3.64095	authorities	-0.071939245
-3.64095	Connivance	-0.071939245
-2.7672594	only	-0.13507798
-3.64095	Secrets	-0.071939245
-2.7189574	which	-0.10183258
-3.2986717	men	-0.07193921
-3.64095	exposed	-0.071939245
-3.2986717	inflict	-0.07193921
-3.64095	moral	-0.071939245
-3.2986717	destruction	-0.07193921
-3.4485278	party	-0.071939245
-3.64095	concerned	-0.071939245
-3.4485278	pregnant	-0.071939245
-3.1525707	mother	-0.10183258
-2.8216133	very	-0.08051984
-3.64095	soft	-0.071939245
-3.4485278	voice	-0.15092486
-3.64095	Name	-0.071939245
-3.64095	commonly	-0.071939245
-2.8837564	young	-0.10963884
-3.64095	bachelors	-0.071939245
-3.64095	By	-0.071939245
-3.2986717	nature	-0.12296949
-3.4485278	inborn	-0.071939245
-3.64095	Ordinary	-0.071939245
-3.4485278	common	-0.071939245
-3.2986717	expression	-0.12296949
-3.64095	Charitable	-0.071939245
-3.64095	generous	-0.071939245
-3.64095	Known	-0.071939245
-2.8837564	all	-0.0903801
-3.64095	Accomodating	-0.071939245
-3.64095	sympathetic	-0.071939245
-3.64095	Appearance	-0.071939245
-3.2986717	face	-0.2980981
-3.64095	praise	-0.071939245
-3.64095	self	-0.07193921
-3.64095	Life	-0.071939245
-3.64095	characterized	-0.071939245
-3.64095	uncertainty	-0.071939245
-3.64095	Courageous	-0.071939245
-3.4485278	constant	-0.071939245
-3.2986717	danger	-0.22960705
-3.64095	Easily	-0.07193921
-3.1525707	seen	-0.10963884
-3.4485278	stays	-0.15092486
-3.64095	permanently	-0.071939245
-3.64095	Superficial	-0.071939245
-3.64095	expressions	-0.071939245
-3.64095	flattering	-0.071939245
-2.8837564	words	-0.39728194
-3.64095	Socialite	-0.071939245
-3.64095	Ready	-0.071939245
-3.64095	spend	-0.071939245
-2.9563003	especially	-0.0967053
-3.2986717	friends	-0.071939245
-2.2573645	is	-0.14501077
-2.599777	good	-0.10070675
-3.4485278	salting	-0.15092486
-3.2986717	fish	-0.12296949
-3.64095	bagoong	-0.071939245
-3.2986717	because	-0.12296949
-3.64095	salted	-0.071939245
-3.64095	decay	-0.071939245
-2.8216133	easily	-0.10528475
-3.64095	follow	-0.071939245
-3.4485278	they	-0.071939245
-3.1525707	are	-0.071939245
-3.4485278	courting	-0.071939245
-3.64095	Failed	-0.071939245
-3.64095	Fought	-0.071939245
-3.4485278	against	-0.15092486
-3.1525707	strong	-0.071939245
-3.64095	powerful	-0.071939245
-3.64095	Worsening	-0.071939245
-3.1525707	physical	-0.10963884
-3.4485278	sickness	-0.071939245
-3.4485278	becoming	-0.07193921
-3.64095	Success	-0.071939245
-3.043441	short	-0.10183258
-3.64095	duration	-0.071939245
-3.64095	Prickly	-0.071939245
-3.64095	heat	-0.071939245
-3.64095	Works	-0.071939245
-3.4485278	pertaining	-0.15092486
-3.64095	literature	-0.071939245
-3.64095	creative	-0.071939245
-3.64095	art	-0.071939245
-3.64095	Child	-0.071939245
-3.64095	Dream	-0.071939245
-3.4485278	All	-0.071939245
-3.64095	Audible	-0.071939245
-3.64095	breathing	-0.071939245
-3.64095	grief	-0.071939245
-3.64095	heave	-0.071939245
-3.64095	sigh	-0.071939245
-3.64095	Always	-0.071939245
-3.4485278	following	-0.071939245
-3.64095	Same	-0.071939245
-1.9446532	&quot;	-0.27661186
-3.64095	malakas	-0.071939245
-2.5353217	ang	-0.10183261
-3.64095	loob	-0.071939245
-3.64095	Penniless	-0.071939245
-3.2986717	having	-0.10183258
-2.6754942	money	-0.27898508
-3.64095	bellied	-0.071939245
-3.64095	Skinny	-0.071939245
-3.4485278	Characteristic	-0.15092486
-3.64095	periodic	-0.071939245
-3.64095	manifestation	-0.071939245
-3.043441	ugly	-0.071939245
-3.1525707	mood	-0.15092486
-3.64095	Greedy	-0.071939245
-3.4485278	Pretending	-0.071939245
-2.6754942	but	-0.122894324
-3.64095	secretly	-0.071939245
-3.64095	harming	-0.071939245
-2.599777	others	-0.42361087
-3.4485278	traitor	-0.15092486
-3.64095	Usurers	-0.071939245
-3.64095	Thief	-0.071939245
-3.64095	robber	-0.071939245
-3.64095	Humbleness	-0.071939245
-3.2986717	can	-0.07193921
-2.9563003	go	-0.0967053
-3.64095	harmoniously	-0.071939245
-2.7189574	another	-0.14510092
-3.64095	Friend	-0.071939245
-3.64095	whom	-0.071939245
-3.4485278	rely	-0.071939245
-3.64095	helo	-0.071939245
-3.64095	kabatakan	-0.071939245
-3.64095	Heaven	-0.071939245
-3.4485278	where	-0.071939245
-3.64095	souls	-0.071939245
-2.9563003	after	-0.0967053
-2.9563003	death	-0.18066926
-3.64095	Common	-0.071939245
-3.64095	Wife	-0.071939245
-3.64095	companion	-0.071939245
-3.64095	few	-0.071939245
-3.4485278	belittled	-0.07193921
-3.64095	frequently	-0.071939245
-3.64095	victimized	-0.071939245
-3.64095	Goodness	-0.071939245
-2.8837564	character	-0.18066926
-3.64095	kind	-0.071939245
-3.64095	hearted	-0.071939245
-3.64095	Fitted	-0.071939245
-3.64095	suited	-0.071939245
-3.64095	Continously	-0.071939245
-3.4485278	looking	-0.071939245
-3.1525707	livelihood	-0.22960705
-3.2986717	same	-0.08662875
-3.64095	kadaupang	-0.071939245
-3.64095	palad	-0.071939245
-3.1525707	friend	-0.071939245
-3.4485278	name	-0.071939245
-2.9563003	often	-0.09307965
-3.4485278	embarassed	-0.071939245
-3.64095	looked	-0.071939245
-3.043441	down	-0.0967053
-3.4485278	upon	-0.07193921
-3.64095	accomplishes	-0.071939245
-3.1525707	nothing	-0.10963884
-3.64095	flight	-0.071939245
-2.8837564	time	-0.15494232
-3.64095	Fire	-0.071939245
-3.64095	conflagration	-0.071939245
-3.64095	calm	-0.071939245
-2.9563003	feeling	-0.12979144
-3.4485278	hunger	-0.15092486
-3.64095	prostitute	-0.071939245
-3.4485278	visitors	-0.071939245
-3.64095	parties	-0.071939245
-3.64095	gatherings	-0.071939245
-3.64095	uninvited	-0.071939245
-3.64095	nightly	-0.071939245
-3.64095	prayers	-0.071939245
-3.64095	dead.	-0.071939245
-3.64095	lasting	-0.071939245
-3.64095	ten	-0.071939245
-3.4485278	days	-0.071939245
-3.64095	Two	-0.071939245
-3.64095	destroying	-0.071939245
-3.4485278	reputation	-0.071939245
-2.9563003	when	-0.07193921
-3.64095	turns	-0.071939245
-3.4485278	back	-0.071939245
-3.64095	Foolish	-0.071939245
-3.4485278	mentally	-0.071939245
-3.64095	unbalanced	-0.071939245
-3.64095	Strick	-0.071939245
-3.64095	unmerciful	-0.071939245
-3.1525707	punishment	-0.071939245
-3.64095	government	-0.071939245
-3.64095	breakers	-0.071939245
-3.4485278	Japanese	-0.071939245
-3.64095	Power	-0.071939245
-3.64095	Help	-0.071939245
-3.2986717	coming	-0.12296949
-2.6754942	from	-0.122894324
-3.4485278	whose	-0.07193921
-3.64095	identity	-0.071939245
-3.64095	concealed	-0.071939245
-3.1525707	if	-0.10963884
-3.043441	act	-0.071939245
-3.64095	Death	-0.07193921
-3.043441	old	-0.13393663
-3.4485278	age	-0.15092486
-3.4485278	jobless	-0.15092486
-3.64095	An	-0.071939245
-3.64095	intimate	-0.071939245
-3.64095	confidant	-0.071939245
-3.64095	Rich	-0.07193921
-2.9563003	wealthy	-0.40569833
-3.2986717	meaning	-0.071939245
-3.64095	bunga	-0.071939245
-3.043441	ng	-0.10183258
-3.64095	pag	-0.071939245
-3.64095	ibig	-0.071939245
-3.64095	Husband	-0.071939245
-3.64095	Suited	-0.071939245
-3.64095	tight	-0.071939245
-3.64095	tenacious	-0.071939245
-3.64095	hold	-0.071939245
-3.64095	kapit	-0.071939245
-3.64095	bayawak	-0.071939245
-3.64095	Unfortunate	-0.071939245
-3.64095	Sister	-0.071939245
-3.64095	Brother	-0.071939245
-3.64095	Relation	-0.071939245
-3.64095	relation	-0.071939245
-3.64095	fellowmen	-0.071939245
-3.4485278	husband	-0.12296949
-3.64095	Does	-0.071939245
-3.4485278	speak	-0.071939245
-3.64095	clearly	-0.071939245
-3.64095	hungry	-0.071939245
-3.64095	Fading	-0.071939245
-2.9563003	already	-0.071939245
-3.4485278	more	-0.07193921
-3.4485278	progress	-0.15092486
-3.64095	line	-0.071939245
-3.4485278	duty	-0.071939245
-3.64095	Burned	-0.071939245
-3.64095	Suddenly	-0.071939245
-3.64095	disappeared	-0.071939245
-3.64095	Getting	-0.071939245
-3.4485278	tired	-0.07193921
-3.64095	hearing	-0.071939245
-2.8216133	thing	-0.099028364
-3.2986717	over	-0.07193921
-3.4485278	again	-0.15092486
-3.4485278	moment	-0.071939245
-3.64095	second	-0.071939245
-3.2986717	sharp	-0.07193921
-3.64095	nails	-0.071939245
-3.1525707	similar	-0.10963884
-3.64095	those	-0.071939245
-3.64095	hawk	-0.071939245
-3.64095	Financially	-0.071939245
-3.64095	need	-0.071939245
-3.64095	unrealiable	-0.071939245
-3.64095	Unbalanced	-0.071939245
-2.8837564	mind	-0.21842107
-3.4485278	insane	-0.071939245
-3.4485278	kulang	-0.07193921
-3.64095	See	-0.071939245
-3.64095	kalam	-0.071939245
-3.64095	tiyan	-0.071939245
-3.64095	Conversing	-0.071939245
-3.1525707	talking	-0.19316193
-3.64095	Fierce	-0.071939245
-3.64095	Is	-0.071939245
-3.64095	afaraid	-0.071939245
-3.64095	bullet	-0.071939245
-3.64095	Submissive	-0.071939245
-3.4485278	obedient	-0.071939245
-3.64095	elder	-0.071939245
-3.64095	member	-0.071939245
-3.2986717	family	-0.22960705
-3.64095	Treating	-0.071939245
-3.1525707	well	-0.19316193
-3.64095	Was	-0.071939245
-3.64095	forced	-0.071939245
-3.64095	buy	-0.071939245
-3.4485278	even	-0.071939245
-3.2986717	price	-0.07193921
-2.8837564	was	-0.071939245
-3.4485278	sky	-0.15092486
-3.64095	high	-0.071939245
-3.4485278	fooled	-0.15092486
-3.64095	made	-0.071939245
-3.64095	believe	-0.071939245
-3.64095	try	-0.071939245
-3.64095	ways	-0.071939245
-3.4485278	hopeless	-0.071939245
-3.64095	situation	-0.071939245
-3.4485278	No	-0.071939245
-3.2986717	hope	-0.07193921
-3.4485278	born	-0.15092486
-3.64095	Hating	-0.071939245
-3.2986717	angered	-0.07193921
-3.64095	Doing	-0.07193921
-3.64095	voluntarily	-0.071939245
-2.9563003	small	-0.07193921
-3.64095	Disillusionment	-0.071939245
-3.64095	Everything	-0.071939245
-3.64095	alright	-0.071939245
-3.64095	fixed	-0.071939245
-2.8837564	up	-0.23740728
-3.64095	set	-0.071939245
-3.64095	fetch	-0.071939245
-3.1525707	take	-0.0967053
-3.2986717	force	-0.07193921
-2.5663545	bad	-0.09163781
-3.1525707	luck	-0.15092486
-3.2986717	misfortune	-0.12296949
-3.64095	Undiscriminating	-0.071939245
-3.4485278	delicate	-0.071939245
-3.64095	taste	-0.071939245
-3.64095	think	-0.071939245
-3.4485278	seriously	-0.071939245
-3.2986717	consider	-0.07193921
-2.5063589	something	-0.1473485
-3.4485278	whole	-0.15092486
-3.64095	heartedly	-0.071939245
-3.64095	harmony	-0.071939245
-3.64095	Fulency	-0.071939245
-3.64095	eloquence	-0.071939245
-3.64095	Intelligent	-0.07193921
-3.64095	Cannot	-0.071939245
-3.4485278	find	-0.071939245
-3.64095	expressl	-0.071939245
-3.64095	described	-0.071939245
-3.64095	reached	-0.071939245
-3.64095	ine	-0.071939245
-3.4485278	sight	-0.071939245
-2.8837564	due	-0.6660749
-3.64095	distance	-0.071939245
-3.64095	area	-0.071939245
-3.64095	satisfied	-0.071939245
-3.043441	food	-0.0967053
-3.64095	eaten	-0.071939245
-3.64095	meek	-0.071939245
-3.2986717	quiet	-0.07193921
-3.64095	gentle	-0.071939245
-3.64095	belonging	-0.071939245
-3.4485278	Would	-0.15092486
-3.64095	yield	-0.071939245
-3.4485278	verbal	-0.071939245
-3.64095	clash	-0.071939245
-3.64095	tongued	-0.071939245
-3.64095	wide	-0.071939245
-3.64095	tract	-0.071939245
-3.4485278	land	-0.071939245
-3.4485278	dressed	-0.07193921
-3.64095	Quarelling	-0.071939245
-3.4485278	using	-0.071939245
-3.2986717	tongue	-0.12296949
-3.64095	weapon	-0.071939245
-3.64095	Have	-0.071939245
-3.64095	met	-0.071939245
-3.4485278	quite	-0.15092486
-3.64095	Became	-0.07193921
-3.4485278	sick	-0.071939245
-3.4485278	fell	-0.071939245
-3.2986717	ill	-0.12296949
-3.64095	Royal	-0.071939245
-3.4485278	blood	-0.15092486
-3.64095	dark	-0.071939245
-3.64095	complexion	-0.071939245
-3.4485278	mental	-0.071939245
-3.64095	suffering	-0.071939245
-3.64095	Main	-0.071939245
-3.2986717	support	-0.07193921
-2.9563003	parents	-0.07193921
-3.2986717	their	-0.07193921
-3.64095	Will	-0.071939245
-3.64095	lead	-0.071939245
-3.64095	misrable	-0.071939245
-3.64095	samll	-0.071939245
-3.2986717	compared	-0.12296949
-3.64095	Spend	-0.071939245
-3.64095	heavily	-0.071939245
-3.64095	Prepare	-0.071939245
-3.64095	cooking	-0.071939245
-3.64095	Sympathetic	-0.071939245
-3.043441	beautiful	-0.071939245
-3.4485278	nice	-0.071939245
-3.64095	appreciable	-0.071939245
-3.64095	admired	-0.071939245
-3.64095	loved	-0.071939245
-3.64095	Fate	-0.071939245
-3.64095	destiny	-0.071939245
-3.64095	Product	-0.071939245
-3.64095	careless	-0.071939245
-3.64095	result	-0.071939245
-3.64095	indiscriminate	-0.071939245
-3.2986717	speech	-0.07193921
-3.64095	efforts	-0.071939245
-3.64095	recall	-0.071939245
-3.64095	forgotten	-0.071939245
-3.64095	didnot	-0.071939245
-3.043441	really	-0.071939245
-3.4485278	happen	-0.071939245
-3.64095	Making	-0.071939245
-3.64095	opponent	-0.071939245
-3.4485278	surrender	-0.15092486
-3.2986717	get	-0.07193921
-3.64095	haharap	-0.071939245
-3.043441	sa	-0.071939245
-3.64095	dambana	-0.071939245
-3.64095	Both	-0.071939245
-3.1525707	have	-0.09307965
-3.64095	difference	-0.071939245
-3.64095	cost	-0.071939245
-3.64095	costly	-0.071939245
-3.4485278	afraid	-0.071939245
-3.64095	die	-0.071939245
-3.4485278	kill	-0.07193921
-2.8837564	father	-0.11530197
-3.64095	Mixed	-0.071939245
-3.4485278	together	-0.071939245
-2.8216133	without	-0.0903801
-3.4485278	order	-0.071939245
-3.64095	Relief	-0.071939245
-3.64095	Vagabond	-0.071939245
-3.64095	God	-0.071939245
-3.4485278	indirect	-0.071939245
-3.64095	commenting	-0.071939245
-3.64095	attack	-0.071939245
-3.64095	Inclined	-0.071939245
-3.2986717	this	-0.12296949
-3.2986717	refers	-0.2980981
-3.4485278	position	-0.071939245
-3.64095	setting	-0.071939245
-3.64095	sun	-0.071939245
-3.64095	Fortune	-0.071939245
-3.64095	acquired	-0.071939245
-3.1525707	through	-0.071939245
-3.2986717	things	-0.07193921
-3.1525707	done	-0.10183258
-3.4485278	This	-0.071939245
-3.4485278	use	-0.071939245
-3.1525707	immediately	-0.22960705
-3.64095	liberation	-0.071939245
-3.64095	Manila	-0.071939245
-3.64095	native	-0.071939245
-3.4485278	girls	-0.07193921
-3.64095	befriended	-0.071939245
-3.4485278	went	-0.071939245
-3.2986717	around	-0.07193921
-3.64095	American	-0.071939245
-3.4485278	soldiers	-0.071939245
-3.64095	belief	-0.071939245
-2.3642564	that	-0.17257538
-3.64095	Americans	-0.071939245
-3.4485278	would	-0.071939245
-3.4485278	marry	-0.071939245
-3.4485278	them	-0.071939245
-3.64095	America	-0.071939245
-3.64095	took	-0.071939245
-3.64095	pier	-0.071939245
-3.64095	When	-0.071939245
-3.64095	boat	-0.071939245
-3.64095	leaves	-0.071939245
-3.2986717	left	-0.07193921
-3.64095	behind	-0.071939245
-3.64095	Till	-0.071939245
-3.64095	grave	-0.071939245
-3.64095	watch	-0.071939245
-3.64095	rice	-0.071939245
-3.64095	cooked	-0.071939245
-3.64095	Exceedingly	-0.071939245
-3.1525707	talkative	-0.13393663
-3.64095	incomparably	-0.071939245
-3.2986717	bright	-0.07193921
-3.64095	whatever	-0.071939245
-3.64095	desired	-0.071939245
-3.64095	whether	-0.071939245
-3.64095	fastidiousl	-0.071939245
-3.1525707	hard	-0.071939245
-3.2986717	rich	-0.07193921
-3.64095	Accustomed	-0.071939245
-3.64095	particular	-0.07193921
-3.64095	Obeying	-0.071939245
-2.9563003	any	-0.07193921
-3.64095	objection	-0.071939245
-3.2986717	anything	-0.07193921
-2.8216133	he	-0.0903801
-3.64095	asked	-0.071939245
-3.64095	orperform	-0.071939245
-3.64095	commanding	-0.071939245
-3.1525707	him	-0.071939245
-3.2986717	true	-0.07193921
-3.4485278	relative	-0.071939245
-3.64095	Tightwad	-0.071939245
-3.4485278	selfish	-0.071939245
-3.64095	Confused	-0.071939245
-3.64095	now	-0.071939245
-2.7189574	what	-0.1534771
-3.64095	With	-0.071939245
-3.1525707	slight	-0.10183258
-3.4485278	ailment	-0.071939245
-3.2986717	fever	-0.2980981
-3.64095	runs	-0.071939245
-3.64095	holes	-0.071939245
-3.64095	needing	-0.07193921
-3.64095	sewing	-0.071939245
-3.64095	patching	-0.071939245
-3.64095	cut	-0.071939245
-3.64095	dirty	-0.07193921
-3.64095	washing	-0.071939245
-3.64095	clothes	-0.071939245
-3.64095	easy	-0.071939245
-3.4485278	enough	-0.071939245
-3.1525707	pay	-0.10183258
-3.64095	Really	-0.071939245
-3.64095	difficult	-0.071939245
-3.2986717	job	-0.12296949
-3.64095	Could	-0.071939245
-3.64095	accuse	-0.071939245
-3.64095	ingratitude	-0.071939245
-3.64095	Unaacceptable	-0.071939245
-3.64095	conscience	-0.071939245
-3.64095	despised	-0.071939245
-3.2986717	insulted	-0.12296949
-3.64095	want	-0.071939245
-3.2986717	stop	-0.13393663
-3.2986717	see	-0.07193921
-3.2986717	reason	-0.12296949
-3.4485278	feel	-0.071939245
-3.64095	ashamed	-0.071939245
-3.64095	kow	-0.071939245
-3.4485278	fear	-0.071939245
-3.64095	Did	-0.071939245
-3.64095	listen	-0.071939245
-3.64095	evidence	-0.071939245
-3.64095	near	-0.071939245
-3.64095	going	-0.071939245
-3.64095	Eloped	-0.071939245
-3.64095	knows	-0.071939245
-3.64095	better	-0.071939245
-3.4485278	than	-0.15092486
-3.64095	talked	-0.071939245
-3.64095	Dying	-0.071939245
-3.64095	Sudden	-0.071939245
-3.64095	growth	-0.071939245
-3.64095	consent	-0.071939245
-3.64095	agree	-0.071939245
-3.64095	Slow	-0.071939245
-3.64095	foot	-0.071939245
-3.64095	returning	-0.071939245
-3.64095	Talent	-0.071939245
-3.64095	borrowed	-0.071939245
-3.64095	Honor	-0.071939245
-3.64095	maiden	-0.071939245
-3.64095	unmarried	-0.071939245
-3.64095	Far	-0.071939245
-3.4485278	truth	-0.07193921
-3.64095	untrue	-0.071939245
-3.64095	Grave	-0.071939245
-3.64095	Good	-0.07193921
-3.64095	Godsend	-0.071939245
-3.64095	Worshipping	-0.071939245
-3.64095	adoring	-0.071939245
-3.64095	Looking	-0.071939245
-3.4485278	trouble	-0.071939245
-3.64095	challenging	-0.071939245
-3.64095	destructive	-0.071939245
-3.64095	Trying	-0.071939245
-3.64095	spmething	-0.071939245
-3.64095	capable	-0.071939245
-3.64095	Winning	-0.071939245
-3.4485278	favor	-0.07193921
-3.64095	making	-0.071939245
-3.64095	leading	-0.071939245
-3.64095	Self	-0.071939245
-3.2986717	control	-0.07193921
-3.64095	perform	-0.071939245
-3.64095	task	-0.071939245
-3.64095	World	-0.071939245
-3.64095	embarass	-0.071939245
-3.64095	boastfulness	-0.071939245
-3.64095	blame	-0.071939245
-3.64095	fault	-0.071939245
-3.64095	regain	-0.071939245
-3.2986717	lost	-0.071939245
-3.4485278	honor	-0.071939245
-3.64095	ilibing	-0.071939245
-3.64095	limot	-0.071939245
-3.64095	Foreign	-0.071939245
-3.64095	Undecided	-0.071939245
-3.64095	embrace	-0.071939245
-3.64095	Prostitute	-0.071939245
-2.7189574	woman	-0.15287367
-3.64095	Bachelor	-0.071939245
-3.64095	unfortunate	-0.071939245
-3.64095	ibako	-0.071939245
-3.64095	trust	-0.071939245
-3.64095	completely	-0.071939245
-3.64095	concentrate	-0.071939245
-3.64095	expose	-0.071939245
-3.64095	secret	-0.071939245
-3.64095	press	-0.071939245
-3.64095	Extreme	-0.071939245
-3.2986717	happiness	-0.12296949
-3.64095	incomparable	-0.071939245
-3.64095	Third	-0.071939245
-3.043441	love	-0.0967053
-3.4485278	affair	-0.071939245
-3.64095	remember	-0.071939245
-3.64095	assiduously	-0.071939245
-3.64095	patiently	-0.071939245
-3.2986717	help	-0.07193921
-3.64095	Met	-0.071939245
-3.4485278	too	-0.15092486
-3.1525707	much	-0.071939245
-3.64095	ego	-0.071939245
-3.64095	invite	-0.071939245
-3.2986717	eat	-0.07193921
-3.043441	her	-0.07193921
-3.64095	expenses	-0.071939245
-3.64095	ikuros	-0.071939245
-3.64095	noo	-0.071939245
-3.64095	Do	-0.071939245
-3.64095	count	-0.071939245
-3.2986717	persons	-0.07193921
-3.4485278	habits	-0.071939245
-3.4485278	customs	-0.071939245
-3.1525707	cause	-0.10963884
-3.64095	stubbornness	-0.071939245
-3.64095	add	-0.071939245
-3.64095	numerous	-0.071939245
-3.64095	problems	-0.071939245
-3.64095	ibilad	-0.071939245
-3.64095	puri	-0.071939245
-3.64095	Mother	-0.071939245
-3.64095	Debt	-0.071939245
-3.64095	paid	-0.071939245
-3.4485278	anymore	-0.15092486
-3.64095	peace	-0.071939245
-3.64095	Losing	-0.071939245
-3.64095	Nervous	-0.071939245
-3.64095	Had	-0.07193921
-3.4485278	been	-0.071939245
-3.4485278	kept	-0.071939245
-3.64095	Hot	-0.071939245
-3.64095	hit	-0.071939245
-3.4485278	fists	-0.15092486
-3.64095	saved	-0.071939245
-3.64095	cured	-0.071939245
-3.64095	illness	-0.071939245
-3.1525707	taken	-0.22960705
-3.4485278	income	-0.071939245
-3.64095	inagaw	-0.071939245
-3.64095	buhay	-0.071939245
-3.64095	Gave	-0.071939245
-3.2986717	responsibility	-0.12296949
-3.4485278	show	-0.071939245
-3.64095	Cause	-0.07193921
-3.4485278	loss	-0.071939245
-3.64095	temper	-0.071939245
-3.64095	cheat	-0.071939245
-3.2986717	complete	-0.07193921
-2.8216133	anger	-0.23866123
-3.64095	hinahabol	-0.071939245
-3.64095	gunting	-0.071939245
-3.64095	Prayed	-0.071939245
-3.64095	Foreseeing	-0.071939245
-3.64095	victory	-0.071939245
-3.64095	fighting	-0.071939245
-3.64095	Angry	-0.071939245
-3.64095	pouting	-0.071939245
-3.4485278	meals	-0.071939245
-3.64095	Boastfulness	-0.071939245
-3.64095	Born	-0.071939245
-3.64095	push	-0.071939245
-3.2986717	put	-0.071939245
-3.64095	into	-0.071939245
-3.64095	fulfill	-0.071939245
-3.64095	fail	-0.071939245
-3.64095	Driven	-0.071939245
-3.64095	temptation	-0.071939245
-3.64095	Avoiding	-0.071939245
-3.4485278	conversation	-0.071939245
-3.2986717	between	-0.12296949
-3.1525707	two	-0.10183258
-3.64095	lovers	-0.071939245
-3.4485278	during	-0.071939245
-3.64095	More	-0.071939245
-3.64095	less	-0.071939245
-3.64095	Outside	-0.071939245
-3.64095	jurisdiction	-0.071939245
-3.64095	lady	-0.071939245
-3.64095	eloped	-0.071939245
-3.64095	later	-0.071939245
-3.64095	returned	-0.071939245
-3.64095	walo	-0.071939245
-3.64095	labis	-0.071939245
-3.64095	pito	-0.071939245
-3.64095	walks	-0.071939245
-3.64095	sluggishly	-0.071939245
-3.64095	lakad	-0.071939245
-3.64095	pagong	-0.071939245
-3.64095	Courageously	-0.071939245
-3.64095	bravely	-0.071939245
-3.64095	High	-0.071939245
-3.64095	temperature	-0.071939245
-3.64095	sever	-0.071939245
-3.64095	Lacking	-0.071939245
-3.64095	manners	-0.071939245
-3.64095	advice	-0.071939245
-3.64095	Pampered	-0.071939245
-3.64095	grandchild	-0.071939245
-3.64095	anniversary	-0.071939245
-3.64095	gone	-0.071939245
-3.4485278	broke	-0.071939245
-3.64095	Possessing	-0.071939245
-3.2986717	intelligence	-0.12296949
-3.043441	ability	-0.20176542
-3.64095	Meat	-0.071939245
-3.64095	butchered	-0.071939245
-3.2986717	animals	-0.071939245
-3.64095	inside	-0.071939245
-3.64095	organs	-0.071939245
-3.64095	intestines	-0.071939245
-3.64095	liver	-0.071939245
-3.64095	Kidney	-0.071939245
-3.64095	Fruit	-0.071939245
-3.64095	grow	-0.071939245
-3.64095	ground	-0.071939245
-3.4485278	home	-0.071939245
-3.4485278	neighbors	-0.071939245
-3.64095	Daughter	-0.071939245
-3.64095	son	-0.071939245
-3.64095	subjected	-0.071939245
-3.64095	beating	-0.071939245
-3.64095	pinching	-0.071939245
-3.64095	forms	-0.071939245
-3.64095	Difficulties	-0.071939245
-3.64095	sacrifices	-0.071939245
-3.64095	disgraced	-0.071939245
-3.64095	Applies	-0.071939245
-3.4485278	couple	-0.071939245
-3.64095	Rivals	-0.071939245
-3.4485278	court	-0.07193921
-3.64095	win	-0.07193921
-3.64095	sympathy	-0.071939245
-3.2986717	characteristics	-0.07193921
-3.4485278	extremely	-0.071939245
-3.4485278	opposite	-0.071939245
-3.64095	Complete	-0.071939245
-3.64095	Selfish	-0.071939245
-3.4485278	stingy	-0.15092486
-3.64095	disappointed	-0.071939245
-3.64095	Manner	-0.071939245
-3.64095	offering	-0.071939245
-3.4485278	gifts	-0.071939245
-3.64095	Courting	-0.071939245
-3.2986717	eyes	-0.071939245
-3.1525707	bashful	-0.071939245
-3.64095	Taking	-0.071939245
-3.64095	bath	-0.071939245
-3.64095	wetting	-0.071939245
-3.4485278	head	-0.071939245
-3.1525707	past	-0.071939245
-3.64095	with-	-0.071939245
-3.4485278	walang	-0.12296949
-3.64095	lingon	-0.071939245
-3.64095	—	-0.071939245
-3.64095	likod	-0.071939245
-3.64095	regard	-0.071939245
-3.64095	Came	-0.071939245
-3.64095	royal	-0.071939245
-3.64095	Popular	-0.071939245
-3.64095	known	-0.071939245
-3.64095	mournful	-0.071939245
-3.64095	sad	-0.071939245
-3.64095	roll	-0.071939245
-3.64095	mat	-0.071939245
-3.64095	Worried	-0.071939245
-3.64095	badly	-0.071939245
-3.64095	disturbed	-0.071939245
-3.4485278	longer	-0.071939245
-3.64095	heard	-0.071939245
-3.64095	away	-0.071939245
-3.64095	topic	-0.071939245
-3.64095	Hurrying	-0.071939245
-3.64095	Doubtful	-0.071939245
-3.64095	uncertain	-0.071939245
-3.64095	behaved	-0.071939245
-3.64095	shed	-0.071939245
-3.64095	tears	-0.071939245
-3.64095	Humble	-0.071939245
-3.4485278	proud	-0.15092486
-3.64095	rats	-0.071939245
-3.64095	Haughtily	-0.071939245
-3.1525707	silent	-0.15092486
-3.4485278	seldom	-0.071939245
-3.64095	works	-0.071939245
-3.2986717	hands	-0.07193921
-3.64095	caretaker	-0.07193921
-3.4485278	Whatever	-0.15092486
-3.64095	plant	-0.071939245
-3.64095	animal	-0.071939245
-3.64095	grows	-0.071939245
-3.4485278	slowly	-0.071939245
-3.4485278	dies	-0.071939245
-3.64095	Indisposed	-0.071939245
-3.64095	cold	-0.071939245
-3.4485278	sadness	-0.12296949
-3.4485278	dislike	-0.071939245
-3.64095	antipathy	-0.071939245
-3.64095	disagreement	-0.071939245
-3.64095	silently	-0.071939245
-3.64095	accord	-0.071939245
-3.64095	Hard	-0.071939245
-3.64095	earn	-0.071939245
-3.64095	Powerful	-0.071939245
-3.64095	headache	-0.071939245
-3.4485278	along	-0.071939245
-3.64095	Quick	-0.071939245
-3.64095	stealing	-0.071939245
-3.2986717	happy	-0.07193921
-3.64095	prosperous	-0.071939245
-3.64095	Happy	-0.071939245
-3.64095	glorious	-0.071939245
-3.64095	Tallkative	-0.071939245
-3.64095	termagant	-0.071939245
-3.64095	Healthy	-0.071939245
-3.64095	Fluent	-0.071939245
-3.64095	talker	-0.071939245
-3.4485278	wise	-0.071939245
-3.043441	people	-0.0967053
-3.64095	grand	-0.071939245
-3.64095	That	-0.071939245
-3.64095	gives	-0.071939245
-3.4485278	extreme	-0.15092486
-3.64095	gried	-0.071939245
-3.4485278	become	-0.071939245
-3.64095	Beautiful	-0.071939245
-3.64095	enchanting	-0.071939245
-3.64095	Shameless	-0.071939245
-3.64095	insensitive	-0.071939245
-3.64095	Industrious	-0.071939245
-3.64095	hardworkin	-0.071939245
-3.64095	makaisang	-0.071939245
-3.64095	puso	-0.071939245
-3.4485278	thief	-0.071939245
-3.4485278	synonymous	-0.15092486
-3.64095	malikot	-0.071939245
-3.64095	kamay	-0.071939245
-3.64095	Harmfully	-0.071939245
-3.4485278	gossiper	-0.15092486
-3.64095	far	-0.071939245
-3.64095	sighted	-0.071939245
-3.64095	view	-0.071939245
-3.4485278	irritated	-0.071939245
-3.64095	greets	-0.071939245
-3.4485278	friendly	-0.071939245
-3.64095	habit	-0.071939245
-3.2986717	hand	-0.10963884
-3.64095	strike	-0.071939245
-3.64095	beat	-0.071939245
-3.64095	slap	-0.071939245
-3.4485278	first	-0.071939245
-3.64095	buyer	-0.071939245
-3.64095	lucky	-0.071939245
-3.64095	buwena	-0.071939245
-3.64095	mano	-0.071939245
-3.4485278	speaker	-0.071939245
-3.64095	orator	-0.071939245
-3.64095	goo	-0.071939245
-3.64095	shrimps	-0.071939245
-3.64095	bulok	-0.071939245
-3.64095	possesses	-0.071939245
-3.64095	special	-0.071939245
-3.64095	talent	-0.071939245
-3.64095	Kind	-0.071939245
-3.64095	charitable	-0.071939245
-3.64095	helpful	-0.071939245
-3.64095	grown	-0.071939245
-3.4485278	daughters	-0.15092486
-3.64095	It	-0.071939245
-3.64095	these	-0.071939245
-3.1525707	should	-0.19316193
-3.4485278	careful	-0.071939245
-3.64095	giving	-0.071939245
-3.4485278	freedom	-0.15092486
-3.64095	labor	-0.071939245
-3.64095	realize	-0.071939245
-3.4485278	boast	-0.071939245
-3.64095	brag	-0.071939245
-3.64095	reveal	-0.071939245
-3.64095	feels	-0.071939245
-3.4485278	tell	-0.071939245
-3.4485278	likes	-0.071939245
-3.64095	dislikes	-0.071939245
-3.2986717	lazy	-0.07193921
-3.64095	disagree	-0.071939245
-3.64095	shoulder	-0.071939245
-3.1525707	pity	-0.07193921
-3.64095	sympathize	-0.071939245
-3.4485278	allow	-0.071939245
-3.64095	circumstance	-0.071939245
-3.64095	let	-0.071939245
-3.4485278	could	-0.07193921
-3.64095	sit	-0.071939245
-3.64095	thinking	-0.071939245
-3.2986717	about	-0.07193921
-3.64095	problem	-0.071939245
-3.64095	suffer	-0.071939245
-3.4485278	difficulties	-0.071939245
-3.64095	oneself	-0.071939245
-3.64095	ponder	-0.071939245
-3.64095	weave	-0.071939245
-3.4485278	false	-0.071939245
-3.64095	yarns	-0.071939245
-3.64095	relate	-0.071939245
-3.64095	lies	-0.071939245
-3.64095	brought	-0.071939245
-3.64095	altar	-0.071939245
-3.2986717	attention	-0.12296949
-3.64095	fondness	-0.071939245
-3.64095	Assume	-0.071939245
-3.4485278	full	-0.071939245
-3.4485278	may	-0.071939245
-3.64095	consequence	-0.071939245
-3.64095	gain	-0.071939245
-3.043441	&apos;	-0.32651705
-3.64095	s	-0.071939245
-3.4485278	superior	-0.071939245
-3.4485278	experience	-0.071939245
-3.2986717	great	-0.07193921
-3.64095	sorrow	-0.071939245
-3.64095	pleasure	-0.071939245
-3.4485278	gossiping	-0.071939245
-3.64095	receiving	-0.071939245
-3.64095	serve	-0.071939245
-3.64095	household	-0.071939245
-3.64095	payment	-0.071939245
-3.64095	late	-0.071939245
-2.8216133	at	-0.14365707
-3.4485278	night	-0.10963884
-3.64095	study	-0.071939245
-3.64095	finish	-0.071939245
-3.64095	course	-0.071939245
-3.64095	career	-0.071939245
-3.64095	remain	-0.071939245
-3.2986717	word	-0.071939245
-3.4485278	promise	-0.15092486
-3.64095	appreciate	-0.071939245
-3.64095	egostic	-0.071939245
-3.64095	idle	-0.071939245
-3.64095	Deceitful	-0.071939245
-3.64095	tricky	-0.071939245
-3.4485278	lie	-0.15092486
-3.64095	wants	-0.071939245
-3.64095	clean	-0.071939245
-3.64095	plates	-0.071939245
-3.64095	table	-0.071939245
-3.64095	utensils	-0.071939245
-3.4485278	meal	-0.15092486
-3.4485278	keep	-0.071939245
-3.64095	unmindful	-0.071939245
-3.64095	Fond	-0.071939245
-3.64095	joining	-0.071939245
-3.64095	conversations	-0.071939245
-3.64095	she	-0.071939245
-3.64095	part	-0.071939245
-3.64095	Spoiled	-0.071939245
-3.64095	asks	-0.071939245
-3.4485278	inclined	-0.15092486
-3.4485278	stealer	-0.071939245
-3.64095	adept	-0.071939245
-3.4485278	getting	-0.071939245
-3.64095	Gentleman	-0.071939245
-3.64095	respectable	-0.071939245
-3.64095	Boastful	-0.071939245
-3.64095	Hungry	-0.071939245
-3.4485278	little	-0.07193921
-3.4485278	influence	-0.15092486
-3.64095	Coward	-0.071939245
-3.64095	weakness	-0.071939245
-3.4485278	it	-0.071939245
-3.4485278	also	-0.071939245
-3.4485278	refer	-0.15092486
-3.64095	unstable	-0.071939245
-3.64095	financial	-0.071939245
-3.64095	low	-0.071939245
-3.64095	feeble	-0.071939245
-3.64095	Modest	-0.071939245
-3.64095	refined	-0.071939245
-3.64095	coquettish	-0.071939245
-3.64095	flapper	-0.071939245
-3.64095	fact	-0.071939245
-3.64095	come	-0.07193921
-3.64095	regularly	-0.071939245
-3.64095	laggard	-0.071939245
-3.64095	plants	-0.071939245
-3.64095	bring	-0.071939245
-3.64095	health	-0.071939245
-3.64095	headed	-0.071939245
-3.4485278	gets	-0.15092486
-3.043441	angry	-0.12296949
-3.64095	spent	-0.071939245
-3.64095	dangerous	-0.071939245
-3.64095	possession	-0.071939245
-3.64095	Money	-0.071939245
-3.64095	necessities	-0.071939245
-3.64095	expecially	-0.071939245
-3.64095	intended	-0.071939245
-3.64095	Food	-0.071939245
-3.64095	hideous	-0.071939245
-3.64095	rid	-0.071939245
-3.64095	maitim	-0.071939245
-3.64095	budhi	-0.071939245
-3.4485278	plan	-0.071939245
-3.4485278	revenge	-0.071939245
-3.64095	deadly	-0.071939245
-3.64095	Unripe	-0.071939245
-3.64095	mango	-0.071939245
-3.64095	fruit	-0.071939245
-3.64095	simpleton	-0.071939245
-3.64095	antonym	-0.071939245
-3.64095	mahina	-0.071939245
-3.4485278	able	-0.15092486
-3.2986717	live	-0.2980981
-3.64095	independently	-0.071939245
-3.64095	mahaba	-0.071939245
-3.64095	buntot	-0.071939245
-3.64095	hat	-0.071939245
-3.64095	Late	-0.071939245
-3.64095	midnight	-0.071939245
-3.64095	witty	-0.071939245
-3.64095	considerate	-0.071939245
-3.64095	persuaded	-0.071939245
-3.64095	Deaf	-0.071939245
-3.64095	Influential	-0.071939245
-3.64095	Soundly	-0.071939245
-3.4485278	asleep	-0.071939245
-3.64095	Iain	-0.071939245
-3.64095	Sensibility	-0.071939245
-3.64095	recognize	-0.071939245
-3.64095	Walang	-0.071939245
-3.64095	malay	-0.071939245
-3.64095	tao	-0.071939245
-3.64095	unconsciousness	-0.071939245
-3.64095	irascible	-0.071939245
-3.64095	Free	-0.071939245
-3.64095	guilt	-0.071939245
-3.64095	world	-0.071939245
-3.64095	listens	-0.071939245
-3.4485278	say	-0.07193921
-3.64095	Abnormal	-0.071939245
-3.64095	normal	-0.071939245
-3.64095	sane	-0.071939245
-3.64095	chiseler	-0.071939245
-3.64095	About	-0.071939245
-3.64095	\	-0.071939245
-3.64095	collected	-0.071939245
-3.64095	keeps	-0.071939245
-3.2986717	hatred	-0.12296949
-3.64095	Humiliating	-0.071939245
-3.64095	disappointment	-0.071939245
-3.64095	Boastfuk	-0.071939245
-3.4485278	belittles	-0.15092486
-3.64095	Fault	-0.071939245
-3.64095	finding	-0.071939245
-3.64095	constantly	-0.071939245
-3.64095	criticizes	-0.071939245
-3.2986717	considered	-0.07193921
-3.64095	worthless	-0.071939245
-3.64095	Expression	-0.071939245
-3.64095	joke	-0.071939245
-3.64095	incident	-0.071939245
-3.64095	hurts	-0.071939245
-3.64095	understanding	-0.071939245
-3.64095	utters	-0.071939245
-3.64095	indecent	-0.071939245
-3.64095	Sick	-0.071939245
-3.64095	indisposed	-0.071939245
-3.64095	Frowning	-0.071939245
-3.2986717	sour	-0.12296949
-3.64095	weather	-0.071939245
-3.64095	stormy	-0.071939245
-3.64095	rainy	-0.071939245
-3.2986717	day	-0.07193921
-3.64095	uttering	-0.071939245
-3.64095	mabigat	-0.071939245
-3.64095	dugo	-0.071939245
-3.64095	Robbers	-0.071939245
-3.64095	pirates	-0.071939245
-3.64095	dreamer	-0.071939245
-3.64095	ambitious	-0.071939245
-3.64095	Proud	-0.071939245
-3.64095	Wanting	-0.071939245
-3.64095	Glib	-0.071939245
-3.64095	fluent	-0.071939245
-3.64095	Having	-0.071939245
-3.64095	eyesight	-0.071939245
-3.64095	Keeps	-0.071939245
-3.64095	underestimate	-0.071939245
-3.4485278	belittle	-0.071939245
-3.64095	matigas	-0.071939245
-3.4485278	buto	-0.15092486
-3.4485278	forgive	-0.071939245
-3.64095	Can	-0.07193921
-3.4485278	unconscious	-0.15092486
-3.4485278	mature	-0.071939245
-3.64095	judgement	-0.071939245
-3.64095	cuckoo	-0.071939245
-3.64095	fond	-0.071939245
-3.64095	joking	-0.071939245
-3.64095	Wealthy	-0.071939245
-3.64095	learned	-0.071939245
-3.64095	Still	-0.071939245
-3.64095	Justified	-0.071939245
-3.64095	reasonable	-0.071939245
-3.64095	Has	-0.071939245
-3.4485278	future	-0.15092486
-3.64095	Engaging	-0.071939245
-3.64095	important	-0.071939245
-3.64095	insinuating	-0.071939245
-3.2986717	last	-0.12296949
-3.64095	spreads	-0.071939245
-3.64095	quickly	-0.071939245
-3.64095	grey	-0.071939245
-3.64095	Wanderer	-0.071939245
-3.64095	possessing	-0.071939245
-3.64095	unusual	-0.071939245
-3.64095	patience	-0.071939245
-3.2986717	restless	-0.07193921
-3.4485278	look	-0.071939245
-3.043441	somebody	-0.0967053
-3.64095	Pouting	-0.071939245
-3.64095	worships	-0.071939245
-3.64095	every	-0.071939245
-3.64095	&apos;t	-0.071939245
-3.64095	Heard	-0.071939245
-3.64095	remained	-0.071939245
-3.64095	stayed	-0.071939245
-3.64095	Endangered	-0.071939245
-3.64095	carelessness	-0.071939245
-3.4485278	did	-0.15092486
-3.64095	pox	-0.071939245
-3.64095	importance	-0.071939245
-3.64095	Charmed	-0.071939245
-3.64095	enchanted	-0.071939245
-3.64095	Mentioned	-0.071939245
-3.4485278	unintentionally	-0.15092486
-3.64095	Disappointed	-0.071939245
-3.2986717	became	-0.07193921
-3.64095	clear	-0.071939245
-3.64095	wrong	-0.071939245
-3.4485278	statement	-0.071939245
-3.64095	interpretation	-0.071939245
-3.64095	Fooled	-0.071939245
-3.64095	cheated	-0.071939245
-3.64095	blow	-0.071939245
-3.64095	studies	-0.071939245
-3.2986717	heart	-0.07193921
-3.2986717	talk	-0.10963884
-3.64095	present	-0.071939245
-3.64095	imagination	-0.071939245
-3.64095	Married	-0.071939245
-3.2986717	sleep	-0.12296949
-3.64095	had	-0.071939245
-3.64095	nap	-0.071939245
-3.64095	Watching	-0.071939245
-3.64095	closely	-0.071939245
-3.64095	best	-0.071939245
-3.4485278	dress	-0.071939245
-3.64095	Found	-0.071939245
-3.64095	argue	-0.071939245
-3.64095	At	-0.071939245
-3.64095	brink	-0.071939245
-3.64095	dying	-0.071939245
-3.64095	Difficulty	-0.071939245
-3.4485278	living	-0.071939245
-3.64095	difficulty	-0.071939245
-3.64095	dealing	-0.071939245
-3.64095	Dead	-0.071939245
-3.64095	buried	-0.071939245
-3.64095	Got	-0.071939245
-3.64095	convince	-0.071939245
-3.64095	Twilight	-0.071939245
-3.64095	sunset	-0.071939245
-3.64095	Uneasy	-0.071939245
-3.64095	Working	-0.071939245
-3.64095	nagbabanat	-0.071939245
-3.64095	Disgustingly	-0.071939245
-3.64095	impatient	-0.071939245
-3.64095	happenings	-0.071939245
-3.64095	were	-0.071939245
-3.64095	reversed	-0.071939245
-3.64095	greated	-0.071939245
-3.64095	sin	-0.071939245
-3.64095	committed	-0.071939245
-3.64095	Hopeless	-0.071939245
-3.64095	dreaming	-0.071939245
-3.64095	Saying	-0.071939245
-3.64095	loudly	-0.071939245
-3.64095	praising	-0.071939245
-3.4485278	himself	-0.071939245
-3.4485278	egoistic	-0.15092486
-3.64095	remains	-0.071939245
-3.64095	seated	-0.071939245
-3.64095	dance	-0.071939245
-3.64095	Expressed	-0.071939245
-3.64095	proposed	-0.071939245
-3.64095	gasping	-0.071939245
-3.64095	breath	-0.071939245
-3.64095	Exposed	-0.071939245
-3.64095	defects	-0.071939245
-3.64095	Studied	-0.071939245
-3.64095	strictly	-0.071939245
-3.64095	analyzed	-0.071939245
-3.64095	investigated	-0.071939245
-3.64095	Happened	-0.071939245
-3.2986717	chance	-0.07193921
-3.64095	Took	-0.071939245
-3.64095	nagdalang	-0.071939245
-3.64095	awa	-0.071939245
-3.64095	indecision	-0.071939245
-3.64095	dual	-0.071939245
-3.64095	impoverished	-0.071939245
-3.64095	mad	-0.071939245
-3.64095	Feeling	-0.071939245
-3.64095	Serious	-0.071939245
-3.64095	conflict	-0.071939245
-3.64095	individuals	-0.071939245
-3.64095	Paid	-0.071939245
-3.64095	silence	-0.071939245
-3.64095	Denying	-0.071939245
-3.4485278	evil	-0.071939245
-3.64095	acts	-0.071939245
-3.64095	valueless	-0.071939245
-3.64095	Alone	-0.071939245
-3.4485278	helper	-0.15092486
-3.64095	Walking	-0.071939245
-3.64095	inattentively	-0.071939245
-3.64095	Praising	-0.071939245
-3.64095	betraying	-0.071939245
-3.64095	trying	-0.071939245
-3.64095	nagmumurang	-0.071939245
-3.64095	kamatis	-0.071939245
-3.64095	Angered	-0.071939245
-3.64095	Waiting	-0.071939245
-3.64095	hour	-0.071939245
-3.64095	Suffering	-0.071939245
-3.64095	hardship	-0.071939245
-3.64095	Admiring	-0.071939245
-3.64095	loving	-0.071939245
-3.64095	nagbabatak	-0.071939245
-3.64095	Reporting	-0.071939245
-3.64095	fellow	-0.071939245
-3.64095	workers	-0.071939245
-3.64095	reporter	-0.071939245
-3.64095	benefit	-0.071939245
-3.64095	Jealous	-0.071939245
-3.64095	breathless	-0.071939245
-3.64095	beyond	-0.071939245
-3.64095	power	-0.071939245
-3.64095	Quarreled	-0.071939245
-3.64095	Served	-0.071939245
-3.64095	worked	-0.071939245
-3.64095	filled	-0.071939245
-3.64095	nagsisikip	-0.071939245
-3.64095	hininga	-0.071939245
-3.64095	fought	-0.071939245
-3.64095	bare	-0.071939245
-3.64095	Plentiful	-0.071939245
-3.64095	moneyed	-0.071939245
-3.64095	Infidelity	-0.071939245
-3.64095	Refused	-0.071939245
-3.64095	slept	-0.071939245
-3.64095	wink	-0.071939245
-3.64095	hindi	-0.071939245
-3.64095	notice	-0.071939245
-3.64095	plenty	-0.071939245
-3.64095	Becoming	-0.071939245
-3.4485278	unhealthy	-0.071939245
-3.64095	found	-0.071939245
-3.64095	inferiority	-0.071939245
-3.64095	complex	-0.071939245
-3.64095	Uncertainty	-0.071939245
-3.64095	fickle	-0.071939245
-3.64095	soon	-0.071939245
-3.64095	maried	-0.071939245
-3.64095	jumped	-0.071939245
-3.64095	outside	-0.071939245
-3.64095	window	-0.071939245
-3.64095	instead	-0.071939245
-3.64095	passing	-0.071939245
-3.64095	door	-0.071939245
-3.64095	some	-0.071939245
-3.64095	malicious	-0.071939245
-3.64095	welfare	-0.071939245
-3.64095	country	-0.071939245
-3.4485278	died	-0.071939245
-3.64095	battle	-0.071939245
-3.64095	front	-0.071939245
-3.64095	heroes	-0.071939245
-3.64095	Serenading	-0.071939245
-3.64095	Saint	-0.071939245
-3.64095	Day	-0.071939245
-3.64095	ask	-0.071939245
-3.64095	mass	-0.071939245
-3.64095	Furious	-0.071939245
-3.64095	jealous	-0.071939245
-3.64095	troubled	-0.071939245
-3.64095	Early	-0.071939245
-3.64095	adolescence	-0.071939245
-3.64095	boy	-0.071939245
-3.64095	Engaged	-0.071939245
-3.64095	chatting	-0.071939245
-3.64095	Believing	-0.071939245
-3.64095	gossips	-0.071939245
-3.64095	Hurt	-0.071939245
-3.64095	Bribed	-0.071939245
-3.4485278	so	-0.071939245
-3.64095	confess	-0.071939245
-3.64095	bed	-0.071939245
-3.64095	Responsible	-0.071939245
-3.64095	charge	-0.071939245
-3.64095	mercy	-0.071939245
-3.64095	disposal	-0.071939245
-3.64095	Understood	-0.071939245
-3.64095	uttered	-0.071939245
-3.64095	Outwardly	-0.071939245
-3.64095	inwardly	-0.071939245
-3.64095	naughty	-0.071939245
-3.64095	indigestion	-0.071939245
-3.64095	loose	-0.071939245
-3.64095	bowel	-0.071939245
-3.64095	deranged	-0.071939245
-3.64095	Deceased	-0.071939245
-3.64095	Dumbfounded	-0.071939245
-3.64095	Disappeared	-0.071939245
-3.64095	nasusian	-0.071939245
-3.64095	mga	-0.071939245
-3.64095	labi	-0.071939245
-3.64095	consciousness	-0.071939245
-3.64095	individual	-0.071939245
-3.64095	Things	-0.071939245
-3.64095	disuse	-0.071939245
-3.64095	idled	-0.071939245
-3.64095	obsolete	-0.071939245
-3.64095	Of	-0.071939245
-3.64095	indispensable	-0.071939245
-3.64095	tip	-0.071939245
-3.64095	bribe	-0.071939245
-3.64095	pretentious	-0.071939245
-3.64095	reality	-0.071939245
-3.64095	inviting	-0.071939245
-3.64095	shoot	-0.071939245
-3.64095	gun	-0.071939245
-3.64095	Treat	-0.071939245
-3.64095	nicely	-0.071939245
-3.4485278	god	-0.071939245
-3.64095	baptism	-0.071939245
-3.64095	confirmation	-0.071939245
-3.64095	Pretense	-0.071939245
-3.64095	Offering	-0.071939245
-3.64095	assistance	-0.071939245
-3.64095	Change	-0.071939245
-3.64095	opinion	-0.071939245
-3.64095	hurt	-0.071939245
-3.64095	injuries	-0.071939245
-3.64095	asking	-0.071939245
-3.64095	marriage	-0.071939245
-3.64095	Marriage	-0.071939245
-3.64095	Changing	-0.071939245
-3.64095	ownership	-0.071939245
-3.64095	wedlock	-0.071939245
-3.64095	impossible	-0.071939245
-3.64095	vagabond	-0.071939245
-3.64095	practically	-0.071939245
-3.64095	streets	-0.071939245
-3.64095	ardently	-0.071939245
-3.64095	admiring	-0.071939245
-3.64095	greatly	-0.071939245
-3.64095	placed	-0.071939245
-3.64095	Soft	-0.071939245
-3.64095	drinks	-0.071939245
-3.64095	like	-0.071939245
-3.64095	coca	-0.071939245
-3.64095	cola	-0.071939245
-3.64095	orange	-0.071939245
-3.64095	indolent	-0.071939245
-3.64095	Usually	-0.071939245
-3.64095	daughter	-0.071939245
-3.64095	playboy	-0.071939245
-3.64095	worth	-0.071939245
-3.64095	receiver	-0.071939245
-3.64095	prizes	-0.071939245
-3.64095	makes	-0.071939245
-3.64095	pamasak	-0.071939245
-3.64095	butas	-0.071939245
-3.64095	Wants	-0.071939245
-3.64095	receive	-0.071939245
-3.64095	reciprocate	-0.071939245
-3.64095	stage	-0.071939245
-3.64095	adolesscent	-0.071939245
-3.64095	begins	-0.071939245
-3.64095	awake	-0.071939245
-3.4485278	happening	-0.071939245
-3.64095	absent	-0.071939245
-3.64095	detecting	-0.071939245
-3.64095	Quarrels	-0.071939245
-3.64095	everybody	-0.071939245
-3.64095	quarreling	-0.071939245
-3.64095	Poor	-0.071939245
-3.64095	writing	-0.071939245
-3.64095	penmanship	-0.071939245
-3.64095	Refers	-0.071939245
-3.64095	haircut	-0.071939245
-3.64095	Used	-0.071939245
-3.64095	gave	-0.071939245
-3.64095	Speaks	-0.071939245
-3.64095	softly	-0.071939245
-3.64095	cupboard	-0.071939245
-3.64095	Restless	-0.071939245
-3.64095	murmuring	-0.071939245
-3.64095	spellbound	-0.071939245
-3.64095	Greatly	-0.071939245
-3.64095	Pait	-0.071939245
-3.64095	literally	-0.071939245
-3.64095	achisel	-0.071939245
-3.64095	chiseled	-0.071939245
-3.64095	pushed	-0.071939245
-3.64095	Defeated	-0.071939245
-3.64095	withstand	-0.071939245
-3.4485278	strength	-0.071939245
-3.64095	Bribe	-0.071939245
-3.64095	heavy	-0.071939245
-3.64095	burden	-0.071939245
-3.64095	showing	-0.071939245
-3.64095	off	-0.071939245
-3.64095	Unconscious	-0.071939245
-3.64095	miserable	-0.071939245
-3.64095	indigent	-0.071939245
-3.64095	light	-0.071939245
-3.64095	unhesitatingly	-0.071939245
-3.4485278	bet	-0.071939245
-3.64095	game	-0.071939245
-3.64095	allowed	-0.071939245
-3.64095	winners	-0.071939245
-3.64095	loan	-0.071939245
-3.64095	latter	-0.071939245
-3.64095	former	-0.071939245
-3.64095	1	-0.071939245
-3.64095	deceive	-0.071939245
-3.64095	2	-0.071939245
-3.64095	Won	-0.071939245
-3.64095	got	-0.071939245
-3.64095	showy	-0.071939245
-3.64095	dressing	-0.071939245
-3.64095	race	-0.071939245
-3.64095	Grant	-0.071939245
-3.64095	request	-0.071939245
-3.64095	punished	-0.071939245
-3.64095	dumbfounded	-0.071939245
-3.64095	Honeymoon	-0.071939245
-3.64095	End	-0.071939245
-3.64095	conclusion	-0.071939245
-3.64095	nagging	-0.071939245
-3.64095	scolding	-0.071939245
-3.64095	group	-0.071939245
-3.64095	company	-0.071939245
-3.4485278	heaven	-0.071939245
-3.64095	soul	-0.071939245
-3.64095	ladies	-0.071939245
-3.64095	included	-0.071939245
-3.64095	genuine	-0.071939245
-3.64095	synonym	-0.071939245
-3.64095	sambakol	-0.071939245
-3.64095	mukha	-0.071939245
-3.64095	Talkative	-0.071939245
-3.64095	harmless	-0.071939245
-3.64095	most	-0.071939245
-3.64095	elegant	-0.071939245
-3.4485278	though	-0.071939245
-3.64095	Thing	-0.071939245
-3.64095	Replaced	-0.071939245
-3.64095	Praised	-0.071939245
-3.64095	Insane	-0.071939245
-3.64095	Unreasonable	-0.071939245
-3.64095	psychopathic	-0.071939245
-3.64095	lunatic	-0.071939245
-3.64095	Knows	-0.071939245
-3.64095	Feelings	-0.071939245
-3.64095	Received	-0.07193921
-3.64095	received	-0.071939245
-3.64095	rain	-0.071939245
-3.4485278	object	-0.071939245
-3.64095	contradict	-0.071939245
-3.64095	Agreed	-0.071939245
-3.64095	majority	-0.071939245
-3.64095	united	-0.071939245
-3.64095	three	-0.071939245
-3.64095	poverty	-0.071939245
-3.64095	war	-0.071939245
-3.64095	Plunged	-0.071939245
-3.64095	direct	-0.071939245
-3.64095	Inherited	-0.071939245
-3.64095	Hoped	-0.071939245
-3.64095	apparel	-0.071939245
-3.64095	Strout	-0.071939245
-3.64095	Inflammable	-0.071939245
-3.64095	Attractive	-0.071939245
-3.64095	charming	-0.071939245
-3.64095	sleeping	-0.071939245
-3.64095	afternoon	-0.071939245
-3.64095	almost	-0.071939245
-3.64095	evening	-0.071939245
-3.64095	Mature	-0.071939245
-3.64095	ripe	-0.071939245
-3.4485278	knowledge	-0.071939245
-3.64095	Hiding	-0.071939245
-3.64095	tagong	-0.071939245
-3.64095	pretending	-0.071939245
-3.4485278	deaf	-0.071939245
-3.64095	sensitive	-0.071939245
-3.64095	irritable	-0.071939245
-3.64095	cries	-0.071939245
-3.4485278	agreement	-0.12296949
-3.64095	breaks	-0.071939245
-3.64095	pocket	-0.071939245
-3.64095	Ignorant	-0.071939245
-3.64095	seriousness	-0.071939245
-3.64095	hearty	-0.071939245
-3.4485278	laugh	-0.071939245
-3.64095	hypocrisy	-0.071939245
-3.64095	sll	-0.071939245
-3.64095	humbleness	-0.071939245
-3.64095	welcomed	-0.071939245
-3.64095	Ill	-0.071939245
-3.64095	Gain	-0.071939245
-3.64095	bigger	-0.071939245
-3.64095	capital	-0.071939245
-3.64095	wealthiest	-0.071939245
-3.64095	Go	-0.071939245
-3.64095	withe	-0.071939245
-3.64095	shallow	-0.071939245
-3.64095	sound	-0.071939245
-3.64095	shy	-0.071939245
-3.64095	slow	-0.071939245
-3.64095	tulog	-0.071939245
-3.64095	na	-0.071939245
-3.64095	binata	-0.071939245
-3.64095	Heaving	-0.071939245
-3.64095	bosom	-0.071939245
-3.64095	ages	-0.071939245
-3.4485278	wealth	-0.071939245
-3.64095	Scared	-0.071939245
-3.64095	Inducing	-0.071939245
-3.64095	appetite	-0.071939245
-3.64095	Desiring	-0.071939245
-3.64095	cover	-0.071939245
-3.64095	pot	-0.071939245
-3.64095	sweethearts	-0.071939245
-3.64095	sisters	-0.071939245
-3.64095	strongest	-0.071939245
-3.64095	trait	-0.071939245
-3.64095	Without	-0.07193921
-3.64095	congratulations	-0.071939245
-3.64095	Murdered	-0.071939245
-3.64095	gentleman	-0.071939245
-3.64095	fulfilled	-0.071939245
-3.64095	Adviser	-0.071939245
-3.64095	gratitude	-0.071939245
-3.64095	Command	-0.071939245
-3.64095	needs	-0.071939245
-3.64095	obeyed	-0.071939245
-3.64095	strict	-0.071939245
-3.64095	command	-0.071939245
-3.64095	reputable	-0.071939245
-3.64095	right	-0.071939245
-3.64095	interfere	-0.071939245
-3.64095	Favorite	-0.071939245
-3.64095	Unmerciful	-0.071939245
-3.64095	type	-0.071939245
-3.64095	initiative	-0.071939245
-3.64095	synonyms	-0.071939245
-3.64095	tabla	-0.071939245
-3.64095	Blind	-0.071939245
-3.64095	Like	-0.071939245
-3.64095	selected	-0.071939245
-3.64095	chosen	-0.071939245
-3.64095	qualities	-0.071939245
-3.64095	how	-0.071939245
-3.64095	repay	-0.071939245
-3.64095	patron	-0.071939245
-3.64095	protector	-0.071939245
-3.64095	extent	-0.071939245
-3.64095	hurting	-0.071939245
-3.64095	Tyrant	-0.071939245
-3.64095	commit	-0.071939245
-3.64095	mistakes	-0.071939245
-3.64095	Insensitive	-0.071939245
-3.64095	unsympathetic	-0.071939245
-3.64095	seem	-0.071939245
-3.64095	destroys	-0.071939245
-3.64095	Stupid	-0.071939245
-3.64095	remebery	-0.071939245
-3.64095	skill	-0.071939245
-3.64095	Absent	-0.071939245
-3.64095	hear	-0.071939245
-3.64095	telling	-0.071939245
-3.64095	istelling	-0.071939245
-3.64095	different	-0.071939245
-3.64095	embraced	-0.071939245
-3.64095	hug	-0.071939245
-3.64095	pretense	-0.071939245
-3.64095	pretention	-0.071939245

\2-grams:
-1.1838781	<s> </s>	0
-0.9185887	minded </s>	0
-0.5504996	dull </s>	0
-0.999916	serious </s>	0
-0.7359834	condition </s>	0
-0.7235147	house </s>	0
-0.42710716	sluggish </s>	0
-0.6035212	Treacherous </s>	0
-1.0741696	with </s>	0
-0.8960697	law </s>	0
-0.76237273	etc </s>	0
-0.068472914	. </s>	0
-0.76237273	Drunk </s>	0
-0.25653338	gossip </s>	0
-0.6035212	forget </s>	0
-0.8315293	Already </s>	0
-1.1188864	to </s>	0
-0.6035212	residence </s>	0
-1.0231234	of </s>	0
-0.6035212	armpit </s>	0
-0.6035212	intoxicated </s>	0
-0.42710716	miserly </s>	0
-0.7908277	weak </s>	0
-0.6035212	kneed </s>	0
-0.7908277	poor </s>	0
-0.6815376	man </s>	0
-0.6035212	laborer </s>	0
-0.5504996	child </s>	0
-0.6035212	smallpox </s>	0
-0.6035212	children </s>	0
-1.1277786	for </s>	0
-0.9269641	girl </s>	0
-0.8315293	gambling </s>	0
-0.6284477	wife </s>	0
-0.6035212	concubine </s>	0
-0.6035212	bloodshed </s>	0
-0.6035212	filthy </s>	0
-0.76237273	courageous </s>	0
-0.43066183	quarrel </s>	0
-0.9269641	long </s>	0
-0.6284477	hair </s>	0
-0.6035212	arrived </s>	0
-0.6035212	shoes </s>	0
-0.5783406	life </s>	0
-0.35695684	bachelor </s>	0
-0.5504996	boastful </s>	0
-0.76237273	Afraid </s>	0
-0.6035212	Prison </s>	0
-0.21594965	) </s>	0
-0.76237273	shameless </s>	0
-0.7359834	work </s>	0
-0.8315293	doing </s>	0
-0.8315293	news </s>	0
-0.6035212	information </s>	0
-0.98492354	debt </s>	0
-0.76237273	custodian </s>	0
-1.0147264	his </s>	0
-0.6435187	care </s>	0
-0.42710716	debts </s>	0
-0.42710716	record </s>	0
-0.6035212	abandoned </s>	0
-0.6035212	persistent </s>	0
-0.6035212	employee </s>	0
-0.8315293	working </s>	0
-0.8960697	body </s>	0
-0.76237273	Lazy </s>	0
-0.8315293	brave </s>	0
-0.8107644	means </s>	0
-0.6035212	success </s>	0
-0.3376516	person </s>	0
-0.6035212	feet </s>	0
-0.7235147	do </s>	0
-0.6284477	intelligent </s>	0
-0.42710716	influential </s>	0
-0.9524294	other </s>	0
-0.76237273	attitude </s>	0
-0.6035212	reciprocity </s>	0
-0.6035212	Dowry </s>	0
-0.8315293	please </s>	0
-0.3821026	someone </s>	0
-0.42710716	sleepy </s>	0
-0.6035212	favored </s>	0
-0.9269641	out </s>	0
-0.6035212	amount </s>	0
-0.42710716	examination </s>	0
-0.8315293	Died </s>	0
-0.61009085	married </s>	0
-0.6035212	birth </s>	0
-0.6035212	Entrusted </s>	0
-0.87073004	said </s>	0
-0.6035212	Cheated </s>	0
-0.8642565	carefully </s>	0
-0.6035212	alike </s>	0
-0.5504996	feelings </s>	0
-0.6035212	decision </s>	0
-0.76237273	Misfortune </s>	0
-0.76237273	mishap </s>	0
-0.6035212	Laborer </s>	0
-0.6035212	authorities </s>	0
-0.60382545	only </s>	0
-0.8315293	men </s>	0
-0.8315293	destruction </s>	0
-0.6035212	concerned </s>	0
-0.76237273	pregnant </s>	0
-0.6829588	mother </s>	0
-0.42710716	voice </s>	0
-0.7908277	young </s>	0
-0.6035212	bachelors </s>	0
-0.8642565	nature </s>	0
-0.76237273	inborn </s>	0
-0.5504996	expression </s>	0
-0.6035212	generous </s>	0
-0.7801949	all </s>	0
-0.6035212	sympathetic </s>	0
-0.25653338	face </s>	0
-0.8315293	self </s>	0
-0.6035212	uncertainty </s>	0
-0.35695684	danger </s>	0
-0.6284477	seen </s>	0
-0.6035212	permanently </s>	0
-0.76237273	flattering </s>	0
-0.2169144	words </s>	0
-0.6035212	Socialite </s>	0
-0.87073004	friends </s>	0
-1.0719037	is </s>	0
-0.8107644	easily </s>	0
-0.76237273	courting </s>	0
-0.6035212	powerful </s>	0
-0.76237273	duration </s>	0
-0.6035212	heat </s>	0
-0.6035212	art </s>	0
-0.6035212	Child </s>	0
-0.6035212	Dream </s>	0
-0.6035212	sigh </s>	0
-0.76237273	following </s>	0
-0.42214203	&quot; </s>	0
-0.36244556	money </s>	0
-0.6035212	Skinny </s>	0
-0.8960697	ugly </s>	0
-0.6435187	mood </s>	0
-0.76237273	Greedy </s>	0
-0.2657248	others </s>	0
-0.42710716	traitor </s>	0
-0.6035212	Usurers </s>	0
-0.6035212	robber </s>	0
-0.6035212	Humbleness </s>	0
-0.6372759	another </s>	0
-0.6035212	helo </s>	0
-0.7985854	death </s>	0
-0.76237273	Wife </s>	0
-0.6035212	companion </s>	0
-0.6035212	victimized </s>	0
-0.5406585	character </s>	0
-0.87073004	hearted </s>	0
-0.6035212	suited </s>	0
-0.35695684	livelihood </s>	0
-0.76237273	embarassed </s>	0
-0.93330455	down </s>	0
-0.6284477	nothing </s>	0
-0.5337978	time </s>	0
-0.6035212	conflagration </s>	0
-0.8017275	feeling </s>	0
-0.42710716	hunger </s>	0
-0.6035212	prostitute </s>	0
-0.76237273	back </s>	0
-0.6035212	unbalanced </s>	0
-0.87073004	punishment </s>	0
-0.6035212	breakers </s>	0
-0.6035212	Power </s>	0
-0.8315293	Death </s>	0
-0.6966057	old </s>	0
-0.42710716	age </s>	0
-0.6035212	confidant </s>	0
-0.20315507	wealthy </s>	0
-0.6035212	Suited </s>	0
-0.6035212	hold </s>	0
-0.6035212	Unfortunate </s>	0
-0.6035212	Brother </s>	0
-0.6035212	fellowmen </s>	0
-0.5504996	husband </s>	0
-0.76237273	speak </s>	0
-0.6035212	clearly </s>	0
-0.6035212	hungry </s>	0
-0.9269641	already </s>	0
-0.76237273	duty </s>	0
-0.6035212	Burned </s>	0
-0.6035212	disappeared </s>	0
-0.8315293	tired </s>	0
-0.8415015	thing </s>	0
-0.42710716	again </s>	0
-0.76237273	moment </s>	0
-0.6035212	second </s>	0
-0.8974097	similar </s>	0
-0.6035212	hawk </s>	0
-0.71437484	mind </s>	0
-0.76237273	insane </s>	0
-0.43066183	talking </s>	0
-0.6035212	Fierce </s>	0
-0.6035212	bullet </s>	0
-0.76237273	obedient </s>	0
-0.35695684	family </s>	0
-0.98492354	well </s>	0
-0.8315293	price </s>	0
-0.76237273	high </s>	0
-0.76237273	believe </s>	0
-0.76237273	hopeless </s>	0
-0.6035212	situation </s>	0
-0.8315293	hope </s>	0
-0.42710716	born </s>	0
-0.8315293	angered </s>	0
-0.6035212	voluntarily </s>	0
-0.6035212	Disillusionment </s>	0
-1.0568105	up </s>	0
-0.6035212	set </s>	0
-0.8315293	force </s>	0
-0.88151014	bad </s>	0
-0.6435187	luck </s>	0
-0.5504996	misfortune </s>	0
-0.6035212	taste </s>	0
-0.6257314	something </s>	0
-0.6035212	heartedly </s>	0
-0.6035212	harmony </s>	0
-0.6035212	eloquence </s>	0
-0.8315293	Intelligent </s>	0
-0.6035212	area </s>	0
-0.7235147	food </s>	0
-0.6035212	gentle </s>	0
-0.6035212	tongued </s>	0
-0.76237273	land </s>	0
-0.8315293	dressed </s>	0
-0.6035212	weapon </s>	0
-0.8642565	ill </s>	0
-0.42710716	blood </s>	0
-0.6035212	complexion </s>	0
-0.8642565	compared </s>	0
-0.6035212	heavily </s>	0
-0.6035212	cooking </s>	0
-0.8960697	beautiful </s>	0
-0.6035212	destiny </s>	0
-0.8315293	speech </s>	0
-0.42710716	surrender </s>	0
-0.7664704	father </s>	0
-0.76237273	together </s>	0
-0.76237273	order </s>	0
-0.6035212	Vagabond </s>	0
-0.6035212	attack </s>	0
-0.8315293	things </s>	0
-0.6829588	done </s>	0
-0.35695684	immediately </s>	0
-0.6035212	grave </s>	0
-0.6035212	cooked </s>	0
-0.6966057	talkative </s>	0
-0.8315293	bright </s>	0
-0.8315293	anything </s>	0
-0.87073004	him </s>	0
-0.76237273	relative </s>	0
-0.76237273	selfish </s>	0
-0.76237273	ailment </s>	0
-0.25653338	fever </s>	0
-0.6035212	patching </s>	0
-0.6035212	cut </s>	0
-0.8315293	dirty </s>	0
-0.6035212	washing </s>	0
-0.9185887	pay </s>	0
-0.5504996	job </s>	0
-0.6035212	ingratitude </s>	0
-0.6035212	conscience </s>	0
-0.5504996	insulted </s>	0
-0.8315293	see </s>	0
-0.5504996	reason </s>	0
-0.6035212	evidence </s>	0
-0.6035212	going </s>	0
-0.6035212	Eloped </s>	0
-0.6035212	Dying </s>	0
-0.6035212	growth </s>	0
-0.6035212	agree </s>	0
-0.6035212	returning </s>	0
-0.6035212	borrowed </s>	0
-0.6035212	Honor </s>	0
-0.8315293	truth </s>	0
-0.6035212	untrue </s>	0
-0.6035212	Grave </s>	0
-0.6035212	Godsend </s>	0
-0.6035212	adoring </s>	0
-0.76237273	trouble </s>	0
-0.6035212	challenging </s>	0
-0.8315293	favor </s>	0
-0.8315293	control </s>	0
-0.6035212	task </s>	0
-0.6035212	World </s>	0
-0.6035212	boastfulness </s>	0
-0.6035212	fault </s>	0
-0.76237273	honor </s>	0
-0.6035212	Undecided </s>	0
-0.6035212	embrace </s>	0
-0.6089111	woman </s>	0
-0.6035212	Bachelor </s>	0
-0.6035212	completely </s>	0
-0.6035212	concentrate </s>	0
-0.6035212	secret </s>	0
-0.6035212	press </s>	0
-0.5504996	happiness </s>	0
-0.7235147	love </s>	0
-0.76237273	affair </s>	0
-0.6035212	remember </s>	0
-0.8960697	much </s>	0
-0.9138233	eat </s>	0
-0.6035212	expenses </s>	0
-0.8315293	persons </s>	0
-0.76237273	customs </s>	0
-0.6284477	cause </s>	0
-0.6035212	stubbornness </s>	0
-0.6035212	problems </s>	0
-0.6035212	Mother </s>	0
-0.42710716	anymore </s>	0
-0.42710716	fists </s>	0
-0.6035212	illness </s>	0
-0.5504996	responsibility </s>	0
-0.6035212	temper </s>	0
-0.6035212	cheat </s>	0
-0.4236927	anger </s>	0
-0.6035212	fighting </s>	0
-0.76237273	meals </s>	0
-0.76237273	Boastfulness </s>	0
-0.6035212	fail </s>	0
-0.76237273	conversation </s>	0
-0.6035212	less </s>	0
-0.6035212	jurisdiction </s>	0
-0.6035212	sluggishly </s>	0
-0.6035212	bravely </s>	0
-0.6035212	advice </s>	0
-0.6035212	grandchild </s>	0
-0.6035212	anniversary </s>	0
-0.76237273	broke </s>	0
-1.0131744	ability </s>	0
-0.87073004	animals </s>	0
-0.6035212	ground </s>	0
-0.76237273	home </s>	0
-0.76237273	neighbors </s>	0
-0.6035212	son </s>	0
-0.6035212	sacrifices </s>	0
-0.76237273	couple </s>	0
-0.6035212	Rivals </s>	0
-0.76237273	sympathy </s>	0
-0.42710716	stingy </s>	0
-0.76237273	gifts </s>	0
-0.87073004	eyes </s>	0
-0.87073004	bashful </s>	0
-0.76237273	head </s>	0
-0.87073004	past </s>	0
-0.6035212	known </s>	0
-0.6035212	sad </s>	0
-0.6035212	mat </s>	0
-0.6035212	disturbed </s>	0
-0.6035212	heard </s>	0
-0.6035212	Hurrying </s>	0
-0.6035212	uncertain </s>	0
-0.6035212	behaved </s>	0
-0.6035212	tears </s>	0
-0.42710716	proud </s>	0
-0.6035212	rats </s>	0
-0.6435187	silent </s>	0
-0.8315293	hands </s>	0
-0.8315293	caretaker </s>	0
-0.5504996	sadness </s>	0
-0.6035212	antipathy </s>	0
-0.6035212	accord </s>	0
-0.6035212	headache </s>	0
-0.8315293	happy </s>	0
-0.6035212	termagant </s>	0
-0.6035212	talker </s>	0
-0.76237273	wise </s>	0
-0.76237273	Shameless </s>	0
-0.6035212	insensitive </s>	0
-0.6035212	hardworkin </s>	0
-0.76237273	thief </s>	0
-0.42710716	gossiper </s>	0
-0.76237273	irritated </s>	0
-0.76237273	friendly </s>	0
-0.76237273	speaker </s>	0
-0.6035212	orator </s>	0
-0.6035212	talent </s>	0
-0.6035212	helpful </s>	0
-0.98492354	should </s>	0
-0.6035212	brag </s>	0
-0.6035212	dislikes </s>	0
-0.8315293	lazy </s>	0
-0.6035212	disagree </s>	0
-0.9138233	pity </s>	0
-0.6035212	sympathize </s>	0
-0.76237273	difficulties </s>	0
-0.6035212	ponder </s>	0
-0.6035212	lies </s>	0
-0.6035212	altar </s>	0
-0.8642565	attention </s>	0
-0.8315293	great </s>	0
-0.6035212	sorrow </s>	0
-0.6035212	payment </s>	0
-0.6284477	night </s>	0
-0.76237273	study </s>	0
-0.6035212	career </s>	0
-0.87073004	word </s>	0
-0.42710716	promise </s>	0
-0.6035212	egostic </s>	0
-0.6035212	idle </s>	0
-0.6035212	tricky </s>	0
-0.42710716	meal </s>	0
-0.6035212	part </s>	0
-0.76237273	stealer </s>	0
-0.6035212	Hungry </s>	0
-0.8315293	little </s>	0
-0.42710716	influence </s>	0
-0.6035212	fact </s>	0
-0.6035212	laggard </s>	0
-0.6035212	health </s>	0
-0.76237273	headed </s>	0
-0.7359834	angry </s>	0
-0.6035212	possession </s>	0
-0.76237273	plan </s>	0
-0.6035212	simpleton </s>	0
-0.6035212	independently </s>	0
-0.6035212	midnight </s>	0
-0.6035212	witty </s>	0
-0.6035212	considerate </s>	0
-0.76237273	Deaf </s>	0
-0.6035212	irascible </s>	0
-0.6035212	guilt </s>	0
-0.6035212	world </s>	0
-0.8315293	say </s>	0
-0.6035212	chiseler </s>	0
-0.6035212	\ </s>	0
-0.5504996	hatred </s>	0
-0.6035212	disappointment </s>	0
-0.6035212	worthless </s>	0
-0.6035212	hurts </s>	0
-0.6035212	understanding </s>	0
-0.6035212	indisposed </s>	0
-0.6035212	pirates </s>	0
-0.6035212	ambitious </s>	0
-0.42710716	unconscious </s>	0
-0.6035212	judgement </s>	0
-0.6035212	joking </s>	0
-0.42710716	future </s>	0
-0.6035212	important </s>	0
-0.6035212	quickly </s>	0
-0.6035212	Wanderer </s>	0
-0.6035212	patience </s>	0
-0.8315293	restless </s>	0
-0.93330455	somebody </s>	0
-0.6035212	pox </s>	0
-0.76237273	importance </s>	0
-0.6035212	enchanted </s>	0
-0.42710716	unintentionally </s>	0
-0.6035212	Disappointed </s>	0
-0.6035212	interpretation </s>	0
-0.6035212	cheated </s>	0
-0.6035212	studies </s>	0
-0.8315293	heart </s>	0
-0.8974097	talk </s>	0
-0.6035212	imagination </s>	0
-0.76237273	Married </s>	0
-0.8642565	sleep </s>	0
-0.6035212	nap </s>	0
-0.6035212	closely </s>	0
-0.6035212	argue </s>	0
-0.6035212	dying </s>	0
-0.76237273	living </s>	0
-0.6035212	buried </s>	0
-0.6035212	sunset </s>	0
-0.6035212	reversed </s>	0
-0.6035212	committed </s>	0
-0.6035212	dreaming </s>	0
-0.6035212	loudly </s>	0
-0.42710716	egoistic </s>	0
-0.6035212	dance </s>	0
-0.6035212	breath </s>	0
-0.6035212	defects </s>	0
-0.6035212	investigated </s>	0
-0.8315293	chance </s>	0
-0.6035212	impoverished </s>	0
-0.6035212	silence </s>	0
-0.6035212	valueless </s>	0
-0.42710716	helper </s>	0
-0.6035212	inattentively </s>	0
-0.6035212	hardship </s>	0
-0.6035212	breathless </s>	0
-0.76237273	Quarreled </s>	0
-0.6035212	moneyed </s>	0
-0.6035212	notice </s>	0
-0.76237273	unhealthy </s>	0
-0.6035212	complex </s>	0
-0.6035212	maried </s>	0
-0.6035212	gossips </s>	0
-0.6035212	disposal </s>	0
-0.6035212	Understood </s>	0
-0.6035212	naughty </s>	0
-0.6035212	bowel </s>	0
-0.6035212	deranged </s>	0
-0.6035212	consciousness </s>	0
-0.6035212	gun </s>	0
-0.6035212	nicely </s>	0
-0.6035212	assistance </s>	0
-0.6035212	injuries </s>	0
-0.6035212	marriage </s>	0
-0.76237273	Marriage </s>	0
-0.6035212	ownership </s>	0
-0.6035212	wedlock </s>	0
-0.6035212	streets </s>	0
-0.6035212	indolent </s>	0
-0.76237273	reciprocate </s>	0
-0.6035212	detecting </s>	0
-0.6035212	everybody </s>	0
-0.6035212	quarreling </s>	0
-0.6035212	penmanship </s>	0
-0.6035212	cupboard </s>	0
-0.6035212	Restless </s>	0
-0.6035212	murmuring </s>	0
-0.6035212	spellbound </s>	0
-0.76237273	strength </s>	0
-0.6035212	Bribe </s>	0
-0.6035212	off </s>	0
-0.6035212	Unconscious </s>	0
-0.6035212	light </s>	0
-0.6035212	unhesitatingly </s>	0
-0.6035212	race </s>	0
-0.6035212	dumbfounded </s>	0
-0.6035212	Honeymoon </s>	0
-0.6035212	conclusion </s>	0
-0.6035212	scolding </s>	0
-0.6035212	company </s>	0
-0.76237273	heaven </s>	0
-0.6035212	included </s>	0
-0.6035212	genuine </s>	0
-0.6035212	harmless </s>	0
-0.6035212	Insane </s>	0
-0.6035212	lunatic </s>	0
-0.8315293	Received </s>	0
-0.6035212	rain </s>	0
-0.6035212	contradict </s>	0
-0.6035212	united </s>	0
-0.6035212	poverty </s>	0
-0.6035212	apparel </s>	0
-0.6035212	Inflammable </s>	0
-0.6035212	charming </s>	0
-0.6035212	evening </s>	0
-0.76237273	knowledge </s>	0
-0.76237273	deaf </s>	0
-0.6035212	pocket </s>	0
-0.6035212	hypocrisy </s>	0
-0.6035212	humbleness </s>	0
-0.6035212	capital </s>	0
-0.6035212	wealthiest </s>	0
-0.76237273	wealth </s>	0
-0.6035212	Scared </s>	0
-0.6035212	pot </s>	0
-0.6035212	sisters </s>	0
-0.6035212	strongest </s>	0
-0.6035212	trait </s>	0
-0.6035212	congratulations </s>	0
-0.6035212	Adviser </s>	0
-0.6035212	gratitude </s>	0
-0.6035212	command </s>	0
-0.6035212	interfere </s>	0
-0.6035212	initiative </s>	0
-0.6035212	protector </s>	0
-0.6035212	skill </s>	0
-0.6035212	pretention </s>	0
-2.3134594	<s> Weak	-0.122249804
-2.3976927	<s> -	-0.03774004
-1.3429089	Weak -	-0.22727714
-1.4228417	law -	-0.03774004
-2.2015932	to -	-0.13141735
-1.0967567	weak -	-0.03774004
-0.79616725	Thick -	-0.03774004
-1.0779641	Strong -	-0.03774004
-1.0779641	Well -	-0.03774004
-1.8294287	good -	-0.03774004
-0.79616725	Common -	-0.03774004
-0.79616725	kind -	-0.13141735
-0.79616725	kadaupang -	-0.13141735
-0.79616725	kapit -	-0.03774004
-1.235638	sharp -	-0.03774004
-1.235638	kulang -	-0.03774004
-0.5179205	well -	-0.03774004
-0.5234634	sky -	-0.13141735
-1.4856844	small -	-0.03774004
-0.5234634	whole -	-0.03774004
-0.69433844	ill -	-0.2685063
-1.0779641	Slow -	-0.13141735
-0.79616725	Self -	-0.03774004
-1.0779641	Hot -	-0.13141735
-0.79616725	lakad -	-0.03774004
-1.0779641	High -	-0.03774004
-1.0779641	Hard -	-0.03774004
-0.79616725	makaisang -	-0.03774004
-0.79616725	far -	-0.03774004
-0.79616725	Kind -	-0.13141735
-0.79616725	grown -	-0.03774004
-0.79616725	feeble -	-0.03774004
-0.79616725	malay -	-0.03774004
-0.79616725	Fault -	-0.03774004
-0.79616725	nagdalang -	-0.03774004
-0.79616725	nagmumurang -	-0.03774004
-0.79616725	fickle -	-0.03774004
-0.79616725	coca -	-0.03774004
-0.79616725	pamasak -	-0.03774004
-0.79616725	absent -	-0.03774004
-0.79616725	tagong -	-0.03774004
-0.79616725	Ill -	-0.03774004
-0.79616725	Go -	-0.03774004
-0.79616725	Absent -	-0.03774004
-1.4149323	Weak minded	-0.03774004
-1.300582	- minded	-0.122249804
-1.5096418	minded dull	-0.03774004
-2.3306732	a dull	-0.13141735
-3.1126444	; dull	-0.13141735
-1.873194	<s> In	-0.34640235
-0.8154343	goo In	-0.03774004
-1.4636173	In a	-0.05933385
-0.9038763	in a	-0.08178881
-1.9706813	, a	-0.03774004
-0.94161355	with a	-0.03774001
-1.1764207	; a	-0.04546868
-1.0904115	as a	-0.03774004
-1.3296629	to a	-0.20459194
-1.1497796	of a	-0.0922152
-1.1735308	usually a	-0.03774004
-0.88127947	for a	-0.03774004
-1.5866115	Not a	-0.03774004
-1.8449851	be a	-0.03774004
-1.9658134	( a	-0.03774004
-1.4423567	and a	-0.03774004
-1.7707965	not a	-0.03774004
-1.5181774	given a	-0.03774004
-1.5121344	out a	-0.03774004
-1.7943753	by a	-0.03774004
-1.0691999	Revealed a	-0.03774004
-1.2230926	Made a	-0.03774004
-1.0691999	courting a	-0.03774004
-1.6609216	from a	-0.03774004
-1.2230926	Doing a	-0.03774004
-0.52140945	quite a	-0.03774004
-0.7915646	lead a	-0.03774004
-1.403683	really a	-0.03774004
-1.5181774	have a	-0.03774004
-1.0863876	without a	-0.03774004
-1.6160207	With a	-0.082057804
-1.2230926	needing a	-0.03774004
-0.7915646	blame a	-0.03774004
-0.7915646	expose a	-0.03774004
-0.7915646	invite a	-0.03774004
-1.2230926	Had a	-0.03774004
-1.0691999	meals a	-0.03774004
-1.2230926	court a	-0.03774004
-0.7915646	Taking a	-0.03774004
-1.0691999	dislike a	-0.03774004
-1.0691999	allow a	-0.03774004
-0.7915646	let a	-0.03774004
-1.2230926	about a	-0.03774004
-1.5740738	at a	-0.03774004
-0.7915646	finish a	-0.03774004
-1.0691999	keep a	-0.03774004
-1.2230926	say a	-0.03774004
-1.3269123	Has a	-0.03774004
-0.7915646	Mentioned a	-0.03774004
-1.0691999	had a	-0.03774004
-0.7915646	Found a	-0.03774004
-0.7915646	slept a	-0.03774004
-0.7915646	gave a	-0.03774004
-0.7915646	breaks a	-0.03774004
-1.2230926	Without a	-0.03774004
-2.3403614	a critical	-0.13141735
-2.506631	and critical	-0.03774004
-1.0131152	critical or	-0.03774004
-1.5437493	, or	-0.03774004
-1.5122218	man or	-0.03774004
-1.2430539	wife or	-0.03774004
-1.7042489	( or	-0.03774004
-1.0131152	Full or	-0.03774004
-0.93458086	work or	-0.03774004
-1.1451906	value or	-0.03774004
-1.3817161	know or	-0.03774004
-1.5679334	his or	-0.03774004
-0.76107043	understand or	-0.03774004
-1.2904837	body or	-0.03774004
-1.2430539	useless or	-0.03774004
-1.7470067	person or	-0.03774004
-1.3817161	given or	-0.03774004
-1.7839489	someone or	-0.03774004
-1.0131152	fool or	-0.03774004
-1.1451906	women or	-0.03774004
-1.0131152	mishap or	-0.03774004
-1.3023151	mother or	-0.03774004
-0.76107043	Ordinary or	-0.03774004
-0.66936225	fish or	-0.097895734
-1.2301669	strong or	-0.03774004
-1.0131152	sickness or	-0.03774004
-1.8397746	&quot; or	-0.03774004
-1.5922573	money or	-0.03774004
-1.0131152	Thief or	-0.03774004
-1.0131152	Wife or	-0.03774004
-1.1451906	belittled or	-0.03774004
-1.4211121	character or	-0.03774004
-1.0131152	name or	-0.03774004
-1.4294741	feeling or	-0.03774004
-0.76107043	parties or	-0.03774004
-1.0131152	days or	-0.03774004
-1.1451906	Rich or	-0.03774004
-0.76107043	Sister or	-0.03774004
-1.0131152	duty or	-0.03774004
-1.1451906	Doing or	-0.03774004
-1.1451906	force or	-0.03774004
-1.5234971	bad or	-0.03774004
-1.1451906	Intelligent or	-0.03774004
-0.76107043	distance or	-0.03774004
-1.3468525	food or	-0.03774004
-1.1451906	support or	-0.03774004
-0.76107043	forgotten or	-0.03774004
-0.76107043	die or	-0.03774004
-0.98882824	father or	-0.03774004
-0.76107043	commenting or	-0.03774004
-1.1451906	rich or	-0.03774004
-0.76107043	Accustomed or	-0.03774004
-1.4098327	he or	-0.03774004
-1.2301669	him or	-0.03774004
-1.1451906	true or	-0.03774004
-1.0131152	relative or	-0.03774004
-0.76107043	sewing or	-0.03774004
-1.0131152	fear or	-0.03774004
-0.76107043	consent or	-0.03774004
-1.2493343	woman or	-0.03774004
-1.0131152	customs or	-0.03774004
-1.2430539	cause or	-0.03774004
-1.1451906	complete or	-0.03774004
-1.0580425	anger or	-0.03774004
-0.76107043	temptation or	-0.03774004
-0.86408687	two or	-0.13141735
-0.76107043	More or	-0.03774004
-0.66936225	intelligence or	-0.03774004
-0.9461407	ability or	-0.03774004
-1.0131152	neighbors or	-0.03774004
-0.76107043	Daughter or	-0.03774004
-0.76107043	pinching or	-0.03774004
-0.76107043	Difficulties or	-0.03774004
-1.0131152	gifts or	-0.03774004
-0.76107043	plant or	-0.03774004
-1.0131152	slowly or	-0.03774004
-0.76107043	cold or	-0.03774004
-0.76107043	Healthy or	-0.03774004
-1.3468525	people or	-0.03774004
-0.76107043	grand or	-0.03774004
-0.76107043	gried or	-0.03774004
-0.76107043	Beautiful or	-0.03774004
-1.0131152	irritated or	-0.03774004
-0.76107043	beat or	-0.03774004
-1.0131152	speaker or	-0.03774004
-1.0131152	gossiping or	-0.03774004
-0.76107043	course or	-0.03774004
-1.2301669	word or	-0.03774004
-1.0131152	plants or	-0.03774004
-0.76107043	Food or	-0.13141735
-1.0131152	Deaf or	-0.03774004
-0.76107043	joke or	-0.03774004
-0.76107043	stormy or	-0.03774004
-1.0131152	Proud or	-0.03774004
-0.76107043	underestimate or	-0.03774004
-0.76107043	learned or	-0.13141735
-0.76107043	Justified or	-0.03774004
-0.76107043	Engaging or	-0.03774004
-0.76107043	remained or	-0.03774004
-0.76107043	Charmed or	-0.03774004
-1.0131152	statement or	-0.03774004
-0.76107043	analyzed or	-0.03774004
-0.76107043	conflict or	-0.03774004
-0.76107043	hour or	-0.03774004
-0.76107043	power or	-0.03774004
-0.76107043	Served or	-0.03774004
-0.76107043	chatting or	-0.03774004
-0.76107043	disuse or	-0.03774004
-0.76107043	baptism or	-0.03774004
-0.76107043	opinion or	-0.03774004
-0.76107043	hurt or	-0.03774004
-1.0131152	Poor or	-0.03774004
-0.76107043	writing or	-0.03774004
-0.76107043	chiseled or	-0.03774004
-0.76107043	Won or	-0.03774004
-0.76107043	group or	-0.03774004
-0.76107043	Thing or	-0.03774004
-0.76107043	psychopathic or	-0.03774004
-1.1451906	Received or	-0.03774004
-0.76107043	cries or	-0.03774004
-0.76107043	Like or	-0.03774004
-0.76107043	selected or	-0.03774004
-0.76107043	patron or	-0.03774004
-0.76107043	embraced or	-0.03774004
-1.719325	a serious	-0.03774001
-2.688368	or serious	-0.03774004
-2.7123427	the serious	-0.03774004
-2.0044367	very serious	-0.03774004
-1.2854881	becoming serious	-0.03774004
-1.5787354	Became serious	-0.03774004
-0.82533664	serious condition	-0.097895734
-1.9106923	on condition	-0.03774004
-0.8317181	physical condition	-0.03774004
-0.81459844	financial condition	-0.03774004
-1.7807102	<s> One	-0.4518825
-2.360271	) One	-0.03774004
-0.99571615	One who	-0.12839049
-1.0988195	People who	-0.13141735
-1.806486	man who	-0.03774004
-1.599812	girl who	-0.03774004
-1.4488863	one who	-0.08178881
-0.80694205	guard who	-0.03774004
-1.0988195	custodian who	-0.03774004
-1.6106025	person who	-0.06959878
-1.5670112	someone who	-0.03774004
-1.265947	women who	-0.03774004
-1.265947	men who	-0.03774004
-1.7738672	but who	-0.03774004
-1.0988195	visitors who	-0.03774004
-1.5411453	parents who	-0.03774004
-1.265947	girls who	-0.03774004
-1.0988195	soldiers who	-0.03774004
-1.265947	persons who	-0.03774004
-0.80694205	lady who	-0.03774004
-0.99571615	people who	-0.03774004
-0.80694205	individual who	-0.03774004
-1.9007576	who always	-0.03774004
-2.606379	; always	-0.03774004
-2.3251534	( always	-0.03774004
-2.4294856	and always	-0.03774004
-1.8852687	is always	-0.03774004
-0.813634	receive always	-0.03774004
-1.7597618	always stay	-0.03774004
-2.5393815	To stay	-0.03774004
-1.1149046	Long stay	-0.03774004
-0.6862781	stay in	-0.03774004
-1.8847208	, in	-0.03774004
-1.6581771	; in	-0.066777185
-1.0802717	as in	-0.03774004
-0.7847509	overstaying in	-0.03774004
-1.5457556	Not in	-0.03774004
-1.4774674	long in	-0.03774004
-1.6162626	( in	-0.03774004
-1.6815593	used in	-0.03774004
-0.6862781	effort in	-0.03774004
-1.0563765	Lost in	-0.03774004
-0.7847509	Heavily in	-0.03774004
-1.8881187	not in	-0.03774004
-1.5589217	means in	-0.03774004
-1.3039708	Something in	-0.03774004
-1.4774674	out in	-0.03774004
-1.5701718	only in	-0.03774004
-1.5850335	which in	-0.03774004
-1.0563765	Life in	-0.03774004
-1.7259238	good in	-0.03774004
-0.7847509	Failed in	-0.03774004
-1.5145509	Always in	-0.13141735
-1.7020246	money in	-0.03774004
-1.0563765	Greedy in	-0.03774004
-1.6179168	but in	-0.03774004
-1.3039708	hearted in	-0.03774004
-1.3039708	friend in	-0.03774004
-1.4324867	when in	-0.03774004
-0.5183466	progress in	-0.03774004
-1.3124133	similar in	-0.03774004
-0.7847509	Financially in	-0.03774004
-1.4774674	was in	-0.03774004
-1.6743597	bad in	-0.03774004
-1.0563765	delicate in	-0.03774004
-1.4400455	food in	-0.03774004
-0.7847509	yield in	-0.03774004
-1.4324867	parents in	-0.03774004
-0.7847509	difference in	-0.03774004
-1.2049286	control in	-0.03774004
-1.7050737	woman in	-0.03774004
-1.3039708	put in	-0.03774004
-0.7847509	Lacking in	-0.03774004
-1.2049286	court in	-0.03774004
-0.7847509	Quick in	-0.03774004
-0.7847509	sighted in	-0.03774004
-1.3124133	hand in	-0.03774004
-1.0563765	careful in	-0.03774004
-0.7847509	pleasure in	-0.03774004
-0.7847509	serve in	-0.03774004
-0.7847509	conversations in	-0.03774004
-0.7847509	adept in	-0.03774004
-0.7847509	flapper in	-0.03774004
-0.7847509	regularly in	-0.03774004
-0.7847509	dangerous in	-0.03774004
-1.4400455	somebody in	-0.03774004
-0.7847509	present in	-0.03774004
-0.7847509	Difficulty in	-0.03774004
-0.7847509	Plentiful in	-0.03774004
-0.7847509	found in	-0.03774004
-0.7847509	Uncertainty in	-0.03774004
-1.0563765	died in	-0.03774004
-0.7847509	Engaged in	-0.03774004
-0.7847509	Believing in	-0.03774004
-0.7847509	placed in	-0.03774004
-0.7847509	stage in	-0.03774004
-0.7847509	Defeated in	-0.03774004
-1.0563765	bet in	-0.03774004
-0.7847509	Strout in	-0.03774004
-1.434494	In the	-0.03774004
-0.78538364	in the	-0.06959878
-1.8899513	, the	-0.03774004
-1.1136632	with the	-0.03774001
-1.7269033	; the	-0.03774001
-1.1229185	to the	-0.03774001
-1.007496	of the	-0.03774004
-0.87547386	for the	-0.03774004
-1.548363	Not the	-0.03774004
-1.7786883	be the	-0.03774004
-1.1680815	has the	-0.13141735
-1.6642065	and the	-0.03774004
-1.4868068	know the	-0.03774004
-1.2061162	under the	-0.03774004
-0.78520185	accustom the	-0.03774004
-0.9035402	on the	-0.03774004
-1.2061162	please the	-0.03774004
-1.4796944	out the	-0.03774004
-0.51855016	pass the	-0.13141735
-0.6690844	by the	-0.03774001
-1.5237556	all the	-0.03774004
-0.6865977	because the	-0.03774004
-0.78520185	follow the	-0.03774004
-0.51855016	against the	-0.03774004
-0.8927926	having the	-0.13141735
-1.3054631	where the	-0.03774004
-1.4419748	after the	-0.03774004
-1.434494	when the	-0.03774004
-0.83709383	from the	-0.03774004
-0.803639	if the	-0.03774004
-0.78520185	hearing the	-0.03774004
-1.4796944	was the	-0.03774004
-1.4419748	take the	-0.03774004
-1.0572197	using the	-0.03774004
-0.78520185	Prepare the	-0.03774004
-0.78520185	Making the	-0.03774004
-1.0238115	have the	-0.03774004
-1.3054631	through the	-0.03774004
-1.7979381	that the	-0.03774004
-0.78520185	When the	-0.03774004
-1.2061162	left the	-0.03774004
-0.78520185	watch the	-0.03774004
-1.5752146	With the	-0.03774004
-0.8953569	stop the	-0.03774004
-0.51855016	than the	-0.03774004
-0.78520185	Winning the	-0.03774004
-0.78520185	cured the	-0.03774004
-0.78520185	Gave the	-0.03774004
-1.0572197	during the	-0.03774004
-1.2061162	court the	-0.03774004
-1.2061162	win the	-0.03774004
-0.78520185	wetting the	-0.03774004
-0.78520185	roll the	-0.03774004
-1.0572197	become the	-0.03774004
-1.0572197	tell the	-0.03774004
-0.78520185	gain the	-0.03774004
-1.5423303	at the	-0.03774004
-0.78520185	clean the	-0.03774004
-1.0572197	At the	-0.03774004
-0.78520185	Expressed the	-0.03774004
-0.78520185	Denying the	-0.03774004
-0.78520185	outside the	-0.03774004
-0.78520185	confess the	-0.03774004
-0.78520185	deceive the	-0.03774004
-0.78520185	Grant the	-0.03774004
-0.78520185	Knows the	-0.03774004
-0.78520185	destroys the	-0.03774004
-2.3270547	the house	-0.082057804
-2.8972654	to house	-0.03774004
-1.5068607	big house	-0.03774004
-1.8413975	from house	-0.03774004
-3.57765	<s> Slowfoot	-0.03774004
-1.3175898	Weak ,	-0.03774004
-1.9271512	who ,	-0.03774004
-0.7888262	Slowfoot ,	-0.03774004
-0.7888262	policemen ,	-0.03774004
-0.7888262	detective ,	-0.03774004
-1.064025	Drunk ,	-0.03774004
-0.7888262	Rumor ,	-0.03774004
-1.064025	Stingy ,	-0.03774004
-1.5494584	weak ,	-0.03774004
-1.6695968	man ,	-0.03774004
-1.064025	bastard ,	-0.03774004
-0.7888262	Brittle ,	-0.03774004
-1.064025	Long ,	-0.03774004
-1.4194236	place ,	-0.03774004
-0.7888262	instance ,	-0.03774004
-0.7888262	den ,	-0.03774004
-0.7888262	theater ,	-0.03774004
-0.7888262	Dirty ,	-0.03774004
-1.064025	Brave ,	-0.03774004
-1.9388254	not ,	-0.03774004
-1.2157356	brave ,	-0.03774004
-1.3251319	intelligent ,	-0.03774004
-0.7888262	Secrets ,	-0.03774004
-0.7888262	exposed ,	-0.03774004
-1.3251319	seen ,	-0.03774004
-0.7888262	Works ,	-0.03774004
-1.6722403	&quot; ,	-0.082057804
-1.3925806	ugly ,	-0.03774004
-1.3925806	act ,	-0.03774004
-1.2157356	Rich ,	-0.03774004
-0.7888262	Husband ,	-0.03774004
-1.2157356	hope ,	-0.03774004
-1.2157356	dressed ,	-0.03774004
-0.7888262	leaves ,	-0.03774004
-0.7888262	Obeying ,	-0.03774004
-0.7888262	objection ,	-0.03774004
-1.3175898	him ,	-0.03774004
-1.064025	ailment ,	-0.13141735
-1.3925806	much ,	-0.03774004
-1.064025	habits ,	-0.03774004
-0.7888262	walo ,	-0.03774004
-0.7888262	intestines ,	-0.03774004
-0.7888262	liver ,	-0.03774004
-0.7888262	Kidney ,	-0.03774004
-0.7888262	beating ,	-0.03774004
-1.064025	couple ,	-0.03774004
-0.7888262	Popular ,	-0.03774004
-1.2236931	sadness ,	-0.03774004
-0.7888262	strike ,	-0.03774004
-0.7888262	Gentleman ,	-0.03774004
-1.064025	plants ,	-0.03774004
-0.7888262	necessities ,	-0.03774004
-0.7888262	normal ,	-0.03774004
-0.7888262	Expression ,	-0.03774004
-0.7888262	drinks ,	-0.03774004
-0.7888262	Pait ,	-0.03774004
-0.7888262	miserable ,	-0.03774004
-1.064025	knowledge ,	-0.03774004
-1.064025	wealth ,	-0.03774004
-2.4790385	who habitually	-0.03774004
-2.556116	, habitually	-0.03774004
-1.1156086	habitually sluggish	-0.03774004
-3.164751	; sluggish	-0.13141735
-3.1398456	<s> Treacherous	-0.13141735
-2.7744417	<s> People	-0.097895734
-1.116221	People charged	-0.03774004
-1.9328521	or with	-0.03774004
-1.4867421	One with	-0.03774004
-0.7952428	charged with	-0.03774004
-1.7162433	; with	-0.122249804
-1.7139336	man with	-0.03774004
-2.0095484	( with	-0.03774004
-1.2654827	used with	-0.03774004
-1.7631729	one with	-0.03774004
-1.9880477	person with	-0.03774004
-1.9901422	someone with	-0.03774004
-0.7952428	harmoniously with	-0.03774004
-1.6641213	another with	-0.03774004
-1.3456879	nothing with	-0.03774004
-1.4189417	act with	-0.03774004
-0.7952428	Relation with	-0.03774004
-0.7952428	relation with	-0.03774004
-0.7952428	Conversing with	-0.03774004
-1.4405082	talking with	-0.03774004
-1.4405082	well with	-0.03774004
-1.2330998	around with	-0.03774004
-1.076197	soldiers with	-0.03774004
-1.7833356	woman with	-0.03774004
-1.2330998	persons with	-0.03774004
-1.076197	Hot with	-0.03774004
-0.7952428	hit with	-0.03774004
-1.076197	Angry with	-0.03774004
-1.076197	Born with	-0.03774004
-0.7952428	eloped with	-0.03774004
-0.7952428	Courting with	-0.03774004
-0.7952428	works with	-0.03774004
-1.076197	along with	-0.03774004
-0.7952428	Pouting with	-0.03774004
-1.3456879	talk with	-0.03774004
-1.076197	living with	-0.03774004
-0.7952428	dealing with	-0.03774004
-0.7952428	mad with	-0.03774004
-0.7952428	filled with	-0.03774004
-0.7952428	fought with	-0.03774004
-0.7952428	bed with	-0.03774004
-0.7952428	shoot with	-0.03774004
-0.7952428	Quarrels with	-0.03774004
-0.7952428	ladies with	-0.03774004
-0.7952428	Agreed with	-0.03774004
-0.7952428	ripe with	-0.03774004
-0.7952428	Hiding with	-0.03774004
-2.4489412	- law	-0.03774004
-2.3270547	the law	-0.03774004
-2.4630637	with law	-0.03774004
-2.7547042	of law	-0.03774004
-1.5109916	law enforcement	-0.03774004
-0.8154343	Strick enforcement	-0.03774004
-1.0771004	Weak ;	-0.03774004
-0.7959805	minded ;	-0.082057804
-0.85895324	condition ;	-0.03774004
-1.4275495	with ;	-0.03774004
-1.1186104	law ;	-0.03774004
-0.91400665	enforcement ;	-0.03774004
-1.4251704	to ;	-0.03774004
-1.4433663	of ;	-0.03774004
-0.91400665	Stingy ;	-0.03774004
-1.2156476	weak ;	-0.03774004
-0.70284355	Destitute ;	-0.03774004
-0.9386562	poor ;	-0.03774004
-1.0525209	man ;	-0.03774004
-0.91400665	bastard ;	-0.03774004
-0.70284355	Traitor ;	-0.03774004
-1.434938	for ;	-0.03774004
-0.70284355	courted ;	-0.03774004
-1.0972108	wife ;	-0.03774004
-0.91400665	Brave ;	-0.03774004
-0.91400665	fight ;	-0.03774004
-1.187073	quarrel ;	-0.03774004
-1.1714833	long ;	-0.03774004
-0.70284355	newcomer ;	-0.03774004
-1.0156764	new ;	-0.03774004
-1.2532057	life ;	-0.03774004
-1.3332009	way ;	-0.03774004
-1.0390404	boastful ;	-0.03774004
-0.91400665	Afraid ;	-0.03774004
-0.70284355	Dirt ;	-0.03774004
-0.91400665	sense ;	-0.03774004
-0.70284355	skinned ;	-0.03774004
-1.1807163	work ;	-0.03774004
-0.91400665	Lost ;	-0.03774004
-1.0156764	news ;	-0.03774004
-0.70284355	Worthless ;	-0.03774004
-0.70284355	steals ;	-0.03774004
-1.1557711	state ;	-0.03774004
-0.70284355	Sweetheart ;	-0.03774004
-0.70284355	Sturdy ;	-0.03774004
-0.91400665	Lazy ;	-0.03774004
-0.70284355	willed ;	-0.03774004
-0.7245476	useless ;	-0.03774004
-1.3091207	person ;	-0.03774004
-1.2753645	on ;	-0.03774004
-1.1643955	do ;	-0.03774004
-1.0972108	intelligent ;	-0.03774004
-1.2023355	other ;	-0.03774004
-0.76113385	someone ;	-0.03774001
-0.91400665	fool ;	-0.03774004
-1.2621585	married ;	-0.03774004
-0.70284355	intensively ;	-0.03774004
-0.6266743	carefully ;	-0.03774004
-0.70284355	Similar ;	-0.03774004
-1.0390404	feelings ;	-0.03774004
-0.91400665	Misfortune ;	-0.03774004
-1.2489858	only ;	-0.03774004
-0.6266743	nature ;	-0.03774004
-0.91400665	inborn ;	-0.03774004
-0.70284355	Charitable ;	-0.03774004
-0.70284355	Accomodating ;	-0.03774004
-1.0156764	self ;	-0.03774004
-0.70284355	Courageous ;	-0.03774004
-1.1557711	danger ;	-0.03774004
-1.0972108	seen ;	-0.03774004
-0.70284355	expressions ;	-0.03774004
-1.3799331	is ;	-0.03774004
-0.9688433	easily ;	-0.03774004
-0.70284355	literature ;	-0.03774004
-0.70284355	grief ;	-0.03774004
-1.1894193	Always ;	-0.03774004
-1.5230665	&quot; ;	-0.03774004
-0.70284355	Penniless ;	-0.03774004
-1.3870972	money ;	-0.03774004
-1.1186104	ugly ;	-0.03774004
-0.7333632	mood ;	-0.03774004
-0.96691895	others ;	-0.03774004
-0.91400665	Thief ;	-0.03774004
-1.2694561	another ;	-0.03774004
-0.70284355	Friend ;	-0.082057804
-0.70284355	Heaven ;	-0.03774004
-0.60500336	death ;	-0.03774004
-1.0156764	belittled ;	-0.03774004
-0.9231719	character ;	-0.03774004
-1.0771004	hearted ;	-0.03774004
-0.70284355	Fitted ;	-0.03774004
-1.0771004	friend ;	-0.03774004
-0.91400665	embarassed ;	-0.03774004
-1.1643955	down ;	-0.03774004
-1.2258477	time ;	-0.03774004
-0.70284355	Fire ;	-0.03774004
-0.94585943	feeling ;	-0.03774004
-0.70284355	Foolish ;	-0.03774004
-0.91400665	Japanese ;	-0.03774004
-1.0156764	Death ;	-0.03774004
-1.0156764	Rich ;	-0.03774004
-1.1714833	already ;	-0.03774004
-1.0156764	tired ;	-0.03774004
-0.91400665	moment ;	-0.03774004
-0.91400665	need ;	-0.03774004
-0.6197704	mind ;	-0.03774004
-0.91400665	insane ;	-0.03774004
-1.0156764	price ;	-0.03774004
-0.47944784	fooled ;	-0.03774004
-0.70284355	Hating ;	-0.03774004
-1.0156764	angered ;	-0.03774004
-0.70284355	alright ;	-0.03774004
-1.2762157	up ;	-0.03774004
-1.2698137	bad ;	-0.03774004
-0.7333632	luck ;	-0.03774004
-0.70284355	Undiscriminating ;	-0.03774004
-0.91400665	seriously ;	-0.03774004
-1.0156764	consider ;	-0.03774004
-1.124931	something ;	-0.03774004
-0.70284355	Fulency ;	-0.03774004
-1.0156764	Intelligent ;	-0.03774004
-0.70284355	meek ;	-0.03774004
-1.0156764	quiet ;	-0.03774004
-0.70284355	clash ;	-0.03774004
-0.6266743	tongue ;	-0.03774004
-0.91400665	sick ;	-0.03774004
-0.70284355	Sympathetic ;	-0.03774004
-1.1186104	beautiful ;	-0.03774004
-0.70284355	Fate ;	-0.03774004
-1.0156764	speech ;	-0.03774004
-0.91400665	happen ;	-0.03774004
-0.91400665	opponent ;	-0.03774004
-0.70284355	costly ;	-0.03774004
-1.1362625	done ;	-0.03774004
-0.804289	talkative ;	-0.03774004
-1.0156764	bright ;	-0.03774004
-0.70284355	fastidiousl ;	-0.03774004
-1.0156764	rich ;	-0.03774004
-1.0771004	him ;	-0.03774004
-0.70284355	holes ;	-0.03774004
-1.0156764	dirty ;	-0.03774004
-0.70284355	difficult ;	-0.03774004
-1.0390404	job ;	-0.03774004
-0.70284355	despised ;	-0.03774004
-0.70284355	ashamed ;	-0.03774004
-0.91400665	fear ;	-0.03774004
-0.91400665	Slow ;	-0.03774004
-0.70284355	foot ;	-0.13141735
-0.70284355	maiden ;	-0.03774004
-1.0156764	truth ;	-0.03774004
-0.70284355	Worshipping ;	-0.03774004
-0.91400665	trouble ;	-0.03774004
-1.0156764	favor ;	-0.03774004
-0.70284355	embarass ;	-0.03774004
-0.91400665	honor ;	-0.03774004
-0.70284355	Prostitute ;	-0.03774004
-1.0390404	happiness ;	-0.03774004
-1.0156764	help ;	-0.03774004
-0.70284355	Nervous ;	-0.03774004
-0.91400665	loss ;	-0.03774004
-0.91400665	Angry ;	-0.03774004
-0.91400665	Boastfulness ;	-0.03774004
-0.70284355	Courageously ;	-0.03774004
-0.70284355	gone ;	-0.03774004
-1.0390404	intelligence ;	-0.03774004
-1.0771004	animals ;	-0.03774004
-0.70284355	Selfish ;	-0.03774004
-1.0771004	eyes ;	-0.03774004
-0.70284355	Worried ;	-0.03774004
-0.70284355	Doubtful ;	-0.03774004
-0.70284355	Humble ;	-0.03774004
-0.7333632	silent ;	-0.03774004
-1.0156764	hands ;	-0.03774004
-1.0156764	caretaker ;	-0.03774004
-0.70284355	Indisposed ;	-0.03774004
-0.70284355	disagreement ;	-0.03774004
-0.70284355	Powerful ;	-0.03774004
-0.70284355	Tallkative ;	-0.03774004
-0.70284355	Fluent ;	-0.03774004
-0.91400665	wise ;	-0.03774004
-1.1643955	people ;	-0.03774004
-0.91400665	Shameless ;	-0.03774004
-0.70284355	Industrious ;	-0.03774004
-0.91400665	thief ;	-0.03774004
-0.70284355	charitable ;	-0.03774004
-0.91400665	boast ;	-0.03774004
-0.70284355	feels ;	-0.03774004
-1.1486658	pity ;	-0.03774004
-0.70284355	oneself ;	-0.03774004
-0.70284355	yarns ;	-0.03774004
-0.91400665	gossiping ;	-0.03774004
-1.0771004	word ;	-0.03774004
-0.70284355	Deceitful ;	-0.03774004
-0.70284355	Spoiled ;	-0.03774004
-0.91400665	stealer ;	-0.03774004
-0.70284355	Boastful ;	-0.03774004
-0.70284355	Coward ;	-0.03774004
-1.0156764	come ;	-0.03774004
-0.91400665	headed ;	-0.03774004
-0.70284355	spent ;	-0.03774004
-0.91400665	revenge ;	-0.03774004
-0.70284355	hat ;	-0.03774004
-0.70284355	persuaded ;	-0.03774004
-0.70284355	Influential ;	-0.03774004
-0.70284355	Sensibility ;	-0.03774004
-0.70284355	Boastfuk ;	-0.03774004
-0.70284355	finding ;	-0.03774004
-0.70284355	Sick ;	-0.03774004
-0.70284355	Frowning ;	-0.03774004
-0.70284355	weather ;	-0.03774004
-0.70284355	Robbers ;	-0.03774004
-0.70284355	dreamer ;	-0.03774004
-0.91400665	Proud ;	-0.03774004
-0.70284355	cuckoo ;	-0.03774004
-0.70284355	Wealthy ;	-0.03774004
-1.0156764	restless ;	-0.03774004
-1.1643955	somebody ;	-0.03774004
-0.70284355	carelessness ;	-0.03774004
-0.70284355	clear ;	-0.03774004
-0.70284355	Fooled ;	-0.03774004
-0.7245476	talk ;	-0.03774004
-0.6266743	sleep ;	-0.03774004
-0.91400665	dress ;	-0.03774004
-0.70284355	Twilight ;	-0.03774004
-0.70284355	Uneasy ;	-0.03774004
-0.70284355	Hopeless ;	-0.03774004
-0.91400665	himself ;	-0.03774004
-0.70284355	indecision ;	-0.03774004
-0.91400665	Feeling ;	-0.03774004
-0.70284355	Angered ;	-0.03774004
-0.91400665	Suffering ;	-0.03774004
-0.70284355	Jealous ;	-0.03774004
-0.91400665	Quarreled ;	-0.03774004
-0.70284355	front ;	-0.03774004
-0.70284355	Furious ;	-0.03774004
-0.70284355	jealous ;	-0.03774004
-0.70284355	troubled ;	-0.03774004
-0.70284355	mercy ;	-0.03774004
-0.70284355	indigestion ;	-0.03774004
-0.70284355	Dumbfounded ;	-0.03774004
-0.70284355	Pretense ;	-0.03774004
-0.91400665	Marriage ;	-0.03774004
-0.70284355	vagabond ;	-0.03774004
-0.70284355	ardently ;	-0.03774004
-0.91400665	Poor ;	-0.03774004
-0.70284355	softly ;	-0.03774004
-0.91400665	strength ;	-0.03774004
-0.70284355	End ;	-0.03774004
-0.70284355	nagging ;	-0.03774004
-0.91400665	heaven ;	-0.03774004
-0.70284355	Talkative ;	-0.03774004
-0.70284355	Unreasonable ;	-0.03774004
-0.70284355	Feelings ;	-0.03774004
-0.91400665	object ;	-0.03774004
-0.70284355	majority ;	-0.03774004
-0.70284355	Attractive ;	-0.03774004
-0.70284355	sleeping ;	-0.03774004
-0.70284355	afternoon ;	-0.03774004
-0.70284355	Mature ;	-0.03774004
-0.70284355	sensitive ;	-0.03774004
-0.70284355	irritable ;	-0.03774004
-0.6266743	agreement ;	-0.03774004
-0.70284355	seriousness ;	-0.03774004
-0.91400665	laugh ;	-0.03774004
-0.70284355	appetite ;	-0.03774004
-0.70284355	obeyed ;	-0.03774004
-0.70284355	Unmerciful ;	-0.03774004
-0.70284355	Blind ;	-0.03774004
-0.70284355	chosen ;	-0.03774004
-0.70284355	Tyrant ;	-0.03774004
-0.70284355	mistakes ;	-0.03774004
-0.70284355	unsympathetic ;	-0.03774004
-0.70284355	Stupid ;	-0.03774004
-0.70284355	pretense ;	-0.03774004
-2.89972	the policemen	-0.03774004
-2.5718617	, detective	-0.03774004
-1.2411791	, etc	-0.2685063
-1.4782985	condition .	-0.03774004
-1.0700684	etc .	-0.3522159
-1.429838	place .	-0.03774004
-1.5145469	girl .	-0.03774004
-1.3539308	bachelor .	-0.03774004
-1.3474264	) .	-0.097895734
-1.2243309	value .	-0.03774004
-1.6005596	means .	-0.03774004
-1.52747	someone .	-0.13141735
-1.3284857	friends .	-0.03774004
-1.4120578	short .	-0.03774004
-2.1537652	&quot; .	-0.03774004
-1.4055612	ugly .	-0.03774004
-1.8899655	others .	-0.03774004
-1.3539308	livelihood .	-0.03774004
-1.3284857	friend .	-0.03774004
-1.0700684	visitors .	-0.03774004
-1.0700684	unmerciful .	-0.03774004
-1.3284857	punishment .	-0.03774004
-1.0700684	high .	-0.03774004
-1.2243309	angered .	-0.03774004
-1.2243309	support .	-0.03774004
-1.4657743	parents .	-0.03774004
-1.2243309	speech .	-0.03774004
-1.0700684	happen .	-0.03774004
-1.0700684	cost .	-0.03774004
-1.4120578	done .	-0.03774004
-0.7920227	pier .	-0.03774004
-0.7920227	behind .	-0.03774004
-1.418653	talkative .	-0.03774004
-1.2314696	insulted .	-0.03774004
-1.0700684	opposite .	-0.03774004
-1.0700684	dies .	-0.03774004
-0.7920227	mano .	-0.03774004
-0.52161443	daughters .	-0.03774004
-0.7920227	problem .	-0.03774004
-0.7920227	consequence .	-0.03774004
-0.7920227	asks .	-0.03774004
-1.2243309	say .	-0.03774004
-1.2243309	day .	-0.03774004
-1.0700684	importance .	-0.03774004
-0.7920227	individuals .	-0.03774004
-0.7920227	benefit .	-0.03774004
-0.7920227	heroes .	-0.03774004
-0.7920227	obsolete .	-0.03774004
-0.7920227	confirmation .	-0.03774004
-0.7920227	pushed .	-0.03774004
-0.7920227	former .	-0.03774004
-0.7920227	dressing .	-0.03774004
-0.7920227	fulfilled .	-0.03774004
-0.7920227	qualities .	-0.03774004
-0.7920227	istelling .	-0.03774004
-3.1398456	<s> Drunk	-0.03774004
-3.57765	<s> Rumor	-0.03774004
-2.5386689	, gossip	-0.03774004
-2.9437928	to gossip	-0.03774004
-0.8150815	receiving gossip	-0.03774004
-1.0796223	<s> To	-0.095485225
-2.575796	To forget	-0.22727714
-2.7744417	<s> Old	-0.03774004
-3.1068091	<s> Already	-0.03774004
-1.2908459	Old Already	-0.03774004
-3.57765	<s> Changeable	-0.03774004
-2.3898005	in as	-0.03774004
-2.268359	, as	-0.03774004
-0.8074167	Changeable as	-0.03774004
-1.8256387	used as	-0.03774004
-1.6027662	out as	-0.03774004
-1.3838904	said as	-0.03774004
-0.8074167	breathing as	-0.03774004
-1.0997493	Same as	-1.0925785
-2.4547865	&quot; as	-0.03774004
-1.2093005	same as	-0.13141735
-1.472596	act as	-0.03774004
-1.3838904	meaning as	-0.3522159
-1.2673141	consider as	-0.03774004
-1.5463866	food as	-0.03774004
-1.2701313	tongue as	-0.03774004
-1.2673141	girls as	-0.03774004
-0.8074167	count as	-0.03774004
-1.0997493	died as	-0.03774004
-1.0997493	so as	-0.03774004
-1.558415	- to	-0.13141735
-1.3528445	or to	-0.03774001
-1.3642828	house to	-0.03774004
-1.1520966	; to	-0.054928355
-1.3616353	as to	-0.03774004
-1.439604	weak to	-0.03774004
-0.08861675	referring to	-0.18316221
-0.5096844	Referring to	-0.17485255
-1.3066677	just to	-0.03774004
-0.5170195	used to	-0.03774001
-1.5404769	and to	-0.03774004
-1.8803107	one to	-0.03774004
-1.7044213	not to	-0.03774004
-1.3066677	body to	-0.03774004
-1.4635093	means to	-0.03774004
-0.9922339	given to	-0.03774004
-1.8080562	someone to	-0.03774004
-1.4875401	married to	-0.03774004
