Paglilipat ; 0.0032051
Paglilipat wedlock 0.3333333
Paglilipat Marriage 0.2500000
Balot debt 0.2000000
Balot Heavily 0.3333333
Balot in 0.0138889
Damo Treacherous 0.1666667
Bata Sweetheart 1.0000000
Bata ; 0.0032051
Bata employee 1.0000000
Panay stage 0.5000000
Panay in 0.0138889
Panay of 0.0088496
Panay A 0.0153846
Panay when 0.1666667
Panay adolesscent 1.0000000
Panay life 0.1111111
Panay boy 0.5000000
hininga someone 0.0357143
hininga Same 0.0384615
hininga ang 0.0370370
hininga hininga 1.0000000
hininga nagsisikip 0.3333333
hininga as 0.0256410
hininga &quot; 0.0224719
Boses voice 0.2500000
Boses very 0.0625000
Boses soft 1.0000000
Boses A 0.0153846
bakod genuine 0.5000000
utang referring 0.0476190
utang of 0.0088496
utang any 0.2000000
utang prizes 1.0000000
utang debts 0.3333333
utang ) 0.0333333
utang remebery 1.0000000
utang usually 0.0909091
utang ( 0.0303030
utang to 0.0112360
utang debt 0.2000000
utang interpretation 0.3333333
utang gratitude 0.1666667
utang seem 0.3333333
Pagbuhatan the 0.0082645
Pagbuhatan coming 0.3333333
Pagbuhatan night 0.2000000
Pagbuhatan At 0.3333333
Pagbuhatan of 0.0088496
Buhay Easily 0.1666667
Buhay permanently 0.3333333
Buhay seen 0.1666667
Buhay stays 0.5000000
Buhay NULL 0.0124224
Buhay brave 0.3333333
Buhay on 0.1000000
dampot Unconscious 0.3333333
paurong in 0.0138889
paurong who 0.0200000
paurong progress 0.5000000
paurong wealth 0.2500000
paurong not 0.0151515
paurong but 0.1000000
paurong ages 1.0000000
paurong does 0.0714286
paurong person 0.0256410
Mabuting caretaker 0.2000000
Mabuting or 0.0080645
Mabuting good 0.0434783
Mabuting Good 0.3333333
Mabuting people 0.1666667
kanyon daughter 1.0000000
turing debt 0.2000000
turing reciprocate 0.2000000
turing gratitude 0.1666667
turing of 0.0088496
Alagad charged 1.0000000
Alagad People 0.3333333
dibdib an 0.0555556
dibdib silent 0.2000000
dibdib Wife 0.1250000
dibdib feels 0.5000000
dibdib Heaving 0.3333333
dibdib speech 0.2500000
dibdib sadness 0.3333333
dibdib ; 0.0064103
dibdib ill 0.1666667
dibdib proud 0.1666667
dibdib great 0.3333333
dibdib feeling 0.0833333
dibdib power 0.3333333
dibdib NULL 0.0310559
dibdib sympathetic 0.5000000
dibdib With 0.0588235
dibdib ownership 0.3333333
dibdib with 0.0208333
dibdib Married 0.1000000
dibdib - 0.0140845
dibdib Haughtily 1.0000000
Binuo a 0.0075758
Binuo personal 0.5000000
Binuo decision 0.5000000
Binuo Made 0.2500000
dakot Boastfulness 0.2000000
Dili critical 0.2000000
Bigatin - 0.0281690
Bigatin to 0.0056180
Bigatin , 0.0208333
Bigatin influential 0.5000000
Bigatin ; 0.0032051
Bigatin do 0.1000000
Bigatin Well 0.2000000
Bigatin intelligent 0.1428571
tainga character 0.1111111
tainga the 0.0165289
tainga NULL 0.0062112
tainga is 0.0250000
silim evening 0.5000000
Ahon A 0.0153846
Ahon has 0.1000000
Ahon arrived 1.0000000
Ahon just 0.2000000
sinaing cooked 0.3333333
Umutang person 0.0256410
Umutang another 0.0833333
Umutang Murdered 0.5000000
Magdadala Will 0.2000000
Magdadala responsibility 0.2500000
Magdadala shoulder 0.5000000
Ilibing To 0.0131579
Ilibing forget 0.1111111
kuko from 0.1000000
kuko one 0.0185185
kuko with 0.0208333
kuko whom 0.3333333
kuko another 0.0833333
Tinawag Died 0.0588235
dunong bright 0.4000000
dunong ; 0.0032051
dunong incomparably 0.1111111
Ikaapat press 0.3333333
naging Disillusionment 0.1666667
Kumakagat try 1.0000000
Kumakagat all 0.1000000
Kumakagat To 0.0131579
Kumakagat NULL 0.0062112
Kaputol Brother 0.3333333
Kaputol Sister 1.0000000
Kaputol or 0.0080645
Habi Product 0.5000000
Habi of 0.0088496
Habi careless 1.0000000
Dilang eloquence 0.5000000
Nagwalang Wealthy 0.3333333
Nagwalang with 0.0208333
Nagwalang plenty 0.3333333
Nagwalang money 0.0625000
Nagwalang ; 0.0032051
Nagwalang of 0.0088496
Nasira mentally 0.2500000
Nasira deranged 0.5000000
Nasira insane 0.2500000
Nasira Became 0.1666667
Nasira became 0.2000000
na needing 0.2000000
na stop 0.1428571
na all 0.1000000
na fighting 0.2500000
na time 0.1111111
na duration 0.2500000
na talent 0.3333333
na stage 0.5000000
na sympathetic 0.5000000
na shy 0.3333333
na give 0.2000000
na Foreseeing 0.3333333
na feet 0.2500000
na child 0.1250000
na alike 0.3333333
na sacrifices 0.3333333
na washing 0.5000000
na Dying 0.2000000
na Disillusionment 0.1666667
na plan 0.2500000
na line 0.5000000
na labi 0.2500000
na Undecided 0.3333333
na Full 0.5000000
na happen 0.3333333
na duty 0.5000000
na hurts 0.5000000
na ; 0.0224359
na habitually 0.3333333
na live 0.1666667
na a 0.0227273
na bright 0.2000000
na Strick 0.3333333
na dislikes 0.3333333
na Prison 0.3333333
na press 0.3333333
na witty 0.2500000
na dumbfounded 0.3333333
na respectable 0.3333333
na filthy 0.3333333
na borrowed 0.3333333
na of 0.0088496
na do 0.1000000
na midnight 0.2500000
na permanently 0.3333333
na Already 0.1666667
na lead 1.0000000
na courageous 0.2500000
na known 0.3333333
na nature 0.1666667
na sleepy 0.3333333
na NULL 0.0248447
na embarassed 0.2500000
na glorious 1.0000000
na old 0.2000000
na fixed 0.5000000
na luck 0.2222222
na man 0.0714286
Labi parents 0.2000000
Labi Grave 0.1111111
Labi . 0.0250000
Labi her 0.1666667
Labi returned 0.5000000
ahas company 0.2000000
ahas spellbound 0.2500000
tuntungan in 0.0138889
tuntungan a 0.0075758
tuntungan attaining 0.5000000
tuntungan one 0.0185185
tuntungan &apos;s 0.0285714
tuntungan means 0.1111111
tuntungan used 0.1111111
tuntungan as 0.0256410
tuntungan Anything 0.2500000
&apos;t bribe 0.3333333
&apos;t Skinny 0.3333333
&apos;t Always 0.0833333
&apos;t conclusion 0.3333333
&apos;t words 0.1000000
&apos;t NULL 0.0124224
Ulilang father 0.0909091
Ulilang Without 0.2500000
Ulilang mother 0.1428571
Ulilang or 0.0080645
tadhana mishap 0.2500000
Buwaya Greedy 0.3333333
Buwaya Usurers 0.3333333
kabilang In 0.0714286
kabilang the 0.0082645
kabilang where 0.2500000
kabilang will 0.1666667
kabilang soul 0.3333333
kabilang after 0.1111111
kabilang death 0.1111111
kabilang heaven 0.5000000
kabilang be 0.0322581
Binitay Cheated 0.2500000
makain believe 0.3333333
makain force 0.1428571
makain self 0.1111111
makain one 0.0185185
makain Cannot 0.1250000
makain &apos;s 0.0285714
makain to 0.0056180
singkit Power 1.0000000
singkit ; 0.0032051
singkit Japanese 0.6666667
Mabigat In 0.0714286
Mabigat Indisposed 1.0000000
Mabigat silently 0.5000000
Mabigat accord 1.0000000
Mabigat Powerful 0.3333333
Mabigat a 0.0151515
Mabigat antipathy 0.3333333
Mabigat Hard 0.2500000
Mabigat disagreement 1.0000000
Mabigat headache 0.3333333
Mabigat not 0.0151515
Mabigat NULL 0.0124224
Mabigat proud 0.1666667
Mabigat in 0.0277778
katawan challenging 0.2000000
katawan indisposed 1.0000000
katawan NULL 0.0248447
katawan perform 0.3333333
katawan Sturdy 0.3333333
katawan is 0.0500000
katawan Lazy 0.1666667
katawan body 0.1428571
katawan one 0.0370370
katawan who 0.0400000
katawan or 0.0080645
katawan Intelligent 0.1111111
katawan working 0.1666667
Takaw Inflammable 0.3333333
Takaw of 0.0088496
Takaw charming 0.3333333
Takaw sleeping 0.5000000
Takaw Fond 0.5000000
Takaw always 0.1000000
Takaw sleepy 0.3333333
Takaw Attractive 1.0000000
Mahal family 0.2500000
Mahal from 0.1000000
Mahal a 0.0075758
Mahal respectable 0.3333333
Mahal coming 0.3333333
Langit characteristics 0.2500000
Langit Complete 1.0000000
Langit or 0.0080645
Langit punishment 0.1666667
Langit extremely 0.5000000
Langit happiness 0.2000000
Langit opposite 0.3333333
Langit customs 0.2500000
Langit , 0.0208333
Langit . 0.0250000
Langit habits 0.5000000
Di NULL 0.0248447
Di looking 0.2500000
Di met 0.5000000
Di expressl 0.2500000
Di gentle 0.2500000
Di area 0.3333333
Di Very 0.0476190
kanin another 0.0833333
kanin NULL 0.0062112
kanin &apos;s 0.0285714
kanin hatred 0.2000000
kanin in 0.0138889
kanin serve 0.5000000
kakawag and 0.0208333
kakawag inattentively 1.0000000
kakawag slowly 0.2500000
pato NULL 0.0062112
Dambana married 0.0588235
Dambana get 0.2500000
Dambana To 0.0131579
Karamdaman ; 0.0032051
Tahi Shameless 0.0769231
basahan considered 0.5000000
basahan worthless 0.5000000
basahan Anything 0.2500000
katihan Usurers 0.3333333
Kalog Foolish 1.0000000
Kalog mentally 0.2500000
Kalog unbalanced 0.5000000
Kalog ; 0.0032051
Magputok To 0.0131579
Nagkabuhol someone 0.0357143
Nagkabuhol Married 0.1000000
Binakbakan amount 1.0000000
Binakbakan give 0.2000000
Binakbakan a 0.0075758
Binakbakan someone 0.0357143
Binakbakan to 0.0056180
Binakbakan big 0.1666667
Binakbakan Forced 0.5000000
Binakbakan out 0.1000000
Tulak thing 0.1000000
Tulak which 0.1111111
Tulak in 0.0138889
Tulak much 0.2500000
Tulak he 0.1428571
Tulak likes 0.5000000
Tulak reality 0.5000000
Tulak very 0.0625000
piraso &quot; 0.0224719
piraso ang 0.0370370
piraso mukha 0.3333333
piraso of 0.0088496
piraso sambakol 1.0000000
Naghalo no 0.1111111
Utos that 0.0555556
Utos needs 0.5000000
Utos Command 1.0000000
Bukal By 1.0000000
Bukal nature 0.1666667
Bukal ; 0.0032051
Bukal inborn 0.2500000
agos contradict 0.3333333
agos to 0.0056180
lipunan Socialite 0.3333333
Hilong Confused 0.5000000
Hilong and 0.0208333
Tuntungan put 0.2000000
Tuntungan pot 0.3333333
Tuntungan on 0.1000000
Tuntungan To 0.0131579
Tuntungan cover 1.0000000
Tuntungan the 0.0082645
Pinakain race 0.3333333
Pinakain Defeated 0.5000000
Pinakain a 0.0075758
Pinakain in 0.0138889
magbara NULL 0.0062112
Pag Changing 0.5000000
Pag ownership 0.3333333
Pag NULL 0.0124224
Pag Child 0.1111111
Dibdib feelings 0.2000000
suso &quot; 0.0112360
suso - 0.0140845
suso pagong 1.0000000
tuka meals 0.2000000
Lumang heard 0.5000000
Lumang No 0.1111111
bithay chance 0.2500000
Bulaklak expressions 0.5000000
Bulaklak words 0.1000000
Bulaklak flattering 0.2500000
Bulaklak Superficial 0.5000000
Bulaklak Socialite 0.3333333
amoy very 0.0625000
amoy belonging 1.0000000
amoy a 0.0075758
tsiko Drunk 0.3333333
tsiko , 0.0208333
tsiko intoxicated 0.3333333
Makadurog extreme 0.2500000
Makadurog which 0.1111111
Makadurog or 0.0080645
Makadurog anger 0.1111111
Makadurog That 1.0000000
Makadurog gried 1.0000000
Makadurog sadness 0.3333333
Makadurog even 0.5000000
Makadurog gives 0.5000000
basag put 0.2000000
dili control 0.2500000
dili ponder 0.3333333
Napakahig gossips 1.0000000
Napakahig Believing 1.0000000
Napakahig in 0.0138889
hiya to 0.0056180
hiya ang 0.0370370
hiya tabla 1.0000000
hiya feel 0.3333333
hiya Shameless 0.0769231
hiya almost 0.2500000
hiya &quot; 0.0224719
hiya mukha 0.3333333
hiya synonyms 0.5000000
Tabla Shameless 0.0769231
Matang time 0.1111111
Matang ill 0.1666667
Matang long 0.1250000
Matang or 0.0080645
Matang anger 0.1111111
Matang Keeps 0.3333333
Matang feeling 0.0833333
Matang for 0.0208333
Matang - 0.0140845
Labas Outside 1.0000000
Labas less 0.3333333
Labas &apos;s 0.0285714
Labas jurisdiction 0.3333333
Labas one 0.0185185
inihaw a 0.0075758
inihaw living 0.3333333
inihaw hard 0.2500000
inihaw for 0.0208333
natuka not 0.0151515
natuka talk 0.2000000
natuka ; 0.0032051
natuka spellbound 0.2500000
Patawirin ; 0.0032051
Patawirin a 0.0075758
Patawirin serious 0.0909091
Patawirin dying 0.5000000
Patawirin condition 0.1250000
Patawirin very 0.0625000
Patawirin In 0.0714286
buho boast 0.2500000
Mukhang worships 0.5000000
Mukhang moment 0.3333333
Mukhang Greedy 0.3333333
Mukhang ; 0.0032051
Mukhang in 0.0138889
Mukhang money 0.1250000
Magsusi silent 0.2000000
Magsusi To 0.0131579
Magsusi remain 0.2500000
kumot in 0.0138889
kumot need 0.3333333
kumot Destitute 0.3333333
kumot kabatakan 0.5000000
Ilaw Mother 0.3333333
Matamis Old 0.3333333
Matamis bachelor 0.1666667
Hampas &apos;s 0.0285714
Hampas NULL 0.0062112
Hampas setting 1.0000000
Hampas punishment 0.1666667
Hampas God 1.0000000
Hampas ) 0.0333333
Hampas Vagabond 0.1666667
Hampas sun 1.0000000
Tumayo Scared 0.2500000
Nagbabanat &quot; 0.0224719
Nagbabanat nagbabanat 1.0000000
Nagbabanat Same 0.0384615
Nagbabanat as 0.0256410
Nagbabanat ng 0.1111111
Nagbabanat buto 0.2000000
Nagbabanat Disgustingly 0.3333333
Kapalin wealthy 0.1666667
Kapalin , 0.0208333
Kapalin Rich 0.1666667
biya not 0.0151515
biya mind 0.0666667
biya a 0.0075758
biya dull 0.1428571
Salaming careful 0.5000000
Nakikipagbulungan married 0.0588235
Nakikipagbulungan Got 0.3333333
Mamangka time 0.1111111
Mamangka two 0.5000000
Mamangka or 0.0080645
Mamangka men 1.0000000
Mamangka women 0.5000000
Mamangka same 0.1000000
dambana marry 0.3333333
tyan lazy 0.2000000
Binatak the 0.0082645
Binatak foul 0.5000000
Binatak one 0.0185185
Binatak pass 1.0000000
Binatak make 0.2500000
Binatak examination 0.5000000
Binatak to 0.0056180
Binatak Employed 1.0000000
Binatak means 0.1111111
lagay In 0.0714286
lagay condition 0.1250000
lagay serious 0.0909091
lagay a 0.0075758
lagay physical 0.1666667
Magkasamaang disagree 0.3333333
Magkasamaang to 0.0056180
Magkasamaang To 0.0131579
Magkasamaang quarrel 0.1428571
Magkasamaang ; 0.0032051
Butas money 0.0625000
Butas having 0.2000000
Butas Penniless 0.5000000
Butas no 0.1111111
saya Hurrying 0.3333333
saya NULL 0.0062112
paningin ; 0.0032051
paningin to 0.0056180
Mahinhing Modest 1.0000000
puso Married 0.1000000
puso considerate 0.3333333
puso commit 1.0000000
puso lovers 0.3333333
puso forgive 0.5000000
puso butas 0.5000000
puso helpful 0.5000000
puso who 0.0200000
puso mistakes 1.0000000
puso couple 0.3333333
puso . 0.0250000
puso shameless 0.2000000
puso NULL 0.0124224
puso defects 0.3333333
puso people 0.1666667
puso ; 0.0032051
puso extreme 0.5000000
puso unmerciful 0.5000000
puso does 0.0714286
puso hearted 0.1111111
puso full 0.3333333
puso puso 0.5000000
puso mental 0.2500000
puso pay 0.1111111
Harapin that 0.0555556
Harapin To 0.0131579
Harapin cooked 0.3333333
Harapin being 0.2000000
Harapin the 0.0082645
Harapin is 0.0250000
Harapin rice 1.0000000
Harapin watch 1.0000000
laway Inducing 1.0000000
laway around 0.3333333
Pinagbuklod Married 0.1000000
Nilulumot short 0.1666667
Nilulumot only 0.1111111
Nilulumot Of 0.3333333
Nilulumot duration 0.2500000
Ipagbili ; 0.0032051
Ipagbili cheat 0.3333333
Ipagbili fool 0.5000000
Ipagbili to 0.0056180
Ipagbili To 0.0131579
Kusang voluntarily 0.3333333
Kusang Doing 0.3333333
Kusang a 0.0075758
Kusang thing 0.1000000
sungit fastidiousl 0.5000000
sungit hard 0.2500000
sungit to 0.0056180
sungit please 0.3333333
sungit very 0.0625000
Basang abandoned 0.3333333
Basang persistent 1.0000000
Basang unreasonably 1.0000000
Tawang hypocrisy 0.5000000
Tawang A 0.0153846
Nabagsak Has 0.1428571
Nabagsak small 0.2000000
Nabagsak pox 1.0000000
Nabagsak - 0.0140845
masama NULL 0.0062112
Ipinagtatanong hinahabol 1.0000000
Ipinagtatanong gunting 0.5000000
Ipinagtatanong Same 0.0384615
Ipinagtatanong ng 0.1111111
Ipinagtatanong as 0.0256410
Ipinagtatanong &quot; 0.0224719
tikin Inclined 1.0000000
Binuksan one 0.0185185
Binuksan Revealed 0.3333333
Binuksan &apos;s 0.0285714
Binuksan feelings 0.2000000
Buntot following 1.0000000
Buntot Always 0.0833333
nganga talking 0.1000000
nganga words 0.1000000
nilalakad last 0.3333333
nilalakad word 0.1666667
nilalakad an 0.0555556
nilalakad insinuating 1.0000000
nilalakad With 0.0588235
tinalupan Paid 1.0000000
Sumalangit the 0.0082645
Sumalangit out 0.1000000
Sumalangit To 0.0131579
Sumalangit rain 1.0000000
Sumalangit in 0.0138889
Sumalangit go 0.2000000
alaala or 0.0080645
alaala which 0.1111111
alaala forgotten 1.0000000
alaala something 0.0666667
alaala efforts 0.5000000
alaala recall 1.0000000
alaala to 0.0056180
tinda everything 0.2500000
buntot Afraid 0.2500000
buntot referring 0.0476190
buntot Spoiled 0.3333333
bibig condition 0.1250000
bibig feelings 0.2000000
bibig s 0.3333333
bibig himself 0.3333333
bibig want 0.3333333
bibig silent 0.2000000
bibig expression 0.5000000
bibig &apos; 0.3333333
bibig orator 0.3333333
bibig an 0.0555556
bibig thief 0.3333333
bibig future 0.3333333
bibig Disappointed 0.3333333
bibig ) 0.0333333
bibig person 0.0256410
bibig done 0.3333333
bibig NULL 0.0124224
bibig unmarried 0.3333333
bibig interfere 0.5000000
bibig ailment 0.2500000
bibig using 0.3333333
bibig No 0.1111111
bibig evidence 0.2500000
bibig to 0.0056180
bibig Referring 0.1000000
bibig woman 0.0833333
bibig friendly 0.3333333
bibig right 1.0000000
bibig not 0.0151515
bibig income 0.2500000
kapangyarihan The 0.0416667
kapangyarihan press 0.3333333
Magbibig been 0.2500000
Magbibig has 0.1000000
Magbibig said 0.3333333
Magbibig To 0.0131579
Magbibig what 0.1111111
Magbibig realize 0.5000000
basang understanding 0.2500000
Kukong a 0.0075758
Kukong of 0.0088496
Kukong hawk 1.0000000
abaka Fierce 0.1428571
gawang and 0.0208333
gawang big 0.1666667
gawang Really 0.3333333
gawang really 0.2500000
gawang difficult 1.0000000
gawang hard 0.2500000
gawang ; 0.0032051
gawang a 0.0075758
Pangamoy ; 0.0032051
Pangamoy Feeling 0.5000000
Pangamoy detecting 1.0000000
asin egostic 0.5000000
asin suffer 0.3333333
asin To 0.0131579
asin NULL 0.0124224
asin embarassed 0.2500000
asin brag 0.3333333
asin labi 0.2500000
Nakadikit someone 0.0357143
Nakadikit Married 0.1000000
Kapus Unfortunate 0.3333333
Inaamag a 0.0075758
Inaamag time 0.1111111
Inaamag long 0.1250000
Inaamag quite 0.3333333
Inaamag been 0.2500000
Inaamag Had 0.2500000
Inaamag for 0.0208333
Inaamag kept 0.5000000
Nagbububusa Always 0.0833333
Nagbububusa egoistic 0.3333333
Nagbububusa himself 0.3333333
Nagbububusa praising 1.0000000
Nagbububusa ; 0.0032051
sinasabi ability 0.2000000
sinasabi or 0.0080645
sinasabi Without 0.2500000
sinasabi already 0.1250000
sinasabi importance 0.2500000
sinasabi Old 0.3333333
sinasabi . 0.0250000
mo complete 0.3333333
mo to 0.0056180
mo consider 0.3333333
mo as 0.0256410
mo loss 0.5000000
mo give 0.2000000
Tisuring belittled 0.2500000
Tisuring or 0.0080645
Tisuring often 0.1666667
Tisuring is 0.0250000
Tisuring A 0.0153846
Tisuring insulted 0.2500000
Madaling irritated 0.2000000
Madaling Easily 0.1666667
Madaling or 0.0080645
Madaling angered 0.3333333
Nagbibilang person 0.0256410
Nagbibilang Looking 0.5000000
Nagbibilang job 0.2500000
Nagbibilang a 0.0075758
Nagbibilang loudly 0.3333333
Nagbibilang jobless 0.5000000
Nagbibilang for 0.0208333
Magpako show 0.5000000
Magpako fondness 1.0000000
Magpako for 0.0208333
Magpako something 0.0666667
Kaaway robber 0.3333333
Kaaway ; 0.0032051
Kaaway Thief 0.3333333
Katapikang kadaupang 0.5000000
Katapikang - 0.0140845
Katapikang Same 0.0384615
Katapikang &quot; 0.0224719
Katapikang as 0.0256410
Katapikang palad 0.2500000
Batakin the 0.0082645
Batakin body 0.1428571
Batakin accustom 1.0000000
Batakin working 0.1666667
Batakin To 0.0131579
Batakin to 0.0056180
Kalabasang A 0.0153846
Kalabasang person 0.0256410
Kalabasang conflagration 0.5000000
Kalabasang flight 0.5000000
Kalabasang who 0.0200000
Naglalako win 0.5000000
Naglalako for 0.0208333
Naglalako somebody 0.2000000
Naglalako his 0.0555556
Naglalako favor 0.3333333
Naglalako Working 0.5000000
Kamay is 0.0250000
Kamay NULL 0.0062112
Kamay Strick 0.3333333
bayawal with 0.0208333
bayawal Hiding 1.0000000
bayawal head 0.5000000
bayawal seen 0.1666667
Nabasket enchanted 1.0000000
Nabasket or 0.0080645
Nabasket Charmed 1.0000000
Yakap pretense 0.5000000
Yakap hug 1.0000000
Yakap pretention 1.0000000
Yakap embraced 1.0000000
Yakap An 0.1666667
Yakap or 0.0080645
Yakap of 0.0088496
Yakap a 0.0075758
patay Slow 0.2500000
patay foot 0.5000000
patay sluggish 0.2000000
patay - 0.0140845
Tao study 0.2500000
Tao relation 0.3333333
Tao to 0.0056180
Tao chance 0.2500000
Tao bachelor 0.1666667
papuri congratulations 0.3333333
butas becoming 0.2000000
butas Can 0.2500000
butas reversed 0.3333333
butas &quot; 0.0112360
butas reciprocate 0.2000000
butas &apos;t 0.5000000
butas reason 0.3333333
butas see 0.2000000
butas any 0.2000000
butas NULL 0.0124224
pisi money 0.0625000
pisi broke 0.2500000
pisi little 0.3333333
pisi With 0.0588235
tanaw due 0.2000000
tanaw distance 1.0000000
tanaw or 0.0080645
tanaw ine 1.0000000
tanaw sight 0.5000000
tanaw &apos;s 0.0285714
Halang . 0.0250000
Halang kill 0.3333333
Halang Not 0.0666667
Halang to 0.0112360
Halang die 1.0000000
Halang afraid 0.2500000
Halang someone 0.0357143
Halang or 0.0080645
Inaalat good 0.0434783
Inaalat luck 0.1111111
Inaalat Losing 0.5000000
Bungag creative 0.5000000
Bungag especially 0.2000000
Bungag , 0.0208333
Bungag Works 1.0000000
Bungag pertaining 0.5000000
Bungag art 1.0000000
Bungag to 0.0056180
Bungag literature 1.0000000
Bungag ; 0.0032051
Malakas loob 0.2000000
Malakas mahina 1.0000000
Malakas NULL 0.0062112
Malakas &quot; 0.0224719
Malakas ang 0.0370370
matsing or 0.0080645
matsing enchanting 1.0000000
matsing eyes 0.2500000
ilaw could 0.5000000
ilaw longer 0.5000000
ilaw no 0.1111111
ilaw see 0.2000000
ilaw light 0.3333333
ilaw Blind 0.3333333
Maliwanaf This 1.0000000
Maliwanaf world 1.0000000
Litaw Popular 1.0000000
Litaw known 0.3333333
Litaw - 0.0140845
Litaw well 0.2000000
Litaw , 0.0208333
wala down 0.1428571
wala look 0.5000000
wala belittle 0.3333333
wala To 0.0131579
wala forget 0.1111111
Palung for 0.0208333
Palung person 0.0256410
Palung A 0.0153846
Palung in 0.0138889
Palung somebody 0.2000000
Palung placed 0.3333333
Naghuhugas valueless 0.3333333
Naghuhugas ; 0.0032051
Naghuhugas became 0.2000000
Naghuhugas Lost 0.2500000
sisidlan irascible 0.3333333
at Applies 0.3333333
at turns 1.0000000
at company 0.2000000
at his 0.0555556
at extremely 0.5000000
at Rivals 0.3333333
at back 0.2500000
at talking 0.1000000
Ilista will 0.1666667
Ilista paid 0.5000000
Ilista Debt 0.5000000
Ilista anymore 0.2000000
Ilista not 0.0151515
Ilista that 0.0555556
Ilista be 0.0322581
Mabunganga ; 0.0032051
Mabunganga Tallkative 1.0000000
Mabunganga termagant 1.0000000
ginto eloquence 0.5000000
ginto Fulency 1.0000000
ginto Still 0.2000000
ginto ; 0.0032051
Magbukas what 0.1111111
Magbukas tell 0.5000000
Magbukas To 0.0131579
Magbukas truth 0.2500000
Magbukas one 0.0185185
Magbukas the 0.0082645
Magbukas feels 0.5000000
Magbukas reveal 1.0000000
bigas A 0.0153846
bulaklak disgraced 0.5000000
bulaklak A 0.0153846
sisi fault 0.3333333
Nagbayad Hopeless 1.0000000
Nagbayad dreaming 0.3333333
Nagbayad ; 0.0032051
watawat surrender 0.2000000
balintanaw someone 0.0357143
mababa Prostitute 0.3333333
mababa a 0.0075758
mababa prostitute 0.2500000
mababa woman 0.0833333
mababa bad 0.0666667
Huling Grave 0.1111111
Mapangmata belittles 0.2500000
Mapangmata others 0.0526316
Mapangmata always 0.1000000
Mapangmata who 0.0200000
Mapangmata ; 0.0032051
Mapangmata Boastfuk 1.0000000
Mapangmata one 0.0185185
Iguhit Same 0.0384615
Iguhit sa 0.0909091
Iguhit ikuros 1.0000000
Iguhit &quot; 0.0224719
Iguhit noo 0.5000000
Iguhit as 0.0512821
laho Suddenly 1.0000000
laho disappeared 0.3333333
dulo conclusion 0.3333333
dulo inwardly 1.0000000
dulo naughty 1.0000000
tiyan deranged 0.5000000
tiyan hungry 0.1666667
tiyan to 0.0056180
tiyan NULL 0.0124224
tiyan good 0.0434783
tiyan home 0.2000000
tiyan hunger 0.2500000
tiyan Very 0.0476190
tiyan eat 0.1666667
Kinakain Very 0.0476190
Kinakain hungry 0.1666667
Basag A 0.0153846
Basag quarrel 0.1428571
sabon Very 0.0476190
Bulok easily 0.0833333
Pinagbuhatan bare 0.5000000
Pinagbuhatan hands 0.5000000
Pinagbuhatan Hurt 0.5000000
Pinagbuhatan punished 1.0000000
Pinagbuhatan with 0.0208333
Pinagbuhatan someone 0.0714286
Magbatak work 0.1111111
Magbatak for 0.0208333
Magbatak labor 1.0000000
Magbatak ; 0.0032051
Magbatak livelihood 0.1428571
Magbatak To 0.0131579
Magbatak to 0.0056180
Daanan someone 0.0357143
Daanan To 0.0131579
Daanan fetch 1.0000000
halu together 0.2000000
halu order 0.5000000
halu Mixed 0.5000000
halu without 0.1428571
Kagandahang kind 0.5000000
Kagandahang - 0.0140845
Kagandahang hearted 0.1111111
Kagandahang Goodness 1.0000000
Kagandahang character 0.1111111
Kagandahang of 0.0088496
numero buried 0.3333333
numero already 0.1250000
numero Dead 1.0000000
numero and 0.0208333
magulang NULL 0.0062112
hukay NULL 0.0062112
hukay Grave 0.1111111
Mag together 0.2000000
Mag To 0.0131579
Mag utensils 0.5000000
Santo harmless 1.0000000
Santo intelligent 0.1428571
Santo and 0.0208333
Santo worships 0.5000000
Ikapitong Extreme 0.5000000
Bingi birth 1.0000000
Bingi women 0.5000000
Bingi married 0.0588235
Bingi not 0.0151515
Bingi to 0.0056180
Bingi do 0.1000000
Bingi give 0.2000000
Bingi Referring 0.1000000
Bingi who 0.0200000
Napapadala NULL 0.0062112
Sinulot as 0.0256410
Sinulot given 0.1428571
Sinulot out 0.1000000
Sinulot is 0.0250000
Sinulot Thing 1.0000000
Sinulot that 0.0555556
Sinulot happening 0.5000000
Sinulot cause 0.2000000
Sinulot or 0.0080645
binabalak a 0.0075758
binabalak of 0.0088496
binabalak deadly 1.0000000
binabalak revenge 0.5000000
binabalak plan 0.5000000
Makitid of 0.0088496
Makitid in 0.0138889
Makitid sighted 1.0000000
Makitid life 0.1111111
Makitid Destitute 0.3333333
Makitid view 0.3333333
Dugong Royal 1.0000000
Namamalahibo in 0.0138889
Namamalahibo doing 0.3333333
Namamalahibo one 0.0185185
Namamalahibo what 0.1111111
Namamalahibo is 0.0250000
Namamalahibo Uncertainty 1.0000000
Makabasag big 0.1666667
Makabasag affair 0.5000000
Makabasag or 0.0080645
Makabasag A 0.0153846
Makabasag grand 0.5000000
talilong do 0.1000000
talilong Confused 0.5000000
talilong now 1.0000000
talilong what 0.1111111
talilong to 0.0056180
talilong does 0.0714286
talilong know 0.2000000
Iisa Two 0.3333333
Iisa habits 0.5000000
Iisa same 0.1000000
Iisa the 0.0082645
Iisa customs 0.2500000
Iisa and 0.0208333
Iisa persons 0.3333333
Iisa with 0.0208333
Nakakuha Had 0.2500000
Nakakuha heart 0.3333333
Nakakuha a 0.0075758
pundiya flattering 0.2500000
Loob given 0.1428571
Nagpapahinog great 0.3333333
Nagpapahinog hardship 1.0000000
Nagpapahinog Suffering 0.5000000
baul ; 0.0032051
baul dress 0.3333333
liwanag egoistic 0.3333333
liwanag ; 0.0032051
liwanag robber 0.3333333
liwanag being 0.2000000
liwanag born 0.2500000
Daanin take 0.1666667
Daanin force 0.1428571
Daanin by 0.0769231
Daanin To 0.0131579
sawi unfortunate 0.5000000
sawi An 0.1666667
sawi person 0.0256410
Bungang heat 0.5000000
Bungang Dream 0.3333333
Bungang Prickly 1.0000000
Lumagay married 0.0588235
Lumagay get 0.2500000
Lumagay To 0.0131579
Makapal Industrious 1.0000000
Makapal insensitive 0.1666667
Makapal wealthy 0.1666667
Makapal Rich 0.1666667
Makapal Shameless 0.0769231
Makapal ; 0.0096154
Makapal hardworkin 0.3333333
preno control 0.2500000
makaabot see 0.2000000
makaabot reason 0.3333333
makaabot Cannot 0.1250000
Utang gratitude 0.1666667
Utang Debt 0.5000000
Utang of 0.0088496
parang NULL 0.0062112
parang mga 0.3333333
balani unintentionally 0.3333333
Hipong sluggish 0.2000000
Hipong - 0.0140845
Hipong Slow 0.2500000
Hipong foot 0.5000000
Maghunos oneself 1.0000000
Maghunos control 0.2500000
Maghunos ponder 0.3333333
Maghunos to 0.0056180
Maghunos To 0.0131579
Bodabil Connivance 0.5000000
uod Intelligent 0.1111111
lipad belittles 0.2500000
lipad one 0.0185185
lipad who 0.0200000
lipad ; 0.0032051
lipad boastful 0.1666667
lipad others 0.0526316
lipad prostitute 0.2500000
lipad Prostitute 0.3333333
Ibilanggo To 0.0131579
Ibilanggo embrace 0.2500000
Alisin forget 0.1111111
Alisin To 0.0131579
noo noo 0.5000000
noo remember 0.3333333
noo view 0.3333333
Ibangon &apos;s 0.0285714
Ibangon To 0.0131579
Ibangon honor 0.2500000
Ibangon regain 1.0000000
Ibangon lost 0.2500000
Ibangon one 0.0185185
Nahuhulog a 0.0075758
Nahuhulog Revealed 0.3333333
Nahuhulog unintentionally 0.3333333
Nahuhulog truth 0.2500000
Nakasilip death 0.1111111
Nakasilip At 0.3333333
Nakasilip of 0.0088496
Nakasilip brink 1.0000000
Nakasilip dying 0.5000000
Nakasilip the 0.0082645
Maningil ( 0.0303030
Maningil To 0.0131579
Maningil another 0.0833333
Maningil anymore 0.2000000
Maningil kill 0.3333333
Maningil ) 0.0333333
Maningil person 0.0256410
Maningil revenge 0.5000000
Maningil for 0.0208333
Nangaluluwa jealous 1.0000000
Nangaluluwa troubled 1.0000000
Nangaluluwa Furious 1.0000000
Nangaluluwa ; 0.0096154
Nangaluluwa irritated 0.2000000
Humihimod the 0.0082645
Humihimod Winning 1.0000000
Humihimod favor 0.3333333
Humihimod flattering 0.2500000
Humihimod another 0.0833333
Humihimod ; 0.0032051
Humihimod of 0.0088496
matinik sacrifices 0.3333333
makasampa Already 0.1666667
makasampa ; 0.0032051
makasampa weak 0.1111111
makasampa old 0.1000000
makasampa already 0.1250000
laman feet 0.2500000
laman Daughter 1.0000000
laman or 0.0080645
laman dull 0.1428571
laman son 0.5000000
Magkataling A 0.0153846
Magkataling couple 0.3333333
Binabata favored 1.0000000
Binabata Being 1.0000000
buwan NULL 0.0062112
tinatanaw for 0.0208333
tinatanaw bright 0.2000000
tinatanaw future 0.3333333
tinatanaw hope 0.2000000
tinatanaw any 0.2000000
mukha Shameless 0.0769231
mukha sour 0.3333333
mukha ; 0.0064103
mukha Frowning 0.3333333
mukha NULL 0.0062112
mukha with 0.0208333
mukha take 0.1666667
mukha insensitive 0.3333333
mukha Angry 0.1666667
mukha easily 0.0833333
mukha face 0.2857143
mukha pity 0.1428571
mukha record 0.1666667
mukha mukha 0.3333333
hirap Trying 0.2500000
pait achisel 1.0000000
Kalam feeling 0.0833333
Kalam A 0.0153846
Kalam of 0.0088496
Kalam hunger 0.2500000
bata who 0.0200000
bata or 0.0080645
bata intelligence 0.2500000
bata possesses 1.0000000
bata talent 0.3333333
bata special 1.0000000
bata A 0.0153846
bata person 0.0256410
naiiwan of 0.0088496
naiiwan time 0.1111111
naiiwan the 0.0082645
naiiwan nothing 0.3333333
naiiwan accomplishes 0.5000000
naiiwan with 0.0208333
naiiwan flight 0.5000000
sibuyas and 0.0208333
Munting young 0.1111111
tao pity 0.1428571
tao assistance 0.3333333
tao known 0.3333333
tao High 0.3333333
tao respectable 0.3333333
mantika expenses 0.3333333
Pinagbigyan Grant 1.0000000
Pinagbigyan someone 0.0357143
Pinagbigyan of 0.0088496
Pinagbigyan the 0.0082645
Pinagbigyan request 1.0000000
pobre Lazy 0.1666667
Luksa sad 0.3333333
saling for 0.0208333
saling cries 1.0000000
saling gets 0.3333333
saling ; 0.0032051
saling or 0.0080645
saling angry 0.1250000
saling irritable 1.0000000
Pulot Honeymoon 0.3333333
alab Uneasy 0.3333333
alab restless 0.2500000
alab ; 0.0032051
Kakalug a 0.0075758
Kakalug few 1.0000000
Kakalug Too 0.5000000
Kakalug for 0.0208333
Kakalug house 0.2000000
Kakalug big 0.1666667
Napagbuhatan someone 0.0357143
Napagbuhatan he 0.1428571
Napagbuhatan that 0.0555556
Napagbuhatan will 0.1666667
Napagbuhatan so 1.0000000
Napagbuhatan Bribed 0.5000000
Nagsisikip with 0.0208333
Nagsisikip Quarreled 0.5000000
Nagsisikip bare 0.5000000
Nagsisikip fists 0.5000000
Nagsisikip nagsisikip 0.3333333
Tiklop humbleness 0.5000000
Tiklop sll 1.0000000
Tiklop With 0.0588235
Gintong appreciable 1.0000000
Gintong nice 0.3333333
Gintong A 0.0153846
Gintong character 0.1111111
Gintong and 0.0208333
Nagtatae Infidelity 0.3333333
Nagtatae woman 0.0833333
Nagtatae of 0.0088496
Nagtatae a 0.0075758
Mga somebody 0.2000000
Mga to 0.0056180
Mga belittle 0.3333333
Mga someone 0.0357143
Mga ; 0.0032051
Mga upon 0.5000000
Mga poor 0.1000000
Siling Grave 0.1111111
buhay happiness 0.2000000
buhay intended 1.0000000
buhay ibig 0.5000000
buhay Murdered 0.5000000
buhay sunset 0.3333333
buhay hair 0.1666667
buhay Pouting 0.3333333
buhay NULL 0.0310559
buhay age 0.2000000
buhay Died 0.0588235
buhay permanently 0.3333333
buhay husband 0.2000000
buhay for 0.0208333
Inaalon something 0.0666667
Inaalon of 0.0088496
Inaalon ; 0.0032051
Inaalon Nervous 1.0000000
Inaalon afraid 0.2500000
Bagong NULL 0.0062112
Bagong bachelor 0.1666667
Bagong shoes 0.5000000
Bagong Young 0.5000000
Bagong new 0.2500000
Hagilapin To 0.0131579
Hagilapin exert 0.3333333
kanan NULL 0.0062112
Kinakawalang same 0.1000000
Kinakawalang line 0.5000000
Kinakawalang the 0.0082645
Kinakawalang in 0.0138889
Kinakawalang progress 0.5000000
Kinakawalang has 0.1000000
Kinakawalang more 0.5000000
Kinakawalang no 0.1111111
Humahalik Worshipping 1.0000000
Humahalik adoring 0.3333333
Humahalik ; 0.0032051
puwit Restless 0.2000000
tali person 0.0256410
tali A 0.0153846
tali restless 0.2500000
Magtatalo promise 0.2000000
intsik offering 0.5000000
intsik by 0.0769231
intsik gifts 1.0000000
intsik woman 0.0833333
Matandang eyesight 1.0000000
bagwis able 0.3333333
bagwis Is 0.5000000
bagwis live 0.1666667
bagwis to 0.0056180
bagwis independently 0.2500000
Naamuyan A 0.0153846
Naamuyan just 0.2000000
Naamuyan seen 0.1666667
Naamuyan thing 0.1000000
Hinihintay Dying 0.2000000
kamay or 0.0403226
kamay type 1.0000000
kamay decay 1.0000000
kamay Marriage 0.2500000
kamay caretaker 0.2000000
kamay because 0.4000000
kamay Pretense 0.3333333
kamay complex 0.3333333
kamay bagoong 1.0000000
kamay wedlock 0.3333333
kamay ang 0.0370370
kamay plants 0.2500000
kamay not 0.0151515
kamay of 0.0088496
kamay bowel 0.5000000
kamay night 0.2000000
kamay possession 0.3333333
kamay stealer 0.4000000
kamay kamay 0.6666667
kamay bribe 0.3333333
kamay job 0.2500000
kamay work 0.1111111
kamay Understood 0.3333333
kamay NULL 0.0372671
kamay salted 1.0000000
kamay &quot; 0.0112360
kamay valueless 0.3333333
kamay the 0.0165289
kamay fish 0.2500000
Nagdildil anger 0.1111111
Nagdildil mad 0.5000000
Nagdildil Became 0.1666667
Nagdildil with 0.0208333
Magaling speaker 0.3333333
Magaling talent 0.3333333
Magaling Good 0.3333333
Magaling bulok 1.0000000
Magaling or 0.0080645
Magaling dambana 0.5000000
Magaling orator 0.3333333
sama bad 0.1333333
Taingang deaf 0.6666667
Taingang be 0.0322581
Sumapayapa majority 1.0000000
Sumapayapa united 1.0000000
Sumapayapa with 0.0208333
Sumapayapa ; 0.0032051
Sumapayapa Agreed 1.0000000
Nagsaulian or 0.0080645
Nagsaulian Served 1.0000000
Lupang Grave 0.1111111
buhok Wanderer 0.2500000
pananagutan Has 0.1428571
pananagutan grey 1.0000000
pananagutan hair 0.1666667
Kuwalta Disillusionment 0.1666667
baro NULL 0.0062112
hagdan \ 0.3333333
hagdan Eloped 0.1428571
pusod Brother 0.3333333
pusod stingy 0.2500000
halong NULL 0.0062112
kanyang Understood 0.3333333
kanyang Child 0.1111111
Takip evening 0.5000000
Takip afternoon 1.0000000
Takip almost 0.2500000
Takip Late 0.5000000
Dinaan weapon 1.0000000
Dinaan using 0.3333333
Dinaan as 0.0256410
Dinaan tongue 0.3333333
Dinaan Quarelling 1.0000000
Dinaan sharp 0.3333333
Kukulu person 0.0256410
Kukulu Financially 0.5000000
Kukulu need 0.3333333
Kukulu in 0.0138889
Kukulu an 0.0555556
Kukulu unrealiable 1.0000000
labuyo Grave 0.1111111
Matakaw Intelligent 0.1111111
Matakaw wise 0.3333333
Matakaw ; 0.0032051
Tapunan ; 0.0032051
Tapunan someone 0.0357143
Tapunan pity 0.1428571
Tapunan to 0.0056180
Tapunan To 0.0131579
Tapunan sympathize 0.2500000
Nakasandal or 0.0080645
Nakasandal a 0.0075758
Nakasandal reason 0.3333333
Nakasandal cause 0.2000000
Nakasandal good 0.0434783
Nakasandal Found 1.0000000
Nakasandal to 0.0056180
Nakasandal argue 0.3333333
pakpak married 0.0588235
Dinapuan fell 0.3333333
Dinapuan ill 0.1666667
langisan sympathy 0.3333333
Kantoboy A 0.0153846
Kantoboy person 0.0256410
Kantoboy jobless 0.5000000
Masahol A 0.0153846
Masahol at 0.1250000
Masahol person 0.0256410
Masahol is 0.0250000
Masahol understanding 0.2500000
Masahol hard 0.2500000
Masahol who 0.0200000
Nakapako &quot; 0.0112360
Nakapako kill 0.3333333
Nakaisang short 0.1666667
Nakaisang had 0.5000000
Nakaisang a 0.0151515
Nakaisang nap 1.0000000
Nakaisang Had 0.2500000
Bantay custodian 0.2500000
Bantay losses 0.3333333
sumisira his 0.0555556
sumisira reputation 0.3333333
sumisira or 0.0080645
sumisira relative 0.5000000
sumisira of 0.0088496
sumisira friend 0.2000000
NULL word 0.5000000
NULL heart 0.3333333
NULL 2 1.0000000
NULL away 1.0000000
NULL often 0.3333333
NULL anything 0.3333333
NULL salting 1.0000000
NULL couple 0.3333333
NULL Hard 0.2500000
NULL obeyed 1.0000000
NULL place 0.2500000
NULL ladies 1.0000000
NULL custodian 0.2500000
NULL work 0.1111111
NULL soul 0.3333333
NULL beautiful 0.2000000
NULL going 1.0000000
NULL There 0.5000000
NULL health 1.0000000
NULL runs 1.0000000
NULL mournful 1.0000000
NULL of 0.2831858
NULL think 1.0000000
NULL caretaker 0.2000000
NULL boy 0.5000000
NULL hurting 1.0000000
NULL land 0.3333333
NULL Pait 1.0000000
NULL government 1.0000000
NULL a 0.2424242
NULL or 0.2177419
NULL asleep 0.5000000
NULL fulfilled 1.0000000
NULL clean 1.0000000
NULL due 0.4000000
NULL obsolete 1.0000000
NULL upon 0.5000000
NULL Kidney 1.0000000
NULL Very 0.1904762
NULL superior 1.0000000
NULL regularly 1.0000000
NULL flapper 1.0000000
NULL Thief 0.3333333
NULL court 1.0000000
NULL her 0.5000000
NULL need 0.3333333
NULL Reporting 1.0000000
NULL heave 1.0000000
NULL soldiers 1.0000000
NULL indecent 1.0000000
NULL in 0.1944444
NULL physical 0.1666667
NULL similar 0.4000000
NULL hatred 0.2000000
NULL Fading 1.0000000
NULL whose 0.5000000
NULL ailment 0.2500000
NULL father 0.1818182
NULL all 0.1000000
NULL sense 0.5000000
NULL particular 0.5000000
NULL god 1.0000000
NULL far 1.0000000
NULL About 1.0000000
NULL their 0.5000000
NULL invite 1.0000000
NULL holes 1.0000000
NULL value 0.3333333
NULL by 0.5384615
NULL ; 0.1378205
NULL referring 0.2857143
NULL criticizes 1.0000000
NULL Proud 0.5000000
NULL real 0.2000000
NULL Cannot 0.2500000
NULL fever 0.1666667
NULL etc 0.6000000
NULL courageous 0.2500000
NULL &apos;s 0.1142857
NULL again 0.5000000
NULL , 0.3333333
NULL weave 1.0000000
NULL poverty 1.0000000
NULL him 0.6666667
NULL sigh 1.0000000
NULL someone 0.1428571
NULL idled 1.0000000
NULL one 0.1851852
NULL &quot; 0.2022472
NULL Destitute 0.3333333
NULL man 0.5000000
NULL living 0.3333333
NULL carefully 0.6666667
NULL truth 0.2500000
NULL already 0.3750000
NULL angry 0.1250000
NULL bring 1.0000000
NULL talkative 0.1428571
NULL miserable 1.0000000
NULL command 1.0000000
NULL speech 0.5000000
NULL nature 0.1666667
NULL bashful 0.2500000
NULL constantly 1.0000000
NULL love 0.2857143
NULL come 0.5000000
NULL finish 1.0000000
NULL different 1.0000000
NULL meaning 0.4285714
NULL spent 1.0000000
NULL Died 0.0588235
NULL money 0.1875000
NULL but 0.3000000
NULL who 0.2800000
NULL orange 1.0000000
NULL have 0.2500000
NULL best 1.0000000
NULL misrable 1.0000000
NULL life 0.2222222
NULL feel 0.3333333
NULL reached 1.0000000
NULL serious 0.1818182
NULL tongued 1.0000000
NULL ill 0.3333333
NULL he 0.4285714
NULL problem 1.0000000
NULL duty 0.5000000
NULL commanding 1.0000000
NULL Spoiled 0.3333333
NULL young 0.1111111
NULL disuse 1.0000000
NULL an 0.2777778
NULL when 0.5000000
NULL object 0.5000000
NULL thing 0.3000000
NULL up 0.4000000
NULL can 0.5000000
NULL do 0.1000000
NULL be 0.2258065
NULL others 0.3157895
NULL goo 1.0000000
NULL opposite 0.3333333
NULL small 0.2000000
NULL dual 1.0000000
NULL becoming 0.2000000
NULL sight 0.5000000
NULL capable 1.0000000
NULL if 0.5000000
NULL appetite 1.0000000
NULL dress 0.3333333
NULL ways 1.0000000
NULL In 0.1428571
NULL One 0.3333333
NULL means 0.1111111
NULL People 0.3333333
NULL girl 0.2857143
NULL each 0.2500000
NULL fact 1.0000000
NULL Easily 0.3333333
NULL temptation 1.0000000
NULL show 0.5000000
NULL effort 0.3333333
NULL Did 0.2500000
NULL pushed 1.0000000
NULL unstable 1.0000000
NULL meal 0.5000000
NULL should 0.6666667
NULL fellow 1.0000000
NULL Help 0.5000000
NULL other 0.4285714
NULL died 0.5000000
NULL where 0.2500000
NULL just 0.2000000
NULL indirect 0.5000000
NULL exert 0.3333333
NULL on 0.1000000
NULL useless 0.1666667
NULL Always 0.1666667
NULL are 0.5000000
NULL yarns 1.0000000
NULL asks 1.0000000
NULL given 0.4285714
NULL Not 0.1333333
NULL has 0.4000000
NULL his 0.3333333
NULL used 0.4444444
NULL With 0.1764706
NULL skin 1.0000000
NULL welfare 1.0000000
NULL nothing 0.3333333
NULL study 0.2500000
NULL dies 1.0000000
NULL Could 0.3333333
NULL attention 0.7500000
NULL foul 0.5000000
NULL fish 0.5000000
NULL poor 0.3000000
NULL after 0.1111111
NULL getting 0.5000000
NULL really 0.5000000
NULL strict 1.0000000
NULL intestines 1.0000000
NULL Rich 0.1666667
NULL workers 1.0000000
NULL result 1.0000000
NULL favor 0.3333333
NULL seem 0.3333333
NULL detective 1.0000000
NULL critical 0.4000000
NULL literally 1.0000000
NULL persons 0.3333333
NULL insulted 0.2500000
NULL would 1.0000000
NULL joining 1.0000000
NULL push 1.0000000
NULL concealed 1.0000000
NULL time 0.1111111
NULL Difficulty 1.0000000
NULL animals 0.2000000
NULL forms 1.0000000
NULL eat 0.5000000
NULL figurative 1.0000000
NULL with 0.0833333
NULL habitually 0.3333333
NULL near 1.0000000
NULL heroes 1.0000000
NULL sick 0.5000000
NULL anger 0.1111111
NULL age 0.2000000
NULL Shameless 0.0769231
NULL indigent 1.0000000
NULL complete 0.3333333
NULL The 0.1250000
NULL confirmation 1.0000000
NULL back 0.2500000
NULL pay 0.3333333
NULL is 0.4250000
NULL position 0.5000000
NULL difference 1.0000000
NULL bad 0.1333333
NULL Dull 1.0000000
NULL vagabond 1.0000000
NULL plants 0.2500000
NULL from 0.2000000
NULL make 0.2500000
NULL subjected 1.0000000
NULL qualities 1.0000000
NULL cause 0.6000000
NULL ) 0.5333333
NULL say 0.6666667
NULL use 1.0000000
NULL true 0.5000000
NULL A 0.2000000
NULL punishment 0.3333333
NULL night 0.4000000
NULL for 0.1250000
NULL Brave 0.5000000
NULL about 0.3333333
NULL group 1.0000000
NULL not 0.2272727
NULL lazy 0.2000000
NULL child 0.1250000
NULL Was 0.0909091
NULL No 0.2222222
NULL words 0.3000000
NULL stop 0.1428571
NULL lady 1.0000000
NULL Usually 1.0000000
NULL dislike 0.5000000
NULL - 0.0563380
NULL been 0.5000000
NULL which 0.1111111
NULL heavy 1.0000000
NULL chiseled 1.0000000
NULL mood 0.1428571
NULL breakers 1.0000000
NULL butchered 0.3333333
NULL receiver 1.0000000
NULL happen 0.3333333
NULL hearted 0.1111111
NULL seen 0.1666667
NULL agreement 0.6666667
NULL way 0.5000000
NULL down 0.4285714
NULL coming 0.3333333
NULL also 1.0000000
NULL Ignorant 1.0000000
NULL Money 0.5000000
NULL somebody 0.2000000
NULL orperform 1.0000000
NULL friend 0.2000000
NULL weakness 1.0000000
NULL get 0.2500000
NULL quarrel 0.1428571
NULL much 0.5000000
NULL the 0.2727273
NULL neighbors 0.2500000
NULL courting 0.5000000
NULL over 0.3333333
NULL may 0.5000000
NULL didnot 1.0000000
NULL something 0.1333333
NULL kulang 0.3333333
NULL lie 0.3333333
NULL good 0.0869565
NULL left 1.0000000
NULL at 0.3750000
NULL especially 0.4000000
NULL antonym 1.0000000
NULL law 0.6000000
NULL that 0.1666667
NULL traitor 0.5000000
NULL please 0.6666667
NULL woman 0.1666667
NULL married 0.0588235
NULL obedient 0.5000000
NULL To 0.1710526
NULL act 0.6666667
NULL very 0.2500000
NULL become 0.5000000
NULL she 1.0000000
NULL country 1.0000000
NULL own 0.1666667
NULL asking 1.0000000
NULL Gentleman 1.0000000
NULL Referring 0.3000000
NULL having 0.2000000
NULL . 0.6000000
NULL commenting 1.0000000
NULL Became 0.1666667
NULL take 0.1666667
NULL body 0.2857143
NULL Afraid 0.2500000
NULL hopeless 0.2500000
NULL care 0.2857143
NULL help 0.3333333
NULL usually 0.2727273
NULL sane 1.0000000
NULL Submissive 1.0000000
NULL state 0.5000000
NULL indiscriminate 1.0000000
NULL it 1.0000000
NULL without 0.1428571
NULL death 0.1111111
NULL Tyrant 1.0000000
NULL false 0.5000000
NULL softly 1.0000000
NULL confess 1.0000000
NULL Does 0.1428571
NULL mind 0.2666667
NULL eyes 0.2500000
NULL Has 0.2857143
NULL brave 0.1666667
NULL people 0.3333333
NULL dirty 0.1666667
NULL taken 0.2000000
NULL danger 0.5000000
NULL bastard 0.3333333
NULL out 0.1000000
NULL refer 0.5000000
NULL Long 1.0000000
NULL cost 0.5000000
NULL and 0.3125000
NULL friends 0.5000000
NULL coquettish 1.0000000
NULL Have 1.0000000
NULL Two 0.3333333
NULL cold 1.0000000
NULL hair 0.1666667
NULL always 0.1000000
NULL late 1.0000000
NULL ( 0.2727273
NULL nagging 1.0000000
NULL being 0.6000000
NULL delicate 0.3333333
NULL this 1.0000000
NULL person 0.2051282
NULL seated 1.0000000
NULL shrimps 1.0000000
NULL topic 1.0000000
NULL hand 0.6666667
NULL compared 0.2000000
NULL slight 0.5000000
NULL listens 1.0000000
NULL refers 0.2500000
NULL talking 0.1000000
NULL Studied 1.0000000
NULL extent 1.0000000
NULL Characteristic 0.5000000
NULL what 0.2222222
NULL feeling 0.0833333
NULL reputation 0.3333333
NULL ugly 0.2000000
NULL begins 1.0000000
NULL dressed 0.1666667
NULL asked 1.0000000
NULL food 0.0909091
NULL happy 0.3333333
NULL mother 0.2857143
NULL task 1.0000000
NULL to 0.2808989
NULL everything 0.2500000
NULL liver 1.0000000
NULL wants 1.0000000
NULL Iain 1.0000000
NULL destroying 1.0000000
NULL tip 1.0000000
NULL intelligent 0.2857143
NULL same 0.2000000
NULL rid 1.0000000
NULL stay 0.3333333
NULL as 0.1794872
NULL unmerciful 0.5000000
NULL last 0.3333333
NULL does 0.2857143
NULL Same 0.2307692
NULL utters 1.0000000
NULL Desiring 1.0000000
tahid With 0.0588235
tahid no 0.1111111
tahid to 0.0056180
tahid freedom 1.0000000
tahid speak 0.2500000
Kakaning who 0.0200000
Kakaning victimized 0.3333333
Kakaning one 0.0185185
Kakaning belittled 0.2500000
Kakaning frequently 1.0000000
Kakaning is 0.0250000
Kakaning One 0.0555556
iisang very 0.0625000
iisang ownership 0.3333333
iisang slowly 0.2500000
iisang other 0.1428571
iisang each 0.2500000
laot bellied 0.5000000
gabi midnight 0.2500000
Hinog agree 0.3333333
Hinog only 0.1111111
Hinog to 0.0112360
Hinog Forced 0.5000000
Hinog consent 1.0000000
Hinog or 0.0080645
Ampalayang miserly 0.1666667
Ampalayang Stingy 0.5000000
Ampalayang , 0.0208333
Hanap Fortune 0.5000000
Hanap acquired 0.5000000
Hanap bad 0.0666667
Hanap means 0.1111111
Hanap through 0.3333333
aklat all 0.1000000
aklat to 0.0056180
aklat Known 1.0000000
Kumagat price 0.3333333
Kumagat sky 0.3333333
Kumagat was 0.2000000
Kumagat high 0.2500000
Kumagat - 0.0140845
asoge Restless 0.2000000
Bahay house 0.2000000
Bahay always 0.1000000
Bahay Prison 0.3333333
Bahay the 0.0082645
Bahay One 0.0555556
Bahay stay 0.3333333
Bahay in 0.0138889
Bahay who 0.0200000
Bilasa sleepy 0.3333333
Bilasa Very 0.0476190
Dila tongue 0.3333333
Dila clearly 0.3333333
Malapad Influential 0.3333333
Malapad of 0.0088496
Malapad ; 0.0032051
Malapad Deaf 0.2500000
Malapad in 0.0138889
Malapad good 0.0434783
Malapad care 0.1428571
Malapad the 0.0082645
beha poor 0.1000000
beha family 0.2500000
Nagpuputok something 0.0666667
Nagpuputok ability 0.2000000
Nagpuputok or 0.0080645
Nagpuputok beyond 1.0000000
Nagpuputok do 0.1000000
Nagpuputok to 0.0056180
Nagpuputok power 0.3333333
Nagpuputok his 0.0555556
Nagpuputok breathless 0.3333333
Nagpuputok Made 0.2500000
payapa Grave 0.1111111
Inabot Was 0.0909091
Inabot with 0.0208333
Inabot hit 0.5000000
Inabot fists 0.5000000
Isalang ( 0.0303030
Isalang ) 0.0333333
Isalang victory 0.5000000
Isalang in 0.0138889
Isalang gambling 0.2500000
Isalang Foreseeing 0.3333333
lawin sharp 0.3333333
lawin nails 1.0000000
lawin similar 0.2000000
lawin to 0.0056180
lawin those 0.5000000
Bahala Entrusted 0.3333333
Lulunin mat 1.0000000
Lulunin the 0.0082645
Lulunin To 0.0131579
Lulunin roll 0.5000000
lubos mother 0.1428571
kanilang ng 0.1111111
kanilang pag 1.0000000
kanilang ibig 0.5000000
bigat responsibility 0.2500000
bigat price 0.3333333
Pinakibit did 0.3333333
Pinakibit mind 0.0666667
Pinakibit Did 0.2500000
Pinakibit not 0.0303030
Pinakibit care 0.1428571
guhit of 0.0088496
guhit difficulty 1.0000000
guhit with 0.0208333
guhit dealing 0.3333333
Langis win 0.5000000
Langis Rivals 0.3333333
Langis the 0.0082645
Langis sympathy 0.3333333
Ahas Slowfoot 1.0000000
Ahas sluggish 0.2000000
Ahas , 0.0208333
Ahas stay 0.3333333
Ahas habitually 0.3333333
Ahas Treacherous 0.1666667
Ipagdasal give 0.2000000
Ipagdasal To 0.0131579
Ipagdasal up 0.2000000
Nakakita Failed 0.5000000
Nakakita in 0.0138889
Nakakita studies 0.2500000
Batak used 0.1111111
Batak to 0.0056180
Batak working 0.1666667
Batak ; 0.0032051
Batak Sturdy 0.3333333
Hagisan Making 1.0000000
Hagisan opponent 0.3333333
Hagisan the 0.0082645
Hagisan surrender 0.2000000
galit broke 0.2500000
galit war 1.0000000
galit The 0.0416667
galit out 0.1000000
Sumalunga heaven 0.5000000
May married 0.0588235
May word 0.1666667
May Has 0.2857143
May Justified 0.5000000
May Engaging 1.0000000
May intelligent 0.1428571
May Wanderer 0.2500000
May NULL 0.0062112
May quickly 0.5000000
May already 0.1250000
May wealthy 0.3333333
May Fierce 0.1428571
May Intelligent 0.1111111
May or 0.0161290
May young 0.1111111
May speak 0.5000000
May restless 0.2500000
May to 0.0056180
May Wealthy 0.3333333
May reasonable 1.0000000
May Wife 0.1250000
May possessing 0.5000000
Alimuon , 0.0208333
Alimuon gossip 0.3333333
Alimuon Rumor 1.0000000
lingong know 0.2000000
lingong repay 1.0000000
lingong debt 0.2000000
lingong to 0.0056180
lingong how 1.0000000
lingong gratitude 0.1666667
lingong of 0.0088496
Kinain disappeared 0.3333333
Kinain Burned 0.3333333
Ipagbara Cause 0.1666667
Ipagbara of 0.0088496
Ipagbara temper 1.0000000
Ipagbara loss 0.5000000
Ipagbara for 0.0208333
kulo Financially 0.5000000
kulo taken 0.2000000
kulo care 0.1428571
kulo Well 0.2000000
kulo of 0.0088496
sabi be 0.0322581
sabi described 1.0000000
sabi find 0.5000000
sabi expressl 0.2500000
sabi words 0.1000000
sabi cannot 0.2000000
Batas with 0.0208333
Batas enforcement 0.5000000
Batas law 0.2000000
Batas policemen 1.0000000
Batas the 0.0082645
bituin studies 0.2500000
bituin job 0.2500000
bituin luck 0.1111111
Makunat ; 0.0032051
Makunat Selfish 0.5000000
Makunat stingy 0.2500000
Nakabitiw Fooled 1.0000000
Nakabitiw cheated 0.3333333
Nakabitiw ; 0.0032051
Sapin most 1.0000000
Sapin elegant 0.5000000
Sapin The 0.0416667
Sapin dress 0.3333333
Halagang . 0.0250000
Halagang the 0.0165289
Halagang have 0.1250000
Halagang Both 0.5000000
Halagang cost 0.5000000
Halagang ; 0.0032051
Halagang sky 0.3333333
Kulubot old 0.1000000
Kulubot Already 0.1666667
Hubad from 0.1000000
Hubad untrue 0.3333333
Hubad ; 0.0032051
Hubad truth 0.2500000
Hubad Far 1.0000000
Hubad the 0.0082645
pababaunan where 0.2500000
Buwayang be 0.0322581
Buwayang Pretending 0.2500000
Buwayang to 0.0056180
Amoy the 0.0082645
Amoy intoxicated 0.3333333
Amoy odor 0.3333333
Amoy armpit 1.0000000
Amoy Repellent 1.0000000
Amoy of 0.0088496
yaman wealthiest 0.3333333
yaman very 0.0625000
yaman rich 0.3333333
yaman wealthy 0.1666667
yaman ; 0.0032051
nagtatanaw quite 0.3333333
nagtatanaw time 0.1111111
nagtatanaw or 0.0080645
nagtatanaw met 0.5000000
nagtatanaw a 0.0151515
nagtatanaw for 0.0208333
Magpahinog Assume 1.0000000
Magpahinog consequence 1.0000000
Magpahinog . 0.0250000
Magpahinog full 0.3333333
Mata Lazy 0.1666667
Pikit ; 0.0032051
Pikit Courageously 0.5000000
Pikit unhesitatingly 0.3333333
Bituka NULL 0.0062112
pain Was 0.0909091
pain fooled 0.5000000
pain ; 0.0032051
pain to 0.0056180
pain made 0.5000000
pain was 0.2000000
pain believe 0.3333333
pain easily 0.0833333
Gabay their 0.5000000
Gabay age 0.2000000
Gabay parents 0.2000000
Gabay support 0.5000000
Gabay old 0.1000000
Gabay of 0.0088496
Gabay in 0.0138889
Gabay Main 1.0000000
Nasirang Dumbfounded 0.5000000
Nasirang ; 0.0032051
talampakan patience 0.5000000
tubig Do 1.0000000
tubig count 1.0000000
tubig Fortune 0.5000000
tubig paid 0.5000000
tubig consider 0.3333333
tubig not 0.0151515
tubig Rivals 0.3333333
tubig to 0.0056180
tubig ; 0.0032051
isda cooking 0.3333333
lunukin disappointment 1.0000000
lunukin Humiliating 0.5000000
Kapwa his 0.0555556
Kapwa &apos;s 0.0285714
Kapwa one 0.0185185
Kapwa others 0.0526316
Kapwa Relation 1.0000000
Kapwa fellowmen 1.0000000
Kapwa relation 0.3333333
Kapwa with 0.0416667
Mahigpit Stingy 0.5000000
Ligong wetting 0.5000000
Ligong the 0.0082645
Ligong without 0.1428571
Ligong Taking 1.0000000
Ligong bath 1.0000000
Ligong head 0.5000000
Ligong a 0.0075758
Bakal new 0.2500000
Bakal courageous 0.2500000
Bakal shoes 0.5000000
Bakal A 0.0153846
Bakal of 0.0088496
Bakal pair 1.0000000
Lamang organs 1.0000000
Lamang NULL 0.0062112
Lamang inside 1.0000000
Lamang animals 0.2000000
Lamang Anything 0.2500000
panimbangan with 0.0208333
panimbangan along 0.5000000
panimbangan get 0.2500000
panimbangan Hard 0.2500000
panimbangan to 0.0056180
Durugin To 0.0131579
Durugin to 0.0056180
Durugin mental 0.2500000
Durugin inflict 0.5000000
Durugin others 0.0526316
Durugin suffering 1.0000000
Nauupos mga 0.3333333
Nauupos &quot; 0.0224719
Nauupos as 0.0256410
Nauupos labi 0.2500000
Nauupos ang 0.0370370
Nauupos Same 0.0384615
Nauupos nasusian 0.3333333
Naglalaro trying 0.3333333
Naglalaro A 0.0153846
Naglalaro woman 0.0833333
Naglalaro young 0.1111111
Naglalaro mature 0.5000000
Naglalaro look 0.5000000
Naglalaro to 0.0056180
Labis pito 0.2500000
Labis , 0.0208333
Labis labis 1.0000000
Labis sa 0.1818182
Labis walo 1.0000000
Ibig Undecided 0.3333333
Haligi The 0.0416667
Haligi father 0.0909091
Naniningalang chatting 0.5000000
Naniningalang Engaged 1.0000000
Naniningalang talking 0.1000000
Naniningalang in 0.0138889
Naniningalang or 0.0080645
sahig lie 0.3333333
ulan NULL 0.0062112
Nakatuntong dealing 0.3333333
Nakatuntong buried 0.3333333
Lawit very 0.0625000
Lawit Selfish 0.5000000
Lawit stingy 0.2500000
Lawit ; 0.0032051
lamok Weak 0.1428571
katahimikan NULL 0.0062112
Mataas do 0.1000000
Mataas belittles 0.2500000
Hindi Cannot 0.1250000
Hindi ingratitude 0.5000000
Hindi Does 0.2857143
Hindi refers 0.2500000
Hindi evidence 0.2500000
Hindi job 0.2500000
Hindi easy 0.3333333
Hindi dressed 0.1666667
Hindi than 0.3333333
Hindi old 0.1000000
Hindi Unaacceptable 0.5000000
Hindi not 0.0606061
Hindi NULL 0.0124224
Hindi Eloped 0.1428571
Hindi Really 0.3333333
Hindi believe 0.3333333
salita hungry 0.1666667
apoy to 0.0056180
apoy Inflammable 0.3333333
apoy Wife 0.1250000
apoy Burned 0.3333333
apoy clothes 1.0000000
apoy Fierce 0.1428571
apoy trying 0.3333333
kundi who 0.0200000
kundi talking 0.1000000
kundi destroys 1.0000000
kundi person 0.0256410
kundi Eloped 0.1428571
palayok Foreseeing 0.3333333
palayok pot 0.3333333
Isip dull 0.1428571
Isip minded 0.1250000
Isip - 0.0140845
Isip Weak 0.1428571
Mabuti Intelligent 0.1111111
Mabuti Healthy 1.0000000
Mabuti mood 0.1428571
Mabuti Fluent 1.0000000
Mabuti a 0.0075758
Mabuti or 0.0161290
Mabuti wise 0.3333333
Mabuti talker 0.3333333
Mabuti body 0.1428571
Mabuti in 0.0138889
Mabuti strong 0.3333333
Mabuti good 0.0869565
kamatis kamatis 0.5000000
Taga ripe 1.0000000
Taga knowledge 0.2500000
Taga with 0.0208333
Taga and 0.0208333
Taga experience 0.3333333
Taga Mature 1.0000000
Taga ; 0.0032051
baho ; 0.0032051
Ibuhos trust 1.0000000
Ibuhos concentrate 0.3333333
Ibuhos To 0.0263158
Ibuhos completely 0.3333333
Hudas pretense 0.5000000
Nagtitikim not 0.0151515
Nagtitikim notice 0.3333333
Nagtitikim did 0.3333333
lalamunan adolescence 0.3333333
Mahina hearted 0.1111111
Mahina intelligence 0.2500000
Mahina ( 0.0303030
Mahina low 1.0000000
Mahina financial 1.0000000
Mahina condition 0.1250000
Mahina influence 0.1666667
Mahina Coward 1.0000000
Mahina opposite 0.3333333
Mahina minded 0.1250000
Mahina With 0.0588235
Mahina feeble 1.0000000
Mahina . 0.0250000
Mahina - 0.0281690
Mahina weak 0.1111111
mahapayang sharp 0.3333333
mahapayang verbal 0.5000000
mahapayang clash 1.0000000
mahapayang in 0.0138889
mahapayang a 0.0075758
mahapayang yield 0.5000000
Basa record 0.1666667
Basa Bad 0.3333333
Nagpapatulo Died 0.0588235
dila tired 0.2000000
dila ; 0.0064103
dila expressions 0.5000000
dila talkative 0.1428571
dila NULL 0.0062112
dila bachelor 0.1666667
dila angry 0.1250000
dila inclined 0.5000000
dila gossiping 0.5000000
dila talk 0.2000000
dila to 0.0056180
dila talker 0.3333333
dila bashful 0.2500000
dila One 0.0555556
dila Harmfully 0.3333333
Dupong complexion 1.0000000
Dupong A 0.0153846
Dupong dark 1.0000000
Dupong person 0.0256410
Dupong with 0.0208333
Dupong a 0.0075758
Magsilbing household 1.0000000
Magsilbing as 0.0256410
Magsilbing food 0.1818182
Magsilbing for 0.0208333
Magsilbing with 0.0208333
Magsilbing payment 1.0000000
Magsilbing To 0.0131579
Magsilbing or 0.0080645
Hiram inborn 0.2500000
Hiram Talent 1.0000000
Hiram is 0.0250000
Hiram which 0.1111111
Hiram borrowed 0.3333333
Hiram not 0.0151515
Hiram returning 0.5000000
Bayong who 0.0200000
Bayong own 0.1666667
Bayong feet 0.2500000
Bayong his 0.0555556
Bayong on 0.1000000
Bayong cannot 0.2000000
Bayong person 0.0256410
Bayong stand 1.0000000
Bayong A 0.0153846
pangit ugly 0.4000000
pangit incomparably 0.1111111
pangit ; 0.0032051
Kumukulo Hating 0.3333333
Kumukulo angered 0.3333333
Kumukulo ; 0.0032051
Kumukulo . 0.0250000
Magsagap pleasure 0.3333333
Magsagap gossiping 0.5000000
Magsagap To 0.0131579
Magsagap gossip 0.3333333
Magsagap find 0.5000000
Magsagap in 0.0138889
Magsagap or 0.0080645
Magsagap receiving 1.0000000
kati butchered 0.3333333
kati Meat 1.0000000
kati of 0.0088496
kati challenging 0.2000000
kati animals 0.2000000
Kuwarta ; 0.0064103
Kuwarta all 0.1000000
Kuwarta Everything 1.0000000
Kuwarta up 0.2000000
Kuwarta set 1.0000000
Kuwarta alright 1.0000000
Kuwarta fixed 0.5000000
Kuwarta is 0.0250000
Kaututang Does 0.0714286
Kaututang not 0.0151515
Kaututang speak 0.2500000
Kaututang clearly 0.3333333
Naging without 0.1428571
Naging working 0.1666667
Naging a 0.0075758
Naging Alone 1.0000000
Naging helper 0.5000000
kamatayan buhay 0.5000000
kamatayan inagaw 1.0000000
kamatayan Same 0.0384615
kamatayan ang 0.0370370
kamatayan &quot; 0.0224719
kamatayan as 0.0256410
Hawang true 0.5000000
Hawang Not 0.0666667
Hawang or 0.0080645
Hawang relative 0.5000000
Hawang a 0.0075758
Hawang real 0.2000000
Ugaling A 0.0153846
Ugaling trait 0.5000000
Puno conclusion 0.3333333
Puno End 1.0000000
Puno ; 0.0032051
isip impoverished 0.3333333
isip concentrate 0.3333333
isip decision 0.5000000
isip inborn 0.2500000
isip conversation 0.2500000
isip forget 0.1111111
isip creative 0.5000000
isip independently 0.2500000
Nabuko The 0.0416667
Nabuko happy 0.3333333
Nabuko became 0.4000000
Nabuko ; 0.0032051
Nabuko again 0.5000000
Nabuko mind 0.0666667
Nabuko clear 1.0000000
sisiw state 0.2500000
sisiw a 0.0075758
sisiw pitiful 1.0000000
sisiw In 0.0714286
sisiw abandoned 0.3333333
Magkabiyak and 0.0208333
Magkabiyak same 0.1000000
Magkabiyak the 0.0082645
Magkabiyak dislikes 0.3333333
Magkabiyak Two 0.3333333
Magkabiyak having 0.2000000
Magkabiyak likes 0.5000000
Magkabiyak friends 0.2500000
Lakad walks 0.5000000
Lakad lakad 1.0000000
Lakad sluggishly 0.5000000
Lakad Slow 0.2500000
Nagkaisang &apos;s 0.0285714
Nagkaisang defects 0.3333333
Nagkaisang Exposed 1.0000000
Nagkaisang one 0.0185185
Nagkaisang own 0.1666667
Bugok dull 0.1428571
Bugok ; 0.0032051
Bugok Weak 0.1428571
Bugok minded 0.1250000
uhaw indolent 0.3333333
Abo dull 0.1428571
Abo minded 0.1250000
Abo - 0.0140845
Abo Weak 0.1428571
nakakakilala kow 1.0000000
nakakakilala shameless 0.2000000
nakakakilala ashamed 0.5000000
nakakakilala ; 0.0032051
nakakakilala feel 0.3333333
masarhan stop 0.1428571
masarhan to 0.0056180
masarhan want 0.3333333
masarhan talking 0.1000000
bakal Strick 0.3333333
bakal does 0.0714286
bakal reputation 0.3333333
bakal back 0.2500000
bakal who 0.0200000
bakal enforcement 0.5000000
bakal one 0.0370370
palad companion 0.2500000
palad the 0.0082645
palad generous 0.3333333
palad imagination 0.3333333
palad Misfortune 0.3333333
palad hardworkin 0.3333333
palad Unfortunate 0.3333333
palad destiny 0.3333333
palad NULL 0.0062112
Hanggang to 0.0056180
Hanggang NULL 0.0062112
Hanggang things 0.2500000
Hanggang said 0.3333333
Hanggang not 0.0151515
Hanggang Referring 0.1000000
Hanggang but 0.1000000
Hanggang done 0.3333333
dugo antipathy 0.3333333
dugo a 0.0075758
dugo someone 0.0357143
dugo Hating 0.3333333
dugo pirates 0.5000000
dugo Child 0.1111111
dugo NULL 0.0062112
dugo feeling 0.0833333
dugo With 0.0588235
dugo ; 0.0064103
dugo dislike 0.5000000
dugo Sympathetic 0.2500000
dugo friendly 0.3333333
dugo for 0.0208333
dugo with 0.0208333
kawali pretending 1.0000000
kawali or 0.0080645
kawali Refused 0.3333333
kawali Deaf 0.2500000
kawali to 0.0056180
Sumama object 0.5000000
Sumama to 0.0056180
Sumama To 0.0131579
Sumama contradict 0.3333333
Sumama ; 0.0032051
ibig Child 0.1111111
pugad of 0.0176991
pugad mind 0.0666667
pugad state 0.2500000
pugad NULL 0.0062112
pugad what 0.1111111
pugad not 0.0151515
pugad weak 0.1111111
pugad does 0.0714286
pugad know 0.2000000
Palaboy admiring 1.0000000
Palaboy Wanting 0.5000000
Palaboy greatly 1.0000000
Palaboy someone 0.0357143
Palaboy or 0.0080645
Palaboy something 0.1333333
Palaboy ardently 0.5000000
maliwanag born 0.2500000
batulang NULL 0.0062112
Gawin cooking 0.3333333
Gawin the 0.0082645
Gawin fish 0.2500000
Gawin Prepare 1.0000000
Gawin for 0.0208333
hayop bad 0.0666667
hayop very 0.0625000
hayop trait 0.5000000
hayop or 0.0080645
hayop character 0.1111111
Ilaki one 0.0370370
Ilaki stubbornness 0.3333333
Ilaki To 0.0131579
Ilaki &apos;s 0.0571429
Ilaki problems 1.0000000
Ilaki numerous 1.0000000
narating Soundly 1.0000000
Iginupo much 0.2500000
Iginupo of 0.0088496
Iginupo because 0.2000000
Iginupo destruction 0.2500000
Iginupo Met 1.0000000
Iginupo ego 1.0000000
Iginupo too 1.0000000
Babae the 0.0082645
Babae Not 0.0666667
Babae wife 0.2500000
Babae concubine 1.0000000
Babae ; 0.0032051
Babae a 0.0075758
Babae real 0.2000000
walang strength 0.2500000
walang no 0.1111111
walang feet 0.2500000
walang withstand 0.5000000
walang ; 0.0032051
Hari Exceedingly 1.0000000
Hari ) 0.0333333
Dagok misfortune 0.1666667
Dagok ; 0.0032051
Dagok luck 0.1111111
Dagok bad 0.0666667
Nagmumurang NULL 0.0062112
Nagmumurang Same 0.0384615
Nagmumurang nagmumurang 1.0000000
Nagmumurang kamatis 0.5000000
Nagmumurang as 0.0256410
Nagmumurang - 0.0140845
Nagmumurang &quot; 0.0224719
Nagmumurang meaning 0.1428571
paa seldom 1.0000000
paa come 0.2500000
paa of 0.0088496
paa go 0.2000000
paa in 0.0138889
paa the 0.0165289
paa out 0.1000000
paa house 0.4000000
aagaw referring 0.0476190
aagaw sunset 0.3333333
aagaw Twilight 1.0000000
aagaw after 0.1111111
karamdaman ; 0.0032051
Namugad maried 1.0000000
Namugad be 0.0322581
Namugad soon 0.5000000
Namugad Will 0.2000000
balikat at 0.1250000
balikat care 0.1428571
balikat mercy 1.0000000
balikat palad 0.2500000
balikat companion 0.2500000
balikat NULL 0.0124224
balikat his 0.1111111
balikat disposal 0.5000000
balikat ; 0.0032051
balikat At 0.3333333
tinali Having 1.0000000
Nagpapatirapa &quot; 0.0224719
Nagpapatirapa Same 0.0384615
Nagpapatirapa as 0.0256410
Nagpapatirapa nagbabatak 1.0000000
Nagpapatirapa ng 0.1111111
Nagpapatirapa buto 0.2000000
mula not 0.0151515
mula people 0.1666667
mula who 0.0200000
mula have 0.1250000
mula did 0.3333333
mula study 0.2500000
Pasang difficulties 0.5000000
Pasang &apos;s 0.0285714
Pasang life 0.1111111
kalog house 0.2000000
Kinukulili of 0.0088496
Kinukulili tired 0.2000000
Kinukulili Getting 0.5000000
Kinukulili hearing 1.0000000
Nagkalat analyzed 0.5000000
Nagkalat or 0.0080645
Nagkalat strictly 1.0000000
Nagkalat investigated 1.0000000
bituka hunger 0.2500000
bituka long 0.1250000
bituka withstand 0.5000000
bituka Hungry 0.3333333
bituka Can 0.2500000
pp.50 experience 0.3333333
pp.50 great 0.3333333
Sampung synonym 1.0000000
Sampung ; 0.0032051
Sampung Angry 0.1666667
Anay Traitor 1.0000000
Anay smallpox 1.0000000
Anay ; 0.0032051
pamatay dirty 0.1666667
pamatay Very 0.0476190
pawis Died 0.0588235
pawis work 0.1111111
Nabuwaya to 0.0056180
Nabuwaya all 0.1000000
Nabuwaya of 0.0088496
Nabuwaya able 0.3333333
Nabuwaya Was 0.0909091
Nabuwaya pay 0.1111111
Nabuwaya debts 0.3333333
Nahuli hands 0.5000000
Nahuli found 1.0000000
Nahuli was 0.2000000
Nahuli The 0.0416667
Nahuli thing 0.1000000
Nahuli complex 0.3333333
Nahuli lost 0.2500000
Nahuli inferiority 1.0000000
Nahuli of 0.0088496
Nahuli in 0.0138889
Nahuli thief 0.3333333
Nahuli having 0.2000000
Gasgas heavily 0.3333333
Gasgas Spend 1.0000000
nilugaw is 0.0250000
nilugaw bigger 1.0000000
nilugaw capital 0.5000000
nilugaw the 0.0082645
nilugaw that 0.1111111
Baon debts 0.3333333
Baon many 0.5000000
Baon Too 0.5000000
kahapon past 1.0000000
Putak scolding 0.3333333
Putak habit 0.5000000
Putak of 0.0088496
lubog but 0.1000000
lubog good 0.0434783
lubog secretly 1.0000000
lubog harming 1.0000000
batas The 0.0416667
batas authorities 0.3333333
Damdamin ; 0.0032051
Damdamin sad 0.3333333
Namamana - 0.0140845
Namamana Becoming 0.5000000
Namamana love 0.1428571
Namamana hearted 0.1111111
Namamana fickle 1.0000000
Namamana in 0.0138889
Lakas bravely 0.3333333
Lakas fever 0.1666667
Lakas sever 1.0000000
Lakas Courageously 0.5000000
Kabilang after 0.1111111
Kabilang place 0.2500000
Kabilang go 0.2000000
Kabilang death 0.1111111
Kabilang where 0.2500000
Kabilang Heaven 1.0000000
Kabilang souls 0.5000000
Naghari acts 0.5000000
Naghari Denying 1.0000000
Naghari done 0.3333333
Naghari the 0.0082645
Naghari evil 0.5000000
hasa to 0.0056180
Lalabasan intelligence 0.2500000
Lalabasan Possessing 1.0000000
Lalabasan or 0.0080645
Lalabasan ability 0.2000000
Dugo Child 0.1111111
bahala be 0.0322581
bahala plenty 0.3333333
bahala unmindful 1.0000000
bahala of 0.0088496
puri honor 0.2500000
puri finding 1.0000000
puri puri 0.5000000
makapitan a 0.0075758
makapitan or 0.0080645
makapitan protector 0.5000000
makapitan patron 1.0000000
makapitan Without 0.2500000
pantog Sudden 1.0000000
pantog growth 0.5000000
iniwan Like 1.0000000
iniwan or 0.0080645
iniwan similar 0.2000000
Suot Hoped 0.5000000
Laki manners 1.0000000
Laki advice 0.3333333
Laki grandchild 0.3333333
Laki and 0.0208333
Laki in 0.0138889
Laki Lacking 1.0000000
Laki good 0.0434783
Laki parents 0.2000000
malutong laugh 1.0000000
malutong without 0.1428571
malutong hearty 1.0000000
malutong a 0.0075758
malutong hypocrisy 0.5000000
malutong ; 0.0032051
Pagbabagong inflict 0.5000000
Pagbabagong injuries 0.3333333
Pagbabagong hurt 1.0000000
Pagbabagong To 0.0131579
Pagbabagong to 0.0056180
Pagbabagong or 0.0080645
Pagbabagong physical 0.1666667
Ubos strength 0.2500000
Ubos With 0.0588235
Ubos strongest 0.3333333
Ubos force 0.1428571
Ubos or 0.0080645
Ubos all 0.1000000
Ubos the 0.0082645
uwak referring 0.0476190
uwak , 0.0208333
uwak evil 0.5000000
uwak act 0.3333333
uwak usually 0.0909091
uwak An 0.1666667
Puti selfish 0.3333333
Puti A 0.0153846
Puti character 0.1111111
Makataling puso 0.5000000
Makataling makaisang 1.0000000
Makataling &quot; 0.0224719
Makataling Same 0.0384615
Makataling - 0.0140845
Makataling as 0.0256410
Hawak any 0.2000000
Hawak he 0.1428571
Hawak objection 0.5000000
Hawak anything 0.3333333
Hawak Obeying 1.0000000
Hawak , 0.0416667
Hawak without 0.1428571
Kalapating A 0.0153846
Kalapating prostitute 0.2500000
Pagtatampisaw practically 0.5000000
Pagtatampisaw stays 0.5000000
Pagtatampisaw who 0.0200000
Pagtatampisaw streets 1.0000000
Pagtatampisaw on 0.1000000
Malambot Kind 0.5000000
Malambot persuaded 0.5000000
Malambot Easily 0.1666667
Malambot considerate 0.3333333
Malambot - 0.0140845
Malambot ; 0.0064103
Malambot obedient 0.5000000
Malambot witty 0.2500000
Malambot hearted 0.1111111
Bumibigat physical 0.1666667
Bumibigat condition 0.1250000
Bumibigat Worsening 1.0000000
Sumuntok father 0.0909091
Sumuntok &apos;s 0.0571429
Sumuntok mother 0.1428571
Sumuntok ( 0.0303030
Sumuntok character 0.1111111
Sumuntok or 0.0080645
Sumuntok ) 0.0333333
Sumuntok Inherited 0.3333333
Buwanin of 0.0088496
Buwanin periodic 0.5000000
Buwanin mood 0.1428571
Buwanin ugly 0.2000000
Nabuksan Cheated 0.2500000
Nanaog Died 0.0588235
Mataba eat 0.1666667
Matalas Glib 1.0000000
Matalas fluent 0.5000000
Matalas speaker 0.3333333
Matalas of 0.0088496
Matalas tongue 0.3333333
landas life 0.1111111
landas prosperous 0.5000000
Humihip Made 0.2500000
Humihip his 0.0555556
Humihip misfortune 0.1666667
Humihip own 0.1666667
Magtulak idle 0.5000000
Magtulak To 0.0131579
Magtulak remain 0.2500000
Maipagtatawid which 0.1111111
Maipagtatawid that 0.0555556
Maipagtatawid &apos;s 0.0285714
Maipagtatawid expecially 1.0000000
Maipagtatawid necessities 0.5000000
Maipagtatawid , 0.0208333
Maipagtatawid food 0.0909091
Maipagtatawid is 0.0250000
Magpatulo ( 0.0303030
Magpatulo To 0.0131579
Magpatulo work 0.1111111
Magpatulo in 0.0138889
Magpatulo order 0.5000000
ulol with 0.0208333
ulol Quarrels 1.0000000
ulol everybody 0.5000000
salapi unhealthy 0.2500000
salapi money 0.0625000
salapi to 0.0056180
salapi wealth 0.2500000
salapi Infidelity 0.3333333
salapi Hard 0.2500000
salapi earn 0.5000000
sa embrace 0.2500000
sa study 0.2500000
sa grandchild 0.3333333
sa Boastfulness 0.2000000
sa using 0.3333333
sa to 0.0168539
sa consider 0.3333333
sa someone 0.0357143
sa one 0.0370370
sa immediately 0.1666667
sa income 0.2500000
sa feeling 0.0833333
sa remained 0.5000000
sa boast 0.2500000
sa as 0.0512821
sa buried 0.3333333
sa at 0.2500000
sa condition 0.1250000
sa pregnant 0.2500000
sa love 0.1428571
sa uncertain 0.3333333
sa objection 0.5000000
sa forget 0.3333333
sa the 0.0909091
sa Disappointed 0.3333333
sa Till 0.5000000
sa NULL 0.0310559
sa hair 0.1666667
sa boastful 0.1666667
sa interpretation 0.3333333
sa complex 0.3333333
sa Wife 0.1250000
sa judgement 0.2500000
sa untrue 0.3333333
sa against 0.5000000
sa chance 0.2500000
sa inborn 0.2500000
sa made 0.5000000
sa things 0.2500000
sa Gave 0.5000000
sa miserly 0.1666667
sa dealing 0.3333333
sa in 0.0138889
sa Wanderer 0.2500000
sa adoring 0.3333333
sa unhealthy 0.2500000
sa Treacherous 0.1666667
sa learned 0.5000000
sa flattering 0.2500000
sa Got 0.3333333
sa personal 0.5000000
sa skill 0.3333333
sa person 0.0256410
sa weak 0.1111111
sa many 0.5000000
sa unusual 0.5000000
sa high 0.2500000
sa useless 0.1666667
sa compared 0.2000000
sa verbal 0.5000000
sa ng 0.1111111
sa Pretense 0.3333333
sa better 0.3333333
sa practically 0.5000000
sa Eloped 0.2857143
sa Usurers 0.3333333
sa be 0.0322581
sa bastard 0.3333333
sa Driven 0.3333333
sa record 0.1666667
sa each 0.2500000
sa argue 0.3333333
sa advice 0.3333333
sa marry 0.3333333
sa remember 0.3333333
sa knowledge 0.2500000
sa Intelligent 0.1111111
sa agree 0.3333333
sa destruction 0.5000000
sa evidence 0.2500000
sa Inherited 0.3333333
sa sa 0.4545455
sa acquired 0.5000000
sa egoistic 0.3333333
sa soon 0.5000000
sa jurisdiction 0.3333333
sa possession 0.3333333
sa married 0.1176471
sa anymore 0.4000000
sa contradict 0.3333333
sa powerful 0.3333333
sa baptism 1.0000000
sa force 0.1428571
sa Died 0.1176471
sa Heavily 0.3333333
sa own 0.1666667
sa Restless 0.2000000
sa received 0.5000000
sa cheated 0.3333333
sa went 1.0000000
sa efforts 0.5000000
sa whom 0.3333333
sa fulfill 0.5000000
sa Shameless 0.0769231
sa hopeless 0.2500000
sa situation 1.0000000
Nagdalang In 0.0714286
Nagdalang nagdalang 1.0000000
kusang initiative 0.3333333
kusang No 0.1111111
kulay nature 0.1666667
binata bachelor 0.1666667
binata shy 0.3333333
binata young 0.1111111
binata and 0.0208333
binata slow 1.0000000
binata bashful 0.2500000
binata man 0.0714286
Pamatid People 0.3333333
Pamatid useless 0.1666667
Pamatid who 0.0200000
Pamatid are 0.5000000
Pamatid indolent 0.3333333
Lumalaki Worried 1.0000000
Lumalaki disturbed 0.5000000
Lumalaki badly 0.5000000
Lumalaki ; 0.0032051
Kinakalambre hungry 0.1666667
Kinakalambre Very 0.0476190
Daigdig New 1.0000000
Daigdig ; 0.0064103
Daigdig of 0.0088496
Daigdig way 0.1666667
Daigdig new 0.2500000
Daigdig souls 0.5000000
Daigdig life 0.2222222
nang despised 0.3333333
nang a 0.0075758
nang secret 0.2500000
nang scolding 0.3333333
nang to 0.0056180
nang cheat 0.3333333
nang looking 0.2500000
nang Still 0.2000000
nang Fierce 0.1428571
nang Of 0.3333333
nang etc 0.2000000
mababayaran the 0.0082645
mababayaran food 0.0909091
mababayaran ) 0.0333333
mababayaran eaten 1.0000000
mababayaran ( 0.0303030
mababayaran satisfied 0.5000000
mababayaran referring 0.0476190
gubat company 0.2000000
Tabang Strout 0.5000000
Tabang and 0.0208333
Tabang unhealthy 0.2500000
Tabang but 0.1000000
Tabang body 0.1428571
Tabang weak 0.1111111
balutan NULL 0.0062112
balutan to 0.0056180
balutan as 0.0256410
balutan residence 0.5000000
balutan Changeable 1.0000000
Igagapang assiduously 1.0000000
Igagapang help 0.3333333
Igagapang To 0.0131579
Igagapang another 0.0833333
Igagapang support 0.5000000
Igagapang patiently 1.0000000
Igagapang or 0.0080645
aso returned 0.5000000
aso man 0.0714286
aso and 0.0208333
aso with 0.0208333
aso later 1.0000000
aso Always 0.0833333
aso who 0.0200000
aso a 0.0075758
aso eloped 1.0000000
Kabiyak Wife 0.1250000
pa judgement 0.2500000
pa understanding 0.2500000
pa Proud 0.5000000
pa Disillusionment 0.1666667
pa ; 0.0032051
pa uncertain 0.3333333
pa boastful 0.1666667
ang Getting 0.5000000
ang influence 0.3333333
ang committed 0.3333333
ang Hating 0.3333333
ang Courageous 1.0000000
ang light 0.3333333
ang the 0.0082645
ang normal 1.0000000
ang easily 0.4166667
ang little 0.3333333
ang talkative 0.1428571
ang Hurrying 0.3333333
ang NULL 0.0372671
ang working 0.1666667
ang because 0.2000000
ang persuaded 0.5000000
ang honor 0.2500000
ang tiyan 0.5000000
ang psychopathic 0.5000000
ang Influential 0.3333333
ang Quick 0.5000000
ang everything 0.2500000
ang talker 0.3333333
ang to 0.0112360
ang live 0.3333333
ang acts 0.5000000
ang Lazy 0.1666667
ang conflict 0.5000000
ang Angry 0.3333333
ang Already 0.1666667
ang fun 0.5000000
ang midnight 0.2500000
ang Married 0.3000000
ang beating 0.5000000
ang witty 0.2500000
ang minded 0.1250000
ang cooking 0.3333333
ang hungry 0.3333333
ang earn 0.5000000
ang mood 0.2857143
ang mentally 0.5000000
ang Disappeared 0.3333333
ang simpleton 0.3333333
ang real 0.2000000
ang Scared 0.2500000
ang cooked 0.3333333
ang feelings 0.2000000
ang breathless 0.3333333
ang uttering 1.0000000
ang heavily 0.3333333
ang proud 0.1666667
ang ; 0.1057692
ang Free 0.5000000
ang hardworkin 0.3333333
ang Frowning 0.3333333
ang bachelor 0.1666667
ang stingy 0.2500000
ang Lost 0.2500000
ang fluent 0.5000000
ang adolescence 0.3333333
ang completely 0.3333333
ang hour 1.0000000
ang customs 0.2500000
ang keep 0.3333333
ang Sympathetic 0.2500000
ang considerate 0.3333333
ang headache 0.3333333
ang physical 0.1666667
ang were 0.3333333
ang belittles 0.2500000
ang record 0.1666667
ang Insane 0.3333333
ang Heaving 0.3333333
ang around 0.3333333
ang silently 0.5000000
ang Harmfully 0.3333333
ang out 0.2000000
ang orator 0.3333333
ang self 0.2222222
ang Boastful 0.3333333
ang victory 0.5000000
ang means 0.1111111
ang stealer 0.4000000
ang want 0.3333333
ang Hungry 0.3333333
ang Very 0.0476190
ang view 0.3333333
ang irascible 0.3333333
ang conversation 0.2500000
ang old 0.1000000
ang Sturdy 0.3333333
ang taken 0.2000000
ang power 0.3333333
ang roll 0.5000000
ang prostitute 0.2500000
ang concentrate 0.3333333
ang sad 0.3333333
ang or 0.0161290
ang sickness 1.0000000
ang selfish 0.3333333
ang is 0.0250000
ang perform 0.3333333
ang disappointed 0.5000000
ang broke 0.2500000
ang of 0.0353982
ang fault 0.3333333
ang plants 0.2500000
ang ang 0.3703704
ang Revealed 0.3333333
ang generous 0.3333333
ang care 0.1428571
ang badly 0.5000000
ang an 0.2222222
ang mental 0.2500000
ang himself 0.3333333
ang pot 0.3333333
ang shameless 0.2000000
ang life 0.1111111
ang body 0.1428571
ang Afraid 0.2500000
ang Sick 1.0000000
ang Shameless 0.2307692
ang serious 0.0909091
ang Deaf 0.2500000
ang conversations 1.0000000
ang Intelligent 0.1111111
ang who 0.0200000
ang fought 0.5000000
ang Referring 0.1000000
ang antipathy 0.3333333
ang fighting 0.2500000
ang day 0.2500000
ang Powerful 0.3333333
ang married 0.0588235
ang insensitive 0.3333333
ang Rich 0.1666667
ang money 0.0625000
ang tired 0.2000000
ang afraid 0.5000000
ang experience 0.3333333
ang Cheated 0.2500000
ang surrender 0.2000000
bintana front 1.0000000
bintana battle 1.0000000
bintana died 0.5000000
bintana in 0.0138889
bintana who 0.0200000
bintana Eloped 0.1428571
poste loudly 0.3333333
poste Saying 1.0000000
poste words 0.1000000
poste bad 0.0666667
Dilat Intelligent 0.1111111
Kristi learned 0.2500000
Kristi Rich 0.1666667
Kristi or 0.0080645
Kristi ; 0.0032051
Kristi intelligent 0.1428571
karayom NULL 0.0062112
bangko NULL 0.0062112
bangko not 0.0151515
bangko dance 0.5000000
bangko does 0.0714286
Sampay Not 0.0666667
Sampay genuine 0.5000000
kapalaran misfortune 0.1666667
magandang something 0.0666667
magandang or 0.0080645
magandang working 0.1666667
magandang important 0.5000000
magandang on 0.1000000
Bagyo boastful 0.1666667
Bagyo Very 0.0476190
tuwalya opponent 0.3333333
tama quite 0.3333333
Naglalangis A 0.0153846
Naglalangis betraying 1.0000000
Naglalangis woman 0.0833333
Naglalangis her 0.1666667
Naglalangis married 0.0588235
Naglalangis husband 0.2000000
Magsunog a 0.0075758
Magsunog or 0.0080645
Magsunog career 1.0000000
Magsunog course 0.3333333
idlip notice 0.3333333
idlip to 0.0056180
Sira Insane 0.3333333
Sira by 0.0769231
Sira beautiful 0.2000000
Sira of 0.0088496
Sira Praised 1.0000000
Sira means 0.1111111
Sira words 0.1000000
Ikuros To 0.0131579
Ikuros remember 0.3333333
Humahanap trouble 0.5000000
Humahanap challenging 0.2000000
Humahanap Looking 0.5000000
Humahanap for 0.0208333
panahon habit 0.5000000
panahon has 0.1000000
panahon bad 0.0666667
panahon stormy 1.0000000
panahon hope 0.2000000
panahon day 0.2500000
panahon rainy 1.0000000
panahon Bad 0.3333333
panahon knowledge 0.2500000
panahon weather 0.5000000
Nawalan An 0.1666667
Nawalan old 0.1000000
Nawalan individual 1.0000000
Nawalan who 0.0200000
Nawalan referring 0.0476190
Nawalan became 0.2000000
Nawalan usually 0.0909091
Nawalan has 0.1000000
Nawalan ( 0.0303030
Saanmang or 0.0080645
Saanmang company 0.2000000
balon No 0.1111111
balon wealth 0.2500000
Ibuko &quot; 0.0224719
Ibuko same 0.1000000
Ibuko ibako 1.0000000
Ibuko as 0.0256410
bao dislikes 0.3333333
Pinitpit dumbfounded 0.3333333
palo initiative 0.3333333
palo placed 0.3333333
palo voluntarily 0.3333333
Mabilis something 0.0666667
Mabilis in 0.0138889
Mabilis from 0.1000000
Mabilis Quick 0.5000000
Mabilis stealing 1.0000000
Mabilis others 0.0526316
kibot young 0.1111111
kibot Still 0.2000000
Maitim plan 0.2500000
Maitim NULL 0.0062112
Maitim maitim 1.0000000
tangay stop 0.1428571
tangay not 0.0151515
tangay Does 0.0714286
tangay murmuring 0.3333333
bato Of 0.3333333
bato person 0.0512821
bato helper 0.5000000
bato fell 0.3333333
bato unconscious 1.0000000
bato insulted 0.2500000
bato NULL 0.0062112
bato who 0.0400000
bato Disillusionment 0.1666667
bato a 0.0075758
bato down 0.1428571
Pagkagat marriage 1.0000000
Sumasala Died 0.0588235
Bulang for 0.0208333
Bulang spend 0.5000000
Bulang Ready 1.0000000
Bulang especially 0.2000000
Bulang friends 0.2500000
Bulang to 0.0056180
Nagpikit reporter 0.5000000
Malaki ang 0.0370370
Malaki &quot; 0.0112360
Malaki mahaba 1.0000000
Malaki buntot 0.5000000
kalingkingan ability 0.2000000
kalingkingan or 0.0080645
kalingkingan skill 0.3333333
kalingkingan same 0.1000000
kalingkingan the 0.0082645
kalingkingan Not 0.0666667
Taong money 0.0625000
Taong in 0.0138889
Taong the 0.0082645
Taong The 0.0416667
Taong pocket 0.3333333
Taong last 0.3333333
Masakit feeling 0.0833333
Masakit bad 0.0666667
Masakit NULL 0.0062112
Masakit anger 0.1111111
Masakit With 0.0588235
Masakit or 0.0080645
Masakit with 0.0208333
balat Shameless 0.0769231
balat old 0.1000000
balat Skinny 0.3333333
balat anything 0.3333333
Malabnaw Weak 0.1428571
Malabnaw minded 0.1250000
Malabnaw - 0.0140845
Malabnaw simpleton 0.3333333
Malabnaw ; 0.0032051
Kasaliwaang Misfortune 0.3333333
Igisa expenses 0.3333333
Sugat Knows 1.0000000
Sugat the 0.0082645
Sugat to 0.0056180
Sugat pay 0.1111111
Sugat ability 0.2000000
Isubo trouble 0.5000000
Isubo to 0.0056180
Isubo one 0.0185185
Isubo into 1.0000000
Isubo put 0.2000000
( sorrow 0.5000000
( direct 0.2000000
Iluwag of 0.0088496
Iluwag peace 1.0000000
Iluwag mind 0.0666667
Iluwag To 0.0131579
Iluwag have 0.1250000
Nagdilim about 0.3333333
Nagdilim bad 0.0666667
Nagdilim Feeling 0.5000000
Nagdilim something 0.0666667
ganda incomparably 0.1111111
ganda beautiful 0.4000000
ganda ; 0.0032051
Magandang hearted 0.1111111
Magandang - 0.0140845
Magandang ; 0.0064103
Magandang charitable 1.0000000
Magandang Kind 0.5000000
Magandang helpful 0.5000000
Talu breaks 1.0000000
Talu easily 0.0833333
Talu who 0.0200000
Ibayong land 0.3333333
kambing odor 0.3333333
Mabulaklak prosperous 0.5000000
Mabulaklak Happy 1.0000000
Mabulaklak and 0.0416667
Binawian Died 0.0588235
Paniningalang awake 1.0000000
Paniningalang is 0.0250000
Paniningalang person 0.0256410
Paniningalang who 0.0200000
Paniningalang but 0.1000000
Kadaupang companion 0.2500000
Kadaupang constant 0.1666667
Kadaupang a 0.0075758
Kadaupang Friend 0.3333333
krus burden 1.0000000
Balikatin exert 0.3333333
Balikatin work 0.1111111
Balikatin effort 0.3333333
Balikatin To 0.0131579
Balikatin &apos;s 0.0285714
Balikatin one 0.0185185
Balikatin doing 0.3333333
Balikatin in 0.0138889
Napasakan In 0.0714286
Napasakan ailment 0.2500000
Napasakan bed 1.0000000
Napasakan with 0.0208333
Napasakan serious 0.0909091
Napasakan a 0.0075758
hudas Treacherous 0.1666667
Pagpapantay will 0.1666667
Pagpapantay thing 0.1000000
Pagpapantay The 0.0416667
Pagpapantay come 0.2500000
Pagpapantay impossible 1.0000000
Pagpapantay an 0.0555556
Pagpapantay time 0.1111111
Pagpapantay not 0.0151515
Pagpapantay that 0.0555556
alulod Fond 0.5000000
Sumagap Received 0.2000000
Hapin &apos;s 0.0285714
Hapin Help 0.5000000
Hapin to 0.0056180
Hapin livelihood 0.1428571
Hapin one 0.0185185
magsalita do 0.1000000
magsalita well 0.2000000
magsalita to 0.0056180
magsalita - 0.0281690
Bakulaw to 0.0056180
Bakulaw hair 0.1666667
Bakulaw a 0.0075758
Bakulaw man 0.0714286
Bakulaw Referring 0.1000000
Bakulaw with 0.0208333
Bakulaw long 0.1250000
Mahangin Boastful 0.3333333
Mahangin ; 0.0032051
Mahangin proud 0.1666667
kaya have 0.1250000
kaya rich 0.3333333
kaya Born 0.5000000
kaya pay 0.1111111
kaya enough 0.5000000
Mababang proud 0.1666667
Mababang Humble 0.5000000
Mababang ; 0.0032051
Mababang not 0.0151515
ni Died 0.0588235
alikabok race 0.3333333
alikabok dressed 0.1666667
Tubong Gain 1.0000000
Tubong capital 0.5000000
isang meals 0.2000000
isang NULL 0.0062112
isang through 0.3333333
Ibong ; 0.0032051
Ibong Prostitute 0.3333333
Ibong Bachelor 0.5000000
Ibong unfortunate 0.5000000
Hinihila Very 0.0476190
Hinihila tired 0.2000000
Baboy filthy 0.6666667
Baboy Dirty 1.0000000
Baboy , 0.0208333
Diyos NULL 0.0062112
Ipinagtirik Prayed 0.5000000
Ipinagtirik for 0.0208333
pagong bayawak 0.3333333
pagong sluggishly 0.5000000
Magdalang take 0.1666667
Magdalang pity 0.1428571
Magdalang to 0.0056180
Magdalang To 0.0131579
Magdalang sympathize 0.2500000
Natutubigan consciousness 1.0000000
Natutubigan Losing 0.5000000
Magdilat thinking 1.0000000
Magdilat sit 1.0000000
Magdilat about 0.3333333
Magdilat on 0.1000000
digmaan day 0.2500000
Inaapoy with 0.0208333
Inaapoy Hot 0.3333333
Inaapoy fever 0.1666667
tulog ; 0.0032051
tulog Dream 0.3333333
tulog NULL 0.0062112
tulog sluggish 0.4000000
Nakadaop present 1.0000000
Nakadaop in 0.0138889
Nakadaop the 0.0082645
Nakadaop Always 0.0833333
Nakadaop imagination 0.3333333
Malamig persons 0.3333333
Malamig and 0.0208333
Malamig caretaker 0.2000000
Malamig animals 0.2000000
Malamig A 0.0153846
Malamig , 0.0208333
Malamig good 0.0434783
Malamig sick 0.5000000
Malamig plants 0.2500000
pito pito 0.2500000
pito meaning 0.1428571
kinalahig Poor 0.3333333
kinalahig writing 1.0000000
kinalahig , 0.0208333
kinalahig referring 0.0476190
kinalahig or 0.0161290
kinalahig penmanship 1.0000000
kinalahig ugly 0.2000000
Wals Worthless 0.3333333
Panis &quot; 0.0112360
Panis - 0.0140845
Panis around 0.3333333
Panis absent 1.0000000
Panis minded 0.1250000
Panis him 0.3333333
Panis happening 0.5000000
Magmamahabang to 0.0112360
Magmamahabang To 0.0131579
Magmamahabang brought 0.3333333
Magmamahabang be 0.0645161
Magmamahabang the 0.0082645
Magmamahabang altar 1.0000000
Magmamahabang married 0.0588235
santito Pretending 0.2500000
santito good 0.0434783
santito be 0.0322581
santito to 0.0056180
butong child 0.1250000
Kapilas bunga 1.0000000
Kapilas wife 0.2500000
Kapilas Husband 0.5000000
Kapilas , 0.0208333
mayroon The 0.0416667
mayroon poor 0.1000000
Inagaw the 0.0247934
Inagaw small 0.2000000
Inagaw illness 1.0000000
Inagaw poor 0.1000000
Inagaw income 0.2500000
Inagaw saved 1.0000000
Inagaw taken 0.2000000
Inagaw cured 1.0000000
Inagaw from 0.2000000
Inagaw serious 0.0909091
Inagaw of 0.0088496
Inagaw death 0.1111111
Inagaw Was 0.1818182
Inagaw buhay 0.5000000
lamig in 0.0138889
lamig Strout 0.5000000
lamig NULL 0.0062112
Guhit ; 0.0032051
Guhit Fate 1.0000000
Guhit destiny 0.3333333
Maluang what 0.1111111
Maluang others 0.0526316
Maluang say 0.3333333
kahit meals 0.2000000
kahit enough 0.5000000
kahit the 0.0082645
kahit is 0.0250000
kahit for 0.0208333
kahit just 0.2000000
Patayin light 0.3333333
Patayin put 0.2000000
Patayin out 0.1000000
Patayin To 0.0131579
Patayin the 0.0082645
Masasamang over 0.3333333
Masasamang dreamer 1.0000000
Masasamang A 0.0153846
Masasamang ambitious 0.3333333
kamyas irritated 0.2000000
kamyas Angered 1.0000000
kamyas ; 0.0032051
patalim means 0.1111111
Ampalaya miserly 0.1666667
Matimtimang headed 0.3333333
Matimtimang Hot 0.3333333
Nilipasan lost 0.2500000
Nilipasan who 0.0200000
Nilipasan hope 0.2000000
Nilipasan One 0.0555556
Malaks Strong 0.5000000
Malaks influence 0.1666667
gugo NULL 0.0062112
Kumita Was 0.0909091
Kumita born 0.2500000
Laman in 0.0138889
Laman of 0.0088496
Laman NULL 0.0062112
Laman Always 0.0833333
Laman neighbors 0.2500000
Laman home 0.2000000
Laman Vagabond 0.1666667
Laman the 0.0082645
pinggan gentle 0.2500000
pinggan well 0.2000000
pinggan Treating 0.5000000
Magtinda egostic 0.5000000
Magtinda appreciate 1.0000000
Magtinda self 0.1111111
Magtinda one 0.0185185
Magtinda &apos;s 0.0285714
Magtinda To 0.0131579
oras Died 0.0588235
Apa , 0.0208333
Apa weak 0.1111111
Apa Brittle 1.0000000
Hiyas A 0.0153846
Hiyas unmarried 0.3333333
Hiyas Honor 0.3333333
Hiyas an 0.0555556
Hiyas girl 0.1428571
Hiyas maiden 1.0000000
Pamasak like 1.0000000
Pamasak drinks 1.0000000
Pamasak , 0.0208333
Pamasak coca 1.0000000
Pamasak - 0.0140845
Pamasak &quot; 0.0112360
Pamasak Soft 1.0000000
Pamasak cola 1.0000000
walo pito 0.2500000
walo &quot; 0.0112360
walo Same 0.0384615
Buntong breathing 0.3333333
Buntong Audible 1.0000000
kantores returning 0.5000000
kantores Not 0.0666667
Sinuob Replaced 0.5000000
Sinuob somebody 0.2000000
Pabalat Will 0.2000000
Pabalat a 0.0075758
Pabalat with 0.0208333
Pabalat gun 1.0000000
Pabalat shoot 0.5000000
Kabit wife 0.2500000
Kabit Common 1.0000000
Kabit law 0.2000000
Kabit - 0.0140845
Nakaahon or 0.0080645
Nakaahon a 0.0075758
Nakaahon wrong 1.0000000
Nakaahon interpretation 0.3333333
Nakaahon statement 1.0000000
Nakaahon Made 0.2500000
Nabato a 0.0075758
Nabato thing 0.1000000
Nabato unintentionally 0.3333333
Nabato Mentioned 1.0000000
tigas force 0.1428571
Nagbalik punishment 0.1666667
Nagbalik than 0.3333333
Nagbalik committed 0.3333333
Nagbalik sin 1.0000000
Nagbalik was 0.2000000
Nagbalik the 0.0082645
Nagbalik The 0.0416667
Nagbalik greated 1.0000000
Mapagtanim One 0.0555556
Mapagtanim hatred 0.2000000
Mapagtanim anger 0.1111111
Mapagtanim or 0.0080645
Mapagtanim who 0.0200000
Mapagtanim keeps 1.0000000
Mapagtanim long 0.1250000
luksa anniversary 0.3333333
itik victimized 0.3333333
Walang see 0.4000000
Walang any 0.2000000
Walang not 0.1515152
Walang Without 0.2500000
Walang Favorite 0.5000000
Walang synonyms 0.5000000
Walang . 0.0500000
Walang character 0.1111111
Walang protector 0.5000000
Walang Stupid 0.5000000
Walang talking 0.1000000
Walang Does 0.3571429
Walang Insensitive 0.5000000
Walang Could 0.5000000
Walang bashful 0.2500000
Walang Unmerciful 0.5000000
Walang No 0.2222222
Walang know 0.2000000
Walang similar 0.2000000
Walang interfere 0.5000000
Walang others 0.0526316
Sumakamay Died 0.0588235
Sanga one 0.0185185
Sanga inclined 0.5000000
Sanga to 0.0056180
Sanga gossip 0.3333333
kato learned 0.2500000
kato Wealthy 0.3333333
kato intelligent 0.1428571
kato or 0.0080645
kato ; 0.0032051
buhol someone 0.0357143
Patabaing person 0.0256410
Patabaing A 0.0153846
Nagdadalang pity 0.1428571
Nagdadalang Took 1.0000000
Pakainin Money 0.5000000
Tulog A 0.0153846
Tulog sleep 0.5000000
Tulog sound 1.0000000
Tulog not 0.0151515
Tulog shallow 1.0000000
Tulog shy 0.3333333
Tulog a 0.0151515
alamang characterized 0.5000000
alamang Life 0.5000000
alamang by 0.0769231
alamang uncertainty 1.0000000
Sumiklab eat 0.1666667
Sumiklab out 0.1000000
Sumiklab due 0.2000000
Sumiklab a 0.0075758
Sumiklab meals 0.2000000
Sumiklab day 0.2500000
Sumiklab not 0.0151515
Sumiklab three 1.0000000
Sumiklab Does 0.0714286
maginoo gentleman 0.5000000
maginoo agreement 0.3333333
barbero gunting 0.5000000
bathala Died 0.0588235
Maikli a 0.0075758
Maikli money 0.0625000
Maikli time 0.1111111
Maikli laggard 1.0000000
Paghingi Marriage 0.2500000
Sumugba immediately 0.1666667
Sumugba angry 0.1250000
Sumugba Became 0.1666667
Sumugba very 0.0625000
Baligtad in 0.0138889
Baligtad gambling 0.2500000
Baligtad Lost 0.2500000
Magbilad brag 0.3333333
Magbilad to 0.0056180
Magbilad boast 0.2500000
Magbilad To 0.0131579
Magbilad ; 0.0032051
kalabasa to 0.0056180
Pusong take 0.1666667
Pusong does 0.0714286
Pusong pity 0.1428571
Pusong others 0.0526316
Pusong on 0.1000000
Pusong not 0.0151515
ama could 0.5000000
ama not 0.0151515
ama Dumbfounded 0.5000000
ama talk 0.2000000
ama direct 0.2000000
Nagbabalik Working 0.5000000
Nagbabalik living 0.3333333
Kapit kapit 1.0000000
Kapit hold 1.0000000
Kapit Suited 1.0000000
Sukat Unreasonable 1.0000000
Sukat lunatic 1.0000000
Sukat ; 0.0032051
Sukat or 0.0080645
Sukat psychopathic 0.5000000
Ginintuang kind 0.5000000
Ginintuang Sympathetic 0.2500000
Ginintuang hearted 0.1111111
Ginintuang - 0.0140845
Ginintuang voice 0.2500000
Ginintuang ; 0.0032051
natunaw embarassed 0.2500000
natunaw Greatly 0.5000000
Bilugin fun 0.5000000
Bilugin To 0.0131579
Bilugin fool 0.5000000
Bilugin make 0.2500000
Bilugin or 0.0080645
Bilugin someone 0.0357143
Bilugin of 0.0088496
sikmura live 0.1666667
sikmura Insensitive 0.5000000
sikmura independently 0.2500000
sikmura unsympathetic 1.0000000
sikmura and 0.0208333
Nasusian Disappeared 0.3333333
Nasusian immediately 0.1666667
kawag Walking 0.5000000
Nagbubuhat A 0.0153846
lalaki man 0.0714286
Murang live 0.1666667
Murang independently 0.2500000
Murang Can 0.2500000
Murang &apos;t 0.5000000
bayawak tenacious 0.5000000
bayawak very 0.0625000
bayawak A 0.0153846
bayawak tight 1.0000000
bayawak and 0.0208333
bayawak fruit 0.5000000
baba Already 0.1666667
katotohanan untrue 0.3333333
loob Humble 0.5000000
loob injuries 0.3333333
loob ambitious 0.3333333
loob bravely 0.3333333
loob Humbleness 0.3333333
loob self 0.1111111
loob have 0.1250000
loob &quot; 0.0224719
loob loob 0.6000000
loob malakas 0.5000000
loob taken 0.2000000
loob buntot 0.5000000
loob disagree 0.3333333
loob brave 0.1666667
loob ang 0.0370370
loob NULL 0.0434783
loob feeling 0.0833333
loob Shameless 0.0769231
loob stubbornness 0.3333333
loob of 0.0176991
sandata fighting 0.2500000
awa awa 1.0000000
awa - 0.0140845
awa &quot; 0.0112360
Pakitang ; 0.0032051
Pakitang assistance 0.3333333
Pakitang help 0.3333333
Pakitang Offering 1.0000000
Ilako puri 0.5000000
Ilako Same 0.0384615
Ilako ang 0.0370370
Ilako ibilad 1.0000000
Ilako &quot; 0.0224719
Ilako as 0.0256410
isilang Still 0.2000000
isilang young 0.1111111
nakuha listen 1.0000000
nakuha to 0.0056180
nakuha Did 0.2500000
nakuha not 0.0151515
nakuha evidence 0.2500000
nakuha good 0.0434783
Mitsa sour 0.3333333
Mitsa with 0.0208333
Mitsa a 0.0075758
Mitsa Pouting 0.3333333
Mitsa face 0.1428571
Ippinagbaba for 0.0208333
Ippinagbaba one 0.0185185
Ippinagbaba anger 0.1111111
Ippinagbaba Cause 0.1666667
Ippinagbaba &apos;s 0.0285714
Sumakabilang person 0.0256410
Sumakabilang usually 0.0909091
Sumakabilang feeling 0.0833333
Sumakabilang sour 0.3333333
Sumakabilang a 0.0075758
Sumakabilang of 0.0088496
Labanan Avoiding 1.0000000
Labanan during 1.0000000
Labanan between 0.5000000
Labanan two 0.2500000
Labanan lovers 0.3333333
Labanan ( 0.0303030
Labanan conversation 0.2500000
- slowly 0.5000000
- good 0.2173913
- NULL 0.0310559
- defects 0.3333333
- after 0.4444444
- needs 0.5000000
- Something 0.2000000
- Death 0.2000000
- &quot; 0.0112360
- under 0.3333333
- clearly 0.3333333
- odor 0.3333333
- ambitious 0.3333333
- placed 0.3333333
- gratitude 0.3333333
- serve 0.5000000
- Feelings 1.0000000
- imagination 0.3333333
- wetting 0.5000000
- walks 0.5000000
- Uneasy 0.3333333
- only 0.1111111
- Not 0.2666667
- Lazy 0.1666667
- assistance 0.3333333
- Mixed 0.5000000
- initiative 0.3333333
- pocket 0.3333333
- characterized 0.5000000
- someone 0.0357143
- one 0.0185185
- wide 0.6666667
- first 1.0000000
- quarrel 0.1428571
- to 0.0224719
- newcomer 1.0000000
- mother 0.1428571
- makes 0.5000000
- gentle 0.2500000
- Unconscious 0.3333333
- , 0.0416667
- food 0.1818182
- ; 0.1698718
- referring 0.0952381
- Unfortunate 0.3333333
- shoot 0.5000000
- second 0.3333333
- irritated 0.4000000
- those 0.5000000
- particular 0.5000000
- area 0.3333333
- intoxicated 0.3333333
- - 0.2253521
- included 0.3333333
- common 0.5000000
- seen 0.1666667
- reciprocate 0.4000000
- Humbleness 0.3333333
- bravely 0.3333333
- voluntarily 0.3333333
- Treacherous 0.1666667
- butchered 0.3333333
- sleeping 0.5000000
- Child 0.1111111
- less 0.3333333
- charming 0.3333333
- in 0.0277778
- brought 0.3333333
- miserly 0.1666667
- Young 0.5000000
- insane 0.2500000
- sensitive 0.5000000
- unhesitatingly 0.3333333
- expressl 0.2500000
- seriousness 1.0000000
- almost 0.5000000
- delicate 0.3333333
- mango 0.5000000
- always 0.2000000
- necessities 0.5000000
- hatred 0.2000000
- breathing 0.3333333
- disagree 0.3333333
- sympathy 0.3333333
- realize 0.5000000
- anniversary 0.3333333
- impoverished 0.3333333
- tenacious 0.5000000
- worth 1.0000000
- big 0.1666667
- smooth 1.0000000
- death 0.1111111
- Honeymoon 0.3333333
- of 0.0176991
- be 0.0645161
- Entrusted 0.3333333
- thing 0.1000000
- Dream 0.3333333
- Changing 0.5000000
- short 0.1666667
- promise 0.4000000
- spend 0.5000000
- or 0.0080645
- offering 0.5000000
- constant 0.5000000
- a 0.0303030
- mind 0.0666667
- victimized 0.3333333
- injuries 0.3333333
- caretaker 0.2000000
- losses 0.3333333
- Dirt 0.5000000
- custodian 0.2500000
- strongest 0.3333333
- Vagabond 0.1666667
- ponder 0.3333333
- Dowry 0.3333333
- abandoned 0.3333333
- sleep 0.5000000
- Talkative 1.0000000
- belittled 0.2500000
- usually 0.0909091
- Keeps 0.3333333
- Inflammable 0.3333333
- together 0.2000000
- relation 0.3333333
- grand 0.5000000
- plenty 0.3333333
- wedlock 0.3333333
- indolent 0.3333333
- Refused 0.3333333
- either 0.5000000
- chatting 0.5000000
- satisfied 0.5000000
- Worthless 0.3333333
- but 0.1000000
- seem 0.3333333
- notice 0.3333333
- critical 0.2000000
- gives 0.5000000
talipandas refined 1.0000000
pusa Always 0.0833333
pusa included 0.3333333
pusa quarreling 1.0000000
lusong misfortune 0.1666667
Hunos - 0.0140845
Hunos Self 1.0000000
Hunos control 0.2500000
ayaw Undecided 0.3333333
Tinanggap who 0.0200000
Tinanggap someone 0.0357143
Tinanggap welcomed 1.0000000
Tinanggap was 0.2000000
Minamata Cause 0.1666667
Minamata mishap 0.2500000
Minamata death 0.1111111
Minamata or 0.0080645
Minamata of 0.0088496
Nagsukatan moneyed 0.3333333
Nagsukatan money 0.0625000
Nagsukatan in 0.0138889
Nagsukatan Plentiful 1.0000000
Nagsukatan ; 0.0032051
Pantawid or 0.0080645
Pantawid Food 0.5000000
Pantawid money 0.0625000
Pantawid to 0.0056180
Pantawid buy 0.3333333
Pantawid food 0.0909091
labi Till 0.5000000
labi grave 1.0000000
labi the 0.0082645
labi immediately 0.1666667
labi boastful 0.1666667
labi death 0.1111111
labi ; 0.0032051
labi up 0.2000000
Nagsilbing ; 0.0032051
Nagsilbing Angry 0.1666667
Nagsilbing with 0.0208333
Nagsilbing filled 1.0000000
Nagsilbing hatred 0.2000000
manok Life 0.5000000
manok constant 0.1666667
manok in 0.0138889
manok danger 0.2500000
manok Keeps 0.3333333
manok NULL 0.0124224
dagat land 0.3333333
dagat Foreign 1.0000000
luya dumbfounded 0.3333333
luya ; 0.0032051
kapitbahay along 0.5000000
kapitbahay go 0.2000000
kapitbahay Cannot 0.1250000
kapitbahay well 0.2000000
kapitbahay neighbors 0.2500000
kapitbahay with 0.0208333
kapitbahay others 0.0526316
Gagapang a 0.0075758
Hinahabagat ailment 0.2500000
Hinahabagat slight 0.3333333
Hinahabagat , 0.0208333
Hinahabagat fever 0.1666667
Hinahabagat a 0.0151515
Hinahabagat usually 0.0909091
Hinahabagat With 0.0588235
kalawang A 0.0153846
pamburol Hoped 0.5000000
pamburol nothing 0.3333333
pamburol for 0.0208333
Mabait used 0.1111111
Mabait to 0.0056180
Mabait referring 0.0476190
Mabait Name 0.5000000
Mabait the 0.0082645
Mabait when 0.1666667
Mabait rats 1.0000000
gata Honeymoon 0.3333333
lansangan advice 0.3333333
lansangan useless 0.1666667
lansangan Vagabond 0.1666667
Dungis ( 0.0303030
Matanimin to 0.0056180
Matanimin &apos;s 0.0285714
Matanimin belittle 0.3333333
Matanimin characteristics 0.2500000
Matanimin or 0.0080645
Matanimin One 0.0555556
Matanimin underestimate 1.0000000
Matanimin others 0.0526316
malaya Bachelor 0.5000000
langit fever 0.1666667
langit incomparable 1.0000000
langit Extreme 0.5000000
langit Cheated 0.2500000
langit happiness 0.4000000
langit Godsend 0.3333333
langit ; 0.0032051
Binili said 0.3333333
Binili everything 0.2500000
Binili Believed 1.0000000
Binili by 0.0769231
Binili someone 0.0357143
alon idle 0.5000000
Ipakita nature 0.1666667
Malinis Free 0.5000000
Malinis from 0.1000000
Malinis guilt 1.0000000
Tagong tagong 1.0000000
Tagong as 0.0256410
Tagong - 0.0140845
Tagong &quot; 0.0224719
Tagong Same 0.0384615
Tagong bayawak 0.3333333
Tagong seen 0.1666667
hawak miserly 0.1666667
hawak ; 0.0032051
urong other 0.1428571
urong plates 0.3333333
urong utensils 0.5000000
urong after 0.1111111
urong meal 0.5000000
urong and 0.0208333
urong table 1.0000000
urong the 0.0082645
babasagin careful 0.5000000
babasagin needing 0.2000000
babasagin attention 0.2500000
Nagdalawang poor 0.1000000
Nagdalawang impoverished 0.3333333
Nagdalawang Became 0.1666667
kulang pito 0.2500000
kulang insane 0.2500000
Bahag Afraid 0.2500000
Nasiraan father 0.0909091
Nasiraan Deceased 1.0000000
tuko &quot; 0.0112360
tuko - 0.0140845
tuko bayawak 0.3333333
may stop 0.1428571
may luck 0.1111111
may company 0.2000000
may Restless 0.2000000
suklay palad 0.2500000
Humanap NULL 0.0062112
Humanap to 0.0056180
Humanap one 0.0185185
Humanap do 0.1000000
Humanap which 0.1111111
Humanap spmething 1.0000000
Humanap is 0.0250000
Humanap Trying 0.2500000
Alas Drunk 0.3333333
Panakip reciprocate 0.2000000
Panakip to 0.0056180
Panakip Wants 1.0000000
Panakip not 0.0151515
Panakip always 0.1000000
Panakip but 0.1000000
Panakip does 0.0714286
Panakip receive 1.0000000
Kain One 0.0555556
Paa someone 0.0357143
Paa bribe 0.3333333
buhangin Driven 0.3333333
buhangin to 0.0112360
buhangin duration 0.2500000
Ibagsak blame 1.0000000
Ibagsak person 0.0256410
Ibagsak certain 0.3333333
Ibagsak for 0.0208333
Ibagsak fault 0.3333333
Ibagsak To 0.0131579
Ibagsak a 0.0151515
Pagmamahabang Death 0.2000000
Lagot gone 1.0000000
Lagot broke 0.2500000
Lagot money 0.0625000
Lagot is 0.0250000
Lagot The 0.0416667
putak scolding 0.3333333
Kahig looking 0.2500000
Kahig means 0.1111111
Kahig of 0.0088496
Kahig livelihood 0.1428571
Kahig Continously 0.5000000
Kahig for 0.0208333
Mahaba and 0.0208333
Mahaba adept 1.0000000
Mahaba dishonest 0.5000000
Mahaba is 0.0250000
Mahaba Spoiled 0.3333333
Mahaba talkative 0.1428571
Mahaba a 0.0075758
Mahaba not 0.0151515
Mahaba part 1.0000000
Mapait Humiliating 0.5000000
ugat impatient 1.0000000
ugat over 0.3333333
ugat and 0.0208333
ugat becoming 0.2000000
ugat angry 0.1250000
ugat Disgustingly 0.3333333
ugat restless 0.2500000
nagdaan Eloped 0.1428571
kinanan plates 0.3333333
Ganggakalingkingan Very 0.0476190
Ganggakalingkingan samll 1.0000000
Ganggakalingkingan when 0.1666667
Ganggakalingkingan compared 0.2000000
Ganggakalingkingan to 0.0056180
Ganggakalingkingan another 0.0833333
mata Blind 0.3333333
mata stayed 1.0000000
mata unhesitatingly 0.3333333
mata ) 0.0333333
mata . 0.0500000
mata death 0.1111111
mata place 0.2500000
mata second 0.3333333
mata NULL 0.0062112
mata his 0.0555556
mata reporter 0.5000000
mata The 0.0416667
mata certain 0.3333333
mata Intelligent 0.1111111
mata long 0.1250000
mata benefit 1.0000000
mata &apos; 0.3333333
mata a 0.0151515
mata or 0.0080645
mata s 0.3333333
Nasakyan cannot 0.2000000
Nasakyan the 0.0082645
Nasakyan immediately 0.1666667
Nasakyan Something 0.2000000
Nasakyan uttered 1.0000000
Nasakyan in 0.0138889
Nasakyan which 0.1111111
Nasakyan mind 0.0666667
Nasakyan be 0.0322581
karayon family 0.2500000
karayon becoming 0.2000000
karayon the 0.0082645
karayon In 0.0714286
karayon pregnant 0.2500000
karayon way 0.1666667
