; Paglilipat 0.3333333
wedlock Paglilipat 0.3333333
Marriage Paglilipat 0.3333333
debt Balot 0.3333333
Heavily Balot 0.3333333
in Balot 0.3333333
Treacherous Damo 1.0000000
Sweetheart Bata 0.3333333
; Bata 0.3333333
employee Bata 0.3333333
stage Panay 0.1250000
in Panay 0.1250000
of Panay 0.1250000
A Panay 0.1250000
when Panay 0.1250000
adolesscent Panay 0.1250000
life Panay 0.1250000
boy Panay 0.1250000
someone hininga 0.1250000
Same hininga 0.1250000
ang hininga 0.1250000
hininga hininga 0.1250000
nagsisikip hininga 0.1250000
as hininga 0.1250000
&quot; hininga 0.2500000
voice Boses 0.2500000
very Boses 0.2500000
soft Boses 0.2500000
A Boses 0.2500000
genuine bakod 1.0000000
referring utang 0.0666667
of utang 0.0666667
any utang 0.0666667
prizes utang 0.0666667
debts utang 0.0666667
) utang 0.0666667
remebery utang 0.0666667
usually utang 0.0666667
( utang 0.0666667
to utang 0.1333333
debt utang 0.0666667
interpretation utang 0.0666667
gratitude utang 0.0666667
seem utang 0.0666667
the Pagbuhatan 0.2000000
coming Pagbuhatan 0.2000000
night Pagbuhatan 0.2000000
At Pagbuhatan 0.2000000
of Pagbuhatan 0.2000000
Easily Buhay 0.1111111
permanently Buhay 0.1111111
seen Buhay 0.1111111
stays Buhay 0.1111111
NULL Buhay 0.2222222
brave Buhay 0.2222222
on Buhay 0.1111111
Unconscious dampot 1.0000000
in paurong 0.1111111
who paurong 0.1111111
progress paurong 0.1111111
wealth paurong 0.1111111
not paurong 0.1111111
but paurong 0.1111111
ages paurong 0.1111111
does paurong 0.1111111
person paurong 0.1111111
caretaker Mabuting 0.2000000
or Mabuting 0.2000000
good Mabuting 0.2000000
Good Mabuting 0.2000000
people Mabuting 0.2000000
daughter kanyon 1.0000000
debt turing 0.2500000
reciprocate turing 0.2500000
gratitude turing 0.2500000
of turing 0.2500000
charged Alagad 0.5000000
People Alagad 0.5000000
an dibdib 0.0384615
silent dibdib 0.0384615
Wife dibdib 0.0384615
feels dibdib 0.0384615
Heaving dibdib 0.0384615
speech dibdib 0.0384615
sadness dibdib 0.0384615
; dibdib 0.0769231
ill dibdib 0.0384615
proud dibdib 0.0384615
great dibdib 0.0384615
feeling dibdib 0.0384615
power dibdib 0.0384615
NULL dibdib 0.1923077
sympathetic dibdib 0.0384615
With dibdib 0.0384615
ownership dibdib 0.0384615
with dibdib 0.0384615
Married dibdib 0.0384615
- dibdib 0.0384615
Haughtily dibdib 0.0384615
a Binuo 0.2500000
personal Binuo 0.2500000
decision Binuo 0.2500000
Made Binuo 0.2500000
Boastfulness dakot 1.0000000
critical Dili 1.0000000
- Bigatin 0.2222222
to Bigatin 0.1111111
, Bigatin 0.1111111
influential Bigatin 0.1111111
; Bigatin 0.1111111
do Bigatin 0.1111111
Well Bigatin 0.1111111
intelligent Bigatin 0.1111111
character tainga 0.2000000
the tainga 0.4000000
NULL tainga 0.2000000
is tainga 0.2000000
evening silim 1.0000000
A Ahon 0.2500000
has Ahon 0.2500000
arrived Ahon 0.2500000
just Ahon 0.2500000
cooked sinaing 1.0000000
person Umutang 0.3333333
another Umutang 0.3333333
Murdered Umutang 0.3333333
Will Magdadala 0.3333333
responsibility Magdadala 0.3333333
shoulder Magdadala 0.3333333
To Ilibing 0.5000000
forget Ilibing 0.5000000
from kuko 0.2000000
one kuko 0.2000000
with kuko 0.2000000
whom kuko 0.2000000
another kuko 0.2000000
Died Tinawag 1.0000000
bright dunong 0.5000000
; dunong 0.2500000
incomparably dunong 0.2500000
press Ikaapat 1.0000000
Disillusionment naging 1.0000000
try Kumakagat 0.2500000
all Kumakagat 0.2500000
To Kumakagat 0.2500000
NULL Kumakagat 0.2500000
Brother Kaputol 0.3333333
Sister Kaputol 0.3333333
or Kaputol 0.3333333
Product Habi 0.3333333
of Habi 0.3333333
careless Habi 0.3333333
eloquence Dilang 1.0000000
Wealthy Nagwalang 0.1666667
with Nagwalang 0.1666667
plenty Nagwalang 0.1666667
money Nagwalang 0.1666667
; Nagwalang 0.1666667
of Nagwalang 0.1666667
mentally Nasira 0.2000000
deranged Nasira 0.2000000
insane Nasira 0.2000000
Became Nasira 0.2000000
became Nasira 0.2000000
needing na 0.0140845
stop na 0.0140845
all na 0.0140845
fighting na 0.0140845
time na 0.0140845
duration na 0.0140845
talent na 0.0140845
stage na 0.0140845
sympathetic na 0.0140845
shy na 0.0140845
give na 0.0140845
Foreseeing na 0.0140845
feet na 0.0140845
child na 0.0140845
alike na 0.0140845
sacrifices na 0.0140845
washing na 0.0140845
Dying na 0.0140845
Disillusionment na 0.0140845
plan na 0.0140845
line na 0.0140845
labi na 0.0140845
Undecided na 0.0140845
Full na 0.0140845
happen na 0.0140845
duty na 0.0140845
hurts na 0.0140845
; na 0.0985915
habitually na 0.0140845
live na 0.0140845
a na 0.0422535
bright na 0.0140845
Strick na 0.0140845
dislikes na 0.0140845
Prison na 0.0140845
press na 0.0140845
witty na 0.0140845
dumbfounded na 0.0140845
respectable na 0.0140845
filthy na 0.0140845
borrowed na 0.0140845
of na 0.0140845
do na 0.0140845
midnight na 0.0140845
permanently na 0.0140845
Already na 0.0140845
lead na 0.0140845
courageous na 0.0140845
known na 0.0140845
nature na 0.0140845
sleepy na 0.0140845
NULL na 0.0563380
embarassed na 0.0140845
glorious na 0.0140845
old na 0.0281690
fixed na 0.0140845
luck na 0.0281690
man na 0.0140845
parents Labi 0.2000000
Grave Labi 0.2000000
. Labi 0.2000000
her Labi 0.2000000
returned Labi 0.2000000
company ahas 0.5000000
spellbound ahas 0.5000000
in tuntungan 0.1111111
a tuntungan 0.1111111
attaining tuntungan 0.1111111
one tuntungan 0.1111111
&apos;s tuntungan 0.1111111
means tuntungan 0.1111111
used tuntungan 0.1111111
as tuntungan 0.1111111
Anything tuntungan 0.1111111
bribe &apos;t 0.1428571
Skinny &apos;t 0.1428571
Always &apos;t 0.1428571
conclusion &apos;t 0.1428571
words &apos;t 0.1428571
NULL &apos;t 0.2857143
father Ulilang 0.2500000
Without Ulilang 0.2500000
mother Ulilang 0.2500000
or Ulilang 0.2500000
mishap tadhana 1.0000000
Greedy Buwaya 0.5000000
Usurers Buwaya 0.5000000
In kabilang 0.1111111
the kabilang 0.1111111
where kabilang 0.1111111
will kabilang 0.1111111
soul kabilang 0.1111111
after kabilang 0.1111111
death kabilang 0.1111111
heaven kabilang 0.1111111
be kabilang 0.1111111
Cheated Binitay 1.0000000
believe makain 0.1428571
force makain 0.1428571
self makain 0.1428571
one makain 0.1428571
Cannot makain 0.1428571
&apos;s makain 0.1428571
to makain 0.1428571
Power singkit 0.2500000
; singkit 0.2500000
Japanese singkit 0.5000000
In Mabigat 0.0588235
Indisposed Mabigat 0.0588235
silently Mabigat 0.0588235
accord Mabigat 0.0588235
Powerful Mabigat 0.0588235
a Mabigat 0.1176471
antipathy Mabigat 0.0588235
Hard Mabigat 0.0588235
disagreement Mabigat 0.0588235
headache Mabigat 0.0588235
not Mabigat 0.0588235
NULL Mabigat 0.1176471
proud Mabigat 0.0588235
in Mabigat 0.1176471
challenging katawan 0.0526316
indisposed katawan 0.0526316
NULL katawan 0.2105263
perform katawan 0.0526316
Sturdy katawan 0.0526316
is katawan 0.1052632
Lazy katawan 0.0526316
body katawan 0.0526316
one katawan 0.1052632
who katawan 0.1052632
or katawan 0.0526316
Intelligent katawan 0.0526316
working katawan 0.0526316
Inflammable Takaw 0.1250000
of Takaw 0.1250000
charming Takaw 0.1250000
sleeping Takaw 0.1250000
Fond Takaw 0.1250000
always Takaw 0.1250000
sleepy Takaw 0.1250000
Attractive Takaw 0.1250000
family Mahal 0.2000000
from Mahal 0.2000000
a Mahal 0.2000000
respectable Mahal 0.2000000
coming Mahal 0.2000000
characteristics Langit 0.0909091
Complete Langit 0.0909091
or Langit 0.0909091
punishment Langit 0.0909091
extremely Langit 0.0909091
happiness Langit 0.0909091
opposite Langit 0.0909091
customs Langit 0.0909091
, Langit 0.0909091
. Langit 0.0909091
habits Langit 0.0909091
NULL Di 0.4000000
looking Di 0.1000000
met Di 0.1000000
expressl Di 0.1000000
gentle Di 0.1000000
area Di 0.1000000
Very Di 0.1000000
another kanin 0.1666667
NULL kanin 0.1666667
&apos;s kanin 0.1666667
hatred kanin 0.1666667
in kanin 0.1666667
serve kanin 0.1666667
and kakawag 0.3333333
inattentively kakawag 0.3333333
slowly kakawag 0.3333333
NULL pato 1.0000000
married Dambana 0.3333333
get Dambana 0.3333333
To Dambana 0.3333333
; Karamdaman 1.0000000
Shameless Tahi 1.0000000
considered basahan 0.3333333
worthless basahan 0.3333333
Anything basahan 0.3333333
Usurers katihan 1.0000000
Foolish Kalog 0.2500000
mentally Kalog 0.2500000
unbalanced Kalog 0.2500000
; Kalog 0.2500000
To Magputok 1.0000000
someone Nagkabuhol 0.5000000
Married Nagkabuhol 0.5000000
amount Binakbakan 0.1250000
give Binakbakan 0.1250000
a Binakbakan 0.1250000
someone Binakbakan 0.1250000
to Binakbakan 0.1250000
big Binakbakan 0.1250000
Forced Binakbakan 0.1250000
out Binakbakan 0.1250000
thing Tulak 0.1250000
which Tulak 0.1250000
in Tulak 0.1250000
much Tulak 0.1250000
he Tulak 0.1250000
likes Tulak 0.1250000
reality Tulak 0.1250000
very Tulak 0.1250000
&quot; piraso 0.3333333
ang piraso 0.1666667
mukha piraso 0.1666667
of piraso 0.1666667
sambakol piraso 0.1666667
no Naghalo 1.0000000
that Utos 0.3333333
needs Utos 0.3333333
Command Utos 0.3333333
By Bukal 0.2500000
nature Bukal 0.2500000
; Bukal 0.2500000
inborn Bukal 0.2500000
contradict agos 0.5000000
to agos 0.5000000
Socialite lipunan 1.0000000
Confused Hilong 0.5000000
and Hilong 0.5000000
put Tuntungan 0.1666667
pot Tuntungan 0.1666667
on Tuntungan 0.1666667
To Tuntungan 0.1666667
cover Tuntungan 0.1666667
the Tuntungan 0.1666667
race Pinakain 0.2500000
Defeated Pinakain 0.2500000
a Pinakain 0.2500000
in Pinakain 0.2500000
NULL magbara 1.0000000
Changing Pag 0.2000000
ownership Pag 0.2000000
NULL Pag 0.4000000
Child Pag 0.2000000
feelings Dibdib 1.0000000
&quot; suso 0.3333333
- suso 0.3333333
pagong suso 0.3333333
meals tuka 1.0000000
heard Lumang 0.5000000
No Lumang 0.5000000
chance bithay 1.0000000
expressions Bulaklak 0.2000000
words Bulaklak 0.2000000
flattering Bulaklak 0.2000000
Superficial Bulaklak 0.2000000
Socialite Bulaklak 0.2000000
very amoy 0.3333333
belonging amoy 0.3333333
a amoy 0.3333333
Drunk tsiko 0.3333333
, tsiko 0.3333333
intoxicated tsiko 0.3333333
extreme Makadurog 0.1111111
which Makadurog 0.1111111
or Makadurog 0.1111111
anger Makadurog 0.1111111
That Makadurog 0.1111111
gried Makadurog 0.1111111
sadness Makadurog 0.1111111
even Makadurog 0.1111111
gives Makadurog 0.1111111
put basag 1.0000000
control dili 0.5000000
ponder dili 0.5000000
gossips Napakahig 0.3333333
Believing Napakahig 0.3333333
in Napakahig 0.3333333
to hiya 0.1000000
ang hiya 0.1000000
tabla hiya 0.1000000
feel hiya 0.1000000
Shameless hiya 0.1000000
almost hiya 0.1000000
&quot; hiya 0.2000000
mukha hiya 0.1000000
synonyms hiya 0.1000000
Shameless Tabla 1.0000000
time Matang 0.1111111
ill Matang 0.1111111
long Matang 0.1111111
or Matang 0.1111111
anger Matang 0.1111111
Keeps Matang 0.1111111
feeling Matang 0.1111111
for Matang 0.1111111
- Matang 0.1111111
Outside Labas 0.2000000
less Labas 0.2000000
&apos;s Labas 0.2000000
jurisdiction Labas 0.2000000
one Labas 0.2000000
a inihaw 0.2500000
living inihaw 0.2500000
hard inihaw 0.2500000
for inihaw 0.2500000
not natuka 0.2500000
talk natuka 0.2500000
; natuka 0.2500000
spellbound natuka 0.2500000
; Patawirin 0.1428571
a Patawirin 0.1428571
serious Patawirin 0.1428571
dying Patawirin 0.1428571
condition Patawirin 0.1428571
very Patawirin 0.1428571
In Patawirin 0.1428571
boast buho 1.0000000
worships Mukhang 0.1428571
moment Mukhang 0.1428571
Greedy Mukhang 0.1428571
; Mukhang 0.1428571
in Mukhang 0.1428571
money Mukhang 0.2857143
silent Magsusi 0.3333333
To Magsusi 0.3333333
remain Magsusi 0.3333333
in kumot 0.2500000
need kumot 0.2500000
Destitute kumot 0.2500000
kabatakan kumot 0.2500000
Mother Ilaw 1.0000000
Old Matamis 0.5000000
bachelor Matamis 0.5000000
&apos;s Hampas 0.1250000
NULL Hampas 0.1250000
setting Hampas 0.1250000
punishment Hampas 0.1250000
God Hampas 0.1250000
) Hampas 0.1250000
Vagabond Hampas 0.1250000
sun Hampas 0.1250000
Scared Tumayo 1.0000000
&quot; Nagbabanat 0.2500000
nagbabanat Nagbabanat 0.1250000
Same Nagbabanat 0.1250000
as Nagbabanat 0.1250000
ng Nagbabanat 0.1250000
buto Nagbabanat 0.1250000
Disgustingly Nagbabanat 0.1250000
wealthy Kapalin 0.3333333
, Kapalin 0.3333333
Rich Kapalin 0.3333333
not biya 0.2500000
mind biya 0.2500000
a biya 0.2500000
dull biya 0.2500000
careful Salaming 1.0000000
married Nakikipagbulungan 0.5000000
Got Nakikipagbulungan 0.5000000
time Mamangka 0.1428571
two Mamangka 0.2857143
or Mamangka 0.1428571
men Mamangka 0.1428571
women Mamangka 0.1428571
same Mamangka 0.1428571
marry dambana 1.0000000
lazy tyan 1.0000000
the Binatak 0.1111111
foul Binatak 0.1111111
one Binatak 0.1111111
pass Binatak 0.1111111
make Binatak 0.1111111
examination Binatak 0.1111111
to Binatak 0.1111111
Employed Binatak 0.1111111
means Binatak 0.1111111
In lagay 0.2000000
condition lagay 0.2000000
serious lagay 0.2000000
a lagay 0.2000000
physical lagay 0.2000000
disagree Magkasamaang 0.2000000
to Magkasamaang 0.2000000
To Magkasamaang 0.2000000
quarrel Magkasamaang 0.2000000
; Magkasamaang 0.2000000
money Butas 0.2500000
having Butas 0.2500000
Penniless Butas 0.2500000
no Butas 0.2500000
Hurrying saya 0.5000000
NULL saya 0.5000000
; paningin 0.5000000
to paningin 0.5000000
Modest Mahinhing 1.0000000
Married puso 0.0384615
considerate puso 0.0384615
commit puso 0.0384615
lovers puso 0.0384615
forgive puso 0.0384615
butas puso 0.0384615
helpful puso 0.0384615
who puso 0.0384615
mistakes puso 0.0384615
couple puso 0.0384615
. puso 0.0384615
shameless puso 0.0384615
NULL puso 0.0769231
defects puso 0.0384615
people puso 0.0384615
; puso 0.0384615
extreme puso 0.0769231
unmerciful puso 0.0384615
does puso 0.0384615
hearted puso 0.0384615
full puso 0.0384615
puso puso 0.0384615
mental puso 0.0384615
pay puso 0.0384615
that Harapin 0.1250000
To Harapin 0.1250000
cooked Harapin 0.1250000
being Harapin 0.1250000
the Harapin 0.1250000
is Harapin 0.1250000
rice Harapin 0.1250000
watch Harapin 0.1250000
Inducing laway 0.5000000
around laway 0.5000000
Married Pinagbuklod 1.0000000
short Nilulumot 0.2500000
only Nilulumot 0.2500000
Of Nilulumot 0.2500000
duration Nilulumot 0.2500000
; Ipagbili 0.2000000
cheat Ipagbili 0.2000000
fool Ipagbili 0.2000000
to Ipagbili 0.2000000
To Ipagbili 0.2000000
voluntarily Kusang 0.2500000
Doing Kusang 0.2500000
a Kusang 0.2500000
thing Kusang 0.2500000
fastidiousl sungit 0.2000000
hard sungit 0.2000000
to sungit 0.2000000
please sungit 0.2000000
very sungit 0.2000000
abandoned Basang 0.3333333
persistent Basang 0.3333333
unreasonably Basang 0.3333333
hypocrisy Tawang 0.5000000
A Tawang 0.5000000
Has Nabagsak 0.2500000
small Nabagsak 0.2500000
pox Nabagsak 0.2500000
- Nabagsak 0.2500000
NULL masama 1.0000000
hinahabol Ipinagtatanong 0.1428571
gunting Ipinagtatanong 0.1428571
Same Ipinagtatanong 0.1428571
ng Ipinagtatanong 0.1428571
as Ipinagtatanong 0.1428571
&quot; Ipinagtatanong 0.2857143
Inclined tikin 1.0000000
one Binuksan 0.2500000
Revealed Binuksan 0.2500000
&apos;s Binuksan 0.2500000
feelings Binuksan 0.2500000
following Buntot 0.5000000
Always Buntot 0.5000000
talking nganga 0.5000000
words nganga 0.5000000
last nilalakad 0.2000000
word nilalakad 0.2000000
an nilalakad 0.2000000
insinuating nilalakad 0.2000000
With nilalakad 0.2000000
Paid tinalupan 1.0000000
the Sumalangit 0.1666667
out Sumalangit 0.1666667
To Sumalangit 0.1666667
rain Sumalangit 0.1666667
in Sumalangit 0.1666667
go Sumalangit 0.1666667
or alaala 0.1428571
which alaala 0.1428571
forgotten alaala 0.1428571
something alaala 0.1428571
efforts alaala 0.1428571
recall alaala 0.1428571
to alaala 0.1428571
everything tinda 1.0000000
Afraid buntot 0.3333333
referring buntot 0.3333333
Spoiled buntot 0.3333333
condition bibig 0.0312500
feelings bibig 0.0312500
s bibig 0.0312500
himself bibig 0.0312500
want bibig 0.0312500
silent bibig 0.0312500
expression bibig 0.0625000
&apos; bibig 0.0312500
orator bibig 0.0312500
an bibig 0.0312500
thief bibig 0.0312500
future bibig 0.0312500
Disappointed bibig 0.0312500
) bibig 0.0312500
person bibig 0.0312500
done bibig 0.0312500
NULL bibig 0.0625000
unmarried bibig 0.0312500
interfere bibig 0.0312500
ailment bibig 0.0312500
using bibig 0.0312500
No bibig 0.0312500
evidence bibig 0.0312500
to bibig 0.0312500
Referring bibig 0.0312500
woman bibig 0.0312500
friendly bibig 0.0312500
right bibig 0.0312500
not bibig 0.0312500
income bibig 0.0312500
The kapangyarihan 0.5000000
press kapangyarihan 0.5000000
been Magbibig 0.1666667
has Magbibig 0.1666667
said Magbibig 0.1666667
To Magbibig 0.1666667
what Magbibig 0.1666667
realize Magbibig 0.1666667
understanding basang 1.0000000
a Kukong 0.3333333
of Kukong 0.3333333
hawk Kukong 0.3333333
Fierce abaka 1.0000000
and gawang 0.1250000
big gawang 0.1250000
Really gawang 0.1250000
really gawang 0.1250000
difficult gawang 0.1250000
hard gawang 0.1250000
; gawang 0.1250000
a gawang 0.1250000
; Pangamoy 0.3333333
Feeling Pangamoy 0.3333333
detecting Pangamoy 0.3333333
egostic asin 0.1250000
suffer asin 0.1250000
To asin 0.1250000
NULL asin 0.2500000
embarassed asin 0.1250000
brag asin 0.1250000
labi asin 0.1250000
someone Nakadikit 0.5000000
Married Nakadikit 0.5000000
Unfortunate Kapus 1.0000000
a Inaamag 0.1250000
time Inaamag 0.1250000
long Inaamag 0.1250000
quite Inaamag 0.1250000
been Inaamag 0.1250000
Had Inaamag 0.1250000
for Inaamag 0.1250000
kept Inaamag 0.1250000
Always Nagbububusa 0.2000000
egoistic Nagbububusa 0.2000000
himself Nagbububusa 0.2000000
praising Nagbububusa 0.2000000
; Nagbububusa 0.2000000
ability sinasabi 0.1428571
or sinasabi 0.1428571
Without sinasabi 0.1428571
already sinasabi 0.1428571
importance sinasabi 0.1428571
Old sinasabi 0.1428571
. sinasabi 0.1428571
complete mo 0.1666667
to mo 0.1666667
consider mo 0.1666667
as mo 0.1666667
loss mo 0.1666667
give mo 0.1666667
belittled Tisuring 0.1666667
or Tisuring 0.1666667
often Tisuring 0.1666667
is Tisuring 0.1666667
A Tisuring 0.1666667
insulted Tisuring 0.1666667
irritated Madaling 0.2500000
Easily Madaling 0.2500000
or Madaling 0.2500000
angered Madaling 0.2500000
person Nagbibilang 0.1428571
Looking Nagbibilang 0.1428571
job Nagbibilang 0.1428571
a Nagbibilang 0.1428571
loudly Nagbibilang 0.1428571
jobless Nagbibilang 0.1428571
for Nagbibilang 0.1428571
show Magpako 0.2500000
fondness Magpako 0.2500000
for Magpako 0.2500000
something Magpako 0.2500000
robber Kaaway 0.3333333
; Kaaway 0.3333333
Thief Kaaway 0.3333333
kadaupang Katapikang 0.1428571
- Katapikang 0.1428571
Same Katapikang 0.1428571
&quot; Katapikang 0.2857143
as Katapikang 0.1428571
palad Katapikang 0.1428571
the Batakin 0.1666667
body Batakin 0.1666667
accustom Batakin 0.1666667
working Batakin 0.1666667
To Batakin 0.1666667
to Batakin 0.1666667
A Kalabasang 0.2000000
person Kalabasang 0.2000000
conflagration Kalabasang 0.2000000
flight Kalabasang 0.2000000
who Kalabasang 0.2000000
win Naglalako 0.1666667
for Naglalako 0.1666667
somebody Naglalako 0.1666667
his Naglalako 0.1666667
favor Naglalako 0.1666667
Working Naglalako 0.1666667
is Kamay 0.3333333
NULL Kamay 0.3333333
Strick Kamay 0.3333333
with bayawal 0.2500000
Hiding bayawal 0.2500000
head bayawal 0.2500000
seen bayawal 0.2500000
enchanted Nabasket 0.3333333
or Nabasket 0.3333333
Charmed Nabasket 0.3333333
pretense Yakap 0.1250000
hug Yakap 0.1250000
pretention Yakap 0.1250000
embraced Yakap 0.1250000
An Yakap 0.1250000
or Yakap 0.1250000
of Yakap 0.1250000
a Yakap 0.1250000
Slow patay 0.2500000
foot patay 0.2500000
sluggish patay 0.2500000
- patay 0.2500000
study Tao 0.2000000
relation Tao 0.2000000
to Tao 0.2000000
chance Tao 0.2000000
bachelor Tao 0.2000000
congratulations papuri 1.0000000
becoming butas 0.0909091
Can butas 0.0909091
reversed butas 0.0909091
&quot; butas 0.0909091
reciprocate butas 0.0909091
&apos;t butas 0.0909091
reason butas 0.0909091
see butas 0.0909091
any butas 0.0909091
NULL butas 0.1818182
money pisi 0.2500000
broke pisi 0.2500000
little pisi 0.2500000
With pisi 0.2500000
due tanaw 0.1666667
distance tanaw 0.1666667
or tanaw 0.1666667
ine tanaw 0.1666667
sight tanaw 0.1666667
&apos;s tanaw 0.1666667
. Halang 0.1111111
kill Halang 0.1111111
Not Halang 0.1111111
to Halang 0.2222222
die Halang 0.1111111
afraid Halang 0.1111111
someone Halang 0.1111111
or Halang 0.1111111
good Inaalat 0.3333333
luck Inaalat 0.3333333
Losing Inaalat 0.3333333
creative Bungag 0.1111111
especially Bungag 0.1111111
, Bungag 0.1111111
Works Bungag 0.1111111
pertaining Bungag 0.1111111
art Bungag 0.1111111
to Bungag 0.1111111
literature Bungag 0.1111111
; Bungag 0.1111111
loob Malakas 0.1666667
mahina Malakas 0.1666667
NULL Malakas 0.1666667
&quot; Malakas 0.3333333
ang Malakas 0.1666667
or matsing 0.3333333
enchanting matsing 0.3333333
eyes matsing 0.3333333
could ilaw 0.1666667
longer ilaw 0.1666667
no ilaw 0.1666667
see ilaw 0.1666667
light ilaw 0.1666667
Blind ilaw 0.1666667
This Maliwanaf 0.5000000
world Maliwanaf 0.5000000
Popular Litaw 0.2000000
known Litaw 0.2000000
- Litaw 0.2000000
well Litaw 0.2000000
, Litaw 0.2000000
down wala 0.2000000
look wala 0.2000000
belittle wala 0.2000000
To wala 0.2000000
forget wala 0.2000000
for Palung 0.1666667
person Palung 0.1666667
A Palung 0.1666667
in Palung 0.1666667
somebody Palung 0.1666667
placed Palung 0.1666667
valueless Naghuhugas 0.2500000
; Naghuhugas 0.2500000
became Naghuhugas 0.2500000
Lost Naghuhugas 0.2500000
irascible sisidlan 1.0000000
Applies at 0.1250000
turns at 0.1250000
company at 0.1250000
his at 0.1250000
extremely at 0.1250000
Rivals at 0.1250000
back at 0.1250000
talking at 0.1250000
will Ilista 0.1428571
paid Ilista 0.1428571
Debt Ilista 0.1428571
anymore Ilista 0.1428571
not Ilista 0.1428571
that Ilista 0.1428571
be Ilista 0.1428571
; Mabunganga 0.3333333
Tallkative Mabunganga 0.3333333
termagant Mabunganga 0.3333333
eloquence ginto 0.2500000
Fulency ginto 0.2500000
Still ginto 0.2500000
; ginto 0.2500000
what Magbukas 0.1250000
tell Magbukas 0.1250000
To Magbukas 0.1250000
truth Magbukas 0.1250000
one Magbukas 0.1250000
the Magbukas 0.1250000
feels Magbukas 0.1250000
reveal Magbukas 0.1250000
A bigas 1.0000000
disgraced bulaklak 0.5000000
A bulaklak 0.5000000
fault sisi 1.0000000
Hopeless Nagbayad 0.3333333
dreaming Nagbayad 0.3333333
; Nagbayad 0.3333333
surrender watawat 1.0000000
someone balintanaw 1.0000000
Prostitute mababa 0.2000000
a mababa 0.2000000
prostitute mababa 0.2000000
woman mababa 0.2000000
bad mababa 0.2000000
Grave Huling 1.0000000
belittles Mapangmata 0.1428571
others Mapangmata 0.1428571
always Mapangmata 0.1428571
who Mapangmata 0.1428571
; Mapangmata 0.1428571
Boastfuk Mapangmata 0.1428571
one Mapangmata 0.1428571
Same Iguhit 0.1250000
sa Iguhit 0.1250000
ikuros Iguhit 0.1250000
&quot; Iguhit 0.2500000
noo Iguhit 0.1250000
as Iguhit 0.2500000
Suddenly laho 0.5000000
disappeared laho 0.5000000
conclusion dulo 0.3333333
inwardly dulo 0.3333333
naughty dulo 0.3333333
deranged tiyan 0.1000000
hungry tiyan 0.1000000
to tiyan 0.1000000
NULL tiyan 0.2000000
good tiyan 0.1000000
home tiyan 0.1000000
hunger tiyan 0.1000000
Very tiyan 0.1000000
eat tiyan 0.1000000
Very Kinakain 0.5000000
hungry Kinakain 0.5000000
A Basag 0.5000000
quarrel Basag 0.5000000
Very sabon 1.0000000
easily Bulok 1.0000000
bare Pinagbuhatan 0.1428571
hands Pinagbuhatan 0.1428571
Hurt Pinagbuhatan 0.1428571
punished Pinagbuhatan 0.1428571
with Pinagbuhatan 0.1428571
someone Pinagbuhatan 0.2857143
work Magbatak 0.1428571
for Magbatak 0.1428571
labor Magbatak 0.1428571
; Magbatak 0.1428571
livelihood Magbatak 0.1428571
To Magbatak 0.1428571
to Magbatak 0.1428571
someone Daanan 0.3333333
To Daanan 0.3333333
fetch Daanan 0.3333333
together halu 0.2500000
order halu 0.2500000
Mixed halu 0.2500000
without halu 0.2500000
kind Kagandahang 0.1666667
- Kagandahang 0.1666667
hearted Kagandahang 0.1666667
Goodness Kagandahang 0.1666667
character Kagandahang 0.1666667
of Kagandahang 0.1666667
buried numero 0.2500000
already numero 0.2500000
Dead numero 0.2500000
and numero 0.2500000
NULL magulang 1.0000000
NULL hukay 0.5000000
Grave hukay 0.5000000
together Mag 0.3333333
To Mag 0.3333333
utensils Mag 0.3333333
harmless Santo 0.2500000
intelligent Santo 0.2500000
and Santo 0.2500000
worships Santo 0.2500000
Extreme Ikapitong 1.0000000
birth Bingi 0.1111111
women Bingi 0.1111111
married Bingi 0.1111111
not Bingi 0.1111111
to Bingi 0.1111111
do Bingi 0.1111111
give Bingi 0.1111111
Referring Bingi 0.1111111
who Bingi 0.1111111
NULL Napapadala 1.0000000
as Sinulot 0.1111111
given Sinulot 0.1111111
out Sinulot 0.1111111
is Sinulot 0.1111111
Thing Sinulot 0.1111111
that Sinulot 0.1111111
happening Sinulot 0.1111111
cause Sinulot 0.1111111
or Sinulot 0.1111111
a binabalak 0.1666667
of binabalak 0.1666667
deadly binabalak 0.1666667
revenge binabalak 0.1666667
plan binabalak 0.3333333
of Makitid 0.1666667
in Makitid 0.1666667
sighted Makitid 0.1666667
life Makitid 0.1666667
Destitute Makitid 0.1666667
view Makitid 0.1666667
Royal Dugong 1.0000000
in Namamalahibo 0.1666667
doing Namamalahibo 0.1666667
one Namamalahibo 0.1666667
what Namamalahibo 0.1666667
is Namamalahibo 0.1666667
Uncertainty Namamalahibo 0.1666667
big Makabasag 0.2000000
affair Makabasag 0.2000000
or Makabasag 0.2000000
A Makabasag 0.2000000
grand Makabasag 0.2000000
do talilong 0.1428571
Confused talilong 0.1428571
now talilong 0.1428571
what talilong 0.1428571
to talilong 0.1428571
does talilong 0.1428571
know talilong 0.1428571
Two Iisa 0.1250000
habits Iisa 0.1250000
same Iisa 0.1250000
the Iisa 0.1250000
customs Iisa 0.1250000
and Iisa 0.1250000
persons Iisa 0.1250000
with Iisa 0.1250000
Had Nakakuha 0.3333333
heart Nakakuha 0.3333333
a Nakakuha 0.3333333
flattering pundiya 1.0000000
given Loob 1.0000000
great Nagpapahinog 0.3333333
hardship Nagpapahinog 0.3333333
Suffering Nagpapahinog 0.3333333
; baul 0.5000000
dress baul 0.5000000
egoistic liwanag 0.2000000
; liwanag 0.2000000
robber liwanag 0.2000000
being liwanag 0.2000000
born liwanag 0.2000000
take Daanin 0.2500000
force Daanin 0.2500000
by Daanin 0.2500000
To Daanin 0.2500000
unfortunate sawi 0.3333333
An sawi 0.3333333
person sawi 0.3333333
heat Bungang 0.3333333
Dream Bungang 0.3333333
Prickly Bungang 0.3333333
married Lumagay 0.3333333
get Lumagay 0.3333333
To Lumagay 0.3333333
Industrious Makapal 0.1111111
insensitive Makapal 0.1111111
wealthy Makapal 0.1111111
Rich Makapal 0.1111111
Shameless Makapal 0.1111111
; Makapal 0.3333333
hardworkin Makapal 0.1111111
control preno 1.0000000
see makaabot 0.3333333
reason makaabot 0.3333333
Cannot makaabot 0.3333333
gratitude Utang 0.3333333
Debt Utang 0.3333333
of Utang 0.3333333
NULL parang 0.5000000
mga parang 0.5000000
unintentionally balani 1.0000000
sluggish Hipong 0.2500000
- Hipong 0.2500000
Slow Hipong 0.2500000
foot Hipong 0.2500000
oneself Maghunos 0.2000000
control Maghunos 0.2000000
ponder Maghunos 0.2000000
to Maghunos 0.2000000
To Maghunos 0.2000000
Connivance Bodabil 1.0000000
Intelligent uod 1.0000000
belittles lipad 0.1250000
one lipad 0.1250000
who lipad 0.1250000
; lipad 0.1250000
boastful lipad 0.1250000
others lipad 0.1250000
prostitute lipad 0.1250000
Prostitute lipad 0.1250000
To Ibilanggo 0.5000000
embrace Ibilanggo 0.5000000
forget Alisin 0.5000000
To Alisin 0.5000000
noo noo 0.3333333
remember noo 0.3333333
view noo 0.3333333
&apos;s Ibangon 0.1666667
To Ibangon 0.1666667
honor Ibangon 0.1666667
regain Ibangon 0.1666667
lost Ibangon 0.1666667
one Ibangon 0.1666667
a Nahuhulog 0.2500000
Revealed Nahuhulog 0.2500000
unintentionally Nahuhulog 0.2500000
truth Nahuhulog 0.2500000
death Nakasilip 0.1666667
At Nakasilip 0.1666667
of Nakasilip 0.1666667
brink Nakasilip 0.1666667
dying Nakasilip 0.1666667
the Nakasilip 0.1666667
( Maningil 0.1111111
To Maningil 0.1111111
another Maningil 0.1111111
anymore Maningil 0.1111111
kill Maningil 0.1111111
) Maningil 0.1111111
person Maningil 0.1111111
revenge Maningil 0.1111111
for Maningil 0.1111111
jealous Nangaluluwa 0.1428571
troubled Nangaluluwa 0.1428571
Furious Nangaluluwa 0.1428571
; Nangaluluwa 0.4285714
irritated Nangaluluwa 0.1428571
the Humihimod 0.1428571
Winning Humihimod 0.1428571
favor Humihimod 0.1428571
flattering Humihimod 0.1428571
another Humihimod 0.1428571
; Humihimod 0.1428571
of Humihimod 0.1428571
sacrifices matinik 1.0000000
Already makasampa 0.2000000
; makasampa 0.2000000
weak makasampa 0.2000000
old makasampa 0.2000000
already makasampa 0.2000000
feet laman 0.2000000
Daughter laman 0.2000000
or laman 0.2000000
dull laman 0.2000000
son laman 0.2000000
A Magkataling 0.5000000
couple Magkataling 0.5000000
favored Binabata 0.5000000
Being Binabata 0.5000000
NULL buwan 1.0000000
for tinatanaw 0.2000000
bright tinatanaw 0.2000000
future tinatanaw 0.2000000
hope tinatanaw 0.2000000
any tinatanaw 0.2000000
Shameless mukha 0.0588235
sour mukha 0.0588235
; mukha 0.1176471
Frowning mukha 0.0588235
NULL mukha 0.0588235
with mukha 0.0588235
take mukha 0.0588235
insensitive mukha 0.1176471
Angry mukha 0.0588235
easily mukha 0.0588235
face mukha 0.1176471
pity mukha 0.0588235
record mukha 0.0588235
mukha mukha 0.0588235
Trying hirap 1.0000000
achisel pait 1.0000000
feeling Kalam 0.2500000
A Kalam 0.2500000
of Kalam 0.2500000
hunger Kalam 0.2500000
who bata 0.1250000
or bata 0.1250000
intelligence bata 0.1250000
possesses bata 0.1250000
talent bata 0.1250000
special bata 0.1250000
A bata 0.1250000
person bata 0.1250000
of naiiwan 0.1428571
time naiiwan 0.1428571
the naiiwan 0.1428571
nothing naiiwan 0.1428571
accomplishes naiiwan 0.1428571
with naiiwan 0.1428571
flight naiiwan 0.1428571
and sibuyas 1.0000000
young Munting 1.0000000
pity tao 0.2000000
assistance tao 0.2000000
known tao 0.2000000
High tao 0.2000000
respectable tao 0.2000000
expenses mantika 1.0000000
Grant Pinagbigyan 0.2000000
someone Pinagbigyan 0.2000000
of Pinagbigyan 0.2000000
the Pinagbigyan 0.2000000
request Pinagbigyan 0.2000000
Lazy pobre 1.0000000
sad Luksa 1.0000000
for saling 0.1428571
cries saling 0.1428571
gets saling 0.1428571
; saling 0.1428571
or saling 0.1428571
angry saling 0.1428571
irritable saling 0.1428571
Honeymoon Pulot 1.0000000
Uneasy alab 0.3333333
restless alab 0.3333333
; alab 0.3333333
a Kakalug 0.1666667
few Kakalug 0.1666667
Too Kakalug 0.1666667
for Kakalug 0.1666667
house Kakalug 0.1666667
big Kakalug 0.1666667
someone Napagbuhatan 0.1666667
he Napagbuhatan 0.1666667
that Napagbuhatan 0.1666667
will Napagbuhatan 0.1666667
so Napagbuhatan 0.1666667
Bribed Napagbuhatan 0.1666667
with Nagsisikip 0.2000000
Quarreled Nagsisikip 0.2000000
bare Nagsisikip 0.2000000
fists Nagsisikip 0.2000000
nagsisikip Nagsisikip 0.2000000
humbleness Tiklop 0.3333333
sll Tiklop 0.3333333
With Tiklop 0.3333333
appreciable Gintong 0.2000000
nice Gintong 0.2000000
A Gintong 0.2000000
character Gintong 0.2000000
and Gintong 0.2000000
Infidelity Nagtatae 0.2500000
woman Nagtatae 0.2500000
of Nagtatae 0.2500000
a Nagtatae 0.2500000
somebody Mga 0.1428571
to Mga 0.1428571
belittle Mga 0.1428571
someone Mga 0.1428571
; Mga 0.1428571
upon Mga 0.1428571
poor Mga 0.1428571
Grave Siling 1.0000000
happiness buhay 0.0588235
intended buhay 0.0588235
ibig buhay 0.0588235
Murdered buhay 0.0588235
sunset buhay 0.0588235
hair buhay 0.0588235
Pouting buhay 0.0588235
NULL buhay 0.2941176
age buhay 0.0588235
Died buhay 0.0588235
permanently buhay 0.0588235
husband buhay 0.0588235
for buhay 0.0588235
something Inaalon 0.2000000
of Inaalon 0.2000000
; Inaalon 0.2000000
Nervous Inaalon 0.2000000
afraid Inaalon 0.2000000
NULL Bagong 0.2000000
bachelor Bagong 0.2000000
shoes Bagong 0.2000000
Young Bagong 0.2000000
new Bagong 0.2000000
To Hagilapin 0.5000000
exert Hagilapin 0.5000000
NULL kanan 1.0000000
same Kinakawalang 0.1250000
line Kinakawalang 0.1250000
the Kinakawalang 0.1250000
in Kinakawalang 0.1250000
progress Kinakawalang 0.1250000
has Kinakawalang 0.1250000
more Kinakawalang 0.1250000
no Kinakawalang 0.1250000
Worshipping Humahalik 0.3333333
adoring Humahalik 0.3333333
; Humahalik 0.3333333
Restless puwit 1.0000000
person tali 0.3333333
A tali 0.3333333
restless tali 0.3333333
promise Magtatalo 1.0000000
offering intsik 0.2500000
by intsik 0.2500000
gifts intsik 0.2500000
woman intsik 0.2500000
eyesight Matandang 1.0000000
able bagwis 0.2000000
Is bagwis 0.2000000
live bagwis 0.2000000
to bagwis 0.2000000
independently bagwis 0.2000000
A Naamuyan 0.2500000
just Naamuyan 0.2500000
seen Naamuyan 0.2500000
thing Naamuyan 0.2500000
Dying Hinihintay 1.0000000
or kamay 0.1162791
type kamay 0.0232558
decay kamay 0.0232558
Marriage kamay 0.0232558
caretaker kamay 0.0232558
because kamay 0.0465116
Pretense kamay 0.0232558
complex kamay 0.0232558
bagoong kamay 0.0465116
wedlock kamay 0.0232558
ang kamay 0.0232558
plants kamay 0.0232558
not kamay 0.0232558
of kamay 0.0232558
bowel kamay 0.0232558
night kamay 0.0232558
possession kamay 0.0232558
stealer kamay 0.0465116
kamay kamay 0.0465116
bribe kamay 0.0232558
job kamay 0.0232558
work kamay 0.0232558
Understood kamay 0.0232558
NULL kamay 0.1395349
salted kamay 0.0232558
&quot; kamay 0.0232558
valueless kamay 0.0232558
the kamay 0.0465116
fish kamay 0.0232558
anger Nagdildil 0.2500000
mad Nagdildil 0.2500000
Became Nagdildil 0.2500000
with Nagdildil 0.2500000
speaker Magaling 0.1428571
talent Magaling 0.1428571
Good Magaling 0.1428571
bulok Magaling 0.1428571
or Magaling 0.1428571
dambana Magaling 0.1428571
orator Magaling 0.1428571
bad sama 1.0000000
deaf Taingang 0.6666667
be Taingang 0.3333333
majority Sumapayapa 0.2000000
united Sumapayapa 0.2000000
with Sumapayapa 0.2000000
; Sumapayapa 0.2000000
Agreed Sumapayapa 0.2000000
or Nagsaulian 0.5000000
Served Nagsaulian 0.5000000
Grave Lupang 1.0000000
Wanderer buhok 1.0000000
Has pananagutan 0.3333333
grey pananagutan 0.3333333
hair pananagutan 0.3333333
Disillusionment Kuwalta 1.0000000
NULL baro 1.0000000
\ hagdan 0.5000000
Eloped hagdan 0.5000000
Brother pusod 0.5000000
stingy pusod 0.5000000
NULL halong 1.0000000
Understood kanyang 0.5000000
Child kanyang 0.5000000
evening Takip 0.2500000
afternoon Takip 0.2500000
almost Takip 0.2500000
Late Takip 0.2500000
weapon Dinaan 0.1666667
using Dinaan 0.1666667
as Dinaan 0.1666667
tongue Dinaan 0.1666667
Quarelling Dinaan 0.1666667
sharp Dinaan 0.1666667
person Kukulu 0.1666667
Financially Kukulu 0.1666667
need Kukulu 0.1666667
in Kukulu 0.1666667
an Kukulu 0.1666667
unrealiable Kukulu 0.1666667
Grave labuyo 1.0000000
Intelligent Matakaw 0.3333333
wise Matakaw 0.3333333
; Matakaw 0.3333333
; Tapunan 0.1666667
someone Tapunan 0.1666667
pity Tapunan 0.1666667
to Tapunan 0.1666667
To Tapunan 0.1666667
sympathize Tapunan 0.1666667
or Nakasandal 0.1250000
a Nakasandal 0.1250000
reason Nakasandal 0.1250000
cause Nakasandal 0.1250000
good Nakasandal 0.1250000
Found Nakasandal 0.1250000
to Nakasandal 0.1250000
argue Nakasandal 0.1250000
married pakpak 1.0000000
fell Dinapuan 0.5000000
ill Dinapuan 0.5000000
sympathy langisan 1.0000000
A Kantoboy 0.3333333
person Kantoboy 0.3333333
jobless Kantoboy 0.3333333
A Masahol 0.1428571
at Masahol 0.1428571
person Masahol 0.1428571
is Masahol 0.1428571
understanding Masahol 0.1428571
hard Masahol 0.1428571
who Masahol 0.1428571
&quot; Nakapako 0.5000000
kill Nakapako 0.5000000
short Nakaisang 0.1666667
had Nakaisang 0.1666667
a Nakaisang 0.3333333
nap Nakaisang 0.1666667
Had Nakaisang 0.1666667
custodian Bantay 0.5000000
losses Bantay 0.5000000
his sumisira 0.1666667
reputation sumisira 0.1666667
or sumisira 0.1666667
relative sumisira 0.1666667
of sumisira 0.1666667
friend sumisira 0.1666667
word NULL 0.0029441
heart NULL 0.0009814
2 NULL 0.0009814
away NULL 0.0009814
often NULL 0.0019627
anything NULL 0.0009814
salting NULL 0.0019627
couple NULL 0.0009814
Hard NULL 0.0009814
obeyed NULL 0.0009814
place NULL 0.0009814
ladies NULL 0.0009814
custodian NULL 0.0009814
work NULL 0.0009814
soul NULL 0.0009814
beautiful NULL 0.0009814
going NULL 0.0009814
There NULL 0.0009814
health NULL 0.0009814
runs NULL 0.0009814
mournful NULL 0.0009814
of NULL 0.0314033
think NULL 0.0009814
caretaker NULL 0.0009814
boy NULL 0.0009814
hurting NULL 0.0009814
land NULL 0.0009814
Pait NULL 0.0009814
government NULL 0.0009814
a NULL 0.0314033
or NULL 0.0264966
asleep NULL 0.0009814
fulfilled NULL 0.0009814
clean NULL 0.0009814
due NULL 0.0019627
obsolete NULL 0.0009814
upon NULL 0.0009814
Kidney NULL 0.0009814
Very NULL 0.0039254
superior NULL 0.0009814
regularly NULL 0.0009814
flapper NULL 0.0009814
Thief NULL 0.0009814
court NULL 0.0019627
her NULL 0.0029441
need NULL 0.0009814
Reporting NULL 0.0009814
heave NULL 0.0009814
soldiers NULL 0.0009814
indecent NULL 0.0009814
in NULL 0.0137390
physical NULL 0.0009814
similar NULL 0.0019627
hatred NULL 0.0009814
Fading NULL 0.0009814
whose NULL 0.0009814
ailment NULL 0.0009814
father NULL 0.0019627
all NULL 0.0009814
sense NULL 0.0009814
particular NULL 0.0009814
god NULL 0.0019627
far NULL 0.0009814
About NULL 0.0009814
their NULL 0.0009814
invite NULL 0.0009814
holes NULL 0.0009814
value NULL 0.0009814
by NULL 0.0068695
; NULL 0.0421982
referring NULL 0.0058881
criticizes NULL 0.0009814
Proud NULL 0.0009814
real NULL 0.0009814
Cannot NULL 0.0019627
fever NULL 0.0009814
etc NULL 0.0029441
courageous NULL 0.0009814
&apos;s NULL 0.0039254
again NULL 0.0009814
, NULL 0.0157017
weave NULL 0.0009814
poverty NULL 0.0009814
him NULL 0.0019627
sigh NULL 0.0009814
someone NULL 0.0039254
idled NULL 0.0009814
one NULL 0.0098135
&quot; NULL 0.0176644
Destitute NULL 0.0009814
man NULL 0.0068695
living NULL 0.0009814
carefully NULL 0.0019627
truth NULL 0.0009814
already NULL 0.0029441
angry NULL 0.0009814
bring NULL 0.0009814
talkative NULL 0.0009814
miserable NULL 0.0009814
command NULL 0.0009814
speech NULL 0.0019627
nature NULL 0.0009814
bashful NULL 0.0009814
constantly NULL 0.0009814
love NULL 0.0019627
come NULL 0.0019627
finish NULL 0.0009814
different NULL 0.0009814
meaning NULL 0.0029441
spent NULL 0.0009814
Died NULL 0.0009814
money NULL 0.0029441
but NULL 0.0029441
who NULL 0.0137390
orange NULL 0.0009814
have NULL 0.0019627
best NULL 0.0009814
misrable NULL 0.0009814
life NULL 0.0019627
feel NULL 0.0009814
reached NULL 0.0009814
serious NULL 0.0019627
tongued NULL 0.0009814
ill NULL 0.0019627
he NULL 0.0029441
problem NULL 0.0009814
duty NULL 0.0009814
commanding NULL 0.0009814
Spoiled NULL 0.0009814
young NULL 0.0009814
disuse NULL 0.0009814
an NULL 0.0049068
when NULL 0.0029441
object NULL 0.0009814
thing NULL 0.0029441
up NULL 0.0019627
can NULL 0.0009814
do NULL 0.0009814
be NULL 0.0068695
others NULL 0.0058881
goo NULL 0.0009814
opposite NULL 0.0009814
small NULL 0.0009814
dual NULL 0.0009814
becoming NULL 0.0009814
sight NULL 0.0009814
capable NULL 0.0009814
if NULL 0.0009814
appetite NULL 0.0009814
dress NULL 0.0009814
ways NULL 0.0009814
In NULL 0.0019627
One NULL 0.0058881
means NULL 0.0009814
People NULL 0.0009814
girl NULL 0.0019627
each NULL 0.0009814
fact NULL 0.0009814
Easily NULL 0.0019627
temptation NULL 0.0009814
show NULL 0.0009814
effort NULL 0.0009814
Did NULL 0.0009814
pushed NULL 0.0009814
unstable NULL 0.0009814
meal NULL 0.0009814
should NULL 0.0019627
fellow NULL 0.0009814
Help NULL 0.0009814
other NULL 0.0029441
died NULL 0.0009814
where NULL 0.0009814
just NULL 0.0009814
indirect NULL 0.0009814
exert NULL 0.0009814
on NULL 0.0009814
useless NULL 0.0009814
Always NULL 0.0019627
are NULL 0.0009814
yarns NULL 0.0009814
asks NULL 0.0009814
given NULL 0.0029441
Not NULL 0.0019627
has NULL 0.0039254
his NULL 0.0058881
used NULL 0.0039254
With NULL 0.0029441
skin NULL 0.0009814
welfare NULL 0.0009814
nothing NULL 0.0009814
study NULL 0.0009814
dies NULL 0.0009814
Could NULL 0.0019627
attention NULL 0.0029441
foul NULL 0.0009814
fish NULL 0.0019627
poor NULL 0.0029441
after NULL 0.0009814
getting NULL 0.0009814
really NULL 0.0019627
strict NULL 0.0009814
intestines NULL 0.0009814
Rich NULL 0.0009814
workers NULL 0.0009814
result NULL 0.0009814
favor NULL 0.0009814
seem NULL 0.0009814
detective NULL 0.0009814
critical NULL 0.0019627
literally NULL 0.0009814
persons NULL 0.0009814
insulted NULL 0.0009814
would NULL 0.0009814
joining NULL 0.0009814
push NULL 0.0009814
concealed NULL 0.0009814
time NULL 0.0009814
Difficulty NULL 0.0009814
animals NULL 0.0009814
forms NULL 0.0009814
eat NULL 0.0029441
figurative NULL 0.0009814
with NULL 0.0039254
habitually NULL 0.0009814
near NULL 0.0009814
heroes NULL 0.0009814
sick NULL 0.0009814
anger NULL 0.0009814
age NULL 0.0009814
Shameless NULL 0.0009814
indigent NULL 0.0009814
complete NULL 0.0009814
The NULL 0.0029441
confirmation NULL 0.0009814
back NULL 0.0009814
pay NULL 0.0029441
is NULL 0.0166830
position NULL 0.0009814
difference NULL 0.0009814
bad NULL 0.0019627
Dull NULL 0.0009814
vagabond NULL 0.0009814
plants NULL 0.0009814
from NULL 0.0019627
make NULL 0.0009814
subjected NULL 0.0009814
qualities NULL 0.0009814
cause NULL 0.0029441
) NULL 0.0157017
say NULL 0.0019627
use NULL 0.0009814
true NULL 0.0009814
A NULL 0.0127576
punishment NULL 0.0019627
night NULL 0.0019627
for NULL 0.0058881
Brave NULL 0.0009814
about NULL 0.0009814
group NULL 0.0009814
not NULL 0.0147203
lazy NULL 0.0009814
child NULL 0.0009814
Was NULL 0.0009814
No NULL 0.0019627
words NULL 0.0029441
stop NULL 0.0009814
lady NULL 0.0009814
Usually NULL 0.0009814
dislike NULL 0.0009814
- NULL 0.0039254
been NULL 0.0019627
which NULL 0.0009814
heavy NULL 0.0009814
chiseled NULL 0.0009814
mood NULL 0.0009814
breakers NULL 0.0009814
butchered NULL 0.0009814
receiver NULL 0.0009814
happen NULL 0.0009814
hearted NULL 0.0009814
seen NULL 0.0009814
agreement NULL 0.0019627
way NULL 0.0029441
down NULL 0.0029441
coming NULL 0.0009814
also NULL 0.0009814
Ignorant NULL 0.0009814
Money NULL 0.0009814
somebody NULL 0.0009814
orperform NULL 0.0009814
friend NULL 0.0009814
weakness NULL 0.0009814
get NULL 0.0009814
quarrel NULL 0.0009814
much NULL 0.0019627
the NULL 0.0323847
neighbors NULL 0.0009814
courting NULL 0.0009814
over NULL 0.0009814
may NULL 0.0009814
didnot NULL 0.0009814
something NULL 0.0019627
kulang NULL 0.0009814
lie NULL 0.0009814
good NULL 0.0019627
left NULL 0.0009814
at NULL 0.0029441
especially NULL 0.0019627
antonym NULL 0.0009814
law NULL 0.0029441
that NULL 0.0029441
traitor NULL 0.0009814
please NULL 0.0019627
woman NULL 0.0019627
married NULL 0.0009814
obedient NULL 0.0009814
To NULL 0.0127576
act NULL 0.0019627
very NULL 0.0039254
become NULL 0.0009814
she NULL 0.0009814
country NULL 0.0009814
own NULL 0.0009814
asking NULL 0.0009814
Gentleman NULL 0.0009814
Referring NULL 0.0029441
having NULL 0.0009814
. NULL 0.0235525
commenting NULL 0.0009814
Became NULL 0.0009814
take NULL 0.0009814
body NULL 0.0019627
Afraid NULL 0.0009814
hopeless NULL 0.0009814
care NULL 0.0019627
help NULL 0.0009814
usually NULL 0.0029441
sane NULL 0.0009814
Submissive NULL 0.0009814
state NULL 0.0019627
indiscriminate NULL 0.0009814
it NULL 0.0009814
without NULL 0.0009814
death NULL 0.0009814
Tyrant NULL 0.0009814
false NULL 0.0009814
softly NULL 0.0009814
confess NULL 0.0009814
Does NULL 0.0019627
mind NULL 0.0039254
eyes NULL 0.0009814
Has NULL 0.0019627
brave NULL 0.0009814
people NULL 0.0019627
dirty NULL 0.0009814
taken NULL 0.0009814
danger NULL 0.0019627
bastard NULL 0.0009814
out NULL 0.0009814
refer NULL 0.0009814
Long NULL 0.0009814
cost NULL 0.0009814
and NULL 0.0147203
friends NULL 0.0019627
coquettish NULL 0.0009814
Have NULL 0.0009814
Two NULL 0.0009814
cold NULL 0.0009814
hair NULL 0.0009814
always NULL 0.0009814
late NULL 0.0009814
( NULL 0.0088322
nagging NULL 0.0009814
being NULL 0.0029441
delicate NULL 0.0009814
this NULL 0.0009814
person NULL 0.0078508
seated NULL 0.0009814
shrimps NULL 0.0009814
topic NULL 0.0009814
hand NULL 0.0019627
compared NULL 0.0009814
slight NULL 0.0029441
listens NULL 0.0009814
refers NULL 0.0009814
talking NULL 0.0009814
Studied NULL 0.0009814
extent NULL 0.0009814
Characteristic NULL 0.0009814
what NULL 0.0019627
feeling NULL 0.0009814
reputation NULL 0.0009814
ugly NULL 0.0009814
begins NULL 0.0009814
dressed NULL 0.0009814
asked NULL 0.0009814
food NULL 0.0009814
happy NULL 0.0009814
mother NULL 0.0019627
task NULL 0.0009814
to NULL 0.0490677
everything NULL 0.0009814
liver NULL 0.0009814
wants NULL 0.0009814
Iain NULL 0.0009814
destroying NULL 0.0009814
tip NULL 0.0009814
intelligent NULL 0.0019627
same NULL 0.0019627
rid NULL 0.0009814
stay NULL 0.0009814
as NULL 0.0068695
unmerciful NULL 0.0009814
last NULL 0.0009814
does NULL 0.0039254
Same NULL 0.0058881
utters NULL 0.0009814
Desiring NULL 0.0009814
With tahid 0.2000000
no tahid 0.2000000
to tahid 0.2000000
freedom tahid 0.2000000
speak tahid 0.2000000
who Kakaning 0.1428571
victimized Kakaning 0.1428571
one Kakaning 0.1428571
belittled Kakaning 0.1428571
frequently Kakaning 0.1428571
is Kakaning 0.1428571
One Kakaning 0.1428571
very iisang 0.2000000
ownership iisang 0.2000000
slowly iisang 0.2000000
other iisang 0.2000000
each iisang 0.2000000
bellied laot 1.0000000
midnight gabi 1.0000000
agree Hinog 0.1428571
only Hinog 0.1428571
to Hinog 0.2857143
Forced Hinog 0.1428571
consent Hinog 0.1428571
or Hinog 0.1428571
miserly Ampalayang 0.3333333
Stingy Ampalayang 0.3333333
, Ampalayang 0.3333333
Fortune Hanap 0.2000000
acquired Hanap 0.2000000
bad Hanap 0.2000000
means Hanap 0.2000000
through Hanap 0.2000000
all aklat 0.3333333
to aklat 0.3333333
Known aklat 0.3333333
price Kumagat 0.2000000
sky Kumagat 0.2000000
was Kumagat 0.2000000
high Kumagat 0.2000000
- Kumagat 0.2000000
Restless asoge 1.0000000
house Bahay 0.1250000
always Bahay 0.1250000
Prison Bahay 0.1250000
the Bahay 0.1250000
One Bahay 0.1250000
stay Bahay 0.1250000
in Bahay 0.1250000
who Bahay 0.1250000
sleepy Bilasa 0.5000000
Very Bilasa 0.5000000
tongue Dila 0.5000000
clearly Dila 0.5000000
Influential Malapad 0.1250000
of Malapad 0.1250000
; Malapad 0.1250000
Deaf Malapad 0.1250000
in Malapad 0.1250000
good Malapad 0.1250000
care Malapad 0.1250000
the Malapad 0.1250000
poor beha 0.5000000
family beha 0.5000000
something Nagpuputok 0.1000000
ability Nagpuputok 0.1000000
or Nagpuputok 0.1000000
beyond Nagpuputok 0.1000000
do Nagpuputok 0.1000000
to Nagpuputok 0.1000000
power Nagpuputok 0.1000000
his Nagpuputok 0.1000000
breathless Nagpuputok 0.1000000
Made Nagpuputok 0.1000000
Grave payapa 1.0000000
Was Inabot 0.2500000
with Inabot 0.2500000
hit Inabot 0.2500000
fists Inabot 0.2500000
( Isalang 0.1666667
) Isalang 0.1666667
victory Isalang 0.1666667
in Isalang 0.1666667
gambling Isalang 0.1666667
Foreseeing Isalang 0.1666667
sharp lawin 0.2000000
nails lawin 0.2000000
similar lawin 0.2000000
to lawin 0.2000000
those lawin 0.2000000
Entrusted Bahala 1.0000000
mat Lulunin 0.2500000
the Lulunin 0.2500000
To Lulunin 0.2500000
roll Lulunin 0.2500000
mother lubos 1.0000000
ng kanilang 0.3333333
pag kanilang 0.3333333
ibig kanilang 0.3333333
responsibility bigat 0.5000000
price bigat 0.5000000
did Pinakibit 0.1666667
mind Pinakibit 0.1666667
Did Pinakibit 0.1666667
not Pinakibit 0.3333333
care Pinakibit 0.1666667
of guhit 0.2500000
difficulty guhit 0.2500000
with guhit 0.2500000
dealing guhit 0.2500000
win Langis 0.2500000
Rivals Langis 0.2500000
the Langis 0.2500000
sympathy Langis 0.2500000
Slowfoot Ahas 0.1666667
sluggish Ahas 0.1666667
, Ahas 0.1666667
stay Ahas 0.1666667
habitually Ahas 0.1666667
Treacherous Ahas 0.1666667
give Ipagdasal 0.3333333
To Ipagdasal 0.3333333
up Ipagdasal 0.3333333
Failed Nakakita 0.3333333
in Nakakita 0.3333333
studies Nakakita 0.3333333
used Batak 0.2000000
to Batak 0.2000000
working Batak 0.2000000
; Batak 0.2000000
Sturdy Batak 0.2000000
Making Hagisan 0.2500000
opponent Hagisan 0.2500000
the Hagisan 0.2500000
surrender Hagisan 0.2500000
broke galit 0.2500000
war galit 0.2500000
The galit 0.2500000
out galit 0.2500000
heaven Sumalunga 1.0000000
married May 0.0384615
word May 0.0384615
Has May 0.0769231
Justified May 0.0384615
Engaging May 0.0384615
intelligent May 0.0384615
Wanderer May 0.0384615
NULL May 0.0384615
quickly May 0.0384615
already May 0.0384615
wealthy May 0.0769231
Fierce May 0.0384615
Intelligent May 0.0384615
or May 0.0769231
young May 0.0384615
speak May 0.0769231
restless May 0.0384615
to May 0.0384615
Wealthy May 0.0384615
reasonable May 0.0384615
Wife May 0.0384615
possessing May 0.0384615
, Alimuon 0.3333333
gossip Alimuon 0.3333333
Rumor Alimuon 0.3333333
know lingong 0.1428571
repay lingong 0.1428571
debt lingong 0.1428571
to lingong 0.1428571
how lingong 0.1428571
gratitude lingong 0.1428571
of lingong 0.1428571
disappeared Kinain 0.5000000
Burned Kinain 0.5000000
Cause Ipagbara 0.2000000
of Ipagbara 0.2000000
temper Ipagbara 0.2000000
loss Ipagbara 0.2000000
for Ipagbara 0.2000000
Financially kulo 0.2000000
taken kulo 0.2000000
care kulo 0.2000000
Well kulo 0.2000000
of kulo 0.2000000
be sabi 0.1666667
described sabi 0.1666667
find sabi 0.1666667
expressl sabi 0.1666667
words sabi 0.1666667
cannot sabi 0.1666667
with Batas 0.2000000
enforcement Batas 0.2000000
law Batas 0.2000000
policemen Batas 0.2000000
the Batas 0.2000000
studies bituin 0.3333333
job bituin 0.3333333
luck bituin 0.3333333
; Makunat 0.3333333
Selfish Makunat 0.3333333
stingy Makunat 0.3333333
Fooled Nakabitiw 0.3333333
cheated Nakabitiw 0.3333333
; Nakabitiw 0.3333333
most Sapin 0.2500000
elegant Sapin 0.2500000
The Sapin 0.2500000
dress Sapin 0.2500000
. Halagang 0.1250000
the Halagang 0.2500000
have Halagang 0.1250000
Both Halagang 0.1250000
cost Halagang 0.1250000
; Halagang 0.1250000
sky Halagang 0.1250000
old Kulubot 0.5000000
Already Kulubot 0.5000000
from Hubad 0.1666667
untrue Hubad 0.1666667
; Hubad 0.1666667
truth Hubad 0.1666667
Far Hubad 0.1666667
the Hubad 0.1666667
where pababaunan 1.0000000
be Buwayang 0.3333333
Pretending Buwayang 0.3333333
to Buwayang 0.3333333
the Amoy 0.1666667
intoxicated Amoy 0.1666667
odor Amoy 0.1666667
armpit Amoy 0.1666667
Repellent Amoy 0.1666667
of Amoy 0.1666667
wealthiest yaman 0.2000000
very yaman 0.2000000
rich yaman 0.2000000
wealthy yaman 0.2000000
; yaman 0.2000000
quite nagtatanaw 0.1428571
time nagtatanaw 0.1428571
or nagtatanaw 0.1428571
met nagtatanaw 0.1428571
a nagtatanaw 0.2857143
for nagtatanaw 0.1428571
Assume Magpahinog 0.2500000
consequence Magpahinog 0.2500000
. Magpahinog 0.2500000
full Magpahinog 0.2500000
Lazy Mata 1.0000000
; Pikit 0.3333333
Courageously Pikit 0.3333333
unhesitatingly Pikit 0.3333333
NULL Bituka 1.0000000
Was pain 0.1250000
fooled pain 0.1250000
; pain 0.1250000
to pain 0.1250000
made pain 0.1250000
was pain 0.1250000
believe pain 0.1250000
easily pain 0.1250000
their Gabay 0.1250000
age Gabay 0.1250000
parents Gabay 0.1250000
support Gabay 0.1250000
old Gabay 0.1250000
of Gabay 0.1250000
in Gabay 0.1250000
Main Gabay 0.1250000
Dumbfounded Nasirang 0.5000000
; Nasirang 0.5000000
patience talampakan 1.0000000
Do tubig 0.1111111
count tubig 0.1111111
Fortune tubig 0.1111111
paid tubig 0.1111111
consider tubig 0.1111111
not tubig 0.1111111
Rivals tubig 0.1111111
to tubig 0.1111111
; tubig 0.1111111
cooking isda 1.0000000
disappointment lunukin 0.5000000
Humiliating lunukin 0.5000000
his Kapwa 0.1111111
&apos;s Kapwa 0.1111111
one Kapwa 0.1111111
others Kapwa 0.1111111
Relation Kapwa 0.1111111
fellowmen Kapwa 0.1111111
relation Kapwa 0.1111111
with Kapwa 0.2222222
Stingy Mahigpit 1.0000000
wetting Ligong 0.1428571
the Ligong 0.1428571
without Ligong 0.1428571
Taking Ligong 0.1428571
bath Ligong 0.1428571
head Ligong 0.1428571
a Ligong 0.1428571
new Bakal 0.1666667
courageous Bakal 0.1666667
shoes Bakal 0.1666667
A Bakal 0.1666667
of Bakal 0.1666667
pair Bakal 0.1666667
organs Lamang 0.2000000
NULL Lamang 0.2000000
inside Lamang 0.2000000
animals Lamang 0.2000000
Anything Lamang 0.2000000
with panimbangan 0.2000000
along panimbangan 0.2000000
get panimbangan 0.2000000
Hard panimbangan 0.2000000
to panimbangan 0.2000000
To Durugin 0.1666667
to Durugin 0.1666667
mental Durugin 0.1666667
inflict Durugin 0.1666667
others Durugin 0.1666667
suffering Durugin 0.1666667
mga Nauupos 0.1250000
&quot; Nauupos 0.2500000
as Nauupos 0.1250000
labi Nauupos 0.1250000
ang Nauupos 0.1250000
Same Nauupos 0.1250000
nasusian Nauupos 0.1250000
trying Naglalaro 0.1428571
A Naglalaro 0.1428571
woman Naglalaro 0.1428571
young Naglalaro 0.1428571
mature Naglalaro 0.1428571
look Naglalaro 0.1428571
to Naglalaro 0.1428571
pito Labis 0.1666667
, Labis 0.1666667
labis Labis 0.1666667
sa Labis 0.3333333
walo Labis 0.1666667
Undecided Ibig 1.0000000
The Haligi 0.5000000
father Haligi 0.5000000
chatting Naniningalang 0.2000000
Engaged Naniningalang 0.2000000
talking Naniningalang 0.2000000
in Naniningalang 0.2000000
or Naniningalang 0.2000000
lie sahig 1.0000000
NULL ulan 1.0000000
dealing Nakatuntong 0.5000000
buried Nakatuntong 0.5000000
very Lawit 0.2500000
Selfish Lawit 0.2500000
stingy Lawit 0.2500000
; Lawit 0.2500000
Weak lamok 1.0000000
NULL katahimikan 1.0000000
do Mataas 0.5000000
belittles Mataas 0.5000000
Cannot Hindi 0.0434783
ingratitude Hindi 0.0434783
Does Hindi 0.1739130
refers Hindi 0.0434783
evidence Hindi 0.0434783
job Hindi 0.0434783
easy Hindi 0.0434783
dressed Hindi 0.0434783
than Hindi 0.0434783
old Hindi 0.0434783
Unaacceptable Hindi 0.0434783
not Hindi 0.1739130
NULL Hindi 0.0869565
Eloped Hindi 0.0434783
Really Hindi 0.0434783
believe Hindi 0.0434783
hungry salita 1.0000000
to apoy 0.1428571
Inflammable apoy 0.1428571
Wife apoy 0.1428571
Burned apoy 0.1428571
clothes apoy 0.1428571
Fierce apoy 0.1428571
trying apoy 0.1428571
who kundi 0.2000000
talking kundi 0.2000000
destroys kundi 0.2000000
person kundi 0.2000000
Eloped kundi 0.2000000
Foreseeing palayok 0.5000000
pot palayok 0.5000000
dull Isip 0.2500000
minded Isip 0.2500000
- Isip 0.2500000
Weak Isip 0.2500000
Intelligent Mabuti 0.0714286
Healthy Mabuti 0.0714286
mood Mabuti 0.0714286
Fluent Mabuti 0.0714286
a Mabuti 0.0714286
or Mabuti 0.1428571
wise Mabuti 0.0714286
talker Mabuti 0.0714286
body Mabuti 0.0714286
in Mabuti 0.0714286
strong Mabuti 0.0714286
good Mabuti 0.1428571
kamatis kamatis 1.0000000
ripe Taga 0.1428571
knowledge Taga 0.1428571
with Taga 0.1428571
and Taga 0.1428571
experience Taga 0.1428571
Mature Taga 0.1428571
; Taga 0.1428571
; baho 1.0000000
trust Ibuhos 0.2000000
concentrate Ibuhos 0.2000000
To Ibuhos 0.4000000
completely Ibuhos 0.2000000
pretense Hudas 1.0000000
not Nagtitikim 0.3333333
notice Nagtitikim 0.3333333
did Nagtitikim 0.3333333
adolescence lalamunan 1.0000000
hearted Mahina 0.0625000
intelligence Mahina 0.0625000
( Mahina 0.0625000
low Mahina 0.0625000
financial Mahina 0.0625000
condition Mahina 0.0625000
influence Mahina 0.0625000
Coward Mahina 0.0625000
opposite Mahina 0.0625000
minded Mahina 0.0625000
With Mahina 0.0625000
feeble Mahina 0.0625000
. Mahina 0.0625000
- Mahina 0.1250000
weak Mahina 0.0625000
sharp mahapayang 0.1666667
verbal mahapayang 0.1666667
clash mahapayang 0.1666667
in mahapayang 0.1666667
a mahapayang 0.1666667
yield mahapayang 0.1666667
record Basa 0.5000000
Bad Basa 0.5000000
Died Nagpapatulo 1.0000000
tired dila 0.0625000
; dila 0.1250000
expressions dila 0.0625000
talkative dila 0.0625000
NULL dila 0.0625000
bachelor dila 0.0625000
angry dila 0.0625000
inclined dila 0.0625000
gossiping dila 0.0625000
talk dila 0.0625000
to dila 0.0625000
talker dila 0.0625000
bashful dila 0.0625000
One dila 0.0625000
Harmfully dila 0.0625000
complexion Dupong 0.1666667
A Dupong 0.1666667
dark Dupong 0.1666667
person Dupong 0.1666667
with Dupong 0.1666667
a Dupong 0.1666667
household Magsilbing 0.1111111
as Magsilbing 0.1111111
food Magsilbing 0.2222222
for Magsilbing 0.1111111
with Magsilbing 0.1111111
payment Magsilbing 0.1111111
To Magsilbing 0.1111111
or Magsilbing 0.1111111
inborn Hiram 0.1428571
Talent Hiram 0.1428571
is Hiram 0.1428571
which Hiram 0.1428571
borrowed Hiram 0.1428571
not Hiram 0.1428571
returning Hiram 0.1428571
who Bayong 0.1111111
own Bayong 0.1111111
feet Bayong 0.1111111
his Bayong 0.1111111
on Bayong 0.1111111
cannot Bayong 0.1111111
person Bayong 0.1111111
stand Bayong 0.1111111
A Bayong 0.1111111
ugly pangit 0.5000000
incomparably pangit 0.2500000
; pangit 0.2500000
Hating Kumukulo 0.2500000
angered Kumukulo 0.2500000
; Kumukulo 0.2500000
. Kumukulo 0.2500000
pleasure Magsagap 0.1250000
gossiping Magsagap 0.1250000
To Magsagap 0.1250000
gossip Magsagap 0.1250000
find Magsagap 0.1250000
in Magsagap 0.1250000
or Magsagap 0.1250000
receiving Magsagap 0.1250000
butchered kati 0.2000000
Meat kati 0.2000000
of kati 0.2000000
challenging kati 0.2000000
animals kati 0.2000000
; Kuwarta 0.2222222
all Kuwarta 0.1111111
Everything Kuwarta 0.1111111
up Kuwarta 0.1111111
set Kuwarta 0.1111111
alright Kuwarta 0.1111111
fixed Kuwarta 0.1111111
is Kuwarta 0.1111111
Does Kaututang 0.2500000
not Kaututang 0.2500000
speak Kaututang 0.2500000
clearly Kaututang 0.2500000
without Naging 0.2000000
working Naging 0.2000000
a Naging 0.2000000
Alone Naging 0.2000000
helper Naging 0.2000000
buhay kamatayan 0.1428571
inagaw kamatayan 0.1428571
Same kamatayan 0.1428571
ang kamatayan 0.1428571
&quot; kamatayan 0.2857143
as kamatayan 0.1428571
true Hawang 0.1666667
Not Hawang 0.1666667
or Hawang 0.1666667
relative Hawang 0.1666667
a Hawang 0.1666667
real Hawang 0.1666667
A Ugaling 0.5000000
trait Ugaling 0.5000000
conclusion Puno 0.3333333
End Puno 0.3333333
; Puno 0.3333333
impoverished isip 0.1250000
concentrate isip 0.1250000
decision isip 0.1250000
inborn isip 0.1250000
conversation isip 0.1250000
forget isip 0.1250000
creative isip 0.1250000
independently isip 0.1250000
The Nabuko 0.1250000
happy Nabuko 0.1250000
became Nabuko 0.2500000
; Nabuko 0.1250000
again Nabuko 0.1250000
mind Nabuko 0.1250000
clear Nabuko 0.1250000
state sisiw 0.2000000
a sisiw 0.2000000
pitiful sisiw 0.2000000
In sisiw 0.2000000
abandoned sisiw 0.2000000
and Magkabiyak 0.1250000
same Magkabiyak 0.1250000
the Magkabiyak 0.1250000
dislikes Magkabiyak 0.1250000
Two Magkabiyak 0.1250000
having Magkabiyak 0.1250000
likes Magkabiyak 0.1250000
friends Magkabiyak 0.1250000
walks Lakad 0.2500000
lakad Lakad 0.2500000
sluggishly Lakad 0.2500000
Slow Lakad 0.2500000
&apos;s Nagkaisang 0.2000000
defects Nagkaisang 0.2000000
Exposed Nagkaisang 0.2000000
one Nagkaisang 0.2000000
own Nagkaisang 0.2000000
dull Bugok 0.2500000
; Bugok 0.2500000
Weak Bugok 0.2500000
minded Bugok 0.2500000
indolent uhaw 1.0000000
dull Abo 0.2500000
minded Abo 0.2500000
- Abo 0.2500000
Weak Abo 0.2500000
kow nakakakilala 0.2000000
shameless nakakakilala 0.2000000
ashamed nakakakilala 0.2000000
; nakakakilala 0.2000000
feel nakakakilala 0.2000000
stop masarhan 0.2500000
to masarhan 0.2500000
want masarhan 0.2500000
talking masarhan 0.2500000
Strick bakal 0.1250000
does bakal 0.1250000
reputation bakal 0.1250000
back bakal 0.1250000
who bakal 0.1250000
enforcement bakal 0.1250000
one bakal 0.2500000
companion palad 0.1111111
the palad 0.1111111
generous palad 0.1111111
imagination palad 0.1111111
Misfortune palad 0.1111111
hardworkin palad 0.1111111
Unfortunate palad 0.1111111
destiny palad 0.1111111
NULL palad 0.1111111
to Hanggang 0.1250000
NULL Hanggang 0.1250000
things Hanggang 0.1250000
said Hanggang 0.1250000
not Hanggang 0.1250000
Referring Hanggang 0.1250000
but Hanggang 0.1250000
done Hanggang 0.1250000
antipathy dugo 0.0625000
a dugo 0.0625000
someone dugo 0.0625000
Hating dugo 0.0625000
pirates dugo 0.0625000
Child dugo 0.0625000
NULL dugo 0.0625000
feeling dugo 0.0625000
With dugo 0.0625000
; dugo 0.1250000
dislike dugo 0.0625000
Sympathetic dugo 0.0625000
friendly dugo 0.0625000
for dugo 0.0625000
with dugo 0.0625000
pretending kawali 0.2000000
or kawali 0.2000000
Refused kawali 0.2000000
Deaf kawali 0.2000000
to kawali 0.2000000
object Sumama 0.2000000
to Sumama 0.2000000
To Sumama 0.2000000
contradict Sumama 0.2000000
; Sumama 0.2000000
Child ibig 1.0000000
of pugad 0.2000000
mind pugad 0.1000000
state pugad 0.1000000
NULL pugad 0.1000000
what pugad 0.1000000
not pugad 0.1000000
weak pugad 0.1000000
does pugad 0.1000000
know pugad 0.1000000
admiring Palaboy 0.1250000
Wanting Palaboy 0.1250000
greatly Palaboy 0.1250000
someone Palaboy 0.1250000
or Palaboy 0.1250000
something Palaboy 0.2500000
ardently Palaboy 0.1250000
born maliwanag 1.0000000
NULL batulang 1.0000000
cooking Gawin 0.2000000
the Gawin 0.2000000
fish Gawin 0.2000000
Prepare Gawin 0.2000000
for Gawin 0.2000000
bad hayop 0.2000000
very hayop 0.2000000
trait hayop 0.2000000
or hayop 0.2000000
character hayop 0.2000000
one Ilaki 0.2500000
stubbornness Ilaki 0.1250000
To Ilaki 0.1250000
&apos;s Ilaki 0.2500000
problems Ilaki 0.1250000
numerous Ilaki 0.1250000
Soundly narating 1.0000000
much Iginupo 0.1428571
of Iginupo 0.1428571
because Iginupo 0.1428571
destruction Iginupo 0.1428571
Met Iginupo 0.1428571
ego Iginupo 0.1428571
too Iginupo 0.1428571
the Babae 0.1428571
Not Babae 0.1428571
wife Babae 0.1428571
concubine Babae 0.1428571
; Babae 0.1428571
a Babae 0.1428571
real Babae 0.1428571
strength walang 0.2000000
no walang 0.2000000
feet walang 0.2000000
withstand walang 0.2000000
; walang 0.2000000
Exceedingly Hari 0.8750000
) Hari 0.1250000
misfortune Dagok 0.2500000
; Dagok 0.2500000
luck Dagok 0.2500000
bad Dagok 0.2500000
NULL Nagmumurang 0.1111111
Same Nagmumurang 0.1111111
nagmumurang Nagmumurang 0.1111111
kamatis Nagmumurang 0.1111111
as Nagmumurang 0.1111111
- Nagmumurang 0.1111111
&quot; Nagmumurang 0.2222222
meaning Nagmumurang 0.1111111
seldom paa 0.1000000
come paa 0.1000000
of paa 0.1000000
go paa 0.1000000
in paa 0.1000000
the paa 0.2000000
out paa 0.1000000
house paa 0.2000000
referring aagaw 0.2500000
sunset aagaw 0.2500000
Twilight aagaw 0.2500000
after aagaw 0.2500000
; karamdaman 1.0000000
maried Namugad 0.2500000
be Namugad 0.2500000
soon Namugad 0.2500000
Will Namugad 0.2500000
at balikat 0.0833333
care balikat 0.0833333
mercy balikat 0.0833333
palad balikat 0.0833333
companion balikat 0.0833333
NULL balikat 0.1666667
his balikat 0.1666667
disposal balikat 0.0833333
; balikat 0.0833333
At balikat 0.0833333
Having tinali 1.0000000
&quot; Nagpapatirapa 0.2857143
Same Nagpapatirapa 0.1428571
as Nagpapatirapa 0.1428571
nagbabatak Nagpapatirapa 0.1428571
ng Nagpapatirapa 0.1428571
buto Nagpapatirapa 0.1428571
not mula 0.1666667
people mula 0.1666667
who mula 0.1666667
have mula 0.1666667
did mula 0.1666667
study mula 0.1666667
difficulties Pasang 0.3333333
&apos;s Pasang 0.3333333
life Pasang 0.3333333
house kalog 1.0000000
of Kinukulili 0.2500000
tired Kinukulili 0.2500000
Getting Kinukulili 0.2500000
hearing Kinukulili 0.2500000
analyzed Nagkalat 0.2500000
or Nagkalat 0.2500000
strictly Nagkalat 0.2500000
investigated Nagkalat 0.2500000
hunger bituka 0.2000000
long bituka 0.2000000
withstand bituka 0.2000000
Hungry bituka 0.2000000
Can bituka 0.2000000
experience pp.50 0.5000000
great pp.50 0.5000000
synonym Sampung 0.3333333
; Sampung 0.3333333
Angry Sampung 0.3333333
Traitor Anay 0.3333333
smallpox Anay 0.3333333
; Anay 0.3333333
dirty pamatay 0.5000000
Very pamatay 0.5000000
Died pawis 0.5000000
work pawis 0.5000000
to Nabuwaya 0.1428571
all Nabuwaya 0.1428571
of Nabuwaya 0.1428571
able Nabuwaya 0.1428571
Was Nabuwaya 0.1428571
pay Nabuwaya 0.1428571
debts Nabuwaya 0.1428571
hands Nahuli 0.0833333
found Nahuli 0.0833333
was Nahuli 0.0833333
The Nahuli 0.0833333
thing Nahuli 0.0833333
complex Nahuli 0.0833333
lost Nahuli 0.0833333
inferiority Nahuli 0.0833333
of Nahuli 0.0833333
in Nahuli 0.0833333
thief Nahuli 0.0833333
having Nahuli 0.0833333
heavily Gasgas 0.5000000
Spend Gasgas 0.5000000
is nilugaw 0.1666667
bigger nilugaw 0.1666667
capital nilugaw 0.1666667
the nilugaw 0.1666667
that nilugaw 0.3333333
debts Baon 0.3333333
many Baon 0.3333333
Too Baon 0.3333333
past kahapon 1.0000000
scolding Putak 0.3333333
habit Putak 0.3333333
of Putak 0.3333333
but lubog 0.2500000
good lubog 0.2500000
secretly lubog 0.2500000
harming lubog 0.2500000
The batas 0.5000000
authorities batas 0.5000000
; Damdamin 0.5000000
sad Damdamin 0.5000000
- Namamana 0.1666667
Becoming Namamana 0.1666667
love Namamana 0.1666667
hearted Namamana 0.1666667
fickle Namamana 0.1666667
in Namamana 0.1666667
bravely Lakas 0.2500000
fever Lakas 0.2500000
sever Lakas 0.2500000
Courageously Lakas 0.2500000
after Kabilang 0.1428571
place Kabilang 0.1428571
go Kabilang 0.1428571
death Kabilang 0.1428571
where Kabilang 0.1428571
Heaven Kabilang 0.1428571
souls Kabilang 0.1428571
acts Naghari 0.2000000
Denying Naghari 0.2000000
done Naghari 0.2000000
the Naghari 0.2000000
evil Naghari 0.2000000
to hasa 1.0000000
intelligence Lalabasan 0.2500000
Possessing Lalabasan 0.2500000
or Lalabasan 0.2500000
ability Lalabasan 0.2500000
Child Dugo 1.0000000
be bahala 0.2500000
plenty bahala 0.2500000
unmindful bahala 0.2500000
of bahala 0.2500000
honor puri 0.3333333
finding puri 0.3333333
puri puri 0.3333333
a makapitan 0.2000000
or makapitan 0.2000000
protector makapitan 0.2000000
patron makapitan 0.2000000
Without makapitan 0.2000000
Sudden pantog 0.5000000
growth pantog 0.5000000
Like iniwan 0.3333333
or iniwan 0.3333333
similar iniwan 0.3333333
Hoped Suot 1.0000000
manners Laki 0.1250000
advice Laki 0.1250000
grandchild Laki 0.1250000
and Laki 0.1250000
in Laki 0.1250000
Lacking Laki 0.1250000
good Laki 0.1250000
parents Laki 0.1250000
laugh malutong 0.2857143
without malutong 0.1428571
hearty malutong 0.1428571
a malutong 0.1428571
hypocrisy malutong 0.1428571
; malutong 0.1428571
inflict Pagbabagong 0.1428571
injuries Pagbabagong 0.1428571
hurt Pagbabagong 0.1428571
To Pagbabagong 0.1428571
to Pagbabagong 0.1428571
or Pagbabagong 0.1428571
physical Pagbabagong 0.1428571
strength Ubos 0.1428571
With Ubos 0.1428571
strongest Ubos 0.1428571
force Ubos 0.1428571
or Ubos 0.1428571
all Ubos 0.1428571
the Ubos 0.1428571
referring uwak 0.1666667
, uwak 0.1666667
evil uwak 0.1666667
act uwak 0.1666667
usually uwak 0.1666667
An uwak 0.1666667
selfish Puti 0.3333333
A Puti 0.3333333
character Puti 0.3333333
puso Makataling 0.1428571
makaisang Makataling 0.1428571
&quot; Makataling 0.2857143
Same Makataling 0.1428571
- Makataling 0.1428571
as Makataling 0.1428571
any Hawak 0.1250000
he Hawak 0.1250000
objection Hawak 0.1250000
anything Hawak 0.1250000
Obeying Hawak 0.1250000
, Hawak 0.2500000
without Hawak 0.1250000
A Kalapating 0.5000000
prostitute Kalapating 0.5000000
practically Pagtatampisaw 0.2000000
stays Pagtatampisaw 0.2000000
who Pagtatampisaw 0.2000000
streets Pagtatampisaw 0.2000000
on Pagtatampisaw 0.2000000
Kind Malambot 0.1000000
persuaded Malambot 0.1000000
Easily Malambot 0.1000000
considerate Malambot 0.1000000
- Malambot 0.1000000
; Malambot 0.2000000
obedient Malambot 0.1000000
witty Malambot 0.1000000
hearted Malambot 0.1000000
physical Bumibigat 0.3333333
condition Bumibigat 0.3333333
Worsening Bumibigat 0.3333333
father Sumuntok 0.1111111
&apos;s Sumuntok 0.2222222
mother Sumuntok 0.1111111
( Sumuntok 0.1111111
character Sumuntok 0.1111111
or Sumuntok 0.1111111
) Sumuntok 0.1111111
Inherited Sumuntok 0.1111111
of Buwanin 0.2500000
periodic Buwanin 0.2500000
mood Buwanin 0.2500000
ugly Buwanin 0.2500000
Cheated Nabuksan 1.0000000
Died Nanaog 1.0000000
eat Mataba 1.0000000
Glib Matalas 0.2000000
fluent Matalas 0.2000000
speaker Matalas 0.2000000
of Matalas 0.2000000
tongue Matalas 0.2000000
life landas 0.5000000
prosperous landas 0.5000000
Made Humihip 0.2500000
his Humihip 0.2500000
misfortune Humihip 0.2500000
own Humihip 0.2500000
idle Magtulak 0.3333333
To Magtulak 0.3333333
remain Magtulak 0.3333333
which Maipagtatawid 0.1250000
that Maipagtatawid 0.1250000
&apos;s Maipagtatawid 0.1250000
expecially Maipagtatawid 0.1250000
necessities Maipagtatawid 0.1250000
, Maipagtatawid 0.1250000
food Maipagtatawid 0.1250000
is Maipagtatawid 0.1250000
( Magpatulo 0.2000000
To Magpatulo 0.2000000
work Magpatulo 0.2000000
in Magpatulo 0.2000000
order Magpatulo 0.2000000
with ulol 0.3333333
Quarrels ulol 0.3333333
everybody ulol 0.3333333
unhealthy salapi 0.1428571
money salapi 0.1428571
to salapi 0.1428571
wealth salapi 0.1428571
Infidelity salapi 0.1428571
Hard salapi 0.1428571
earn salapi 0.1428571
embrace sa 0.0072993
study sa 0.0072993
grandchild sa 0.0072993
Boastfulness sa 0.0072993
using sa 0.0072993
to sa 0.0218978
consider sa 0.0072993
someone sa 0.0072993
one sa 0.0145985
immediately sa 0.0072993
income sa 0.0072993
feeling sa 0.0072993
remained sa 0.0072993
boast sa 0.0072993
as sa 0.0145985
buried sa 0.0072993
at sa 0.0145985
condition sa 0.0072993
pregnant sa 0.0072993
love sa 0.0072993
uncertain sa 0.0072993
objection sa 0.0072993
forget sa 0.0218978
the sa 0.0802920
Disappointed sa 0.0072993
Till sa 0.0072993
NULL sa 0.0364964
hair sa 0.0072993
boastful sa 0.0072993
interpretation sa 0.0072993
complex sa 0.0072993
Wife sa 0.0072993
judgement sa 0.0072993
untrue sa 0.0072993
against sa 0.0072993
chance sa 0.0072993
inborn sa 0.0072993
made sa 0.0072993
things sa 0.0072993
Gave sa 0.0072993
miserly sa 0.0072993
dealing sa 0.0072993
in sa 0.0072993
Wanderer sa 0.0072993
adoring sa 0.0072993
unhealthy sa 0.0072993
Treacherous sa 0.0072993
learned sa 0.0145985
flattering sa 0.0072993
Got sa 0.0072993
personal sa 0.0072993
skill sa 0.0072993
person sa 0.0072993
weak sa 0.0072993
many sa 0.0072993
unusual sa 0.0072993
high sa 0.0072993
useless sa 0.0072993
compared sa 0.0072993
verbal sa 0.0072993
ng sa 0.0072993
Pretense sa 0.0072993
better sa 0.0072993
practically sa 0.0072993
Eloped sa 0.0145985
Usurers sa 0.0072993
be sa 0.0072993
bastard sa 0.0072993
Driven sa 0.0072993
record sa 0.0072993
each sa 0.0072993
argue sa 0.0072993
advice sa 0.0072993
marry sa 0.0072993
remember sa 0.0072993
knowledge sa 0.0072993
Intelligent sa 0.0072993
agree sa 0.0072993
destruction sa 0.0145985
evidence sa 0.0072993
Inherited sa 0.0072993
sa sa 0.0364964
acquired sa 0.0072993
egoistic sa 0.0072993
soon sa 0.0072993
jurisdiction sa 0.0072993
possession sa 0.0072993
married sa 0.0145985
anymore sa 0.0145985
contradict sa 0.0072993
powerful sa 0.0072993
baptism sa 0.0072993
force sa 0.0072993
Died sa 0.0145985
Heavily sa 0.0072993
own sa 0.0072993
Restless sa 0.0072993
received sa 0.0072993
cheated sa 0.0072993
went sa 0.0072993
efforts sa 0.0072993
whom sa 0.0072993
fulfill sa 0.0072993
Shameless sa 0.0072993
hopeless sa 0.0072993
situation sa 0.0072993
In Nagdalang 0.5000000
nagdalang Nagdalang 0.5000000
initiative kusang 0.5000000
No kusang 0.5000000
nature kulay 1.0000000
bachelor binata 0.1428571
shy binata 0.1428571
young binata 0.1428571
and binata 0.1428571
slow binata 0.1428571
bashful binata 0.1428571
man binata 0.1428571
People Pamatid 0.2000000
useless Pamatid 0.2000000
who Pamatid 0.2000000
are Pamatid 0.2000000
indolent Pamatid 0.2000000
Worried Lumalaki 0.2500000
disturbed Lumalaki 0.2500000
badly Lumalaki 0.2500000
; Lumalaki 0.2500000
hungry Kinakalambre 0.5000000
Very Kinakalambre 0.5000000
New Daigdig 0.1111111
; Daigdig 0.2222222
of Daigdig 0.1111111
way Daigdig 0.1111111
new Daigdig 0.1111111
souls Daigdig 0.1111111
life Daigdig 0.2222222
despised nang 0.0909091
a nang 0.0909091
secret nang 0.0909091
scolding nang 0.0909091
to nang 0.0909091
cheat nang 0.0909091
looking nang 0.0909091
Still nang 0.0909091
Fierce nang 0.0909091
Of nang 0.0909091
etc nang 0.0909091
the mababayaran 0.1428571
food mababayaran 0.1428571
) mababayaran 0.1428571
eaten mababayaran 0.1428571
( mababayaran 0.1428571
satisfied mababayaran 0.1428571
referring mababayaran 0.1428571
company gubat 1.0000000
Strout Tabang 0.1666667
and Tabang 0.1666667
unhealthy Tabang 0.1666667
but Tabang 0.1666667
body Tabang 0.1666667
weak Tabang 0.1666667
NULL balutan 0.2000000
to balutan 0.2000000
as balutan 0.2000000
residence balutan 0.2000000
Changeable balutan 0.2000000
assiduously Igagapang 0.1428571
help Igagapang 0.1428571
To Igagapang 0.1428571
another Igagapang 0.1428571
support Igagapang 0.1428571
patiently Igagapang 0.1428571
or Igagapang 0.1428571
returned aso 0.1111111
man aso 0.1111111
and aso 0.1111111
with aso 0.1111111
later aso 0.1111111
Always aso 0.1111111
who aso 0.1111111
a aso 0.1111111
eloped aso 0.1111111
Wife Kabiyak 1.0000000
judgement pa 0.1428571
understanding pa 0.1428571
Proud pa 0.1428571
Disillusionment pa 0.1428571
; pa 0.1428571
uncertain pa 0.1428571
boastful pa 0.1428571
Getting ang 0.0046083
influence ang 0.0092166
committed ang 0.0046083
Hating ang 0.0046083
Courageous ang 0.0092166
light ang 0.0046083
the ang 0.0046083
normal ang 0.0046083
easily ang 0.0230415
little ang 0.0046083
talkative ang 0.0046083
Hurrying ang 0.0046083
NULL ang 0.0276498
working ang 0.0046083
because ang 0.0046083
persuaded ang 0.0046083
honor ang 0.0046083
tiyan ang 0.0046083
psychopathic ang 0.0046083
Influential ang 0.0046083
Quick ang 0.0046083
everything ang 0.0046083
talker ang 0.0046083
to ang 0.0092166
live ang 0.0092166
acts ang 0.0046083
Lazy ang 0.0046083
conflict ang 0.0046083
Angry ang 0.0092166
Already ang 0.0046083
fun ang 0.0046083
midnight ang 0.0046083
Married ang 0.0138249
beating ang 0.0046083
witty ang 0.0046083
minded ang 0.0046083
cooking ang 0.0046083
hungry ang 0.0092166
earn ang 0.0046083
mood ang 0.0092166
mentally ang 0.0092166
Disappeared ang 0.0046083
simpleton ang 0.0046083
real ang 0.0046083
Scared ang 0.0046083
cooked ang 0.0046083
feelings ang 0.0046083
breathless ang 0.0046083
uttering ang 0.0046083
heavily ang 0.0046083
proud ang 0.0046083
; ang 0.1520737
Free ang 0.0046083
hardworkin ang 0.0046083
Frowning ang 0.0046083
bachelor ang 0.0046083
stingy ang 0.0046083
Lost ang 0.0046083
fluent ang 0.0046083
adolescence ang 0.0046083
completely ang 0.0046083
hour ang 0.0046083
customs ang 0.0046083
keep ang 0.0046083
Sympathetic ang 0.0046083
considerate ang 0.0046083
headache ang 0.0046083
physical ang 0.0046083
were ang 0.0046083
belittles ang 0.0046083
record ang 0.0046083
Insane ang 0.0046083
Heaving ang 0.0046083
around ang 0.0046083
silently ang 0.0046083
Harmfully ang 0.0046083
out ang 0.0092166
orator ang 0.0046083
self ang 0.0092166
Boastful ang 0.0046083
victory ang 0.0046083
means ang 0.0046083
stealer ang 0.0092166
want ang 0.0046083
Hungry ang 0.0046083
Very ang 0.0046083
view ang 0.0046083
irascible ang 0.0046083
conversation ang 0.0046083
old ang 0.0046083
Sturdy ang 0.0046083
taken ang 0.0046083
power ang 0.0046083
roll ang 0.0046083
prostitute ang 0.0046083
concentrate ang 0.0046083
sad ang 0.0046083
or ang 0.0092166
sickness ang 0.0092166
selfish ang 0.0046083
is ang 0.0046083
perform ang 0.0046083
disappointed ang 0.0046083
broke ang 0.0046083
of ang 0.0184332
fault ang 0.0046083
plants ang 0.0046083
ang ang 0.0460829
Revealed ang 0.0046083
generous ang 0.0046083
care ang 0.0046083
badly ang 0.0046083
an ang 0.0184332
mental ang 0.0046083
himself ang 0.0046083
pot ang 0.0046083
shameless ang 0.0046083
life ang 0.0046083
body ang 0.0046083
Afraid ang 0.0046083
Sick ang 0.0046083
Shameless ang 0.0138249
serious ang 0.0046083
Deaf ang 0.0046083
conversations ang 0.0046083
Intelligent ang 0.0046083
who ang 0.0046083
fought ang 0.0046083
Referring ang 0.0046083
antipathy ang 0.0046083
fighting ang 0.0046083
day ang 0.0046083
Powerful ang 0.0046083
married ang 0.0046083
insensitive ang 0.0092166
Rich ang 0.0046083
money ang 0.0046083
tired ang 0.0046083
afraid ang 0.0092166
experience ang 0.0046083
Cheated ang 0.0046083
surrender ang 0.0046083
front bintana 0.1666667
battle bintana 0.1666667
died bintana 0.1666667
in bintana 0.1666667
who bintana 0.1666667
Eloped bintana 0.1666667
loudly poste 0.2500000
Saying poste 0.2500000
words poste 0.2500000
bad poste 0.2500000
Intelligent Dilat 1.0000000
learned Kristi 0.2000000
Rich Kristi 0.2000000
or Kristi 0.2000000
; Kristi 0.2000000
intelligent Kristi 0.2000000
NULL karayom 1.0000000
NULL bangko 0.2500000
not bangko 0.2500000
dance bangko 0.2500000
does bangko 0.2500000
Not Sampay 0.5000000
genuine Sampay 0.5000000
misfortune kapalaran 1.0000000
something magandang 0.2000000
or magandang 0.2000000
working magandang 0.2000000
important magandang 0.2000000
on magandang 0.2000000
boastful Bagyo 0.5000000
Very Bagyo 0.5000000
opponent tuwalya 1.0000000
quite tama 1.0000000
A Naglalangis 0.1666667
betraying Naglalangis 0.1666667
woman Naglalangis 0.1666667
her Naglalangis 0.1666667
married Naglalangis 0.1666667
husband Naglalangis 0.1666667
a Magsunog 0.2500000
or Magsunog 0.2500000
career Magsunog 0.2500000
course Magsunog 0.2500000
notice idlip 0.5000000
to idlip 0.5000000
Insane Sira 0.1428571
by Sira 0.1428571
beautiful Sira 0.1428571
of Sira 0.1428571
Praised Sira 0.1428571
means Sira 0.1428571
words Sira 0.1428571
To Ikuros 0.5000000
remember Ikuros 0.5000000
trouble Humahanap 0.2500000
challenging Humahanap 0.2500000
Looking Humahanap 0.2500000
for Humahanap 0.2500000
habit panahon 0.1000000
has panahon 0.1000000
bad panahon 0.1000000
stormy panahon 0.1000000
hope panahon 0.1000000
day panahon 0.1000000
rainy panahon 0.1000000
Bad panahon 0.1000000
knowledge panahon 0.1000000
weather panahon 0.1000000
An Nawalan 0.1111111
old Nawalan 0.1111111
individual Nawalan 0.1111111
who Nawalan 0.1111111
referring Nawalan 0.1111111
became Nawalan 0.1111111
usually Nawalan 0.1111111
has Nawalan 0.1111111
( Nawalan 0.1111111
or Saanmang 0.5000000
company Saanmang 0.5000000
No balon 0.5000000
wealth balon 0.5000000
&quot; Ibuko 0.4000000
same Ibuko 0.2000000
ibako Ibuko 0.2000000
as Ibuko 0.2000000
dislikes bao 1.0000000
dumbfounded Pinitpit 1.0000000
initiative palo 0.3333333
placed palo 0.3333333
voluntarily palo 0.3333333
something Mabilis 0.1666667
in Mabilis 0.1666667
from Mabilis 0.1666667
Quick Mabilis 0.1666667
stealing Mabilis 0.1666667
others Mabilis 0.1666667
young kibot 0.5000000
Still kibot 0.5000000
plan Maitim 0.3333333
NULL Maitim 0.3333333
maitim Maitim 0.3333333
stop tangay 0.2500000
not tangay 0.2500000
Does tangay 0.2500000
murmuring tangay 0.2500000
Of bato 0.0769231
person bato 0.1538462
helper bato 0.0769231
fell bato 0.0769231
unconscious bato 0.0769231
insulted bato 0.0769231
NULL bato 0.0769231
who bato 0.1538462
Disillusionment bato 0.0769231
a bato 0.0769231
down bato 0.0769231
marriage Pagkagat 1.0000000
Died Sumasala 1.0000000
for Bulang 0.1666667
spend Bulang 0.1666667
Ready Bulang 0.1666667
especially Bulang 0.1666667
friends Bulang 0.1666667
to Bulang 0.1666667
reporter Nagpikit 1.0000000
ang Malaki 0.2500000
&quot; Malaki 0.2500000
mahaba Malaki 0.2500000
buntot Malaki 0.2500000
ability kalingkingan 0.1666667
or kalingkingan 0.1666667
skill kalingkingan 0.1666667
same kalingkingan 0.1666667
the kalingkingan 0.1666667
Not kalingkingan 0.1666667
money Taong 0.1666667
in Taong 0.1666667
the Taong 0.1666667
The Taong 0.1666667
pocket Taong 0.1666667
last Taong 0.1666667
feeling Masakit 0.1428571
bad Masakit 0.1428571
NULL Masakit 0.1428571
anger Masakit 0.1428571
With Masakit 0.1428571
or Masakit 0.1428571
with Masakit 0.1428571
Shameless balat 0.2500000
old balat 0.2500000
Skinny balat 0.2500000
anything balat 0.2500000
Weak Malabnaw 0.2000000
minded Malabnaw 0.2000000
- Malabnaw 0.2000000
simpleton Malabnaw 0.2000000
; Malabnaw 0.2000000
Misfortune Kasaliwaang 1.0000000
expenses Igisa 1.0000000
Knows Sugat 0.2000000
the Sugat 0.2000000
to Sugat 0.2000000
pay Sugat 0.2000000
ability Sugat 0.2000000
trouble Isubo 0.2000000
to Isubo 0.2000000
one Isubo 0.2000000
into Isubo 0.2000000
put Isubo 0.2000000
sorrow ( 0.5000000
direct ( 0.5000000
of Iluwag 0.2000000
peace Iluwag 0.2000000
mind Iluwag 0.2000000
To Iluwag 0.2000000
have Iluwag 0.2000000
about Nagdilim 0.2500000
bad Nagdilim 0.2500000
Feeling Nagdilim 0.2500000
something Nagdilim 0.2500000
incomparably ganda 0.2500000
beautiful ganda 0.5000000
; ganda 0.2500000
hearted Magandang 0.1428571
- Magandang 0.1428571
; Magandang 0.2857143
charitable Magandang 0.1428571
Kind Magandang 0.1428571
helpful Magandang 0.1428571
breaks Talu 0.3333333
easily Talu 0.3333333
who Talu 0.3333333
land Ibayong 1.0000000
odor kambing 1.0000000
prosperous Mabulaklak 0.2500000
Happy Mabulaklak 0.2500000
and Mabulaklak 0.5000000
Died Binawian 1.0000000
awake Paniningalang 0.2000000
is Paniningalang 0.2000000
person Paniningalang 0.2000000
who Paniningalang 0.2000000
but Paniningalang 0.2000000
companion Kadaupang 0.2500000
constant Kadaupang 0.2500000
a Kadaupang 0.2500000
Friend Kadaupang 0.2500000
burden krus 1.0000000
exert Balikatin 0.1250000
work Balikatin 0.1250000
effort Balikatin 0.1250000
To Balikatin 0.1250000
&apos;s Balikatin 0.1250000
one Balikatin 0.1250000
doing Balikatin 0.1250000
in Balikatin 0.1250000
In Napasakan 0.1666667
ailment Napasakan 0.1666667
bed Napasakan 0.1666667
with Napasakan 0.1666667
serious Napasakan 0.1666667
a Napasakan 0.1666667
Treacherous hudas 1.0000000
will Pagpapantay 0.1111111
thing Pagpapantay 0.1111111
The Pagpapantay 0.1111111
come Pagpapantay 0.1111111
impossible Pagpapantay 0.1111111
an Pagpapantay 0.1111111
time Pagpapantay 0.1111111
not Pagpapantay 0.1111111
that Pagpapantay 0.1111111
Fond alulod 1.0000000
Received Sumagap 1.0000000
&apos;s Hapin 0.2000000
Help Hapin 0.2000000
to Hapin 0.2000000
livelihood Hapin 0.2000000
one Hapin 0.2000000
do magsalita 0.2000000
well magsalita 0.2000000
to magsalita 0.2000000
- magsalita 0.4000000
to Bakulaw 0.1428571
hair Bakulaw 0.1428571
a Bakulaw 0.1428571
man Bakulaw 0.1428571
Referring Bakulaw 0.1428571
with Bakulaw 0.1428571
long Bakulaw 0.1428571
Boastful Mahangin 0.3333333
; Mahangin 0.3333333
proud Mahangin 0.3333333
have kaya 0.2000000
rich kaya 0.2000000
Born kaya 0.2000000
pay kaya 0.2000000
enough kaya 0.2000000
proud Mababang 0.2500000
Humble Mababang 0.2500000
; Mababang 0.2500000
not Mababang 0.2500000
Died ni 1.0000000
race alikabok 0.5000000
dressed alikabok 0.5000000
Gain Tubong 0.5000000
capital Tubong 0.5000000
meals isang 0.3333333
NULL isang 0.3333333
through isang 0.3333333
; Ibong 0.2500000
Prostitute Ibong 0.2500000
Bachelor Ibong 0.2500000
unfortunate Ibong 0.2500000
Very Hinihila 0.5000000
tired Hinihila 0.5000000
filthy Baboy 0.5000000
Dirty Baboy 0.2500000
, Baboy 0.2500000
NULL Diyos 1.0000000
Prayed Ipinagtirik 0.5000000
for Ipinagtirik 0.5000000
bayawak pagong 0.5000000
sluggishly pagong 0.5000000
take Magdalang 0.2000000
pity Magdalang 0.2000000
to Magdalang 0.2000000
To Magdalang 0.2000000
sympathize Magdalang 0.2000000
consciousness Natutubigan 0.5000000
Losing Natutubigan 0.5000000
thinking Magdilat 0.2500000
sit Magdilat 0.2500000
about Magdilat 0.2500000
on Magdilat 0.2500000
day digmaan 1.0000000
with Inaapoy 0.3333333
Hot Inaapoy 0.3333333
fever Inaapoy 0.3333333
; tulog 0.2000000
Dream tulog 0.2000000
NULL tulog 0.2000000
sluggish tulog 0.4000000
present Nakadaop 0.2000000
in Nakadaop 0.2000000
the Nakadaop 0.2000000
Always Nakadaop 0.2000000
imagination Nakadaop 0.2000000
persons Malamig 0.1111111
and Malamig 0.1111111
caretaker Malamig 0.1111111
animals Malamig 0.1111111
A Malamig 0.1111111
, Malamig 0.1111111
good Malamig 0.1111111
sick Malamig 0.1111111
plants Malamig 0.1111111
pito pito 0.5000000
meaning pito 0.5000000
Poor kinalahig 0.1250000
writing kinalahig 0.1250000
, kinalahig 0.1250000
referring kinalahig 0.1250000
or kinalahig 0.2500000
penmanship kinalahig 0.1250000
ugly kinalahig 0.1250000
Worthless Wals 1.0000000
&quot; Panis 0.1428571
- Panis 0.1428571
around Panis 0.1428571
absent Panis 0.1428571
minded Panis 0.1428571
him Panis 0.1428571
happening Panis 0.1428571
to Magmamahabang 0.2222222
To Magmamahabang 0.1111111
brought Magmamahabang 0.1111111
be Magmamahabang 0.2222222
the Magmamahabang 0.1111111
altar Magmamahabang 0.1111111
married Magmamahabang 0.1111111
Pretending santito 0.2500000
good santito 0.2500000
be santito 0.2500000
to santito 0.2500000
child butong 1.0000000
bunga Kapilas 0.2500000
wife Kapilas 0.2500000
Husband Kapilas 0.2500000
, Kapilas 0.2500000
The mayroon 0.5000000
poor mayroon 0.5000000
the Inagaw 0.1666667
small Inagaw 0.0555556
illness Inagaw 0.0555556
poor Inagaw 0.0555556
income Inagaw 0.0555556
saved Inagaw 0.0555556
taken Inagaw 0.0555556
cured Inagaw 0.0555556
from Inagaw 0.1111111
serious Inagaw 0.0555556
of Inagaw 0.0555556
death Inagaw 0.0555556
Was Inagaw 0.1111111
buhay Inagaw 0.0555556
in lamig 0.3333333
Strout lamig 0.3333333
NULL lamig 0.3333333
; Guhit 0.3333333
Fate Guhit 0.3333333
destiny Guhit 0.3333333
what Maluang 0.3333333
others Maluang 0.3333333
say Maluang 0.3333333
meals kahit 0.1666667
enough kahit 0.1666667
the kahit 0.1666667
is kahit 0.1666667
for kahit 0.1666667
just kahit 0.1666667
light Patayin 0.2000000
put Patayin 0.2000000
out Patayin 0.2000000
To Patayin 0.2000000
the Patayin 0.2000000
over Masasamang 0.2500000
dreamer Masasamang 0.2500000
A Masasamang 0.2500000
ambitious Masasamang 0.2500000
irritated kamyas 0.3333333
Angered kamyas 0.3333333
; kamyas 0.3333333
means patalim 1.0000000
miserly Ampalaya 1.0000000
headed Matimtimang 0.5000000
Hot Matimtimang 0.5000000
lost Nilipasan 0.2500000
who Nilipasan 0.2500000
hope Nilipasan 0.2500000
One Nilipasan 0.2500000
Strong Malaks 0.5000000
influence Malaks 0.5000000
NULL gugo 1.0000000
Was Kumita 0.5000000
born Kumita 0.5000000
in Laman 0.1250000
of Laman 0.1250000
NULL Laman 0.1250000
Always Laman 0.1250000
neighbors Laman 0.1250000
home Laman 0.1250000
Vagabond Laman 0.1250000
the Laman 0.1250000
gentle pinggan 0.3333333
well pinggan 0.3333333
Treating pinggan 0.3333333
egostic Magtinda 0.1666667
appreciate Magtinda 0.1666667
self Magtinda 0.1666667
one Magtinda 0.1666667
&apos;s Magtinda 0.1666667
To Magtinda 0.1666667
Died oras 1.0000000
, Apa 0.3333333
weak Apa 0.3333333
Brittle Apa 0.3333333
A Hiyas 0.1666667
unmarried Hiyas 0.1666667
Honor Hiyas 0.1666667
an Hiyas 0.1666667
girl Hiyas 0.1666667
maiden Hiyas 0.1666667
like Pamasak 0.1250000
drinks Pamasak 0.1250000
, Pamasak 0.1250000
coca Pamasak 0.1250000
- Pamasak 0.1250000
&quot; Pamasak 0.1250000
Soft Pamasak 0.1250000
cola Pamasak 0.1250000
pito walo 0.3333333
&quot; walo 0.3333333
Same walo 0.3333333
breathing Buntong 0.5000000
Audible Buntong 0.5000000
returning kantores 0.5000000
Not kantores 0.5000000
Replaced Sinuob 0.5000000
somebody Sinuob 0.5000000
Will Pabalat 0.2000000
a Pabalat 0.2000000
with Pabalat 0.2000000
gun Pabalat 0.2000000
shoot Pabalat 0.2000000
wife Kabit 0.2500000
Common Kabit 0.2500000
law Kabit 0.2500000
- Kabit 0.2500000
or Nakaahon 0.1666667
a Nakaahon 0.1666667
wrong Nakaahon 0.1666667
interpretation Nakaahon 0.1666667
statement Nakaahon 0.1666667
Made Nakaahon 0.1666667
a Nabato 0.2500000
thing Nabato 0.2500000
unintentionally Nabato 0.2500000
Mentioned Nabato 0.2500000
force tigas 1.0000000
punishment Nagbalik 0.1250000
than Nagbalik 0.1250000
committed Nagbalik 0.1250000
sin Nagbalik 0.1250000
was Nagbalik 0.1250000
the Nagbalik 0.1250000
The Nagbalik 0.1250000
greated Nagbalik 0.1250000
One Mapagtanim 0.1428571
hatred Mapagtanim 0.1428571
anger Mapagtanim 0.1428571
or Mapagtanim 0.1428571
who Mapagtanim 0.1428571
keeps Mapagtanim 0.1428571
long Mapagtanim 0.1428571
anniversary luksa 1.0000000
victimized itik 1.0000000
see Walang 0.0512821
any Walang 0.0256410
not Walang 0.2564103
Without Walang 0.0256410
Favorite Walang 0.0256410
synonyms Walang 0.0256410
. Walang 0.0512821
character Walang 0.0256410
protector Walang 0.0256410
Stupid Walang 0.0256410
talking Walang 0.0256410
Does Walang 0.1282051
Insensitive Walang 0.0256410
Could Walang 0.0769231
bashful Walang 0.0256410
Unmerciful Walang 0.0256410
No Walang 0.0512821
know Walang 0.0256410
similar Walang 0.0256410
interfere Walang 0.0256410
others Walang 0.0256410
Died Sumakamay 1.0000000
one Sanga 0.2500000
inclined Sanga 0.2500000
to Sanga 0.2500000
gossip Sanga 0.2500000
learned kato 0.2000000
Wealthy kato 0.2000000
intelligent kato 0.2000000
or kato 0.2000000
; kato 0.2000000
someone buhol 1.0000000
person Patabaing 0.5000000
A Patabaing 0.5000000
pity Nagdadalang 0.5000000
Took Nagdadalang 0.5000000
Money Pakainin 1.0000000
A Tulog 0.1111111
sleep Tulog 0.2222222
sound Tulog 0.1111111
not Tulog 0.1111111
shallow Tulog 0.1111111
shy Tulog 0.1111111
a Tulog 0.2222222
characterized alamang 0.2500000
Life alamang 0.2500000
by alamang 0.2500000
uncertainty alamang 0.2500000
eat Sumiklab 0.1111111
out Sumiklab 0.1111111
due Sumiklab 0.1111111
a Sumiklab 0.1111111
meals Sumiklab 0.1111111
day Sumiklab 0.1111111
not Sumiklab 0.1111111
three Sumiklab 0.1111111
Does Sumiklab 0.1111111
gentleman maginoo 0.5000000
agreement maginoo 0.5000000
gunting barbero 1.0000000
Died bathala 1.0000000
a Maikli 0.2500000
money Maikli 0.2500000
time Maikli 0.2500000
laggard Maikli 0.2500000
Marriage Paghingi 1.0000000
immediately Sumugba 0.2500000
angry Sumugba 0.2500000
Became Sumugba 0.2500000
very Sumugba 0.2500000
in Baligtad 0.3333333
gambling Baligtad 0.3333333
Lost Baligtad 0.3333333
brag Magbilad 0.2000000
to Magbilad 0.2000000
boast Magbilad 0.2000000
To Magbilad 0.2000000
; Magbilad 0.2000000
to kalabasa 1.0000000
take Pusong 0.1666667
does Pusong 0.1666667
pity Pusong 0.1666667
others Pusong 0.1666667
on Pusong 0.1666667
not Pusong 0.1666667
could ama 0.2000000
not ama 0.2000000
Dumbfounded ama 0.2000000
talk ama 0.2000000
direct ama 0.2000000
Working Nagbabalik 0.5000000
living Nagbabalik 0.5000000
kapit Kapit 0.3333333
hold Kapit 0.3333333
Suited Kapit 0.3333333
Unreasonable Sukat 0.2000000
lunatic Sukat 0.2000000
; Sukat 0.2000000
or Sukat 0.2000000
psychopathic Sukat 0.2000000
kind Ginintuang 0.1666667
Sympathetic Ginintuang 0.1666667
hearted Ginintuang 0.1666667
- Ginintuang 0.1666667
voice Ginintuang 0.1666667
; Ginintuang 0.1666667
embarassed natunaw 0.5000000
Greatly natunaw 0.5000000
fun Bilugin 0.1428571
To Bilugin 0.1428571
fool Bilugin 0.1428571
make Bilugin 0.1428571
or Bilugin 0.1428571
someone Bilugin 0.1428571
of Bilugin 0.1428571
live sikmura 0.2000000
Insensitive sikmura 0.2000000
independently sikmura 0.2000000
unsympathetic sikmura 0.2000000
and sikmura 0.2000000
Disappeared Nasusian 0.5000000
immediately Nasusian 0.5000000
Walking kawag 1.0000000
A Nagbubuhat 1.0000000
man lalaki 1.0000000
live Murang 0.2500000
independently Murang 0.2500000
Can Murang 0.2500000
&apos;t Murang 0.2500000
tenacious bayawak 0.1666667
very bayawak 0.1666667
A bayawak 0.1666667
tight bayawak 0.1666667
and bayawak 0.1666667
fruit bayawak 0.1666667
Already baba 1.0000000
untrue katotohanan 1.0000000
Humble loob 0.0333333
injuries loob 0.0333333
ambitious loob 0.0333333
bravely loob 0.0333333
Humbleness loob 0.0333333
self loob 0.0333333
have loob 0.0333333
&quot; loob 0.0666667
loob loob 0.1000000
malakas loob 0.0333333
taken loob 0.0333333
buntot loob 0.0333333
disagree loob 0.0333333
brave loob 0.0333333
ang loob 0.0333333
NULL loob 0.2333333
feeling loob 0.0333333
Shameless loob 0.0333333
stubbornness loob 0.0333333
of loob 0.0666667
fighting sandata 1.0000000
awa awa 0.3333333
- awa 0.3333333
&quot; awa 0.3333333
; Pakitang 0.2500000
assistance Pakitang 0.2500000
help Pakitang 0.2500000
Offering Pakitang 0.2500000
puri Ilako 0.1428571
Same Ilako 0.1428571
ang Ilako 0.1428571
ibilad Ilako 0.1428571
&quot; Ilako 0.2857143
as Ilako 0.1428571
Still isilang 0.5000000
young isilang 0.5000000
listen nakuha 0.1666667
to nakuha 0.1666667
Did nakuha 0.1666667
not nakuha 0.1666667
evidence nakuha 0.1666667
good nakuha 0.1666667
sour Mitsa 0.2000000
with Mitsa 0.2000000
a Mitsa 0.2000000
Pouting Mitsa 0.2000000
face Mitsa 0.2000000
for Ippinagbaba 0.2000000
one Ippinagbaba 0.2000000
anger Ippinagbaba 0.2000000
Cause Ippinagbaba 0.2000000
&apos;s Ippinagbaba 0.2000000
person Sumakabilang 0.1666667
usually Sumakabilang 0.1666667
feeling Sumakabilang 0.1666667
sour Sumakabilang 0.1666667
a Sumakabilang 0.1666667
of Sumakabilang 0.1666667
Avoiding Labanan 0.1428571
during Labanan 0.1428571
between Labanan 0.1428571
two Labanan 0.1428571
lovers Labanan 0.1428571
( Labanan 0.1428571
conversation Labanan 0.1428571
slowly - 0.0081967
good - 0.0204918
NULL - 0.0204918
defects - 0.0040984
after - 0.0163934
needs - 0.0040984
Something - 0.0040984
Death - 0.0040984
&quot; - 0.0040984
under - 0.0040984
clearly - 0.0040984
odor - 0.0040984
ambitious - 0.0040984
placed - 0.0040984
gratitude - 0.0081967
serve - 0.0040984
Feelings - 0.0040984
imagination - 0.0040984
wetting - 0.0040984
walks - 0.0040984
Uneasy - 0.0040984
only - 0.0040984
Not - 0.0163934
Lazy - 0.0040984
assistance - 0.0040984
Mixed - 0.0040984
initiative - 0.0040984
pocket - 0.0040984
characterized - 0.0040984
someone - 0.0040984
one - 0.0040984
wide - 0.0081967
first - 0.0040984
quarrel - 0.0040984
to - 0.0163934
newcomer - 0.0040984
mother - 0.0040984
makes - 0.0040984
gentle - 0.0040984
Unconscious - 0.0040984
, - 0.0081967
food - 0.0081967
; - 0.2172131
referring - 0.0081967
Unfortunate - 0.0040984
shoot - 0.0040984
second - 0.0040984
irritated - 0.0081967
those - 0.0040984
particular - 0.0040984
area - 0.0040984
intoxicated - 0.0040984
- - 0.0655738
included - 0.0040984
common - 0.0040984
seen - 0.0040984
reciprocate - 0.0081967
Humbleness - 0.0040984
bravely - 0.0040984
voluntarily - 0.0040984
Treacherous - 0.0040984
butchered - 0.0040984
sleeping - 0.0040984
Child - 0.0040984
less - 0.0040984
charming - 0.0040984
in - 0.0081967
brought - 0.0040984
miserly - 0.0040984
Young - 0.0040984
insane - 0.0040984
sensitive - 0.0040984
unhesitatingly - 0.0040984
expressl - 0.0040984
seriousness - 0.0040984
almost - 0.0081967
delicate - 0.0040984
mango - 0.0040984
always - 0.0081967
necessities - 0.0040984
hatred - 0.0040984
breathing - 0.0040984
disagree - 0.0040984
sympathy - 0.0040984
realize - 0.0040984
anniversary - 0.0040984
impoverished - 0.0040984
tenacious - 0.0040984
worth - 0.0040984
big - 0.0040984
smooth - 0.0040984
death - 0.0040984
Honeymoon - 0.0040984
of - 0.0081967
be - 0.0081967
Entrusted - 0.0040984
thing - 0.0040984
Dream - 0.0040984
Changing - 0.0040984
short - 0.0040984
promise - 0.0081967
spend - 0.0040984
or - 0.0040984
offering - 0.0040984
constant - 0.0122951
a - 0.0163934
mind - 0.0040984
victimized - 0.0040984
injuries - 0.0040984
caretaker - 0.0040984
losses - 0.0040984
Dirt - 0.0040984
custodian - 0.0040984
strongest - 0.0040984
Vagabond - 0.0040984
ponder - 0.0040984
Dowry - 0.0040984
abandoned - 0.0040984
sleep - 0.0081967
Talkative - 0.0040984
belittled - 0.0040984
usually - 0.0040984
Keeps - 0.0040984
Inflammable - 0.0040984
together - 0.0040984
relation - 0.0040984
grand - 0.0040984
plenty - 0.0040984
wedlock - 0.0040984
indolent - 0.0040984
Refused - 0.0040984
either - 0.0040984
chatting - 0.0040984
satisfied - 0.0040984
Worthless - 0.0040984
but - 0.0040984
seem - 0.0040984
notice - 0.0040984
critical - 0.0040984
gives - 0.0040984
refined talipandas 1.0000000
Always pusa 0.3333333
included pusa 0.3333333
quarreling pusa 0.3333333
misfortune lusong 1.0000000
- Hunos 0.3333333
Self Hunos 0.3333333
control Hunos 0.3333333
Undecided ayaw 1.0000000
who Tinanggap 0.2500000
someone Tinanggap 0.2500000
welcomed Tinanggap 0.2500000
was Tinanggap 0.2500000
Cause Minamata 0.2000000
mishap Minamata 0.2000000
death Minamata 0.2000000
or Minamata 0.2000000
of Minamata 0.2000000
moneyed Nagsukatan 0.2000000
money Nagsukatan 0.2000000
in Nagsukatan 0.2000000
Plentiful Nagsukatan 0.2000000
; Nagsukatan 0.2000000
or Pantawid 0.1666667
Food Pantawid 0.1666667
money Pantawid 0.1666667
to Pantawid 0.1666667
buy Pantawid 0.1666667
food Pantawid 0.1666667
Till labi 0.1250000
grave labi 0.1250000
the labi 0.1250000
immediately labi 0.1250000
boastful labi 0.1250000
death labi 0.1250000
; labi 0.1250000
up labi 0.1250000
; Nagsilbing 0.2000000
Angry Nagsilbing 0.2000000
with Nagsilbing 0.2000000
filled Nagsilbing 0.2000000
hatred Nagsilbing 0.2000000
Life manok 0.1428571
constant manok 0.1428571
in manok 0.1428571
danger manok 0.1428571
Keeps manok 0.1428571
NULL manok 0.2857143
land dagat 0.5000000
Foreign dagat 0.5000000
dumbfounded luya 0.5000000
; luya 0.5000000
along kapitbahay 0.1428571
go kapitbahay 0.1428571
Cannot kapitbahay 0.1428571
well kapitbahay 0.1428571
neighbors kapitbahay 0.1428571
with kapitbahay 0.1428571
others kapitbahay 0.1428571
a Gagapang 1.0000000
ailment Hinahabagat 0.1111111
slight Hinahabagat 0.2222222
, Hinahabagat 0.1111111
fever Hinahabagat 0.1111111
a Hinahabagat 0.2222222
usually Hinahabagat 0.1111111
With Hinahabagat 0.1111111
A kalawang 1.0000000
Hoped pamburol 0.3333333
nothing pamburol 0.3333333
for pamburol 0.3333333
used Mabait 0.1428571
to Mabait 0.1428571
referring Mabait 0.1428571
Name Mabait 0.1428571
the Mabait 0.1428571
when Mabait 0.1428571
rats Mabait 0.1428571
Honeymoon gata 1.0000000
advice lansangan 0.3333333
useless lansangan 0.3333333
Vagabond lansangan 0.3333333
( Dungis 1.0000000
to Matanimin 0.1250000
&apos;s Matanimin 0.1250000
belittle Matanimin 0.1250000
characteristics Matanimin 0.1250000
or Matanimin 0.1250000
One Matanimin 0.1250000
underestimate Matanimin 0.1250000
others Matanimin 0.1250000
Bachelor malaya 1.0000000
fever langit 0.1250000
incomparable langit 0.1250000
Extreme langit 0.1250000
Cheated langit 0.1250000
happiness langit 0.2500000
Godsend langit 0.1250000
; langit 0.1250000
said Binili 0.2000000
everything Binili 0.2000000
Believed Binili 0.2000000
by Binili 0.2000000
someone Binili 0.2000000
idle alon 1.0000000
nature Ipakita 1.0000000
Free Malinis 0.3333333
from Malinis 0.3333333
guilt Malinis 0.3333333
tagong Tagong 0.1250000
as Tagong 0.1250000
- Tagong 0.1250000
&quot; Tagong 0.2500000
Same Tagong 0.1250000
bayawak Tagong 0.1250000
seen Tagong 0.1250000
miserly hawak 0.5000000
; hawak 0.5000000
other urong 0.1250000
plates urong 0.1250000
utensils urong 0.1250000
after urong 0.1250000
meal urong 0.1250000
and urong 0.1250000
table urong 0.1250000
the urong 0.1250000
careful babasagin 0.3333333
needing babasagin 0.3333333
attention babasagin 0.3333333
poor Nagdalawang 0.3333333
impoverished Nagdalawang 0.3333333
Became Nagdalawang 0.3333333
pito kulang 0.5000000
insane kulang 0.5000000
Afraid Bahag 1.0000000
father Nasiraan 0.5000000
Deceased Nasiraan 0.5000000
&quot; tuko 0.3333333
- tuko 0.3333333
bayawak tuko 0.3333333
stop may 0.2500000
luck may 0.2500000
company may 0.2500000
Restless may 0.2500000
palad suklay 1.0000000
NULL Humanap 0.1250000
to Humanap 0.1250000
one Humanap 0.1250000
do Humanap 0.1250000
which Humanap 0.1250000
spmething Humanap 0.1250000
is Humanap 0.1250000
Trying Humanap 0.1250000
Drunk Alas 1.0000000
reciprocate Panakip 0.1250000
to Panakip 0.1250000
Wants Panakip 0.1250000
not Panakip 0.1250000
always Panakip 0.1250000
but Panakip 0.1250000
does Panakip 0.1250000
receive Panakip 0.1250000
One Kain 1.0000000
someone Paa 0.5000000
bribe Paa 0.5000000
Driven buhangin 0.2500000
to buhangin 0.5000000
duration buhangin 0.2500000
blame Ibagsak 0.1250000
person Ibagsak 0.1250000
certain Ibagsak 0.1250000
for Ibagsak 0.1250000
fault Ibagsak 0.1250000
To Ibagsak 0.1250000
a Ibagsak 0.2500000
Death Pagmamahabang 1.0000000
gone Lagot 0.2000000
broke Lagot 0.2000000
money Lagot 0.2000000
is Lagot 0.2000000
The Lagot 0.2000000
scolding putak 1.0000000
looking Kahig 0.1666667
means Kahig 0.1666667
of Kahig 0.1666667
livelihood Kahig 0.1666667
Continously Kahig 0.1666667
for Kahig 0.1666667
and Mahaba 0.1111111
adept Mahaba 0.1111111
dishonest Mahaba 0.1111111
is Mahaba 0.1111111
Spoiled Mahaba 0.1111111
talkative Mahaba 0.1111111
a Mahaba 0.1111111
not Mahaba 0.1111111
part Mahaba 0.1111111
Humiliating Mapait 1.0000000
impatient ugat 0.1428571
over ugat 0.1428571
and ugat 0.1428571
becoming ugat 0.1428571
angry ugat 0.1428571
Disgustingly ugat 0.1428571
restless ugat 0.1428571
Eloped nagdaan 1.0000000
plates kinanan 1.0000000
Very Ganggakalingkingan 0.1666667
samll Ganggakalingkingan 0.1666667
when Ganggakalingkingan 0.1666667
compared Ganggakalingkingan 0.1666667
to Ganggakalingkingan 0.1666667
another Ganggakalingkingan 0.1666667
Blind mata 0.0454545
stayed mata 0.0454545
unhesitatingly mata 0.0454545
) mata 0.0454545
. mata 0.0909091
death mata 0.0454545
place mata 0.0454545
second mata 0.0454545
NULL mata 0.0454545
his mata 0.0454545
reporter mata 0.0454545
The mata 0.0454545
certain mata 0.0454545
Intelligent mata 0.0454545
long mata 0.0454545
benefit mata 0.0454545
&apos; mata 0.0454545
a mata 0.0909091
or mata 0.0454545
s mata 0.0454545
cannot Nasakyan 0.1111111
the Nasakyan 0.1111111
immediately Nasakyan 0.1111111
Something Nasakyan 0.1111111
uttered Nasakyan 0.1111111
in Nasakyan 0.1111111
which Nasakyan 0.1111111
mind Nasakyan 0.1111111
be Nasakyan 0.1111111
family karayon 0.1666667
becoming karayon 0.1666667
the karayon 0.1666667
In karayon 0.1666667
pregnant karayon 0.1666667
way karayon 0.1666667
