&apos;t isang saya ang dala ||| Very poor woman ||| 0.142857 1.37494e-09 1 0.037037 ||| 4-0 4-1 4-2 ||| 7 1 1 ||| |||
, kabig ng dibdib ||| Pretending to dislike a ||| 0.166667 8.12758e-06 0.333333 2.45898e-06 ||| 1-0 2-1 ||| 6 3 1 ||| |||
, kabig ng dibdib ||| Pretending to dislike ||| 0.166667 8.12758e-06 0.333333 7.83032e-05 ||| 1-0 2-1 ||| 6 3 1 ||| |||
, kabig ng dibdib ||| Pretending to ||| 0.166667 8.12758e-06 0.333333 0.0797872 ||| 1-0 2-1 ||| 6 3 1 ||| |||
, kabig ng ||| Pretending to dislike a ||| 0.166667 0.000261708 0.333333 2.45898e-06 ||| 1-0 2-1 ||| 6 3 1 ||| |||
, kabig ng ||| Pretending to dislike ||| 0.166667 0.000261708 0.333333 7.83032e-05 ||| 1-0 2-1 ||| 6 3 1 ||| |||
, kabig ng ||| Pretending to ||| 0.166667 0.000261708 0.333333 0.0797872 ||| 1-0 2-1 ||| 6 3 1 ||| |||
, kabig ||| Pretending ||| 0.333333 0.0031056 1 1 ||| 1-0 ||| 3 1 1 ||| |||
, sa kabayo ang ||| An indirect way of commenting or an ||| 0.333333 1.42885e-05 1 4.34921e-14 ||| 2-0 3-6 ||| 3 1 1 ||| |||
, sa kabayo ||| An indirect way of commenting or ||| 0.333333 6.42981e-05 0.166667 2.35945e-12 ||| 2-0 ||| 3 6 1 ||| |||
, sa kabayo ||| An indirect way of commenting ||| 0.333333 6.42981e-05 0.166667 8.90471e-11 ||| 2-0 ||| 3 6 1 ||| |||
, sa kabayo ||| An indirect way of ||| 0.333333 6.42981e-05 0.166667 9.07348e-08 ||| 2-0 ||| 3 6 1 ||| |||
, sa kabayo ||| An indirect way ||| 0.333333 6.42981e-05 0.166667 2.88934e-06 ||| 2-0 ||| 3 6 1 ||| |||
, sa kabayo ||| An indirect ||| 0.333333 6.42981e-05 0.166667 0.0009814 ||| 2-0 ||| 3 6 1 ||| |||
, sa kabayo ||| An ||| 0.333333 6.42981e-05 0.166667 1 ||| 2-0 ||| 3 6 1 ||| |||
- Ahon ||| A newcomer ; has just arrived ||| 0.5 0.192354 1 3.47745e-06 ||| 1-0 0-1 0-2 1-3 1-4 1-5 ||| 2 1 1 ||| |||
- Pawis ||| , usually referring to ||| 1 0.000510727 0.2 3.7891e-07 ||| 0-1 1-3 ||| 1 5 1 ||| |||
- Pawis ||| a poor man , usually referring to ||| 1 0.000510727 0.2 2.40652e-13 ||| 0-4 1-6 ||| 1 5 1 ||| |||
- Pawis ||| man , usually referring to ||| 1 0.000510727 0.2 2.60292e-09 ||| 0-2 1-4 ||| 1 5 1 ||| |||
- Pawis ||| poor man , usually referring to ||| 1 0.000510727 0.2 7.66327e-12 ||| 0-3 1-5 ||| 1 5 1 ||| |||
- Pawis ||| usually referring to ||| 1 0.000510727 0.2 2.41318e-05 ||| 0-0 1-2 ||| 1 5 1 ||| |||
- Upos ||| sense ; either weak to understand or ||| 1 0.118612 1 2.38506e-06 ||| 1-0 0-1 0-2 1-2 1-3 1-4 1-5 1-6 ||| 1 1 1 ||| |||
- aabot ng kamay ||| Change of opinion or mental attitude ||| 0.25 0.000124604 1 5.80132e-06 ||| 1-0 0-1 1-1 1-2 2-2 1-3 1-4 1-5 ||| 4 1 1 ||| |||
- aabot ng ||| Change of opinion or mental attitude ||| 0.25 0.00334353 1 5.80132e-06 ||| 1-0 0-1 1-1 1-2 2-2 1-3 1-4 1-5 ||| 4 1 1 ||| |||
- alamang ||| Life characterized by uncertainty ||| 0.5 0.259615 1 0.00198514 ||| 1-0 0-1 1-1 1-2 1-3 ||| 2 1 1 ||| |||
- amoy - beha ||| belonging to a very poor family ||| 0.333333 4.35627e-05 1 0.000151791 ||| 1-0 2-1 1-2 1-3 3-4 3-5 ||| 3 1 1 ||| |||
- amoy - ||| belonging to a very ||| 0.333333 0.00024893 1 0.000607163 ||| 1-0 2-1 1-2 1-3 ||| 3 1 1 ||| |||
- awa ||| - awa &quot; ||| 1 0.0770194 1 0.0221615 ||| 0-0 1-0 1-1 1-2 ||| 1 1 1 ||| |||
- bayawak ||| A very tight and tenacious ||| 1 0.159872 1 6.58816e-05 ||| 1-0 1-1 1-2 1-3 0-4 1-4 ||| 1 1 1 ||| |||
- buhay ||| Feelings ; ||| 0.5 0.0181657 1 0.000890226 ||| 0-0 0-1 ||| 2 1 1 ||| |||
- gutom ||| a word often used to refer to ||| 1 0.00539098 1 3.34659e-12 ||| 0-0 1-4 1-5 1-6 ||| 1 1 1 ||| |||
- habag ||| ; ||| 0.02 0.00105511 0.0526316 0.217213 ||| 0-0 ||| 50 19 1 ||| |||
- habag ||| a state of indecision ; in a ||| 1 0.169872 0.0526316 6.04644e-11 ||| 1-3 0-4 ||| 1 19 1 ||| |||
- habag ||| a state of indecision ; in ||| 1 0.169872 0.0526316 1.92541e-09 ||| 1-3 0-4 ||| 1 19 1 ||| |||
- habag ||| a state of indecision ; ||| 1 0.169872 0.0526316 1.40142e-07 ||| 1-3 0-4 ||| 1 19 1 ||| |||
- habag ||| indecision ; in a dual state of ||| 1 0.169872 0.0526316 1.8896e-12 ||| 1-0 0-1 ||| 1 19 1 ||| |||
- habag ||| indecision ; in a dual state ||| 1 0.169872 0.0526316 6.01721e-11 ||| 1-0 0-1 ||| 1 19 1 ||| |||
- habag ||| indecision ; in a dual ||| 1 0.169872 0.0526316 3.06578e-08 ||| 1-0 0-1 ||| 1 19 1 ||| |||
- habag ||| indecision ; in a ||| 1 0.169872 0.0526316 3.12389e-05 ||| 1-0 0-1 ||| 1 19 1 ||| |||
- habag ||| indecision ; in ||| 1 0.169872 0.0526316 0.000994763 ||| 1-0 0-1 ||| 1 19 1 ||| |||
- habag ||| indecision ; ||| 1 0.169872 0.0526316 0.0724044 ||| 1-0 0-1 ||| 1 19 1 ||| |||
- habag ||| of indecision ; in a dual state ||| 1 0.169872 0.0526316 1.8896e-12 ||| 1-1 0-2 ||| 1 19 1 ||| |||
- habag ||| of indecision ; in a dual ||| 1 0.169872 0.0526316 9.62757e-10 ||| 1-1 0-2 ||| 1 19 1 ||| |||
- habag ||| of indecision ; in a ||| 1 0.169872 0.0526316 9.81003e-07 ||| 1-1 0-2 ||| 1 19 1 ||| |||
- habag ||| of indecision ; in ||| 1 0.169872 0.0526316 3.12389e-05 ||| 1-1 0-2 ||| 1 19 1 ||| |||
- habag ||| of indecision ; ||| 1 0.169872 0.0526316 0.00227374 ||| 1-1 0-2 ||| 1 19 1 ||| |||
- habag ||| state of indecision ; in a dual ||| 1 0.169872 0.0526316 1.8896e-12 ||| 1-2 0-3 ||| 1 19 1 ||| |||
- habag ||| state of indecision ; in a ||| 1 0.169872 0.0526316 1.92541e-09 ||| 1-2 0-3 ||| 1 19 1 ||| |||
- habag ||| state of indecision ; in ||| 1 0.169872 0.0526316 6.13125e-08 ||| 1-2 0-3 ||| 1 19 1 ||| |||
- habag ||| state of indecision ; ||| 1 0.169872 0.0526316 4.46266e-06 ||| 1-2 0-3 ||| 1 19 1 ||| |||
- hasa ||| to a particular way of work ||| 1 0.002809 0.25 1.16779e-11 ||| 1-0 0-2 ||| 1 4 1 ||| |||
- hasa ||| to a particular way of ||| 1 0.002809 0.25 1.18992e-08 ||| 1-0 0-2 ||| 1 4 1 ||| |||
- hasa ||| to a particular way ||| 1 0.002809 0.25 3.78915e-07 ||| 1-0 0-2 ||| 1 4 1 ||| |||
- hasa ||| to a particular ||| 1 0.002809 0.25 0.000128703 ||| 1-0 0-2 ||| 1 4 1 ||| |||
- iisang kakawag - ||| slowly and inattentively ||| 1 0.0264757 1 0.0152702 ||| 0-0 1-0 2-0 3-0 2-1 2-2 ||| 1 1 1 ||| |||
- intsik ||| woman by offering gifts ||| 1 0.207532 1 0.00198514 ||| 1-0 1-1 0-2 1-2 1-3 ||| 1 1 1 ||| |||
- kabagang ||| Not in harmony ||| 0.5 0.0960494 1 0.0194293 ||| 0-0 1-0 1-1 1-2 ||| 2 1 1 ||| |||
- kalabaw ||| - skinned ; shameless ||| 1 0.0799725 1 0.00214209 ||| 0-0 1-0 1-1 0-2 1-3 ||| 1 1 1 ||| |||
- kamyas ||| Angered ; irritated ||| 0.5 0.160427 1 0.0189739 ||| 1-0 1-1 0-2 1-2 ||| 2 1 1 ||| |||
- kanin ||| serve in another &apos;s ||| 1 0.0782242 1 0.00039529 ||| 0-0 1-0 1-1 1-2 1-3 ||| 1 1 1 ||| |||
- krus ||| A heavy burden to others ; the ||| 1 0.169872 0.111111 2.54455e-11 ||| 1-2 0-5 ||| 1 9 1 ||| |||
- krus ||| A heavy burden to others ; ||| 1 0.169872 0.111111 7.85727e-10 ||| 1-2 0-5 ||| 1 9 1 ||| |||
- krus ||| burden to others ; the cause of ||| 1 0.169872 0.111111 1.87899e-10 ||| 1-0 0-3 ||| 1 9 1 ||| |||
- krus ||| burden to others ; the cause ||| 1 0.169872 0.111111 5.98342e-09 ||| 1-0 0-3 ||| 1 9 1 ||| |||
- krus ||| burden to others ; the ||| 1 0.169872 0.111111 2.03234e-06 ||| 1-0 0-3 ||| 1 9 1 ||| |||
- krus ||| burden to others ; ||| 1 0.169872 0.111111 6.27562e-05 ||| 1-0 0-3 ||| 1 9 1 ||| |||
- krus ||| heavy burden to others ; the cause ||| 1 0.169872 0.111111 5.87213e-12 ||| 1-1 0-4 ||| 1 9 1 ||| |||
- krus ||| heavy burden to others ; the ||| 1 0.169872 0.111111 1.99454e-09 ||| 1-1 0-4 ||| 1 9 1 ||| |||
- krus ||| heavy burden to others ; ||| 1 0.169872 0.111111 6.1589e-08 ||| 1-1 0-4 ||| 1 9 1 ||| |||
- lawin ||| , sharp nails similar to those ||| 1 0.203895 0.333333 2.56375e-06 ||| 1-1 1-2 1-3 1-4 0-5 1-5 ||| 1 3 1 ||| |||
- lawin ||| Long , sharp nails similar to those ||| 1 0.203895 0.333333 2.51607e-09 ||| 1-2 1-3 1-4 1-5 0-6 1-6 ||| 1 3 1 ||| |||
- lawin ||| sharp nails similar to those ||| 1 0.203895 0.333333 0.000163279 ||| 1-0 1-1 1-2 1-3 0-4 1-4 ||| 1 3 1 ||| |||
- loob ||| ; ||| 0.04 0.00738574 1 0.217213 ||| 0-0 ||| 50 2 2 ||| |||
- lubog ||| good but secretly harming others ; traitor ||| 1 0.116493 0.25 5.15299e-10 ||| 0-0 1-0 1-1 1-2 1-3 ||| 1 4 1 ||| |||
- lubog ||| good but secretly harming others ; ||| 1 0.116493 0.25 5.25065e-07 ||| 0-0 1-0 1-1 1-2 1-3 ||| 1 4 1 ||| |||
- lubog ||| good but secretly harming others ||| 1 0.116493 0.25 1.24428e-05 ||| 0-0 1-0 1-1 1-2 1-3 ||| 1 4 1 ||| |||
- lubog ||| good but secretly harming ||| 1 0.116493 0.25 0.00211322 ||| 0-0 1-0 1-1 1-2 1-3 ||| 1 4 1 ||| |||
- lupa ||| Fruit that grow under the ground ||| 0.5 0.188731 1 2.94961e-07 ||| 1-0 1-1 1-2 0-3 1-3 1-4 1-5 ||| 2 1 1 ||| |||
- mag - amoy - beha ||| ; belonging to a very poor family ||| 0.5 4.59634e-08 1 3.29709e-05 ||| 0-0 3-1 4-2 3-3 3-4 5-5 5-6 ||| 2 1 1 ||| |||
- mag - amoy - ||| ; belonging to a very ||| 0.5 2.62648e-07 0.333333 0.000131884 ||| 0-0 3-1 4-2 3-3 3-4 ||| 2 3 1 ||| |||
- mag - amoy - ||| Very poor ; belonging to a very ||| 0.5 2.62648e-07 0.333333 1.52415e-09 ||| 0-2 3-3 4-4 3-5 3-6 ||| 2 3 1 ||| |||
- mag - amoy - ||| poor ; belonging to a very ||| 0.5 2.62648e-07 0.333333 3.88279e-07 ||| 0-1 3-2 4-3 3-4 3-5 ||| 2 3 1 ||| |||
- mag - ||| ; ||| 0.02 3.27673e-05 0.333333 0.217213 ||| 0-0 ||| 50 3 1 ||| |||
- mag - ||| Very poor ; ||| 0.166667 3.27673e-05 0.333333 2.51028e-06 ||| 0-2 ||| 6 3 1 ||| |||
- mag - ||| poor ; ||| 0.166667 3.27673e-05 0.333333 0.000639497 ||| 0-1 ||| 6 3 1 ||| |||
- mag ||| ; ||| 0.02 0.00105511 0.333333 0.217213 ||| 0-0 ||| 50 3 1 ||| |||
- mag ||| Very poor ; ||| 0.166667 0.00105511 0.333333 2.51028e-06 ||| 0-2 ||| 6 3 1 ||| |||
- mag ||| poor ; ||| 0.166667 0.00105511 0.333333 0.000639497 ||| 0-1 ||| 6 3 1 ||| |||
- maliparang - wak ||| Very wide ( tract of land ) ||| 0.5 0.0293235 0.333333 4.912e-08 ||| 1-0 0-1 1-1 2-1 3-2 3-3 3-4 ||| 2 3 1 ||| |||
- maliparang - wak ||| Very wide ( tract of land ||| 0.5 0.0293235 0.333333 3.12832e-06 ||| 1-0 0-1 1-1 2-1 3-2 3-3 3-4 ||| 2 3 1 ||| |||
- maliparang - wak ||| Very wide ( tract of ||| 0.5 0.0293235 0.333333 0.00318761 ||| 1-0 0-1 1-1 2-1 3-2 3-3 3-4 ||| 2 3 1 ||| |||
- maliparang - ||| Very wide ||| 0.5 0.0846561 1 0.0860656 ||| 1-0 0-1 1-1 2-1 ||| 2 1 1 ||| |||
- manok ||| Life in constant danger ||| 0.5 0.116319 1 0.000226169 ||| 1-0 1-1 0-2 1-2 1-3 ||| 2 1 1 ||| |||
- palad ||| sleep ; ||| 0.5 0.00208035 1 0.00178043 ||| 0-0 0-1 ||| 2 1 1 ||| |||
- puri ||| finding ; one who constantly criticizes others ||| 1 0.169872 0.166667 5.53619e-14 ||| 1-0 0-1 ||| 1 6 1 ||| |||
- puri ||| finding ; one who constantly criticizes ||| 1 0.169872 0.166667 9.40234e-12 ||| 1-0 0-1 ||| 1 6 1 ||| |||
- puri ||| finding ; one who constantly ||| 1 0.169872 0.166667 9.58054e-09 ||| 1-0 0-1 ||| 1 6 1 ||| |||
- puri ||| finding ; one who ||| 1 0.169872 0.166667 9.76211e-06 ||| 1-0 0-1 ||| 1 6 1 ||| |||
- puri ||| finding ; one ||| 1 0.169872 0.166667 0.00071054 ||| 1-0 0-1 ||| 1 6 1 ||| |||
- puri ||| finding ; ||| 1 0.169872 0.166667 0.0724044 ||| 1-0 0-1 ||| 1 6 1 ||| |||
- puso ||| ; ||| 0.02 0.00211022 0.2 0.217213 ||| 0-0 ||| 50 5 1 ||| |||
- puso ||| To be married to ; ||| 0.5 0.00211022 0.2 9.16689e-10 ||| 0-4 ||| 2 5 1 ||| |||
- puso ||| be married to ; ||| 0.5 0.00211022 0.2 7.18543e-08 ||| 0-3 ||| 2 5 1 ||| |||
- puso ||| married to ; ||| 0.5 0.00211022 0.2 1.04599e-05 ||| 0-2 ||| 2 5 1 ||| |||
- puso ||| to ; ||| 0.5 0.00211022 0.2 0.0106581 ||| 0-1 ||| 2 5 1 ||| |||
- sangang dila ||| Talkative ; ||| 0.333333 2.25662e-05 1 0.000890226 ||| 0-0 0-1 ||| 3 1 1 ||| |||
- sangang ||| Talkative ; ||| 0.333333 0.00363315 1 0.000890226 ||| 0-0 0-1 ||| 3 1 1 ||| |||
- santito ||| Pretending to be good ||| 1 0.0180084 1 0.00211322 ||| 1-0 1-1 1-2 0-3 1-3 ||| 1 1 1 ||| |||
- sibuyas ||| and smooth ( referring to the skin ||| 1 0.0208333 0.166667 3.32384e-13 ||| 1-0 0-1 ||| 1 6 1 ||| |||
- sibuyas ||| and smooth ( referring to the ||| 1 0.0208333 0.166667 3.38683e-10 ||| 1-0 0-1 ||| 1 6 1 ||| |||
- sibuyas ||| and smooth ( referring to ||| 1 0.0208333 0.166667 1.04581e-08 ||| 1-0 0-1 ||| 1 6 1 ||| |||
- sibuyas ||| and smooth ( referring ||| 1 0.0208333 0.166667 2.13137e-07 ||| 1-0 0-1 ||| 1 6 1 ||| |||
- sibuyas ||| and smooth ( ||| 1 0.0208333 0.166667 3.61979e-05 ||| 1-0 0-1 ||| 1 6 1 ||| |||
- sibuyas ||| and smooth ||| 1 0.0208333 0.166667 0.0040984 ||| 1-0 0-1 ||| 1 6 1 ||| |||
- sira ||| a promise ||| 1 0.0815152 1 0.0209936 ||| 1-0 0-1 1-1 ||| 1 1 1 ||| |||
- suso ||| - pagong &quot; ||| 1 0.0770194 1 0.0221615 ||| 0-0 1-0 1-1 1-2 ||| 1 1 1 ||| |||
- talipandas ||| and refined at first sight but coquettish ||| 1 1 0.111111 5.03649e-16 ||| 1-1 0-3 ||| 1 9 1 ||| |||
- talipandas ||| and refined at first sight but ||| 1 1 0.111111 5.13195e-13 ||| 1-1 0-3 ||| 1 9 1 ||| |||
- talipandas ||| and refined at first sight ||| 1 1 0.111111 1.74313e-10 ||| 1-1 0-3 ||| 1 9 1 ||| |||
- talipandas ||| and refined at first ||| 1 1 0.111111 1.77617e-07 ||| 1-1 0-3 ||| 1 9 1 ||| |||
- talipandas ||| refined at first sight but coquettish and ||| 1 1 0.111111 5.03649e-16 ||| 1-0 0-2 ||| 1 9 1 ||| |||
- talipandas ||| refined at first sight but coquettish ||| 1 1 0.111111 3.42146e-14 ||| 1-0 0-2 ||| 1 9 1 ||| |||
- talipandas ||| refined at first sight but ||| 1 1 0.111111 3.48631e-11 ||| 1-0 0-2 ||| 1 9 1 ||| |||
- talipandas ||| refined at first sight ||| 1 1 0.111111 1.18417e-08 ||| 1-0 0-2 ||| 1 9 1 ||| |||
- talipandas ||| refined at first ||| 1 1 0.111111 1.20661e-05 ||| 1-0 0-2 ||| 1 9 1 ||| |||
- tanaw ||| ine &apos;s sight due to distance or ||| 1 0.0102496 1 3.51368e-07 ||| 1-0 1-1 1-2 1-3 0-4 1-5 1-6 ||| 1 1 1 ||| |||
- tikin ||| Inclined already ( this refers to the ||| 0.5 0.0310559 0.142857 3.97969e-14 ||| 1-0 ||| 2 7 1 ||| |||
- tikin ||| Inclined already ( this refers to ||| 0.5 0.0310559 0.142857 1.22888e-12 ||| 1-0 ||| 2 7 1 ||| |||
- tikin ||| Inclined already ( this refers ||| 0.5 0.0310559 0.142857 2.50446e-11 ||| 1-0 ||| 2 7 1 ||| |||
- tikin ||| Inclined already ( this ||| 0.5 0.0310559 0.142857 2.55192e-08 ||| 1-0 ||| 2 7 1 ||| |||
- tikin ||| Inclined already ( ||| 0.5 0.0310559 0.142857 2.60029e-05 ||| 1-0 ||| 2 7 1 ||| |||
- tikin ||| Inclined already ||| 0.5 0.0310559 0.142857 0.0029441 ||| 1-0 ||| 2 7 1 ||| |||
- tikin ||| Inclined ||| 0.5 0.0310559 0.142857 1 ||| 1-0 ||| 2 7 1 ||| |||
- tiyan ||| good to eat ||| 1 0.015635 1 0.000602459 ||| 0-0 1-0 1-1 1-2 ||| 1 1 1 ||| |||
- tuko ||| - bayawak &quot; ||| 1 0.0269411 1 0.0221615 ||| 0-0 1-0 1-1 1-2 ||| 1 1 1 ||| |||
- turing ||| reciprocate debt of gratitude ||| 1 0.0575516 1 0.00201716 ||| 0-0 1-0 1-1 1-2 1-3 ||| 1 1 1 ||| |||
- unat ng sahig ||| always wants to lie down ||| 1 0.00226757 0.333333 7.47959e-08 ||| 0-0 1-3 3-3 1-4 2-4 ||| 1 3 1 ||| |||
- unat ng sahig ||| and always wants to lie down ||| 1 0.00226757 0.333333 1.10102e-09 ||| 0-1 1-4 3-4 1-5 2-5 ||| 1 3 1 ||| |||
- unat ng sahig ||| lazy and always wants to lie down ||| 1 0.00226757 0.333333 1.08054e-12 ||| 0-2 1-5 3-5 1-6 2-6 ||| 1 3 1 ||| |||
- ||| , Kidney , etc . ||| 1 0.0416667 0.00581395 8.75833e-12 ||| 0-2 ||| 1 172 1 ||| |||
- ||| , Kidney , etc ||| 1 0.0416667 0.00581395 3.71864e-10 ||| 0-2 ||| 1 172 1 ||| |||
- ||| , Kidney , ||| 1 0.0416667 0.00581395 1.26308e-07 ||| 0-2 ||| 1 172 1 ||| |||
- ||| , a word often used ||| 1 0.030303 0.00581395 5.83856e-12 ||| 0-1 ||| 1 172 1 ||| |||
- ||| , a word often ||| 1 0.030303 0.00581395 1.48738e-09 ||| 0-1 ||| 1 172 1 ||| |||
- ||| , a word ||| 1 0.030303 0.00581395 7.57824e-07 ||| 0-1 ||| 1 172 1 ||| |||
- ||| , a ||| 1 0.030303 0.00581395 0.000257404 ||| 0-1 ||| 1 172 1 ||| |||
- ||| , etc . ||| 1 0.0416667 0.00581395 5.68367e-07 ||| 0-0 ||| 1 172 1 ||| |||
- ||| , etc ||| 1 0.0416667 0.00581395 2.41319e-05 ||| 0-0 ||| 1 172 1 ||| |||
- ||| , liver , Kidney , etc . ||| 1 0.0416667 0.00581395 1.34963e-16 ||| 0-4 ||| 1 172 1 ||| |||
- ||| , liver , Kidney , etc ||| 1 0.0416667 0.00581395 5.7303e-15 ||| 0-4 ||| 1 172 1 ||| |||
- ||| , liver , Kidney , ||| 1 0.0416667 0.00581395 1.94637e-12 ||| 0-4 ||| 1 172 1 ||| |||
- ||| , usually referring ||| 1 0.0909091 0.00581395 3.7891e-07 ||| 0-1 ||| 1 172 1 ||| |||
- ||| , usually ||| 1 0.0909091 0.00581395 6.43519e-05 ||| 0-1 ||| 1 172 1 ||| |||
- ||| , ||| 1 0.0416667 0.00581395 0.0081967 ||| 0-0 ||| 1 172 1 ||| |||
- ||| ; a poor man , usually referring ||| 1 0.0909091 0.00581395 1.01551e-14 ||| 0-5 ||| 1 172 1 ||| |||
- ||| ; a poor man , usually ||| 1 0.0909091 0.00581395 1.72468e-12 ||| 0-5 ||| 1 172 1 ||| |||
- ||| ; almost ||| 1 0.334936 0.00581395 0.00178043 ||| 0-0 0-1 ||| 1 172 1 ||| |||
- ||| ; in a dual state of mind ||| 1 0.169872 0.00581395 2.22523e-14 ||| 0-0 ||| 1 172 1 ||| |||
- ||| ; in a dual state of ||| 1 0.169872 0.00581395 5.66881e-12 ||| 0-0 ||| 1 172 1 ||| |||
- ||| ; in a dual state ||| 1 0.169872 0.00581395 1.80516e-10 ||| 0-0 ||| 1 172 1 ||| |||
- ||| ; in a dual ||| 1 0.169872 0.00581395 9.19734e-08 ||| 0-0 ||| 1 172 1 ||| |||
- ||| ; in a ||| 1 0.169872 0.00581395 9.37166e-05 ||| 0-0 ||| 1 172 1 ||| |||
- ||| ; in ||| 0.5 0.169872 0.00581395 0.00298429 ||| 0-0 ||| 2 172 1 ||| |||
- ||| ; intestines , liver , Kidney , ||| 1 0.0416667 0.00581395 8.06055e-17 ||| 0-6 ||| 1 172 1 ||| |||
- ||| ; lazy and always wants to ||| 1 0.2 0.00581395 2.40623e-13 ||| 0-3 ||| 1 172 1 ||| |||
- ||| ; lazy and always wants ||| 1 0.2 0.00581395 4.9039e-12 ||| 0-3 ||| 1 172 1 ||| |||
- ||| ; lazy and always ||| 1 0.2 0.00581395 4.99684e-09 ||| 0-3 ||| 1 172 1 ||| |||
- ||| ; miserable , a word often used ||| 1 0.030303 0.00581395 2.41794e-16 ||| 0-3 ||| 1 172 1 ||| |||
- ||| ; miserable , a word often ||| 1 0.030303 0.00581395 6.15974e-14 ||| 0-3 ||| 1 172 1 ||| |||
- ||| ; miserable , a word ||| 1 0.030303 0.00581395 3.1384e-11 ||| 0-3 ||| 1 172 1 ||| |||
- ||| ; miserable , a ||| 1 0.030303 0.00581395 1.066e-08 ||| 0-3 ||| 1 172 1 ||| |||
- ||| ; one who constantly criticizes others ||| 1 0.169872 0.00581395 1.66086e-13 ||| 0-0 ||| 1 172 1 ||| |||
- ||| ; one who constantly criticizes ||| 1 0.169872 0.00581395 2.8207e-11 ||| 0-0 ||| 1 172 1 ||| |||
- ||| ; one who constantly ||| 1 0.169872 0.00581395 2.87416e-08 ||| 0-0 ||| 1 172 1 ||| |||
- ||| ; one who ||| 1 0.169872 0.00581395 2.92863e-05 ||| 0-0 ||| 1 172 1 ||| |||
- ||| ; one ||| 1 0.169872 0.00581395 0.00213162 ||| 0-0 ||| 1 172 1 ||| |||
- ||| ; the cause of ||| 1 0.169872 0.00581395 6.5036e-07 ||| 0-0 ||| 1 172 1 ||| |||
- ||| ; the cause ||| 1 0.169872 0.00581395 2.07099e-05 ||| 0-0 ||| 1 172 1 ||| |||
- ||| ; the ||| 0.5 0.169872 0.00581395 0.00703438 ||| 0-0 ||| 2 172 1 ||| |||
- ||| ; ||| 0.2 0.169872 0.0581395 0.217213 ||| 0-0 ||| 50 172 10 ||| |||
- ||| Destitute ; a poor man , usually ||| 1 0.0909091 0.00581395 1.6926e-15 ||| 0-6 ||| 1 172 1 ||| |||
- ||| Feelings ; ||| 0.5 0.584936 0.00581395 0.000890226 ||| 0-0 0-1 ||| 2 172 1 ||| |||
- ||| Kidney , etc . ||| 1 0.0416667 0.00581395 5.57795e-10 ||| 0-1 ||| 1 172 1 ||| |||
- ||| Kidney , etc ||| 1 0.0416667 0.00581395 2.36831e-08 ||| 0-1 ||| 1 172 1 ||| |||
- ||| Kidney , ||| 1 0.0416667 0.00581395 8.04424e-06 ||| 0-1 ||| 1 172 1 ||| |||
- ||| Talkative ; ||| 0.333333 0.584936 0.00581395 0.000890226 ||| 0-0 0-1 ||| 3 172 1 ||| |||
- ||| To be married to ; ||| 0.5 0.169872 0.00581395 9.16689e-10 ||| 0-4 ||| 2 172 1 ||| |||
- ||| Very poor ; ||| 0.166667 0.169872 0.00581395 2.51028e-06 ||| 0-2 ||| 6 172 1 ||| |||
- ||| a particular way of work ||| 1 0.5 0.00581395 1.16779e-11 ||| 0-1 ||| 1 172 1 ||| |||
- ||| a particular way of ||| 1 0.5 0.00581395 1.18992e-08 ||| 0-1 ||| 1 172 1 ||| |||
- ||| a particular way ||| 1 0.5 0.00581395 3.78915e-07 ||| 0-1 ||| 1 172 1 ||| |||
- ||| a particular ||| 0.5 0.5 0.00581395 0.000128703 ||| 0-1 ||| 2 172 1 ||| |||
- ||| a poor man , usually referring ||| 1 0.0909091 0.00581395 2.40652e-13 ||| 0-4 ||| 1 172 1 ||| |||
- ||| a poor man , usually ||| 1 0.0909091 0.00581395 4.08709e-11 ||| 0-4 ||| 1 172 1 ||| |||
- ||| a word often used ||| 1 0.030303 0.00581395 3.71843e-10 ||| 0-0 ||| 1 172 1 ||| |||
- ||| a word often ||| 1 0.030303 0.00581395 9.47274e-08 ||| 0-0 ||| 1 172 1 ||| |||
- ||| a word ||| 1 0.030303 0.00581395 4.82638e-05 ||| 0-0 ||| 1 172 1 ||| |||
- ||| a ||| 0.2 0.030303 0.00581395 0.0163934 ||| 0-0 ||| 5 172 1 ||| |||
- ||| always wants to ||| 1 0.2 0.00581395 3.94712e-07 ||| 0-0 ||| 1 172 1 ||| |||
- ||| always wants ||| 1 0.2 0.00581395 8.04424e-06 ||| 0-0 ||| 1 172 1 ||| |||
- ||| always ||| 1 0.2 0.00581395 0.0081967 ||| 0-0 ||| 1 172 1 ||| |||
- ||| and always wants to ||| 1 0.2 0.00581395 5.81029e-09 ||| 0-1 ||| 1 172 1 ||| |||
- ||| and always wants ||| 1 0.2 0.00581395 1.18414e-07 ||| 0-1 ||| 1 172 1 ||| |||
- ||| and always ||| 1 0.2 0.00581395 0.000120658 ||| 0-1 ||| 1 172 1 ||| |||
- ||| at first sight but coquettish and a ||| 1 1 0.00581395 1.58162e-17 ||| 0-1 ||| 1 172 1 ||| |||
- ||| at first sight but coquettish and ||| 1 1 0.00581395 5.03649e-16 ||| 0-1 ||| 1 172 1 ||| |||
- ||| at first sight but coquettish ||| 1 1 0.00581395 3.42146e-14 ||| 0-1 ||| 1 172 1 ||| |||
- ||| at first sight but ||| 1 1 0.00581395 3.48631e-11 ||| 0-1 ||| 1 172 1 ||| |||
- ||| at first sight ||| 1 1 0.00581395 1.18417e-08 ||| 0-1 ||| 1 172 1 ||| |||
- ||| at first ||| 1 1 0.00581395 1.20661e-05 ||| 0-1 ||| 1 172 1 ||| |||
- ||| be married to ; ||| 0.5 0.169872 0.00581395 7.18543e-08 ||| 0-3 ||| 2 172 1 ||| |||
- ||| down ; lazy and always wants to ||| 1 0.2 0.00581395 7.08419e-16 ||| 0-4 ||| 1 172 1 ||| |||
- ||| down ; lazy and always wants ||| 1 0.2 0.00581395 1.44376e-14 ||| 0-4 ||| 1 172 1 ||| |||
- ||| down ; lazy and always ||| 1 0.2 0.00581395 1.47112e-11 ||| 0-4 ||| 1 172 1 ||| |||
- ||| first sight but coquettish and a flapper ||| 1 1 0.00581395 5.27226e-18 ||| 0-0 ||| 1 172 1 ||| |||
- ||| first sight but coquettish and a ||| 1 1 0.00581395 5.37218e-15 ||| 0-0 ||| 1 172 1 ||| |||
- ||| first sight but coquettish and ||| 1 1 0.00581395 1.71071e-13 ||| 0-0 ||| 1 172 1 ||| |||
- ||| first sight but coquettish ||| 1 1 0.00581395 1.16214e-11 ||| 0-0 ||| 1 172 1 ||| |||
- ||| first sight but ||| 1 1 0.00581395 1.18417e-08 ||| 0-0 ||| 1 172 1 ||| |||
- ||| first sight ||| 1 1 0.00581395 4.02217e-06 ||| 0-0 ||| 1 172 1 ||| |||
- ||| first ||| 1 1 0.00581395 0.0040984 ||| 0-0 ||| 1 172 1 ||| |||
- ||| intestines , liver , Kidney , etc ||| 1 0.0416667 0.00581395 5.62371e-18 ||| 0-5 ||| 1 172 1 ||| |||
- ||| intestines , liver , Kidney , ||| 1 0.0416667 0.00581395 1.91016e-15 ||| 0-5 ||| 1 172 1 ||| |||
- ||| lazy and always wants to ||| 1 0.2 0.00581395 5.70221e-12 ||| 0-2 ||| 1 172 1 ||| |||
- ||| lazy and always wants ||| 1 0.2 0.00581395 1.16211e-10 ||| 0-2 ||| 1 172 1 ||| |||
- ||| lazy and always ||| 1 0.2 0.00581395 1.18414e-07 ||| 0-2 ||| 1 172 1 ||| |||
- ||| lie down ; lazy and always wants ||| 1 0.2 0.00581395 1.4169e-17 ||| 0-5 ||| 1 172 1 ||| |||
- ||| lie down ; lazy and always ||| 1 0.2 0.00581395 1.44376e-14 ||| 0-5 ||| 1 172 1 ||| |||
- ||| liver , Kidney , etc . ||| 1 0.0416667 0.00581395 8.59543e-15 ||| 0-3 ||| 1 172 1 ||| |||
- ||| liver , Kidney , etc ||| 1 0.0416667 0.00581395 3.64947e-13 ||| 0-3 ||| 1 172 1 ||| |||
- ||| liver , Kidney , ||| 1 0.0416667 0.00581395 1.23959e-10 ||| 0-3 ||| 1 172 1 ||| |||
- ||| man , usually referring ||| 1 0.0909091 0.00581395 2.60292e-09 ||| 0-2 ||| 1 172 1 ||| |||
- ||| man , usually ||| 1 0.0909091 0.00581395 4.42065e-07 ||| 0-2 ||| 1 172 1 ||| |||
- ||| married to ; ||| 0.5 0.169872 0.00581395 1.04599e-05 ||| 0-2 ||| 2 172 1 ||| |||
- ||| miserable , a word often used ||| 1 0.030303 0.00581395 5.72997e-15 ||| 0-2 ||| 1 172 1 ||| |||
- ||| miserable , a word often ||| 1 0.030303 0.00581395 1.45972e-12 ||| 0-2 ||| 1 172 1 ||| |||
- ||| miserable , a word ||| 1 0.030303 0.00581395 7.43728e-10 ||| 0-2 ||| 1 172 1 ||| |||
- ||| miserable , a ||| 1 0.030303 0.00581395 2.52617e-07 ||| 0-2 ||| 1 172 1 ||| |||
- ||| much worth given to somebody to please ||| 1 1 0.00581395 1.09828e-16 ||| 0-1 ||| 1 172 1 ||| |||
- ||| much worth given to somebody to ||| 1 1 0.00581395 5.59575e-14 ||| 0-1 ||| 1 172 1 ||| |||
- ||| much worth given to somebody ||| 1 1 0.00581395 1.14041e-12 ||| 0-1 ||| 1 172 1 ||| |||
- ||| much worth given to ||| 1 1 0.00581395 1.16203e-09 ||| 0-1 ||| 1 172 1 ||| |||
- ||| much worth given ||| 1 1 0.00581395 2.36821e-08 ||| 0-1 ||| 1 172 1 ||| |||
- ||| much worth ||| 1 1 0.00581395 8.04393e-06 ||| 0-1 ||| 1 172 1 ||| |||
- ||| newcomer ; ||| 0.5 0.584936 0.00581395 0.000890226 ||| 0-0 0-1 ||| 2 172 1 ||| |||
- ||| not much worth given to somebody to ||| 1 1 0.00581395 8.23711e-16 ||| 0-2 ||| 1 172 1 ||| |||
- ||| not much worth given to somebody ||| 1 1 0.00581395 1.67872e-14 ||| 0-2 ||| 1 172 1 ||| |||
- ||| not much worth given to ||| 1 1 0.00581395 1.71054e-11 ||| 0-2 ||| 1 172 1 ||| |||
- ||| not much worth given ||| 1 1 0.00581395 3.48608e-10 ||| 0-2 ||| 1 172 1 ||| |||
- ||| not much worth ||| 1 1 0.00581395 1.18409e-07 ||| 0-2 ||| 1 172 1 ||| |||
- ||| of not much worth given to somebody ||| 1 1 0.00581395 5.27175e-16 ||| 0-3 ||| 1 172 1 ||| |||
- ||| of not much worth given to ||| 1 1 0.00581395 5.37166e-13 ||| 0-3 ||| 1 172 1 ||| |||
- ||| of not much worth given ||| 1 1 0.00581395 1.09474e-11 ||| 0-3 ||| 1 172 1 ||| |||
- ||| of not much worth ||| 1 1 0.00581395 3.71844e-09 ||| 0-3 ||| 1 172 1 ||| |||
- ||| of the hand ) ||| 1 0.0176991 0.00581395 8.18049e-09 ||| 0-0 ||| 1 172 1 ||| |||
- ||| of the hand ||| 1 0.0176991 0.00581395 5.20994e-07 ||| 0-0 ||| 1 172 1 ||| |||
- ||| of the ||| 1 0.0176991 0.00581395 0.000265448 ||| 0-0 ||| 1 172 1 ||| |||
- ||| of ||| 0.25 0.0176991 0.00581395 0.0081967 ||| 0-0 ||| 4 172 1 ||| |||
- ||| others ; the cause of ||| 1 0.169872 0.00581395 3.82938e-09 ||| 0-1 ||| 1 172 1 ||| |||
- ||| others ; the cause ||| 1 0.169872 0.00581395 1.21942e-07 ||| 0-1 ||| 1 172 1 ||| |||
- ||| others ; the ||| 1 0.169872 0.00581395 4.14191e-05 ||| 0-1 ||| 1 172 1 ||| |||
- ||| others ; ||| 1 0.169872 0.00581395 0.00127897 ||| 0-1 ||| 1 172 1 ||| |||
- ||| particular way of work ||| 1 0.5 0.00581395 3.71868e-10 ||| 0-0 ||| 1 172 1 ||| |||
- ||| particular way of ||| 1 0.5 0.00581395 3.78915e-07 ||| 0-0 ||| 1 172 1 ||| |||
- ||| particular way ||| 1 0.5 0.00581395 1.20661e-05 ||| 0-0 ||| 1 172 1 ||| |||
- ||| particular ||| 1 0.5 0.00581395 0.0040984 ||| 0-0 ||| 1 172 1 ||| |||
- ||| poor ; ||| 0.166667 0.169872 0.00581395 0.000639497 ||| 0-1 ||| 6 172 1 ||| |||
- ||| poor man , usually referring ||| 1 0.0909091 0.00581395 7.66327e-12 ||| 0-3 ||| 1 172 1 ||| |||
- ||| poor man , usually ||| 1 0.0909091 0.00581395 1.30148e-09 ||| 0-3 ||| 1 172 1 ||| |||
- ||| seriousness ; ||| 1 0.584936 0.00581395 0.000890226 ||| 0-0 0-1 ||| 1 172 1 ||| |||
- ||| sleep ; ||| 0.5 0.334936 0.00581395 0.00178043 ||| 0-0 0-1 ||| 2 172 1 ||| |||
- ||| smooth ( referring to the skin ) ||| 1 1 0.00581395 5.21899e-15 ||| 0-0 ||| 1 172 1 ||| |||
- ||| smooth ( referring to the skin ||| 1 1 0.00581395 3.32384e-13 ||| 0-0 ||| 1 172 1 ||| |||
- ||| smooth ( referring to the ||| 1 1 0.00581395 3.38683e-10 ||| 0-0 ||| 1 172 1 ||| |||
- ||| smooth ( referring to ||| 1 1 0.00581395 1.04581e-08 ||| 0-0 ||| 1 172 1 ||| |||
- ||| smooth ( referring ||| 1 1 0.00581395 2.13137e-07 ||| 0-0 ||| 1 172 1 ||| |||
- ||| smooth ( ||| 1 1 0.00581395 3.61979e-05 ||| 0-0 ||| 1 172 1 ||| |||
- ||| smooth ||| 1 1 0.00581395 0.0040984 ||| 0-0 ||| 1 172 1 ||| |||
- ||| the use of the hand ) ||| 1 0.0176991 0.00581395 2.59995e-13 ||| 0-2 ||| 1 172 1 ||| |||
- ||| the use of the hand ||| 1 0.0176991 0.00581395 1.65584e-11 ||| 0-2 ||| 1 172 1 ||| |||
- ||| the use of the ||| 1 0.0176991 0.00581395 8.43655e-09 ||| 0-2 ||| 1 172 1 ||| |||
- ||| the use of ||| 1 0.0176991 0.00581395 2.6051e-07 ||| 0-2 ||| 1 172 1 ||| |||
- ||| to ; ||| 0.5 0.169872 0.00581395 0.0106581 ||| 0-1 ||| 2 172 1 ||| |||
- ||| to others ; the cause of ||| 1 0.169872 0.00581395 1.87899e-10 ||| 0-2 ||| 1 172 1 ||| |||
- ||| to others ; the cause ||| 1 0.169872 0.00581395 5.98342e-09 ||| 0-2 ||| 1 172 1 ||| |||
- ||| to others ; the ||| 1 0.169872 0.00581395 2.03234e-06 ||| 0-2 ||| 1 172 1 ||| |||
- ||| to others ; ||| 1 0.169872 0.00581395 6.27562e-05 ||| 0-2 ||| 1 172 1 ||| |||
- ||| to ||| 0.0625 0.0224719 0.0116279 0.0163934 ||| 0-0 ||| 32 172 2 ||| |||
- ||| use of the hand ) ||| 1 0.0176991 0.00581395 8.02834e-12 ||| 0-1 ||| 1 172 1 ||| |||
- ||| use of the hand ||| 1 0.0176991 0.00581395 5.11304e-10 ||| 0-1 ||| 1 172 1 ||| |||
- ||| use of the ||| 1 0.0176991 0.00581395 2.6051e-07 ||| 0-1 ||| 1 172 1 ||| |||
- ||| use of ||| 1 0.0176991 0.00581395 8.04424e-06 ||| 0-1 ||| 1 172 1 ||| |||
- ||| usually referring ||| 1 0.0909091 0.00581395 2.41318e-05 ||| 0-0 ||| 1 172 1 ||| |||
- ||| usually ||| 1 0.0909091 0.00581395 0.0040984 ||| 0-0 ||| 1 172 1 ||| |||
- ||| worth given to somebody to please the ||| 1 1 0.00581395 1.81217e-15 ||| 0-0 ||| 1 172 1 ||| |||
- ||| worth given to somebody to please ||| 1 1 0.00581395 5.59575e-14 ||| 0-0 ||| 1 172 1 ||| |||
- ||| worth given to somebody to ||| 1 1 0.00581395 2.85105e-11 ||| 0-0 ||| 1 172 1 ||| |||
- ||| worth given to somebody ||| 1 1 0.00581395 5.81043e-10 ||| 0-0 ||| 1 172 1 ||| |||
- ||| worth given to ||| 1 1 0.00581395 5.92056e-07 ||| 0-0 ||| 1 172 1 ||| |||
- ||| worth given ||| 1 1 0.00581395 1.20661e-05 ||| 0-0 ||| 1 172 1 ||| |||
- ||| worth ||| 1 1 0.00581395 0.0040984 ||| 0-0 ||| 1 172 1 ||| |||
Abo ang laman ng ulo ||| Weak - minded dull ||| 1 6.77294e-05 1 0.000969234 ||| 0-0 0-1 0-2 1-2 3-2 0-3 2-3 4-3 ||| 1 1 1 ||| |||
Abot - Dili ||| In a critical or serious condition ||| 1 0.00335319 1 5.01872e-05 ||| 0-0 0-1 0-2 1-2 2-2 0-3 0-4 0-5 ||| 1 1 1 ||| |||
Aha ||| Will ||| 0.5 0.2 1 1 ||| 0-0 ||| 2 1 1 ||| |||
Ahas - Bahay ||| One who always stay in the house ||| 1 0.00696231 1 2.96395e-07 ||| 2-0 2-1 1-2 2-2 0-3 2-3 2-4 2-5 2-6 ||| 1 1 1 ||| |||
Ahas na tulog ||| Slowfoot , habitually sluggish ||| 1 0.0518055 1 0.00071129 ||| 0-0 0-1 0-2 1-2 0-3 2-3 ||| 1 1 1 ||| |||
Ahas sa Damo ||| Treacherous ||| 0.5 0.00462963 1 0.391322 ||| 0-0 1-0 2-0 ||| 2 1 1 ||| |||
Alagad ||| People charged ||| 1 0.666667 1 0.25 ||| 0-0 0-1 ||| 1 1 1 ||| |||
Alas Singko ||| Drunk ||| 1 0.111111 1 1 ||| 0-0 1-0 ||| 1 1 1 ||| |||
Alimuon ||| Rumor , gossip ||| 1 0.451389 1 0.037037 ||| 0-0 0-1 0-2 ||| 1 1 1 ||| |||
Alisin sa isip ||| To forget ||| 0.333333 0.00230128 1 0.107816 ||| 0-0 0-1 1-1 2-1 ||| 3 1 1 ||| |||
Alog na ang baba ||| Old Already ||| 1 0.00115741 1 0.189837 ||| 0-0 0-1 1-1 2-1 3-1 ||| 1 1 1 ||| |||
Alsa balutan ||| Changeable as to residence ||| 1 0.191407 1 0.0048 ||| 1-0 1-1 1-2 0-3 1-3 ||| 1 1 1 ||| |||
Amoy - kambing ||| Repellent odor of the armpit ||| 1 0.0522322 1 0.000301123 ||| 0-0 0-1 1-1 2-1 0-2 0-3 0-4 ||| 1 1 1 ||| |||
Amoy - tsiko ||| Drunk , intoxicated ||| 1 0.025463 1 0.0186703 ||| 2-0 2-1 0-2 1-2 2-2 ||| 1 1 1 ||| |||
Ampalayang - Ampalaya ||| Stingy , miserly ||| 1 0.00636574 1 0.0495345 ||| 0-0 0-1 0-2 1-2 2-2 ||| 1 1 1 ||| |||
Ampaw ||| Weak , weak - kneed ||| 1 0.257777 1 0.00032 ||| 0-0 0-1 0-2 0-3 0-4 ||| 1 1 1 ||| |||
Anak - Pawis ||| , usually referring to a laborer ||| 1 0.000257298 0.333333 4.21011e-08 ||| 1-1 2-3 0-4 0-5 ||| 1 3 1 ||| |||
Anak - Pawis ||| man , usually referring to a laborer ||| 1 0.000257298 0.333333 2.89214e-10 ||| 1-2 2-4 0-5 0-6 ||| 1 3 1 ||| |||
Anak - Pawis ||| usually referring to a laborer ||| 1 0.000257298 0.333333 2.68131e-06 ||| 1-0 2-2 0-3 0-4 ||| 1 3 1 ||| |||
Anak sa labas ||| A bastard , an illegitimate child ||| 0.5 0.00053489 1 1.11861e-05 ||| 2-0 1-1 2-1 2-2 2-3 2-4 2-5 ||| 2 1 1 ||| |||
Anak ||| a laborer ||| 1 0.503788 1 0.111111 ||| 0-0 0-1 ||| 1 1 1 ||| |||
Anay ||| Traitor ; smallpox ||| 1 0.667735 1 0.037037 ||| 0-0 0-1 0-2 ||| 1 1 1 ||| |||
Anghel ng tahanan ||| Small children ||| 1 0.0740741 1 0.125887 ||| 0-0 0-1 1-1 2-1 ||| 1 1 1 ||| |||
Apa ||| Brittle , weak ||| 1 0.377315 1 0.037037 ||| 0-0 0-1 0-2 ||| 1 1 1 ||| |||
Asal - hudas ||| Treacherous ||| 0.5 0.00462963 1 0.390255 ||| 0-0 1-0 2-0 ||| 2 1 1 ||| |||
Asal ||| admired and loved by all ||| 1 0.439551 1 0.000128601 ||| 0-0 0-1 0-2 0-3 0-4 ||| 1 1 1 ||| |||
Babae ||| Not the real wife ; a concubine ||| 1 0.219387 1 1.21426e-06 ||| 0-0 0-1 0-2 0-3 0-4 0-5 0-6 ||| 1 1 1 ||| |||
Babaha ng dugo ||| There will be bloodshed ||| 0.5 0.000439682 1 0.00199468 ||| 0-0 0-1 1-1 0-2 0-3 ||| 2 1 1 ||| |||
Babaha ng ||| There will be bloodshed ||| 0.5 0.0707885 1 0.00199468 ||| 0-0 0-1 1-1 0-2 0-3 ||| 2 1 1 ||| |||
Baboy na Baboy ||| Dirty , filthy ||| 1 0.125 1 0.0211268 ||| 0-0 0-1 0-2 1-2 2-2 ||| 1 1 1 ||| |||
Bagong - Ahon ||| A newcomer ; has just arrived ||| 0.5 0.00119475 1 3.47745e-06 ||| 2-0 1-1 1-2 2-3 2-4 2-5 ||| 2 1 1 ||| |||
Bagong - Tao ||| Young bachelor ||| 1 0.0277778 1 0.0204098 ||| 0-0 1-0 0-1 2-1 ||| 1 1 1 ||| |||
Bagong - ||| newcomer ; ||| 0.5 0.00363315 1 0.000890226 ||| 1-0 1-1 ||| 2 1 1 ||| |||
Bagong Bakal ||| A new pair of shoes ||| 1 0.177423 1 0.000141461 ||| 1-0 1-1 1-2 1-3 0-4 1-4 ||| 1 1 1 ||| |||
Bagong Daigdig ||| New life ; new way of life ||| 1 0.0670132 1 2.34164e-06 ||| 1-0 1-1 1-2 0-3 1-3 1-4 1-5 1-6 ||| 1 1 1 ||| |||
Bagyo ||| Very boastful ||| 1 0.107143 1 0.25 ||| 0-0 0-1 ||| 1 1 1 ||| |||
Bahag ang buntot ||| Afraid ||| 1 0.015625 1 0.445981 ||| 0-0 1-0 2-0 ||| 1 1 1 ||| |||
Bahay na Bato ||| Prison ||| 1 0.037037 1 0.113028 ||| 0-0 1-0 2-0 ||| 1 1 1 ||| |||
Bahid - Dungis ||| Dirt ; stain ( usually used in ||| 1 0.00761217 0.25 4.34643e-09 ||| 0-0 1-0 1-1 0-2 2-3 ||| 1 4 1 ||| |||
Bahid - Dungis ||| Dirt ; stain ( usually used ||| 1 0.00761217 0.25 3.16357e-07 ||| 0-0 1-0 1-1 0-2 2-3 ||| 1 4 1 ||| |||
Bahid - Dungis ||| Dirt ; stain ( usually ||| 1 0.00761217 0.25 8.05924e-05 ||| 0-0 1-0 1-1 0-2 2-3 ||| 1 4 1 ||| |||
Bahid - Dungis ||| Dirt ; stain ( ||| 1 0.00761217 0.25 0.0273742 ||| 0-0 1-0 1-1 0-2 2-3 ||| 1 4 1 ||| |||
Bahid - ||| Dirt ; stain ||| 1 0.251202 1 0.0273742 ||| 0-0 1-0 1-1 0-2 ||| 1 1 1 ||| |||
Bakal na kalooban ||| Brave , courageous ||| 1 0.016059 1 0.00897398 ||| 2-0 2-1 0-2 1-2 2-2 ||| 1 1 1 ||| |||
Bakbakan ||| A fight ; a serious quarrel ||| 1 0.126655 1 2.14335e-05 ||| 0-0 0-1 0-2 0-3 0-4 0-5 ||| 1 1 1 ||| |||
Bakulaw ||| Referring to a man with long hair ||| 1 0.0710175 1 1.21426e-06 ||| 0-0 0-1 0-2 0-3 0-4 0-5 0-6 ||| 1 1 1 ||| |||
Balat - kalabaw ||| Thick - skinned ; shameless ||| 1 0.0799725 1 0.00107104 ||| 0-0 1-1 2-1 2-2 1-3 2-4 ||| 1 1 1 ||| |||
Balat - sibuyas ||| Thin and smooth ( referring to the ||| 1 0.0208333 0.2 1.69342e-10 ||| 0-0 2-1 1-2 ||| 1 5 1 ||| |||
Balat - sibuyas ||| Thin and smooth ( referring to ||| 1 0.0208333 0.2 5.22907e-09 ||| 0-0 2-1 1-2 ||| 1 5 1 ||| |||
Balat - sibuyas ||| Thin and smooth ( referring ||| 1 0.0208333 0.2 1.06568e-07 ||| 0-0 2-1 1-2 ||| 1 5 1 ||| |||
Balat - sibuyas ||| Thin and smooth ( ||| 1 0.0208333 0.2 1.80989e-05 ||| 0-0 2-1 1-2 ||| 1 5 1 ||| |||
Balat - sibuyas ||| Thin and smooth ||| 1 0.0208333 0.2 0.0020492 ||| 0-0 2-1 1-2 ||| 1 5 1 ||| |||
Balat ||| Thick ||| 1 1 0.5 0.5 ||| 0-0 ||| 1 2 1 ||| |||
Balat ||| Thin ||| 1 1 0.5 0.5 ||| 0-0 ||| 1 2 1 ||| |||
Baligtad ang bulsa ||| Lost in gambling ||| 1 0.010706 1 0.0162201 ||| 0-0 1-0 2-0 0-1 0-2 ||| 1 1 1 ||| |||
Balitang kutsero ||| False news ; unreliable information ||| 1 0.344351 1 0.00292969 ||| 0-0 1-1 1-2 0-3 1-3 1-4 ||| 1 1 1 ||| |||
Balot sa puti ||| Heavily in debt ||| 1 0.0202675 1 0.0167312 ||| 0-0 1-0 2-0 0-1 0-2 ||| 1 1 1 ||| |||
Bals - Wals ||| Worthless ; of no value . ||| 1 0.0136138 1 0.000139491 ||| 0-0 1-0 2-0 1-1 0-2 0-3 0-4 0-5 ||| 1 1 1 ||| |||
Bantay - Tumana ||| does not know the losses under his ||| 1 0.0178058 0.333333 1.69305e-07 ||| 2-0 2-1 2-2 2-3 0-4 1-4 2-4 2-5 ||| 1 3 1 ||| |||
Bantay - Tumana ||| does not know the losses under ||| 1 0.0178058 0.333333 2.87537e-05 ||| 2-0 2-1 2-2 2-3 0-4 1-4 2-4 2-5 ||| 1 3 1 ||| |||
Bantay - Tumana ||| who does not know the losses under ||| 1 0.0178058 0.333333 3.95047e-07 ||| 2-1 2-2 2-3 2-4 0-5 1-5 2-5 2-6 ||| 1 3 1 ||| |||
Baon sa utang ||| Too many debts ||| 1 0.0740741 1 0.0113544 ||| 0-0 0-1 1-1 0-2 2-2 ||| 1 1 1 ||| |||
Basa ang papel ||| Bad record ||| 1 0.00694445 1 0.167435 ||| 0-0 0-1 1-1 2-1 ||| 1 1 1 ||| |||
Basag - Ulo ||| A quarrel ||| 1 0.00161471 1 0.250683 ||| 0-0 0-1 1-1 2-1 ||| 1 1 1 ||| |||
Basang - sisiw ||| In a pitiful state ; abandoned ||| 1 0.0278832 1 6.22598e-05 ||| 2-0 2-1 2-2 2-3 1-4 0-5 1-5 2-5 ||| 1 1 1 ||| |||
Basang ||| unreasonably persistent ||| 1 1 1 0.111111 ||| 0-0 0-1 ||| 1 1 1 ||| |||
Bata ||| Sweetheart ; employee ||| 1 0.667735 1 0.037037 ||| 0-0 0-1 0-2 ||| 1 1 1 ||| |||
Batak ang katawan ||| Sturdy ; used to working ||| 1 0.0137763 1 0.000137195 ||| 0-0 1-0 2-0 0-1 0-2 0-3 0-4 ||| 1 1 1 ||| |||
Batakin ang katawan ||| To accustom the body to working ||| 1 0.0061878 1 9.5982e-06 ||| 0-0 0-1 0-2 0-3 0-4 0-5 1-5 2-5 ||| 1 1 1 ||| |||
Bato ang katawan ||| Lazy ||| 0.5 0.00462963 1 0.0857466 ||| 0-0 1-0 2-0 ||| 2 1 1 ||| |||
Bato sa lansangan ||| A useless person ||| 1 0.00192308 1 0.00720843 ||| 0-0 0-1 1-1 2-1 0-2 ||| 1 1 1 ||| |||
Batong - Buhay ||| Strong - willed ; brave ||| 1 0.0237927 1 0.000195537 ||| 0-0 0-1 0-2 1-3 0-4 2-4 ||| 1 1 1 ||| |||
Bigay - Kaya ||| Dowry ||| 1 0.037037 1 0.390255 ||| 0-0 1-0 2-0 ||| 1 1 1 ||| |||
Bigay - Loob ||| Something given or shown just to please ||| 1 0.00886241 0.333333 2.22066e-08 ||| 0-0 1-0 0-1 2-1 0-2 0-3 0-4 ||| 1 3 1 ||| |||
Bigay - Loob ||| Something given or shown just to ||| 1 0.00886241 0.333333 1.13143e-05 ||| 0-0 1-0 0-1 2-1 0-2 0-3 0-4 ||| 1 3 1 ||| |||
Bigay - Loob ||| Something given or shown just ||| 1 0.00886241 0.333333 0.000230586 ||| 0-0 1-0 0-1 2-1 0-2 0-3 0-4 ||| 1 3 1 ||| |||
Bilasa na ||| Very sleepy ||| 1 0.063492 1 0.128521 ||| 0-0 0-1 1-1 ||| 1 1 1 ||| |||
Bilugin ang ulo ||| To fool or make fun of someone ||| 1 0.0234962 1 4.08728e-07 ||| 0-0 0-1 0-2 0-3 2-3 0-4 1-4 0-5 0-6 ||| 1 1 1 ||| |||
Binabata ||| Being favored ||| 1 1 1 0.25 ||| 0-0 0-1 ||| 1 1 1 ||| |||
Binawian ng buhay ||| Died ||| 0.166667 0.000407083 1 0.356487 ||| 0-0 1-0 2-0 ||| 6 1 1 ||| |||
Binigyang - Bahala ||| Entrusted ||| 1 0.037037 1 0.668033 ||| 0-0 1-0 2-0 ||| 1 1 1 ||| |||
Binili ang tinda ||| Believed everything said by someone ||| 1 0.0211996 1 0.000642458 ||| 0-0 0-1 1-1 2-1 0-2 0-3 0-4 ||| 1 1 1 ||| |||
Binitay ||| Cheated ||| 0.5 0.25 1 1 ||| 0-0 ||| 2 1 1 ||| |||
Binithay ||| Searched intensively ; studied carefully ||| 1 0.667308 1 0.00032 ||| 0-0 0-1 0-2 0-3 0-4 ||| 1 1 1 ||| |||
Biniyak na bunga ||| Similar ; alike ||| 1 0.0495014 1 0.0181583 ||| 0-0 0-1 0-2 1-2 2-2 ||| 1 1 1 ||| |||
Binuksan ang Dibdib ||| Revealed one &apos;s feelings ||| 1 0.00580423 1 0.00653442 ||| 0-0 0-1 0-2 0-3 1-3 2-3 ||| 1 1 1 ||| |||
Binuo sa isip ||| Made a personal decision ||| 1 0.0785985 1 0.00150761 ||| 0-0 0-1 0-2 1-2 0-3 2-3 ||| 1 1 1 ||| |||
Biro ng tadhana ||| Misfortune ; mishap ||| 1 0.0122196 1 0.0495797 ||| 0-0 0-1 0-2 1-2 2-2 ||| 1 1 1 ||| |||
Bisig ng batas ||| The authorities ||| 1 0.0208333 1 0.167553 ||| 2-0 0-1 1-1 2-1 ||| 1 1 1 ||| |||
Bisig ||| Laborer ||| 1 1 1 0.5 ||| 0-0 ||| 1 1 1 ||| |||
Bodabil lamang ||| Connivance only ||| 1 0.152778 1 0.222222 ||| 0-0 1-0 1-1 ||| 1 1 1 ||| |||
Bombo ||| A pregnant mother ||| 1 0.136081 1 0.037037 ||| 0-0 0-1 0-2 ||| 1 1 1 ||| |||
Boses ipis ||| A very soft voice ||| 1 0.0829928 1 0.0030692 ||| 0-0 0-1 0-2 0-3 1-3 ||| 1 1 1 ||| |||
Bubuyog ||| Name commonly given to young bachelors ||| 1 0.459931 1 2.14335e-05 ||| 0-0 0-1 0-2 0-3 0-4 0-5 ||| 1 1 1 ||| |||
Bugok ||| Weak minded ; dull ||| 1 0.10348 1 0.00390625 ||| 0-0 0-1 0-2 0-3 ||| 1 1 1 ||| |||
Bugtong na anak ||| The only child ||| 0.5 0.00289352 1 0.0499044 ||| 0-0 0-1 0-2 1-2 2-2 ||| 2 1 1 ||| |||
Buhatin ang sariling bangko ||| To praise one &apos;s self ||| 0.333333 2.00844e-06 1 0.000167373 ||| 0-0 0-1 0-2 0-3 0-4 1-4 ||| 3 1 1 ||| |||
Buhatin ang sariling ||| To praise one &apos;s self ||| 0.333333 0.000323357 1 0.000167373 ||| 0-0 0-1 0-2 0-3 0-4 1-4 ||| 3 1 1 ||| |||
Buhatin ang ||| To praise one &apos;s self ||| 0.333333 0.0520604 1 0.000167373 ||| 0-0 0-1 0-2 0-3 0-4 1-4 ||| 3 1 1 ||| |||
Buhay - alamang ||| Life characterized by uncertainty ||| 0.5 0.00322505 1 0.00198514 ||| 2-0 1-1 2-1 2-2 2-3 ||| 2 1 1 ||| |||
Buhay - manok ||| Life in constant danger ||| 0.5 0.00144497 1 0.000226169 ||| 2-0 2-1 1-2 2-2 2-3 ||| 2 1 1 ||| |||
Buhay ang loob ||| Courageous ; brave ||| 1 0.0307158 1 0.000179094 ||| 1-0 1-1 0-2 2-2 ||| 1 1 1 ||| |||
Buhay na buhay ||| Easily seen ; stays on permanently ||| 1 0.0150214 1 9.21745e-07 ||| 0-0 0-1 1-2 0-3 0-4 0-5 1-5 2-5 ||| 1 1 1 ||| |||
Bukal sa isip ||| By nature ; inborn ||| 1 0.0221855 1 0.00199114 ||| 0-0 0-1 0-2 0-3 1-3 2-3 ||| 1 1 1 ||| |||
Bukang - bibig ||| Ordinary or common expression ||| 1 0.109879 1 0.00124071 ||| 0-0 0-1 0-2 1-2 0-3 2-3 ||| 1 1 1 ||| |||
Bukas ang palad ||| Charitable ; generous ||| 1 0.0487892 1 0.0015253 ||| 0-0 1-1 0-2 1-2 2-2 ||| 1 1 1 ||| |||
Bukas na aklat ||| Known to all ||| 1 0.00368539 1 0.017497 ||| 2-0 2-1 0-2 1-2 2-2 ||| 1 1 1 ||| |||
Bukas na dibdib ||| Accomodating ; sympathetic ||| 1 0.130609 1 0.000323787 ||| 0-0 1-1 1-2 2-2 ||| 1 1 1 ||| |||
Bukas ng mukha ||| Appearance of the face ||| 1 0.0067344 1 0.000161436 ||| 0-0 0-1 0-2 0-3 1-3 2-3 ||| 1 1 1 ||| |||
Bukas ||| Accomodating ||| 1 1 1 0.125 ||| 0-0 ||| 1 1 1 ||| |||
Bulaklak ng dila ||| Superficial expressions ; flattering words ||| 1 0.0484074 1 6.59369e-05 ||| 0-0 1-0 0-1 2-1 1-2 0-3 0-4 ||| 1 1 1 ||| |||
Bulaklak ng lipunan ||| Socialite ||| 1 0.037037 1 0.401773 ||| 0-0 1-0 2-0 ||| 1 1 1 ||| |||
Bulang - gugo ||| Ready to spend especially for friends ||| 0.5 0.00102301 1 1.09803e-05 ||| 0-0 0-1 0-2 1-2 0-3 0-4 0-5 ||| 2 1 1 ||| |||
Bulang - ||| Ready to spend especially for friends ||| 0.5 0.164704 1 1.09803e-05 ||| 0-0 0-1 0-2 1-2 0-3 0-4 0-5 ||| 2 1 1 ||| |||
Bulok ang ||| easily ||| 0.333333 0.0347222 1 0.511521 ||| 0-0 1-0 ||| 3 1 1 ||| |||
Bumangga sa pader ||| Fought against the strong and powerful ||| 1 0.0406623 1 2.88909e-05 ||| 0-0 0-1 0-2 0-3 0-4 0-5 1-5 2-5 ||| 1 1 1 ||| |||
Bumgsak ||| Failed in an examination ||| 1 0.267361 1 0.00390625 ||| 0-0 0-1 0-2 0-3 ||| 1 1 1 ||| |||
Bumibigat ang karamdaman ||| Worsening physical condition ; the sickness is ||| 1 0.00137997 0.5 1.84425e-07 ||| 0-0 0-1 0-2 2-3 1-5 ||| 1 2 1 ||| |||
Bumibigat ang karamdaman ||| Worsening physical condition ; the sickness ||| 1 0.00137997 0.5 1.10547e-05 ||| 0-0 0-1 0-2 2-3 1-5 ||| 1 2 1 ||| |||
Bumibigat ||| Worsening physical condition ||| 1 0.430556 1 0.037037 ||| 0-0 0-1 0-2 ||| 1 1 1 ||| |||
Bundok na buhangin ||| Success of short duration ||| 1 0.0222737 1 0.00267752 ||| 0-0 0-1 0-2 0-3 1-3 2-3 ||| 1 1 1 ||| |||
Bunga &apos;t nganga ||| All words ||| 1 0.0055 1 0.108466 ||| 0-0 0-1 1-1 2-1 ||| 1 1 1 ||| |||
Bunga ng Pag - ibig ||| Child ||| 0.5 3.38702e-05 1 0.309614 ||| 0-0 1-0 2-0 3-0 4-0 ||| 2 1 1 ||| |||
Bungang - tulog ||| Dream ||| 1 0.037037 1 0.179144 ||| 0-0 1-0 2-0 ||| 1 1 1 ||| |||
Bungang araw ||| Prickly heat ||| 1 0.375 1 0.111111 ||| 0-0 0-1 1-1 ||| 1 1 1 ||| |||
Buntong - Hininga ||| Audible breathing as in grief ; a ||| 1 0.0463096 1 4.07838e-05 ||| 0-0 0-1 1-1 2-1 2-2 2-3 2-4 1-5 2-6 ||| 1 1 1 ||| |||
Buntot ||| Always following ||| 1 0.541667 1 0.25 ||| 0-0 0-1 ||| 1 1 1 ||| |||
Buo ang loob ||| Same as &quot; malakas ang loob &quot; ||| 1 0.0268598 1 2.73014e-06 ||| 0-0 0-1 0-2 0-3 0-4 1-4 0-5 2-5 0-6 ||| 1 1 1 ||| |||
Butas ang bulsa ||| Penniless ; having no money ||| 1 0.0115501 1 0.000415827 ||| 0-0 2-0 1-1 0-2 0-3 0-4 ||| 1 1 1 ||| |||
Buteteng laot ||| A bellied person ||| 1 0.0901709 1 0.0740741 ||| 0-0 0-1 1-1 0-2 ||| 1 1 1 ||| |||
Butot &apos;t balat ||| Skinny ||| 1 0.037037 1 0.464286 ||| 0-0 1-0 2-0 ||| 1 1 1 ||| |||
Buwaya sa katihan ||| Usurers ||| 1 0.037037 1 0.502433 ||| 0-0 1-0 2-0 ||| 1 1 1 ||| |||
Buwaya ||| Greedy ||| 1 0.333333 1 0.5 ||| 0-0 ||| 1 1 1 ||| |||
Buwayang - lubog ||| Pretending to be good but secretly harming ||| 1 0.0111786 1 7.82673e-05 ||| 0-0 0-1 0-2 1-3 2-3 2-4 2-5 2-6 ||| 1 1 1 ||| |||
Buwayang ||| Pretending to be ||| 1 0.0959587 1 0.037037 ||| 0-0 0-1 0-2 ||| 1 1 1 ||| |||
Daanan ||| To fetch someone ||| 1 0.349624 1 0.037037 ||| 0-0 0-1 0-2 ||| 1 1 1 ||| |||
Daanin sa tigas ng buto ||| To take by force ||| 1 4.16081e-05 1 0.00422977 ||| 0-0 0-1 0-2 0-3 1-3 2-3 3-3 4-3 ||| 1 1 1 ||| |||
Dagok ng kapalaran ||| bad luck ; misfortune ||| 1 0.00241423 1 0.00653812 ||| 0-0 0-1 0-2 0-3 1-3 2-3 ||| 1 1 1 ||| |||
Daniel - kanin ||| Undiscriminating ; not delicate in taste ||| 0.5 0.000738362 1 3.54663e-05 ||| 0-0 1-1 0-2 0-3 1-3 0-4 0-5 ||| 2 1 1 ||| |||
Daniel - ||| Undiscriminating ; not delicate in taste ||| 0.5 0.118876 1 3.54663e-05 ||| 0-0 1-1 0-2 0-3 1-3 0-4 0-5 ||| 2 1 1 ||| |||
Di - kabagang ||| Not in harmony ||| 0.5 0.00238632 1 0.0194293 ||| 1-0 2-0 2-1 2-2 ||| 2 1 1 ||| |||
Di - maabot - sabi ||| find words to expressl cannot be described ||| 1 0.000235848 1 2.13106e-07 ||| 4-0 4-1 3-2 0-3 1-3 2-3 4-3 4-4 3-5 4-5 4-6 ||| 1 1 1 ||| |||
Di - maabot ||| area ||| 1 0.037037 1 0.201366 ||| 0-0 1-0 2-0 ||| 1 1 1 ||| |||
Di - mag - amoy - beha ||| ; belonging to a very poor family ||| 0.5 1.14195e-09 1 3.29709e-05 ||| 1-0 4-1 5-2 4-3 4-4 6-5 6-6 ||| 2 1 1 ||| |||
Di - mag - amoy - ||| ; belonging to a very ||| 0.5 6.52541e-09 0.333333 0.000131884 ||| 1-0 4-1 5-2 4-3 4-4 ||| 2 3 1 ||| |||
Di - mag - amoy - ||| Very poor ; belonging to a very ||| 0.5 6.52541e-09 0.333333 1.52415e-09 ||| 1-2 4-3 5-4 4-5 4-6 ||| 2 3 1 ||| |||
Di - mag - amoy - ||| poor ; belonging to a very ||| 0.5 6.52541e-09 0.333333 3.88279e-07 ||| 1-1 4-2 5-3 4-4 4-5 ||| 2 3 1 ||| |||
Di - mag - ||| ; ||| 0.02 8.14094e-07 0.333333 0.217213 ||| 1-0 ||| 50 3 1 ||| |||
Di - mag - ||| Very poor ; ||| 0.166667 8.14094e-07 0.333333 2.51028e-06 ||| 1-2 ||| 6 3 1 ||| |||
Di - mag - ||| poor ; ||| 0.166667 8.14094e-07 0.333333 0.000639497 ||| 1-1 ||| 6 3 1 ||| |||
Di - mag ||| ; ||| 0.02 2.62138e-05 0.333333 0.217213 ||| 1-0 ||| 50 3 1 ||| |||
Di - mag ||| Very poor ; ||| 0.166667 2.62138e-05 0.333333 2.51028e-06 ||| 1-2 ||| 6 3 1 ||| |||
Di - mag ||| poor ; ||| 0.166667 2.62138e-05 0.333333 0.000639497 ||| 1-1 ||| 6 3 1 ||| |||
Di - makabasag pinggan ||| Very meek ; quiet and gentle ||| 1 0.00476262 0.5 1.00087e-06 ||| 2-1 2-2 2-3 2-4 0-5 1-5 2-5 3-5 ||| 1 2 1 ||| |||
Di - makabasag pinggan ||| meek ; quiet and gentle ||| 1 0.00476262 0.5 0.000254973 ||| 2-0 2-1 2-2 2-3 0-4 1-4 2-4 3-4 ||| 1 2 1 ||| |||
Di - maliparang - wak ||| Very wide ( tract of land ) ||| 0.5 0.000728534 0.333333 4.912e-08 ||| 2-0 1-1 2-1 3-1 4-2 4-3 4-4 ||| 2 3 1 ||| |||
Di - maliparang - wak ||| Very wide ( tract of land ||| 0.5 0.000728534 0.333333 3.12832e-06 ||| 2-0 1-1 2-1 3-1 4-2 4-3 4-4 ||| 2 3 1 ||| |||
Di - maliparang - wak ||| Very wide ( tract of ||| 0.5 0.000728534 0.333333 0.00318761 ||| 2-0 1-1 2-1 3-1 4-2 4-3 4-4 ||| 2 3 1 ||| |||
Di - maliparang - ||| Very wide ||| 0.5 0.00210325 1 0.0860656 ||| 2-0 1-1 2-1 3-1 ||| 2 1 1 ||| |||
Di - ||| ; ||| 0.02 0.00422041 0.333333 0.217213 ||| 1-0 ||| 50 3 1 ||| |||
Di - ||| Very poor ; ||| 0.166667 0.00422041 0.333333 2.51028e-06 ||| 1-2 ||| 6 3 1 ||| |||
Di - ||| poor ; ||| 0.166667 0.00422041 0.333333 0.000639497 ||| 1-1 ||| 6 3 1 ||| |||
Di nagtatanaw - tama ||| or met for a quite a time ||| 1 0.00072413 1 8.73076e-06 ||| 1-0 0-1 1-1 1-2 1-3 2-3 1-4 3-4 1-5 1-6 ||| 1 1 1 ||| |||
Dila ||| tongue ; result of an indiscriminate speech ||| 1 0.333333 0.142857 6.14587e-15 ||| 0-0 ||| 1 7 1 ||| |||
Dila ||| tongue ; result of an indiscriminate ||| 1 0.333333 0.142857 3.13134e-12 ||| 0-0 ||| 1 7 1 ||| |||
Dila ||| tongue ; result of an ||| 1 0.333333 0.142857 3.19068e-09 ||| 0-0 ||| 1 7 1 ||| |||
Dila ||| tongue ; result of ||| 1 0.333333 0.142857 6.50257e-07 ||| 0-0 ||| 1 7 1 ||| |||
Dila ||| tongue ; result ||| 1 0.333333 0.142857 2.07067e-05 ||| 0-0 ||| 1 7 1 ||| |||
Dila ||| tongue ; ||| 1 0.333333 0.142857 0.0210991 ||| 0-0 ||| 1 7 1 ||| |||
Dila ||| tongue ||| 1 0.333333 0.142857 0.5 ||| 0-0 ||| 1 7 1 ||| |||
Dilang ginto ||| Fulency ; eloquence ||| 1 0.250534 1 0.0390625 ||| 1-0 1-1 0-2 1-2 ||| 1 1 1 ||| |||
Dilat ang mata ||| Intelligent ||| 0.5 0.00137174 1 0.350021 ||| 0-0 1-0 2-0 ||| 2 1 1 ||| |||
Dinaan sa bibig ||| Quarelling using sharp tongue as weapon ||| 1 0.0560304 1 8.79699e-06 ||| 0-0 0-1 1-1 2-1 0-2 0-3 0-4 0-5 ||| 1 1 1 ||| |||
Dinapuan ng Karamdaman ||| ; fell ill ||| 1 0.000267092 0.333333 0.12633 ||| 2-0 0-1 1-1 0-2 ||| 1 3 1 ||| |||
Dinapuan ng Karamdaman ||| Became sick ; fell ill ||| 1 0.000267092 0.333333 1.21674e-07 ||| 2-2 0-3 1-3 0-4 ||| 1 3 1 ||| |||
Dinapuan ng Karamdaman ||| sick ; fell ill ||| 1 0.000267092 0.333333 0.00012398 ||| 2-1 0-2 1-2 0-3 ||| 1 3 1 ||| |||
Dinapuan ng ||| fell ill ||| 1 0.0833333 1 0.12633 ||| 0-0 1-0 0-1 ||| 1 1 1 ||| |||
Dugo ng kanyang dugo ||| Child ||| 0.5 0.000304831 1 0.393285 ||| 0-0 1-0 2-0 3-0 ||| 2 1 1 ||| |||
Dugong mahal ||| Royal blood ||| 1 1 1 0.666667 ||| 0-0 1-1 ||| 1 1 1 ||| |||
Dugong ||| Royal ||| 1 1 1 1 ||| 0-0 ||| 1 1 1 ||| |||
Dungis ||| ( usually used in the figurative sense ||| 1 0.030303 0.142857 4.95249e-15 ||| 0-0 ||| 1 7 1 ||| |||
Dungis ||| ( usually used in the figurative ||| 1 0.030303 0.142857 5.04635e-12 ||| 0-0 ||| 1 7 1 ||| |||
Dungis ||| ( usually used in the ||| 1 0.030303 0.142857 5.14199e-09 ||| 0-0 ||| 1 7 1 ||| |||
Dungis ||| ( usually used in ||| 1 0.030303 0.142857 1.58778e-07 ||| 0-0 ||| 1 7 1 ||| |||
Dungis ||| ( usually used ||| 1 0.030303 0.142857 1.15568e-05 ||| 0-0 ||| 1 7 1 ||| |||
Dungis ||| ( usually ||| 1 0.030303 0.142857 0.0029441 ||| 0-0 ||| 1 7 1 ||| |||
Dungis ||| ( ||| 0.333333 0.030303 0.142857 1 ||| 0-0 ||| 3 7 1 ||| |||
Dupong ||| A person with a dark complexion ||| 1 0.344906 1 2.14335e-05 ||| 0-0 0-1 0-2 0-3 0-4 0-5 ||| 1 1 1 ||| |||
Durugin ang puso ||| To inflict mental suffering to others ||| 1 0.018973 1 8.99077e-06 ||| 0-0 0-1 0-2 1-2 2-2 0-3 0-4 0-5 ||| 1 1 1 ||| |||
Gagapang na parang Aha ||| Will lead a misrable life ||| 1 9.41096e-06 0.333333 2.71295e-08 ||| 3-0 1-1 0-2 ||| 1 3 1 ||| |||
Gagapang na parang Aha ||| Will lead a misrable ||| 1 9.41096e-06 0.333333 1.38225e-05 ||| 3-0 1-1 0-2 ||| 1 3 1 ||| |||
Gagapang na parang Aha ||| Will lead a ||| 1 9.41096e-06 0.333333 0.0140845 ||| 3-0 1-1 0-2 ||| 1 3 1 ||| |||
Gagapang na parang ||| lead a misrable life ||| 0.5 4.70548e-05 0.333333 2.71295e-08 ||| 1-0 0-1 ||| 2 3 1 ||| |||
Gagapang na parang ||| lead a misrable ||| 0.5 4.70548e-05 0.333333 1.38225e-05 ||| 1-0 0-1 ||| 2 3 1 ||| |||
Gagapang na parang ||| lead a ||| 0.5 4.70548e-05 0.333333 0.0140845 ||| 1-0 0-1 ||| 2 3 1 ||| |||
Gagapang na ||| lead a misrable life ||| 0.5 0.0075758 0.333333 2.71295e-08 ||| 1-0 0-1 ||| 2 3 1 ||| |||
Gagapang na ||| lead a misrable ||| 0.5 0.0075758 0.333333 1.38225e-05 ||| 1-0 0-1 ||| 2 3 1 ||| |||
Gagapang na ||| lead a ||| 0.5 0.0075758 0.333333 0.0140845 ||| 1-0 0-1 ||| 2 3 1 ||| |||
Gagapang ||| a misrable life ||| 1 0.0075758 0.333333 1.92619e-06 ||| 0-0 ||| 1 3 1 ||| |||
Gagapang ||| a misrable ||| 1 0.0075758 0.333333 0.0009814 ||| 0-0 ||| 1 3 1 ||| |||
Gagapang ||| a ||| 0.2 0.0075758 0.333333 1 ||| 0-0 ||| 5 3 1 ||| |||
Ganggakalingkingan ||| Very samll when compared to another ||| 1 0.25054 1 2.14335e-05 ||| 0-0 0-1 0-2 0-3 0-4 0-5 ||| 1 1 1 ||| |||
Gasgas ang bulsa ||| Spend heavily ||| 1 0.0740741 1 0.100768 ||| 0-0 0-1 1-1 2-1 ||| 1 1 1 ||| |||
Gawin ang isda ||| Prepare the fish for cooking ||| 1 0.0358318 1 0.000642458 ||| 0-0 0-1 0-2 0-3 0-4 1-4 2-4 ||| 1 1 1 ||| |||
Ginintuang puso ||| Sympathetic ; kind - hearted ||| 1 0.01952 1 7.9139e-05 ||| 0-0 0-1 0-2 0-3 0-4 1-4 ||| 1 1 1 ||| |||
Ginintuang tinig ||| A beautiful voice ||| 1 0.038782 1 0.0277778 ||| 1-0 1-1 0-2 1-2 ||| 1 1 1 ||| |||
Gintong ||| A nice and appreciable character ||| 1 0.296132 1 0.00032 ||| 0-0 0-1 0-2 0-3 0-4 ||| 1 1 1 ||| |||
Guhit ng palad ||| Fate ; destiny ||| 1 0.0495014 1 0.0166579 ||| 0-0 0-1 0-2 1-2 2-2 ||| 1 1 1 ||| |||
HInahabol na ng gunting ||| already long ; needing a hair cut ||| 1 0.0013336 1 1.68834e-05 ||| 3-0 3-1 2-2 1-3 2-3 3-3 1-4 0-5 0-6 ||| 1 1 1 ||| |||
HInahabol ||| hair cut ||| 1 0.583333 1 0.25 ||| 0-0 0-1 ||| 1 1 1 ||| |||
Habi ng Dila ||| Product of careless tongue ; result of ||| 1 0.083825 0.25 1.2234e-08 ||| 0-0 1-0 0-1 0-2 2-3 ||| 1 4 1 ||| |||
Habi ng Dila ||| Product of careless tongue ; result ||| 1 0.083825 0.25 3.89575e-07 ||| 0-0 1-0 0-1 0-2 2-3 ||| 1 4 1 ||| |||
Habi ng Dila ||| Product of careless tongue ; ||| 1 0.083825 0.25 0.000396959 ||| 0-0 1-0 0-1 0-2 2-3 ||| 1 4 1 ||| |||
Habi ng Dila ||| Product of careless tongue ||| 1 0.083825 0.25 0.00940701 ||| 0-0 1-0 0-1 0-2 2-3 ||| 1 4 1 ||| |||
Habi ng ||| Product of careless ||| 1 0.251475 1 0.018814 ||| 0-0 1-0 0-1 0-2 ||| 1 1 1 ||| |||
Hagilapin ||| To exert ||| 1 0.173246 1 0.25 ||| 0-0 0-1 ||| 1 1 1 ||| |||
Hagisan ng tuwalya ||| Making the opponent surrender ||| 1 0.0428222 1 0.00653812 ||| 0-0 0-1 0-2 1-2 2-2 0-3 ||| 1 1 1 ||| |||
Haharap sa Dambana ||| To get married ||| 0.5 0.000742748 1 0.0170016 ||| 2-0 2-1 0-2 1-2 2-2 ||| 2 1 1 ||| |||
Haligi ng tahanan ||| The father ||| 1 0.00109567 1 0.126773 ||| 0-0 0-1 1-1 2-1 ||| 1 1 1 ||| |||
Hamog sa tag - araw ||| Relief for the poor ||| 0.25 3.0745e-08 1 0.00258041 ||| 0-0 0-1 0-2 1-2 0-3 ||| 4 1 1 ||| |||
Hamog sa tag - ||| Relief for the poor ||| 0.25 4.94992e-06 1 0.00258041 ||| 0-0 0-1 0-2 1-2 0-3 ||| 4 1 1 ||| |||
Hamog sa tag ||| Relief for the poor ||| 0.25 0.000159388 1 0.00258041 ||| 0-0 0-1 0-2 1-2 0-3 ||| 4 1 1 ||| |||
Hamog sa ||| Relief for the poor ||| 0.25 0.0256613 1 0.00258041 ||| 0-0 0-1 0-2 1-2 0-3 ||| 4 1 1 ||| |||
Hampas - lupa ||| Vagabond ||| 0.5 0.00462963 1 0.0733358 ||| 0-0 1-0 2-0 ||| 2 1 1 ||| |||
Hampas - ||| a setting sun ) ||| 0.5 0.021049 0.2 6.13346e-05 ||| 0-1 0-2 0-3 ||| 2 5 1 ||| |||
Hampas - ||| of a setting sun ) ||| 0.5 0.021049 0.2 1.92611e-06 ||| 0-2 0-3 0-4 ||| 2 5 1 ||| |||
Hampas - ||| position of a setting sun ) ||| 0.5 0.021049 0.2 1.89028e-09 ||| 0-3 0-4 0-5 ||| 2 5 1 ||| |||
Hampas - ||| setting sun ) ||| 0.5 0.021049 0.2 0.00195312 ||| 0-0 0-1 0-2 ||| 2 5 1 ||| |||
Hampas - ||| the position of a setting sun ) ||| 0.5 0.021049 0.2 6.12162e-11 ||| 0-4 0-5 0-6 ||| 2 5 1 ||| |||
Hampas ng Langit ||| God &apos;s punishment ||| 1 0.011067 1 0.00115223 ||| 0-0 0-1 0-2 1-2 2-2 ||| 1 1 1 ||| |||
Hampas sa kalabaw , sa ||| verbal attack ||| 0.166667 1.19811e-06 1 0.00182482 ||| 1-0 2-1 ||| 6 1 1 ||| |||
Hampas sa kalabaw , ||| verbal attack ||| 0.166667 3.8579e-05 1 0.00182482 ||| 1-0 2-1 ||| 6 1 1 ||| |||
Hampas sa kalabaw ||| verbal attack ||| 0.166667 0.0031056 1 0.00182482 ||| 1-0 2-1 ||| 6 1 1 ||| |||
Hampas sa ||| verbal ||| 0.5 0.0031056 1 0.0072993 ||| 1-0 ||| 2 1 1 ||| |||
Hampas ||| a setting sun ) ||| 0.5 0.677778 0.2 6.13346e-05 ||| 0-1 0-2 0-3 ||| 2 5 1 ||| |||
Hampas ||| of a setting sun ) ||| 0.5 0.677778 0.2 1.92611e-06 ||| 0-2 0-3 0-4 ||| 2 5 1 ||| |||
Hampas ||| position of a setting sun ) ||| 0.5 0.677778 0.2 1.89028e-09 ||| 0-3 0-4 0-5 ||| 2 5 1 ||| |||
Hampas ||| setting sun ) ||| 0.5 0.677778 0.2 0.00195312 ||| 0-0 0-1 0-2 ||| 2 5 1 ||| |||
Hampas ||| the position of a setting sun ) ||| 0.5 0.677778 0.2 6.12162e-11 ||| 0-4 0-5 0-6 ||| 2 5 1 ||| |||
Hanap sa tubig ||| Fortune acquired through bad means ||| 1 0.0755556 1 0.000128986 ||| 0-0 2-0 0-1 1-1 0-2 0-3 0-4 ||| 1 1 1 ||| |||
Hanggang bibig ||| Referring to things said but not done ||| 1 0.0541636 1 2.98023e-07 ||| 0-0 0-1 0-2 0-3 0-4 0-5 0-6 1-6 ||| 1 1 1 ||| |||
Hanggang sa labi ng hukay ||| Till death ; up to the grave ||| 0.25 4.93774e-07 1 1.61069e-07 ||| 1-0 2-0 2-1 2-2 2-3 3-4 2-5 2-6 ||| 4 1 1 ||| |||
Hanggang sa labi ng ||| Till death ; up to the grave ||| 0.25 7.94973e-05 1 1.61069e-07 ||| 1-0 2-0 2-1 2-2 2-3 3-4 2-5 2-6 ||| 4 1 1 ||| |||
Hapin ng buhay ||| Help to one &apos;s livelihood ||| 0.5 0.00123437 1 0.000168511 ||| 0-0 0-1 0-2 0-3 0-4 1-4 ||| 2 1 1 ||| |||
Hapin ng ||| Help to one &apos;s livelihood ||| 0.5 0.0397466 1 0.000168511 ||| 0-0 0-1 0-2 0-3 0-4 1-4 ||| 2 1 1 ||| |||
Hari ng daldal ||| Exceedingly talkative ; incomparably talkative ||| 1 0.0952423 1 0.00756316 ||| 0-0 2-1 2-2 1-3 2-3 2-4 ||| 1 1 1 ||| |||
Hari ng dunong ||| Exceedingly bright ; incomparably bright ||| 1 0.126988 1 0.00756316 ||| 0-0 2-1 2-2 1-3 2-3 2-4 ||| 1 1 1 ||| |||
Hari ng ganda ||| Exceedingly beautiful ; incomparably beautiful ||| 1 0.126988 1 0.00756316 ||| 0-0 2-1 2-2 1-3 2-3 2-4 ||| 1 1 1 ||| |||
Hari ng pangit ||| Exceedingly ugly ; incomparably ugly ||| 1 0.126988 1 0.00756316 ||| 0-0 2-1 2-2 1-3 2-3 2-4 ||| 1 1 1 ||| |||
Hari ng sama ||| Exceedingly bad ; incomparably bad ||| 1 0.0419516 1 0.00284701 ||| 0-0 2-1 1-2 1-3 2-4 ||| 1 1 1 ||| |||
Hari ng sungit ||| Exceedingly fastidiousl ; very hard to please ||| 1 0.0660608 1 1.75832e-05 ||| 0-0 1-1 2-1 1-2 2-3 2-4 2-5 2-6 ||| 1 1 1 ||| |||
Hari ng yaman ||| Exceedingly rich ; very wealthy ||| 1 0.0471421 1 0.000718617 ||| 0-0 1-1 2-1 2-2 2-3 2-4 ||| 1 1 1 ||| |||
Hari ||| ) ||| 1 0.0333333 0.125 0.125 ||| 0-0 ||| 1 8 1 ||| |||
Hari ||| Exceedingly ||| 1 1 0.875 0.875 ||| 0-0 ||| 7 8 7 ||| |||
Hasang - hasa ||| Accustomed or used to a particular way ||| 1 0.00104792 0.5 1.40339e-08 ||| 0-0 0-1 0-2 2-3 1-5 ||| 1 2 1 ||| |||
Hasang - hasa ||| Accustomed or used to a particular ||| 1 0.00104792 0.5 4.76679e-06 ||| 0-0 0-1 0-2 2-3 1-5 ||| 1 2 1 ||| |||
Hasang ||| Accustomed or used ||| 1 0.373059 1 0.037037 ||| 0-0 0-1 0-2 ||| 1 1 1 ||| |||
Hawang - lamig ||| Not a true or real relative ||| 0.5 0.000353985 1 1.17709e-05 ||| 0-0 1-0 0-1 0-2 0-3 0-4 0-5 ||| 2 1 1 ||| |||
Hawang - ||| Not a true or real relative ||| 0.5 0.0569914 1 1.17709e-05 ||| 0-0 1-0 0-1 0-2 0-3 0-4 0-5 ||| 2 1 1 ||| |||
Higad ||| Tightwad and selfish ||| 1 0.451389 1 0.037037 ||| 0-0 0-1 0-2 ||| 1 1 1 ||| |||
Hinahabol na ng sabon ||| Very dirty ; in need of washing ||| 1 0.000877593 1 5.44186e-12 ||| 3-0 2-2 0-6 1-6 ||| 1 1 1 ||| |||
Hinahabol na ng ||| ; in need of washing ||| 1 0.0184295 0.5 5.545e-09 ||| 2-0 0-4 1-4 ||| 1 2 1 ||| |||
Hinahabol na ng ||| dirty ; in need of washing ||| 1 0.0184295 0.5 5.44186e-12 ||| 2-1 0-5 1-5 ||| 1 2 1 ||| |||
Hinahabol na ||| in need of washing ||| 1 0.25 0.25 4.53244e-08 ||| 0-3 1-3 ||| 1 4 1 ||| |||
Hinahabol na ||| need of washing ||| 1 0.25 0.25 3.29896e-06 ||| 0-2 1-2 ||| 1 4 1 ||| |||
Hinahabol na ||| of washing ||| 1 0.25 0.25 0.00336148 ||| 0-1 1-1 ||| 1 4 1 ||| |||
Hinahabol na ||| washing ||| 1 0.25 0.25 0.107042 ||| 0-0 1-0 ||| 1 4 1 ||| |||
Hinahabol ||| needing sewing or patching ||| 1 0.552016 1 0.0016 ||| 0-0 0-1 0-2 0-3 ||| 1 1 1 ||| |||
Hindi kakainin ng apoy ||| Very dirty ( refers to clothes ) ||| 1 0.00468209 0.25 1.78026e-08 ||| 1-1 1-2 0-3 1-3 2-3 3-4 3-5 ||| 1 4 1 ||| |||
Hindi kakainin ng apoy ||| Very dirty ( refers to clothes ||| 1 0.00468209 0.25 1.1338e-06 ||| 1-1 1-2 0-3 1-3 2-3 3-4 3-5 ||| 1 4 1 ||| |||
Hindi kakainin ng apoy ||| dirty ( refers to clothes ) ||| 1 0.00468209 0.25 4.53522e-06 ||| 1-0 1-1 0-2 1-2 2-2 3-3 3-4 ||| 1 4 1 ||| |||
Hindi kakainin ng apoy ||| dirty ( refers to clothes ||| 1 0.00468209 0.25 0.000288836 ||| 1-0 1-1 0-2 1-2 2-2 3-3 3-4 ||| 1 4 1 ||| |||
Hindi kakainin ng ||| Very dirty ( refers ||| 1 0.00931187 0.5 5.55561e-05 ||| 1-1 1-2 0-3 1-3 2-3 ||| 1 2 1 ||| |||
Hindi kakainin ng ||| dirty ( refers ||| 1 0.00931187 0.5 0.014153 ||| 1-0 1-1 0-2 1-2 2-2 ||| 1 2 1 ||| |||
Hindi kakapitan ng alikabok ||| Well - dressed ||| 1 0.000587579 1 0.0245036 ||| 1-0 1-1 0-2 1-2 2-2 3-2 ||| 1 1 1 ||| |||
Hindi kaning isusubo ||| Anything that is not easy to do ||| 1 0.006011 1 3.41814e-05 ||| 2-0 2-1 2-2 1-3 0-4 1-4 2-4 1-5 2-6 ||| 1 1 1 ||| |||
Hindi kaya ng bulsa ||| Does not have enough to pay ||| 1 0.000397831 1 1.44793e-05 ||| 0-0 0-1 1-2 1-3 2-4 1-5 3-5 ||| 1 1 1 ||| |||
Hindi magkabibig ||| Could not accuse for ingratitude ||| 1 0.170265 1 0.000194783 ||| 1-0 1-1 1-2 1-3 0-4 1-4 ||| 1 1 1 ||| |||
Hindi makaabot ||| Cannot see reason ||| 1 0.0274306 1 0.020934 ||| 0-0 1-0 1-1 1-2 ||| 1 1 1 ||| |||
Hindi makain ||| Cannot force one &apos;s self to believe ||| 1 0.036429 1 7.91911e-07 ||| 1-0 1-1 1-2 1-3 1-4 1-5 0-6 1-6 ||| 1 1 1 ||| |||
Hindi malulon nang buo ||| Cannot be despised ; cannot be insulted ||| 0.5 0.000205181 1 2.11542e-06 ||| 3-0 3-1 1-2 2-2 3-2 3-3 3-4 3-5 3-6 ||| 2 1 1 ||| |||
Hindi malulon ||| Unaacceptable to the conscience ||| 1 0.189235 1 0.000973913 ||| 0-0 1-0 1-1 1-2 1-3 ||| 1 1 1 ||| |||
Hindi masarhan ang bibig ||| Does not want to stop talking ||| 1 0.0027985 1 4.50312e-05 ||| 0-0 0-1 1-2 2-2 3-2 1-3 1-4 1-5 ||| 1 1 1 ||| |||
Hindi na makasampa sa pugad ||| Already weak ; already old ||| 1 2.49868e-05 1 7.42018e-05 ||| 2-0 2-1 3-1 4-1 2-2 2-3 0-4 1-4 2-4 ||| 1 1 1 ||| |||
Hindi nakakakilala ng hiya ||| Does not feel ashamed ; shameless ||| 1 0.00747863 1 1.86301e-05 ||| 0-0 0-1 1-2 3-2 1-3 2-3 1-4 1-5 ||| 1 1 1 ||| |||
Hindi nakakakilala ng takot ||| Does not kow fear ; brave ||| 1 0.00881063 1 9.3491e-05 ||| 0-0 0-1 1-2 2-3 3-3 2-4 3-5 ||| 1 1 1 ||| |||
Hindi nakakakilala ||| Does not kow ||| 1 0.17316 1 0.00604915 ||| 0-0 0-1 1-2 ||| 1 1 1 ||| |||
Hindi nakuha sa bibig ||| Did not listen to good evidence ||| 1 0.00407356 1 7.99558e-06 ||| 1-0 1-1 1-2 1-3 1-4 0-5 1-5 2-5 3-5 ||| 1 1 1 ||| |||
Hindi pababaunan ng sanggatang na bigas ||| A near place where one is going ||| 0.5 5.49555e-09 0.333333 8.54682e-11 ||| 5-0 2-2 1-3 3-4 ||| 2 3 1 ||| |||
Hindi pababaunan ng sanggatang na bigas ||| A near place where one is ||| 0.5 5.49555e-09 0.333333 8.7088e-08 ||| 5-0 2-2 1-3 3-4 ||| 2 3 1 ||| |||
Hindi pababaunan ng sanggatang na bigas ||| A near place where one ||| 0.5 5.49555e-09 0.333333 5.22016e-06 ||| 5-0 2-2 1-3 3-4 ||| 2 3 1 ||| |||
Hindi pababaunan ng sanggatang na ||| near place where one is going ||| 0.25 3.57211e-07 0.166667 8.54682e-11 ||| 2-1 1-2 3-3 ||| 4 6 1 ||| |||
Hindi pababaunan ng sanggatang na ||| near place where one is ||| 0.25 3.57211e-07 0.166667 8.7088e-08 ||| 2-1 1-2 3-3 ||| 4 6 1 ||| |||
Hindi pababaunan ng sanggatang na ||| near place where one ||| 0.25 3.57211e-07 0.166667 5.22016e-06 ||| 2-1 1-2 3-3 ||| 4 6 1 ||| |||
Hindi pababaunan ng sanggatang na ||| place where one is going ||| 0.25 3.57211e-07 0.166667 8.7088e-08 ||| 2-0 1-1 3-2 ||| 4 6 1 ||| |||
Hindi pababaunan ng sanggatang na ||| place where one is ||| 0.25 3.57211e-07 0.166667 8.87385e-05 ||| 2-0 1-1 3-2 ||| 4 6 1 ||| |||
Hindi pababaunan ng sanggatang na ||| place where one ||| 0.25 3.57211e-07 0.166667 0.0053191 ||| 2-0 1-1 3-2 ||| 4 6 1 ||| |||
Hindi pababaunan ng sanggatang ||| near place where one is going ||| 0.25 1.43778e-05 0.166667 8.54682e-11 ||| 2-1 1-2 3-3 ||| 4 6 1 ||| |||
Hindi pababaunan ng sanggatang ||| near place where one is ||| 0.25 1.43778e-05 0.166667 8.7088e-08 ||| 2-1 1-2 3-3 ||| 4 6 1 ||| |||
Hindi pababaunan ng sanggatang ||| near place where one ||| 0.25 1.43778e-05 0.166667 5.22016e-06 ||| 2-1 1-2 3-3 ||| 4 6 1 ||| |||
Hindi pababaunan ng sanggatang ||| place where one is going ||| 0.25 1.43778e-05 0.166667 8.7088e-08 ||| 2-0 1-1 3-2 ||| 4 6 1 ||| |||
Hindi pababaunan ng sanggatang ||| place where one is ||| 0.25 1.43778e-05 0.166667 8.87385e-05 ||| 2-0 1-1 3-2 ||| 4 6 1 ||| |||
Hindi pababaunan ng sanggatang ||| place where one ||| 0.25 1.43778e-05 0.166667 0.0053191 ||| 2-0 1-1 3-2 ||| 4 6 1 ||| |||
Hindi pababaunan ng ||| near place where ||| 0.5 0.0007764 0.5 5.22016e-06 ||| 2-1 1-2 ||| 2 2 1 ||| |||
Hindi pababaunan ng ||| place where ||| 0.5 0.0007764 0.5 0.0053191 ||| 2-0 1-1 ||| 2 2 1 ||| |||
Hindi pababaunan ||| where ||| 0.5 0.0031056 1 1 ||| 1-0 ||| 2 1 1 ||| |||
Hindi sa hagdan kundi sa bintana nagdaan ||| Eloped ||| 1 4.85706e-06 1 0.277049 ||| 0-0 1-0 2-0 3-0 4-0 5-0 6-0 ||| 1 1 1 ||| |||
Hindi ||| Does not ||| 0.5 0.17316 1 0.0302457 ||| 0-0 0-1 ||| 8 4 4 ||| |||
Hinihila ang dila ||| Very tired ||| 1 0.00495238 1 0.0945181 ||| 0-0 0-1 1-1 2-1 ||| 1 1 1 ||| |||
Hinihintay na ng mga bulati ||| Dying ||| 1 0.00032 1 0.323881 ||| 0-0 1-0 2-0 3-0 4-0 ||| 1 1 1 ||| |||
Hinipang pantog ||| Sudden growth ||| 1 0.375 1 0.375 ||| 1-0 0-1 1-1 ||| 1 1 1 ||| |||
Hinog sa pilit ||| Forced only to consent or to agree ||| 1 0.0313489 1 1.30349e-05 ||| 0-0 0-1 0-2 0-3 0-4 0-5 0-6 1-6 2-6 ||| 1 1 1 ||| |||
Hipong tulog ||| Slow - foot ; sluggish ||| 0.5 0.0485905 1 0.00101562 ||| 0-0 0-1 0-2 1-3 0-4 1-4 ||| 2 1 1 ||| |||
Hiram - kantores ||| Not returning ||| 1 0.0377778 1 0.0829918 ||| 1-0 2-0 0-1 2-1 ||| 1 1 1 ||| |||
Hiram na ulo ||| Talent which is not inborn ; borrowed ||| 1 0.0171421 1 3.91894e-07 ||| 0-0 0-1 0-2 0-3 0-4 1-5 0-6 1-6 2-6 ||| 1 1 1 ||| |||
Hiyas ng pagkababae ||| Honor ||| 1 0.037037 1 0.390662 ||| 0-0 1-0 2-0 ||| 1 1 1 ||| |||
Hiyas ng tahanan ||| A maiden ; an unmarried girl ||| 1 0.00899659 1 1.0147e-05 ||| 0-0 0-1 1-2 0-3 0-4 1-4 0-5 2-5 ||| 1 1 1 ||| |||
Hubad sa katotohanan ||| Far from the truth ; untrue ||| 1 0.0313852 1 5.03244e-05 ||| 0-0 0-1 0-2 0-3 0-4 0-5 1-5 2-5 ||| 1 1 1 ||| |||
Huling hantungan ||| Grave ||| 0.25 0.0123457 1 1 ||| 0-0 1-0 ||| 4 1 1 ||| |||
Hulog ng langit ||| Good luck ; Godsend ||| 1 0.021694 1 0.00198083 ||| 0-0 0-1 0-2 0-3 1-3 2-3 ||| 1 1 1 ||| |||
Humahalik sa yapak ||| Worshipping ; adoring ||| 1 0.0495014 1 0.049653 ||| 0-0 0-1 0-2 1-2 2-2 ||| 1 1 1 ||| |||
Humahanap ng kati ng katawan ||| Looking for trouble ; challenging ||| 1 0.00115666 1 0.000200297 ||| 0-0 0-1 0-2 1-3 0-4 1-4 2-4 3-4 4-4 ||| 1 1 1 ||| |||
Humanap ng batong ipinukpok sa ulo ||| Did something destructive to one &apos;s self ||| 0.166667 1.22559e-10 1 1.16554e-05 ||| 3-0 3-1 3-2 2-3 3-4 4-4 3-5 3-6 ||| 6 1 1 ||| |||
Humanap ng batong ipinukpok sa ||| Did something destructive to one &apos;s self ||| 0.166667 3.94639e-09 1 1.16554e-05 ||| 3-0 3-1 3-2 2-3 3-4 4-4 3-5 3-6 ||| 6 1 1 ||| |||
Humanap ng batong ||| to ||| 0.03125 4.33474e-07 1 1 ||| 2-0 ||| 32 1 1 ||| |||
Humanap ng hirap ng katawan ||| Trying to do spmething which one is ||| 0.5 0.000335015 1 1.09317e-06 ||| 0-0 1-0 2-0 3-0 0-1 0-2 0-3 0-4 0-5 0-6 ||| 2 1 1 ||| |||
Humanap ng hirap ng ||| Trying to do spmething which one is ||| 0.5 0.0134844 1 1.09317e-06 ||| 0-0 1-0 2-0 3-0 0-1 0-2 0-3 0-4 0-5 0-6 ||| 2 1 1 ||| |||
Humihimod sa pundiya ||| Winning the favor of another ; flattering ||| 1 0.0150624 1 3.25872e-06 ||| 0-0 0-1 0-2 0-3 0-4 0-5 0-6 1-6 2-6 ||| 1 1 1 ||| |||
Humihip sa lusong ||| Made his own misfortune ||| 1 0.00443673 1 0.00502538 ||| 0-0 0-1 0-2 1-2 0-3 2-3 ||| 1 1 1 ||| |||
Humuhukay sa sariling ||| to his own destruction ||| 1 0.000156056 1 2.38783e-06 ||| 2-0 0-1 1-3 ||| 1 1 1 ||| |||
Humuhukay sa ||| his own destruction ||| 1 0.0277778 1 1.4327e-05 ||| 0-0 1-2 ||| 1 1 1 ||| |||
Humuhukay ||| his own ||| 1 0.0555556 0.5 0.0009814 ||| 0-0 ||| 1 2 1 ||| |||
Humuhukay ||| his ||| 1 0.0555556 0.5 1 ||| 0-0 ||| 1 2 1 ||| |||
Hunos - dili ||| Self - control ||| 1 0.0237387 1 0.0277019 ||| 0-0 0-1 1-1 0-2 2-2 ||| 1 1 1 ||| |||
Ibabag ang katawan ||| and to seriously perform one &apos;s duty ||| 1 0.0411523 0.0666667 2.72026e-11 ||| 0-2 0-3 1-3 2-3 2-4 ||| 1 15 1 ||| |||
Ibabag ang katawan ||| and to seriously perform one &apos;s ||| 1 0.0411523 0.0666667 2.77181e-08 ||| 0-2 0-3 1-3 2-3 2-4 ||| 1 15 1 ||| |||
Ibabag ang katawan ||| and to seriously perform one ||| 1 0.0411523 0.0666667 7.06122e-06 ||| 0-2 0-3 1-3 2-3 2-4 ||| 1 15 1 ||| |||
Ibabag ang katawan ||| effort and to seriously perform one &apos;s ||| 1 0.0411523 0.0666667 2.72026e-11 ||| 0-3 0-4 1-4 2-4 2-5 ||| 1 15 1 ||| |||
Ibabag ang katawan ||| effort and to seriously perform one ||| 1 0.0411523 0.0666667 6.92988e-09 ||| 0-3 0-4 1-4 2-4 2-5 ||| 1 15 1 ||| |||
Ibabag ang katawan ||| exert effort and to seriously perform one ||| 1 0.0411523 0.0666667 6.80099e-12 ||| 0-4 0-5 1-5 2-5 2-6 ||| 1 15 1 ||| |||
Ibabag ang katawan ||| seriously perform one &apos;s duty or task ||| 1 0.0411523 0.0666667 9.7934e-13 ||| 0-0 0-1 1-1 2-1 2-2 ||| 1 15 1 ||| |||
Ibabag ang katawan ||| seriously perform one &apos;s duty or ||| 1 0.0411523 0.0666667 9.97901e-10 ||| 0-0 0-1 1-1 2-1 2-2 ||| 1 15 1 ||| |||
Ibabag ang katawan ||| seriously perform one &apos;s duty ||| 1 0.0411523 0.0666667 3.76615e-08 ||| 0-0 0-1 1-1 2-1 2-2 ||| 1 15 1 ||| |||
Ibabag ang katawan ||| seriously perform one &apos;s ||| 1 0.0411523 0.0666667 3.83753e-05 ||| 0-0 0-1 1-1 2-1 2-2 ||| 1 15 1 ||| |||
Ibabag ang katawan ||| seriously perform one ||| 1 0.0411523 0.0666667 0.00977614 ||| 0-0 0-1 1-1 2-1 2-2 ||| 1 15 1 ||| |||
Ibabag ang katawan ||| to seriously perform one &apos;s duty or ||| 1 0.0411523 0.0666667 4.89647e-11 ||| 0-1 0-2 1-2 2-2 2-3 ||| 1 15 1 ||| |||
Ibabag ang katawan ||| to seriously perform one &apos;s duty ||| 1 0.0411523 0.0666667 1.84796e-09 ||| 0-1 0-2 1-2 2-2 2-3 ||| 1 15 1 ||| |||
Ibabag ang katawan ||| to seriously perform one &apos;s ||| 1 0.0411523 0.0666667 1.88299e-06 ||| 0-1 0-2 1-2 2-2 2-3 ||| 1 15 1 ||| |||
Ibabag ang katawan ||| to seriously perform one ||| 1 0.0411523 0.0666667 0.000479693 ||| 0-1 0-2 1-2 2-2 2-3 ||| 1 15 1 ||| |||
Ibabaw ng lupa ||| World ||| 1 0.037037 1 0.365409 ||| 0-0 1-0 2-0 ||| 1 1 1 ||| |||
Ibako ||| To embarass ; to stop the boastfulness ||| 1 0.310443 1 1.21426e-06 ||| 0-0 0-1 0-2 0-3 0-4 0-5 0-6 ||| 1 1 1 ||| |||
Ibangon ang puri ||| To regain one &apos;s lost honor ||| 1 0.0162526 1 2.1631e-05 ||| 0-0 0-1 0-2 0-3 0-4 0-5 1-5 2-5 ||| 1 1 1 ||| |||
Ibaon sa limot ||| Same as &quot; ilibing sa limot &quot; ||| 1 0.0551934 1 6.86015e-06 ||| 0-0 0-1 0-2 0-3 0-4 1-4 0-5 2-5 0-6 ||| 1 1 1 ||| |||
Ibayong dagat ||| Foreign land ||| 1 0.222222 1 0.375 ||| 1-0 0-1 1-1 ||| 1 1 1 ||| |||
Ibig na ayaw ||| Undecided ||| 1 0.037037 1 0.671362 ||| 0-0 1-0 2-0 ||| 1 1 1 ||| |||
Ibilang sa wala ||| To forget ||| 0.333333 0.00230128 1 0.120316 ||| 0-0 0-1 1-1 2-1 ||| 3 1 1 ||| |||
Ibilanggo sa mga bisig ||| To embrace ||| 1 0.00205592 1 0.200912 ||| 0-0 0-1 1-1 2-1 3-1 ||| 1 1 1 ||| |||
Ibong mababa ang lipad ||| Prostitute ; a bad woman ||| 1 0.000728088 1 0.000308257 ||| 0-0 1-0 3-0 0-1 2-1 1-2 1-3 1-4 ||| 1 1 1 ||| |||
Ibong malaya ||| Bachelor ||| 1 0.25 1 0.625 ||| 0-0 1-0 ||| 1 1 1 ||| |||
Ibong sawi ||| An unfortunate person ||| 1 0.115385 1 0.0324074 ||| 1-0 0-1 1-1 1-2 ||| 1 1 1 ||| |||
Ibuhos ang isip ||| To concentrate ||| 1 0.0199805 1 0.0439478 ||| 0-0 0-1 1-1 2-1 ||| 1 1 1 ||| |||
Ibuhos ang kalooban ||| To trust completely ||| 1 0.0503574 1 0.0121229 ||| 0-0 0-1 0-2 1-2 2-2 ||| 1 1 1 ||| |||
Ibuko ||| same as &quot; ibako &quot; ||| 1 0.234117 1 0.00128 ||| 0-0 0-1 0-2 0-3 0-4 ||| 1 1 1 ||| |||
Ibulong nang malakas ||| To expose a secret ||| 1 0.0198552 1 0.0069839 ||| 0-0 0-1 0-2 0-3 1-3 2-3 ||| 1 1 1 ||| |||
Igagapang ||| To assiduously support or patiently help another ||| 1 0.419698 1 1.21426e-06 ||| 0-0 0-1 0-2 0-3 0-4 0-5 0-6 ||| 1 1 1 ||| |||
Iginupo sa sariling ||| Met destruction because of too much ego ||| 1 0.0662295 1 9.1833e-07 ||| 0-0 0-1 1-1 2-1 0-2 0-3 0-4 0-5 0-6 ||| 1 1 1 ||| |||
Igisa sa sariling mantika ||| for the expenses ||| 1 0.003367 0.166667 0.000341443 ||| 1-1 0-2 2-2 3-2 ||| 1 6 1 ||| |||
Igisa sa sariling mantika ||| her pay for the expenses ||| 1 0.003367 0.166667 2.95953e-09 ||| 1-3 0-4 2-4 3-4 ||| 1 6 1 ||| |||
Igisa sa sariling mantika ||| him or her pay for the expenses ||| 1 0.003367 0.166667 1.5391e-13 ||| 1-5 0-6 2-6 3-6 ||| 1 6 1 ||| |||
Igisa sa sariling mantika ||| or her pay for the expenses ||| 1 0.003367 0.166667 7.84176e-11 ||| 1-4 0-5 2-5 3-5 ||| 1 6 1 ||| |||
Igisa sa sariling mantika ||| pay for the expenses ||| 1 0.003367 0.166667 1.00524e-06 ||| 1-2 0-3 2-3 3-3 ||| 1 6 1 ||| |||
Igisa sa sariling mantika ||| the expenses ||| 1 0.003367 0.166667 0.0579887 ||| 1-0 0-1 2-1 3-1 ||| 1 6 1 ||| |||
Iguhit sa noo ||| Same as &quot; ikuros sa noo &quot; ||| 1 0.0560259 1 4.51777e-06 ||| 0-0 0-1 0-2 0-3 0-4 1-4 0-5 2-5 0-6 ||| 1 1 1 ||| |||
Iguhit sa tubig ||| Do not consider ; to count as ||| 1 0.00671598 1 2.50661e-07 ||| 2-0 2-1 1-2 2-2 2-3 2-4 2-5 0-6 ||| 1 1 1 ||| |||
Iguhit ||| as nothing ||| 1 0.0512821 0.5 0.00024535 ||| 0-0 ||| 1 2 1 ||| |||
Iguhit ||| as ||| 1 0.0512821 0.5 0.25 ||| 0-0 ||| 1 2 1 ||| |||
Ihatid sa dambana ||| To marry someone ||| 1 0.0141558 1 0.049653 ||| 0-0 0-1 1-1 2-1 0-2 ||| 1 1 1 ||| |||
Ikaapat na kapangyarihan ||| The press ||| 1 0.0208333 1 0.252347 ||| 2-0 0-1 1-1 2-1 ||| 1 1 1 ||| |||
Ikapitong langit ||| Extreme happiness ; incomparable happiness ||| 1 0.230321 1 0.000549316 ||| 0-0 1-0 1-1 1-2 1-3 1-4 ||| 1 1 1 ||| |||
Ikuros sa noo ||| To remember ||| 1 0.0192495 1 0.140105 ||| 0-0 0-1 1-1 2-1 ||| 1 1 1 ||| |||
Ilaki ng loob ||| be the cause of one &apos;s stubbornness ||| 1 0.0158338 0.2 7.01252e-11 ||| 0-4 0-5 0-6 1-6 2-6 ||| 1 5 1 ||| |||
Ilaki ng loob ||| cause of one &apos;s stubbornness ||| 1 0.0158338 0.2 3.15217e-07 ||| 0-2 0-3 0-4 1-4 2-4 ||| 1 5 1 ||| |||
Ilaki ng loob ||| of one &apos;s stubbornness ||| 1 0.0158338 0.2 0.000107067 ||| 0-1 0-2 0-3 1-3 2-3 ||| 1 5 1 ||| |||
Ilaki ng loob ||| one &apos;s stubbornness ||| 1 0.0158338 0.2 0.00340943 ||| 0-0 0-1 0-2 1-2 2-2 ||| 1 5 1 ||| |||
Ilaki ng loob ||| the cause of one &apos;s stubbornness ||| 1 0.0158338 0.2 1.02082e-08 ||| 0-3 0-4 0-5 1-5 2-5 ||| 1 5 1 ||| |||
Ilaki ng ulo ||| To add to one &apos;s numerous problems ||| 0.5 0.00709603 1 5.18062e-08 ||| 0-0 1-1 1-2 0-3 0-4 0-5 0-6 ||| 2 1 1 ||| |||
Ilaki ng ||| To add to one &apos;s numerous problems ||| 0.5 0.228492 1 5.18062e-08 ||| 0-0 1-1 1-2 0-3 0-4 0-5 0-6 ||| 2 1 1 ||| |||
Ilako ang puri ||| Same as &quot; ibilad ang puri &quot; ||| 1 0.0435472 1 5.35321e-06 ||| 0-0 0-1 0-2 0-3 0-4 1-4 0-5 2-5 0-6 ||| 1 1 1 ||| |||
Ilaw ng tahanan ||| Mother ||| 1 0.037037 1 0.41844 ||| 0-0 1-0 2-0 ||| 1 1 1 ||| |||
Ilibing sa limot ||| To forget ||| 0.333333 0.00230128 1 0.170316 ||| 0-0 0-1 1-1 2-1 ||| 3 1 1 ||| |||
Ilista sa tubig ||| Debt that will not be paid anymore ||| 1 0.0419895 1 5.94821e-07 ||| 0-0 0-1 0-2 0-3 0-4 0-5 2-5 0-6 1-6 ||| 1 1 1 ||| |||
Iluwag ng loob ||| To have peace of mind ||| 1 0.00379273 1 0.000127281 ||| 0-0 0-1 1-1 2-1 0-2 0-3 0-4 ||| 1 1 1 ||| |||
Iluwal sa maliwanag ||| To be born ||| 1 0.00079413 1 0.0378481 ||| 0-0 0-1 1-1 0-2 2-2 ||| 1 1 1 ||| |||
Inaalat ||| Losing good luck ||| 1 0.218196 1 0.037037 ||| 0-0 0-1 0-2 ||| 1 1 1 ||| |||
Inaalon ang dibdib ||| Nervous ; afraid of something ||| 0.5 0.00412646 1 0.000167373 ||| 0-0 0-1 0-2 1-2 0-3 0-4 ||| 2 1 1 ||| |||
Inaalon ang ||| Nervous ; afraid of something ||| 0.5 0.132872 1 0.000167373 ||| 0-0 0-1 0-2 1-2 0-3 0-4 ||| 2 1 1 ||| |||
Inaapoy ng langit ||| Hot with fever ||| 1 0.00482253 1 0.0171723 ||| 0-0 0-1 0-2 1-2 2-2 ||| 1 1 1 ||| |||
Inabot ng kaliwa &apos;t kanan ||| Was hit with fists ||| 0.25 6.65995e-08 1 0.00199468 ||| 0-0 0-1 1-1 0-2 0-3 ||| 4 1 1 ||| |||
Inabot ng kaliwa &apos;t ||| Was hit with fists ||| 0.25 1.07225e-05 1 0.00199468 ||| 0-0 0-1 1-1 0-2 0-3 ||| 4 1 1 ||| |||
Inabot ng kaliwa ||| Was hit with fists ||| 0.25 0.000863157 1 0.00199468 ||| 0-0 0-1 1-1 0-2 0-3 ||| 4 1 1 ||| |||
Inabot ng ||| Was hit with fists ||| 0.25 0.138968 1 0.00199468 ||| 0-0 0-1 1-1 0-2 0-3 ||| 4 1 1 ||| |||
Inagaw kamatayan ||| Same as &quot; inagaw ang buhay &quot; ||| 1 0.117577 1 3.37296e-06 ||| 1-0 1-1 1-2 1-3 1-4 0-5 1-5 1-6 ||| 1 1 1 ||| |||
Iniatang sa balikat ||| Gave the responsibility ||| 0.5 0.00156991 1 0.018924 ||| 0-0 1-0 0-1 0-2 ||| 2 1 1 ||| |||
Iniatang sa ||| Gave the responsibility ||| 0.5 0.126377 1 0.018924 ||| 0-0 1-0 0-1 0-2 ||| 2 1 1 ||| |||
Ipagbaba ng batulang ||| Cause for a quarrel ||| 0.5 4.37285e-05 1 0.00211935 ||| 0-0 0-1 1-1 0-2 0-3 ||| 2 1 1 ||| |||
Ipagbaba ng ||| Cause for a quarrel ||| 0.5 0.00704027 1 0.00211935 ||| 0-0 0-1 1-1 0-2 0-3 ||| 2 1 1 ||| |||
Ipagbara ng ilong ||| Cause for loss of temper ||| 0.5 0.000175606 1 0.000177021 ||| 0-0 0-1 1-1 0-2 0-3 0-4 ||| 2 1 1 ||| |||
Ipagbara ng ||| Cause for loss of temper ||| 0.5 0.0282725 1 0.000177021 ||| 0-0 0-1 1-1 0-2 0-3 0-4 ||| 2 1 1 ||| |||
Ipagbili nang buo ||| To fool ; to cheat ||| 1 0.019007 1 0.000221818 ||| 0-0 0-1 0-2 0-3 0-4 1-4 2-4 ||| 1 1 1 ||| |||
Ipakita ang tunay na kulay ||| &apos;s real nature ||| 1 0.000121987 0.25 0.0330538 ||| 2-0 1-1 2-1 0-2 2-2 3-2 4-2 ||| 1 4 1 ||| |||
Ipakita ang tunay na kulay ||| To show one &apos;s real nature ||| 1 0.000121987 0.25 4.06125e-09 ||| 2-3 1-4 2-4 0-5 2-5 3-5 4-5 ||| 1 4 1 ||| |||
Ipakita ang tunay na kulay ||| one &apos;s real nature ||| 1 0.000121987 0.25 0.000324373 ||| 2-1 1-2 2-2 0-3 2-3 3-3 4-3 ||| 1 4 1 ||| |||
Ipakita ang tunay na kulay ||| show one &apos;s real nature ||| 1 0.000121987 0.25 3.1834e-07 ||| 2-2 1-3 2-3 0-4 2-4 3-4 4-4 ||| 1 4 1 ||| |||
Ipinagtatanong ng barbero ||| Same as &quot; hinahabol ng gunting &quot; ||| 1 0.0409561 1 1.07992e-05 ||| 0-0 0-1 0-2 0-3 0-4 1-4 0-5 2-5 0-6 ||| 1 1 1 ||| |||
Ipinagtirik ng kandila ||| Prayed for ||| 1 0.0108507 1 0.130319 ||| 0-0 2-0 0-1 1-1 ||| 1 1 1 ||| |||
Ippinagbaba ng balutan ||| Cause for one &apos;s anger ||| 0.5 3.5787e-05 1 0.000177021 ||| 0-0 0-1 1-1 0-2 0-3 0-4 ||| 2 1 1 ||| |||
Ippinagbaba ng ||| Cause for one &apos;s anger ||| 0.5 0.00576168 1 0.000177021 ||| 0-0 0-1 1-1 0-2 0-3 0-4 ||| 2 1 1 ||| |||
Isalang na ang palayok ||| Foreseeing victory ( in gambling ) ||| 1 0.0107487 1 1.49943e-05 ||| 0-0 1-0 3-0 0-1 2-1 0-2 0-3 0-4 0-5 ||| 1 1 1 ||| |||
Isalong na ang sandata ||| To stop the fighting ||| 1 0.00161828 1 0.00495583 ||| 0-0 0-1 0-2 0-3 1-3 2-3 3-3 ||| 1 1 1 ||| |||
Isang bakol ang mukha ||| Angry ; with a pouting face ||| 0.5 5.70439e-05 1 4.56251e-06 ||| 2-0 2-1 1-2 1-3 1-4 0-5 1-5 ||| 2 1 1 ||| |||
Isang bakol ang ||| Angry ; with a pouting face ||| 0.5 0.00918403 1 4.56251e-06 ||| 2-0 2-1 1-2 1-3 1-4 0-5 1-5 ||| 2 1 1 ||| |||
Isang bakol ||| with a pouting face ||| 1 0.0418309 1 0.00325521 ||| 1-0 1-1 1-2 0-3 1-3 ||| 1 1 1 ||| |||
Isang baro &apos;t isang saya ang dala ||| Very poor woman ||| 0.142857 5.30437e-14 1 0.037037 ||| 6-0 6-1 6-2 ||| 7 1 1 ||| |||
Isang dakot sa hangin ||| Boastfulness ||| 1 0.0016 1 0.316219 ||| 0-0 1-0 2-0 3-0 ||| 1 1 1 ||| |||
Isinilang na may kakambal na bituin ||| Born with luck ||| 1 1.42694e-05 1 0.0365371 ||| 3-0 3-1 0-2 1-2 2-2 3-2 4-2 5-2 ||| 1 1 1 ||| |||
Isip - lamok ||| Weak - minded ; dull ||| 1 0.00299805 1 0.0013388 ||| 0-0 2-0 0-1 1-1 0-2 1-3 0-4 ||| 1 1 1 ||| |||
Isubo sa basag - ulo ||| ; to put one into trouble ||| 1 9.46026e-06 0.333333 1.02005e-05 ||| 0-1 0-2 2-2 4-2 0-3 1-3 3-3 0-4 0-5 ||| 1 3 1 ||| |||
Isubo sa basag - ulo ||| danger ; to put one into trouble ||| 1 9.46026e-06 0.333333 2.00206e-08 ||| 0-2 0-3 2-3 4-3 0-4 1-4 3-4 0-5 0-6 ||| 1 3 1 ||| |||
Isubo sa basag - ulo ||| to put one into trouble ||| 1 9.46026e-06 0.333333 0.000241729 ||| 0-0 0-1 2-1 4-1 0-2 1-2 3-2 0-3 0-4 ||| 1 3 1 ||| |||
Itaas ang puting watawat ||| To surrender ||| 1 0.000852632 1 0.313076 ||| 0-0 0-1 1-1 2-1 3-1 ||| 1 1 1 ||| |||
Itaga sa bato ||| Will fulfill without fail ||| 0.5 0.00143079 1 0.00201015 ||| 0-0 0-1 1-1 0-2 0-3 ||| 2 1 1 ||| |||
Itaga sa ||| Will fulfill without fail ||| 0.5 0.230357 1 0.00201015 ||| 0-0 0-1 1-1 0-2 0-3 ||| 2 1 1 ||| |||
Itinulak sa buhangin ||| Driven to temptation or danger ||| 1 0.0191427 0.25 1.06949e-08 ||| 0-0 1-0 2-0 2-1 ||| 1 4 1 ||| |||
Itinulak sa buhangin ||| Driven to temptation or ||| 1 0.0191427 0.25 5.44909e-06 ||| 0-0 1-0 2-0 2-1 ||| 1 4 1 ||| |||
Itinulak sa buhangin ||| Driven to temptation ||| 1 0.0191427 0.25 0.000205652 ||| 0-0 1-0 2-0 2-1 ||| 1 4 1 ||| |||
Itinulak sa buhangin ||| Driven to ||| 1 0.0191427 0.25 0.20955 ||| 0-0 1-0 2-0 2-1 ||| 1 4 1 ||| |||
Kaaway ng liwanag ||| Thief ; robber ||| 1 0.0248101 1 0.0199501 ||| 0-0 0-1 0-2 1-2 2-2 ||| 1 1 1 ||| |||
Kababaang - loob ||| Humbleness ||| 1 0.037037 1 0.345811 ||| 0-0 1-0 2-0 ||| 1 1 1 ||| |||
Kabatakang - kumot ||| Same as &quot; kabatakan &quot; ||| 1 0.000684324 1 0.000727377 ||| 0-0 0-1 0-2 1-2 0-3 2-3 0-4 ||| 1 1 1 ||| |||
Kabit ||| Common - law wife ||| 1 0.366021 1 0.00390625 ||| 0-0 0-1 0-2 0-3 ||| 1 1 1 ||| |||
Kabiyak ng dibdib ||| Wife ||| 0.5 0.00195312 1 0.347927 ||| 0-0 1-0 2-0 ||| 2 1 1 ||| |||
Kabungguang - balikat ||| Friend ; a constant companion ||| 0.5 0.0190195 1 0.000120301 ||| 0-0 0-1 0-2 0-3 1-3 0-4 2-4 ||| 2 1 1 ||| |||
Kabutu - butong anak ||| The only child ||| 0.5 0.000321502 1 0.0437411 ||| 0-0 0-1 1-1 0-2 2-2 3-2 ||| 2 1 1 ||| |||
Kadaupang - palad ||| Friend ; a constant companion ||| 0.5 0.0158587 1 0.000321467 ||| 0-0 1-1 0-2 0-3 1-3 0-4 2-4 ||| 2 1 1 ||| |||
Kagandahang - loob ||| Goodness of character ; kind - hearted ||| 0.5 0.00214821 1 4.65564e-06 ||| 0-0 0-1 0-2 1-3 0-4 0-5 0-6 ||| 2 1 1 ||| |||
Kagandahang - ||| Goodness of character ; kind - hearted ||| 0.5 0.0494088 1 4.65564e-06 ||| 0-0 0-1 0-2 1-3 0-4 0-5 0-6 ||| 2 1 1 ||| |||
Kagat ||| Fitted ; suited ||| 1 0.667735 1 0.037037 ||| 0-0 0-1 0-2 ||| 1 1 1 ||| |||
Kahig nang kahig ||| Continously looking for means of livelihood ||| 1 0.0215344 1 5.79679e-05 ||| 0-0 2-0 0-1 1-1 0-2 0-3 0-4 0-5 ||| 1 1 1 ||| |||
Kaibigang - putik ||| A friend in name only ||| 1 0.000933761 1 0.000291475 ||| 0-0 0-1 2-1 0-2 1-2 0-3 0-4 ||| 1 1 1 ||| |||
Kain ||| One ||| 1 0.0555556 1 1 ||| 0-0 ||| 1 1 1 ||| |||
Kakalug - kalog ||| Too few for a big house ||| 1 0.0105282 1 3.8431e-05 ||| 0-0 0-1 0-2 0-3 0-4 1-4 0-5 2-5 ||| 1 1 1 ||| |||
Kalabasang Pula ||| Fire ; conflagration ||| 1 0.250534 1 0.0296296 ||| 1-0 1-1 0-2 1-2 ||| 1 1 1 ||| |||
Kalam ng tiyan ||| A feeling of hunger ||| 1 0.00558699 1 0.00185062 ||| 0-0 0-1 0-2 0-3 1-3 2-3 ||| 1 1 1 ||| |||
Kalamayin ang loob ||| To calm one &apos;s self ||| 1 0.00578449 1 0.00012936 ||| 0-0 0-1 0-2 0-3 0-4 1-4 2-4 ||| 1 1 1 ||| |||
Kalapating mababa ang lipad ||| A prostitute ||| 1 0.00207332 1 0.103701 ||| 0-0 0-1 1-1 2-1 3-1 ||| 1 1 1 ||| |||
Kalawang at bakal ||| &apos;s reputation when one turns his back ||| 1 0.0156143 0.25 1.846e-11 ||| 2-3 1-4 1-5 0-6 1-6 2-6 ||| 1 4 1 ||| |||
Kalawang at bakal ||| one turns his back ||| 1 0.0156143 0.25 0.0016276 ||| 2-0 1-1 1-2 0-3 1-3 2-3 ||| 1 4 1 ||| |||
Kalawang at bakal ||| reputation when one turns his back ||| 1 0.0156143 0.25 4.7027e-09 ||| 2-2 1-3 1-4 0-5 1-5 2-5 ||| 1 4 1 ||| |||
Kalawang at bakal ||| when one turns his back ||| 1 0.0156143 0.25 4.79183e-06 ||| 2-1 1-2 1-3 0-4 1-4 2-4 ||| 1 4 1 ||| |||
Kalog ang utak ||| Foolish ; mentally unbalanced ||| 1 0.109575 1 0.00202513 ||| 0-0 0-1 0-2 1-2 0-3 2-3 ||| 1 1 1 ||| |||
Kamay na bakal ||| Strick enforcement of the law ; unmerciful ||| 1 0.0462963 0.166667 2.44075e-12 ||| 0-0 1-0 2-0 2-1 ||| 1 6 1 ||| |||
Kamay na bakal ||| Strick enforcement of the law ; ||| 1 0.0462963 0.166667 2.48701e-09 ||| 0-0 1-0 2-0 2-1 ||| 1 6 1 ||| |||
Kamay na bakal ||| Strick enforcement of the law ||| 1 0.0462963 0.166667 5.89363e-08 ||| 0-0 1-0 2-0 2-1 ||| 1 6 1 ||| |||
Kamay na bakal ||| Strick enforcement of the ||| 1 0.0462963 0.166667 2.00184e-05 ||| 0-0 1-0 2-0 2-1 ||| 1 6 1 ||| |||
Kamay na bakal ||| Strick enforcement of ||| 1 0.0462963 0.166667 0.000618145 ||| 0-0 1-0 2-0 2-1 ||| 1 6 1 ||| |||
Kamay na bakal ||| Strick enforcement ||| 1 0.0462963 0.166667 0.0196841 ||| 0-0 1-0 2-0 2-1 ||| 1 6 1 ||| |||
Kamay ng singkit ||| Japanese ; Japanese Power ||| 0.5 0.00120939 1 0.00789561 ||| 1-0 2-0 2-1 2-2 2-3 ||| 2 1 1 ||| |||
Kamay ||| is concealed especially if the act is ||| 1 0.025 0.142857 6.68179e-16 ||| 0-0 ||| 1 7 1 ||| |||
Kamay ||| is concealed especially if the act ||| 1 0.025 0.142857 4.00515e-14 ||| 0-0 ||| 1 7 1 ||| |||
Kamay ||| is concealed especially if the ||| 1 0.025 0.142857 2.04063e-11 ||| 0-0 ||| 1 7 1 ||| |||
Kamay ||| is concealed especially if ||| 1 0.025 0.142857 6.30122e-10 ||| 0-0 ||| 1 7 1 ||| |||
Kamay ||| is concealed especially ||| 1 0.025 0.142857 6.42065e-07 ||| 0-0 ||| 1 7 1 ||| |||
Kamay ||| is concealed ||| 1 0.025 0.142857 0.000327133 ||| 0-0 ||| 1 7 1 ||| |||
Kamay ||| is ||| 0.5 0.025 0.142857 0.333333 ||| 0-0 ||| 2 7 1 ||| |||
Kanluran ng buhay ||| Death ; old age ||| 1 0.00503205 1 0.00163616 ||| 0-0 0-1 0-2 0-3 1-3 2-3 ||| 1 1 1 ||| |||
Kantoboy ||| A jobless person ||| 1 0.180342 1 0.037037 ||| 0-0 0-1 0-2 ||| 1 1 1 ||| |||
Kapalagayang - loob ||| An intimate friend ; a confidant ||| 0.5 0.00350711 1 6.95082e-05 ||| 0-0 0-1 0-2 1-3 0-4 0-5 ||| 2 1 1 ||| |||
Kapalagayang - ||| An intimate friend ; a confidant ||| 0.5 0.0806634 1 6.95082e-05 ||| 0-0 0-1 0-2 1-3 0-4 0-5 ||| 2 1 1 ||| |||
Kapalin ||| Rich , wealthy ||| 1 0.118056 1 0.037037 ||| 0-0 0-1 0-2 ||| 1 1 1 ||| |||
Kapilas ng kanilang buhay ||| &quot; bunga ng pag ibig &quot; ||| 1 0.0895062 0.142857 8.90437e-07 ||| 0-1 1-2 2-2 2-3 2-4 3-4 ||| 1 7 1 ||| |||
Kapilas ng kanilang buhay ||| &quot; bunga ng pag ibig ||| 1 0.0895062 0.142857 5.04086e-05 ||| 0-1 1-2 2-2 2-3 2-4 3-4 ||| 1 7 1 ||| |||
Kapilas ng kanilang buhay ||| as &quot; bunga ng pag ibig &quot; ||| 1 0.0895062 0.142857 6.11686e-09 ||| 0-2 1-3 2-3 2-4 2-5 3-5 ||| 1 7 1 ||| |||
Kapilas ng kanilang buhay ||| as &quot; bunga ng pag ibig ||| 1 0.0895062 0.142857 3.46282e-07 ||| 0-2 1-3 2-3 2-4 2-5 3-5 ||| 1 7 1 ||| |||
Kapilas ng kanilang buhay ||| bunga ng pag ibig &quot; ||| 1 0.0895062 0.142857 5.04086e-05 ||| 0-0 1-1 2-1 2-2 2-3 3-3 ||| 1 7 1 ||| |||
Kapilas ng kanilang buhay ||| bunga ng pag ibig ||| 1 0.0895062 0.142857 0.00285368 ||| 0-0 1-1 2-1 2-2 2-3 3-3 ||| 1 7 1 ||| |||
Kapilas ng kanilang buhay ||| meaning as &quot; bunga ng pag ibig ||| 1 0.0895062 0.142857 1.01949e-09 ||| 0-3 1-4 2-4 2-5 2-6 3-6 ||| 1 7 1 ||| |||
Kapilas ng puso ||| Husband , wife ||| 0.5 0.00159593 1 0.00797872 ||| 0-0 1-0 0-1 0-2 ||| 2 1 1 ||| |||
Kapilas ng ||| Husband , wife ||| 0.5 0.128472 1 0.00797872 ||| 0-0 1-0 0-1 0-2 ||| 2 1 1 ||| |||
Kapilas ||| &quot; bunga ||| 1 1 0.2 0.0044161 ||| 0-1 ||| 1 5 1 ||| |||
Kapilas ||| Same meaning as &quot; bunga ||| 1 1 0.2 5.25886e-10 ||| 0-4 ||| 1 5 1 ||| |||
Kapilas ||| as &quot; bunga ||| 1 1 0.2 3.03364e-05 ||| 0-2 ||| 1 5 1 ||| |||
Kapilas ||| bunga ||| 1 1 0.2 0.25 ||| 0-0 ||| 1 5 1 ||| |||
Kapilas ||| meaning as &quot; bunga ||| 1 1 0.2 8.93134e-08 ||| 0-3 ||| 1 5 1 ||| |||
Kapit - bayawak ||| A very tight and tenacious hold ||| 1 0.159872 1 2.19605e-05 ||| 2-0 2-1 2-2 2-3 1-4 2-4 0-5 ||| 1 1 1 ||| |||
Kapit - tuko ||| &quot; kapit - bayawak &quot; ||| 1 0.0269411 0.25 0.00013049 ||| 0-1 1-2 2-2 2-3 2-4 ||| 1 4 1 ||| |||
Kapit - tuko ||| as &quot; kapit - bayawak &quot; ||| 1 0.0269411 0.25 8.964e-07 ||| 0-2 1-3 2-3 2-4 2-5 ||| 1 4 1 ||| |||
Kapit - tuko ||| kapit - bayawak &quot; ||| 1 0.0269411 0.25 0.00738717 ||| 0-0 1-1 2-1 2-2 2-3 ||| 1 4 1 ||| |||
Kapit - tuko ||| meaning as &quot; kapit - bayawak &quot; ||| 1 0.0269411 0.25 2.63909e-09 ||| 0-3 1-4 2-4 2-5 2-6 ||| 1 4 1 ||| |||
Kapit ||| &quot; kapit ||| 1 1 0.142857 0.00588813 ||| 0-1 ||| 1 7 1 ||| |||
Kapit ||| Same meaning as &quot; kapit ||| 1 1 0.142857 7.01182e-10 ||| 0-4 ||| 1 7 1 ||| |||
Kapit ||| Suited ||| 1 1 0.142857 0.333333 ||| 0-0 ||| 1 7 1 ||| |||
Kapit ||| as &quot; kapit ||| 1 1 0.142857 4.04485e-05 ||| 0-2 ||| 1 7 1 ||| |||
Kapit ||| hold ||| 1 1 0.142857 0.333333 ||| 0-0 ||| 1 7 1 ||| |||
Kapit ||| kapit ||| 1 1 0.142857 0.333333 ||| 0-0 ||| 1 7 1 ||| |||
Kapit ||| meaning as &quot; kapit ||| 1 1 0.142857 1.19085e-07 ||| 0-3 ||| 1 7 1 ||| |||
Kapus - palad ||| Unfortunate ||| 1 0.037037 1 0.371736 ||| 0-0 1-0 2-0 ||| 1 1 1 ||| |||
Kaputol ng pusod ||| Sister or Brother ||| 1 0.0496814 1 0.0310612 ||| 0-0 0-1 0-2 1-2 2-2 ||| 1 1 1 ||| |||
Karamdaman ||| ; ||| 0.02 0.0032051 0.333333 1 ||| 0-0 ||| 50 3 1 ||| |||
Karamdaman ||| Became sick ; ||| 1 0.0032051 0.333333 9.63146e-07 ||| 0-2 ||| 1 3 1 ||| |||
Karamdaman ||| sick ; ||| 1 0.0032051 0.333333 0.0009814 ||| 0-1 ||| 1 3 1 ||| |||
Karugtong ng buhay ||| Wife or husband ||| 1 0.00444086 1 0.0147213 ||| 0-0 0-1 0-2 1-2 2-2 ||| 1 1 1 ||| |||
Kasaliwaang palad ||| Misfortune ||| 1 0.111111 1 0.555556 ||| 0-0 1-0 ||| 1 1 1 ||| |||
Katapikang - balikat ||| Same as &quot; kadaupang - palad &quot; ||| 1 0.00702721 1 2.80508e-06 ||| 0-0 0-1 0-2 0-3 0-4 1-4 0-5 2-5 0-6 ||| 1 1 1 ||| |||
Kaututang - Dila ||| Does not speak clearly ||| 1 0.0186087 1 0.0039276 ||| 0-0 0-1 0-2 0-3 1-3 2-3 ||| 1 1 1 ||| |||
Kinain ng apoy ||| Burned ||| 1 0.037037 1 0.216059 ||| 0-0 1-0 2-0 ||| 1 1 1 ||| |||
Kinain ng laho ||| Suddenly disappeared ||| 1 0.0740741 1 0.167553 ||| 2-0 0-1 1-1 2-1 ||| 1 1 1 ||| |||
Kinakain ang salita ||| Very hungry ||| 0.5 0.00595238 1 0.251536 ||| 0-0 0-1 1-1 2-1 ||| 2 1 1 ||| |||
Kinakalambre ang tiyan ||| Very hungry ||| 0.5 0.00595238 1 0.101536 ||| 0-0 0-1 1-1 2-1 ||| 2 1 1 ||| |||
Kinukulili ang tainga ||| Getting tired of hearing the same thing ||| 1 0.00353068 0.333333 4.59758e-09 ||| 0-0 1-0 0-1 0-2 0-3 2-4 ||| 1 3 1 ||| |||
Kinukulili ang tainga ||| Getting tired of hearing the same ||| 1 0.00353068 0.333333 1.56162e-06 ||| 0-0 1-0 0-1 0-2 0-3 2-4 ||| 1 3 1 ||| |||
Kinukulili ang tainga ||| Getting tired of hearing the ||| 1 0.00353068 0.333333 0.000795651 ||| 0-0 1-0 0-1 0-2 0-3 2-4 ||| 1 3 1 ||| |||
Kinukulili ang ||| Getting tired of hearing ||| 1 0.213606 1 0.00198913 ||| 0-0 1-0 0-1 0-2 0-3 ||| 1 1 1 ||| |||
Kisap - mata ||| A moment ; a second ||| 1 0.0144593 1 0.00033889 ||| 0-0 0-1 1-2 0-3 0-4 1-4 2-4 ||| 1 1 1 ||| |||
Kukong ||| of a hawk ||| 1 0.338808 1 0.037037 ||| 0-0 0-1 0-2 ||| 1 1 1 ||| |||
Kukulu - kulo ang tiyan ||| Financially in need ; an unrealiable person ||| 0.333333 7.3522e-06 1 2.68653e-06 ||| 0-0 2-0 0-1 1-1 0-2 1-3 0-4 0-5 0-6 ||| 3 1 1 ||| |||
Kukulu - kulo ang ||| Financially in need ; an unrealiable person ||| 0.333333 0.00059185 1 2.68653e-06 ||| 0-0 2-0 0-1 1-1 0-2 1-3 0-4 0-5 0-6 ||| 3 1 1 ||| |||
Kukulu - kulo ||| Financially in need ; an unrealiable person ||| 0.333333 0.0158813 1 2.68653e-06 ||| 0-0 2-0 0-1 1-1 0-2 1-3 0-4 0-5 0-6 ||| 3 1 1 ||| |||
Kulang - kulang ||| Unbalanced mind ; insane ||| 1 0.020623 1 0.0018776 ||| 0-0 0-1 0-2 0-3 1-3 2-3 ||| 1 1 1 ||| |||
Kulang sa pito , labis sa walo ||| Same meaning as &quot; kulang - kulang ||| 1 4.16301e-08 1 2.31359e-05 ||| 6-0 0-1 2-1 4-1 1-2 3-2 5-2 3-3 3-4 4-5 4-6 ||| 1 1 1 ||| |||
Kulang sa pito , labis sa ||| meaning as &quot; kulang - kulang &quot; ||| 1 1.08238e-06 0.5 1.22604e-06 ||| 0-0 2-0 4-0 1-1 3-1 5-1 3-2 3-3 4-4 4-5 ||| 1 2 1 ||| |||
Kulang sa pito , labis sa ||| meaning as &quot; kulang - kulang ||| 1 1.08238e-06 0.5 6.94076e-05 ||| 0-0 2-0 4-0 1-1 3-1 5-1 3-2 3-3 4-4 4-5 ||| 1 2 1 ||| |||
Kulubot na ang balat ||| Already old ||| 1 0.000266667 1 0.0978472 ||| 0-0 0-1 1-1 2-1 3-1 ||| 1 1 1 ||| |||
Kumakagat ||| To try all ||| 1 0.371053 1 0.015625 ||| 0-0 0-1 0-2 ||| 1 1 1 ||| |||
Kumakahig ||| Conversing with ; talking with ||| 1 0.237308 1 0.00128 ||| 0-0 0-1 0-2 0-3 0-4 ||| 1 1 1 ||| |||
Kumakain ng apoy ||| Fierce ||| 0.5 0.00291545 1 0.0864291 ||| 0-0 1-0 2-0 ||| 2 1 1 ||| |||
Kumakain ng bala ||| Is not afaraid of bullet ||| 1 0.0412741 1 7.2813e-05 ||| 2-0 2-1 2-2 2-3 0-4 1-4 2-4 ||| 1 1 1 ||| |||
Kumakain ng pangaral ||| the elder member of the family ||| 1 0.030097 0.5 2.52091e-05 ||| 0-0 0-1 0-2 1-2 2-2 0-3 0-4 0-5 ||| 1 2 1 ||| |||
Kumakain ng pangaral ||| to the elder member of the family ||| 1 0.030097 0.5 1.23695e-06 ||| 0-1 0-2 0-3 1-3 2-3 0-4 0-5 0-6 ||| 1 2 1 ||| |||
Kumakain sa iisang pinggan ||| Treating each other very well ||| 1 0.00664062 1 0.00030711 ||| 0-0 3-0 1-1 2-1 2-2 2-3 3-4 ||| 1 1 1 ||| |||
Kumakalam ang tiyan ||| See &quot; kalam ng tiyan &quot; ||| 0.5 0.00274955 1 4.40522e-05 ||| 0-0 0-1 0-2 0-3 0-4 1-4 0-5 ||| 2 1 1 ||| |||
Kumakalam ang ||| See &quot; kalam ng tiyan &quot; ||| 0.5 0.221338 1 4.40522e-05 ||| 0-0 0-1 0-2 0-3 0-4 1-4 0-5 ||| 2 1 1 ||| |||
Kumindat sa dilim ||| No hope , hopeless ||| 1 0.00909288 1 0.00264218 ||| 0-0 0-1 0-2 0-3 1-3 2-3 ||| 1 1 1 ||| |||
Kumita ng unang liwanag ||| Was born ||| 1 0.000352179 1 0.175621 ||| 0-0 1-0 2-0 0-1 3-1 ||| 1 1 1 ||| |||
Kumukulo ang dugo ||| Hating ; angered . ||| 1 0.019302 1 0.00165161 ||| 0-0 1-0 2-0 0-1 0-2 0-3 ||| 1 1 1 ||| |||
Kusang - palo ||| Doing a thing voluntarily ||| 1 0.0215067 1 0.00305954 ||| 0-0 0-1 0-2 0-3 1-3 2-3 ||| 1 1 1 ||| |||
Kutong - lupa ||| A small and short person ||| 1 0.0023807 1 0.000157337 ||| 0-0 0-1 0-2 0-3 1-3 2-3 0-4 ||| 1 1 1 ||| |||
Kuwalta na &apos;y naging bato pa ||| Disillusionment ||| 1 2.14335e-05 1 0.538977 ||| 0-0 1-0 2-0 3-0 4-0 5-0 ||| 1 1 1 ||| |||
Labanan ng mga puso ||| Avoiding conversation between two lovers ( during ||| 1 0.00323582 1 4.28205e-07 ||| 0-0 0-1 0-2 0-3 0-4 2-4 3-4 0-5 1-5 0-6 ||| 1 1 1 ||| |||
Labas - Masok ||| More or less ||| 1 0.0496814 1 0.0199049 ||| 2-0 2-1 0-2 1-2 2-2 ||| 1 1 1 ||| |||
Labas sa bakuran ||| Outside one &apos;s jurisdiction ||| 1 0.0383451 1 0.00321946 ||| 0-0 0-1 0-2 0-3 1-3 2-3 ||| 1 1 1 ||| |||
Labi ng hukay ||| Grave ||| 0.25 0.00137174 1 0.235106 ||| 0-0 1-0 2-0 ||| 4 1 1 ||| |||
Labis sa pito , kulang sa walo ||| sa walo , labis sa pito &quot; ||| 1 6.73267e-05 1 2.76328e-05 ||| 0-0 0-1 0-2 0-3 0-4 1-4 3-4 5-4 0-5 2-5 4-5 6-5 6-6 ||| 1 1 1 ||| |||
Laglag - luksa ||| Death anniversary ||| 1 0.0296296 1 0.250683 ||| 0-0 0-1 1-1 2-1 ||| 1 1 1 ||| |||
Lagot ang pisi ||| The money is gone ; broke ||| 1 0.0122666 1 3.68714e-05 ||| 0-0 0-1 0-2 0-3 1-4 0-5 1-5 2-5 ||| 1 1 1 ||| |||
Lakad - pagong ||| Slow ; walks sluggishly ||| 1 0.0697783 1 0.0025872 ||| 0-0 1-1 0-2 1-2 0-3 2-3 ||| 1 1 1 ||| |||
Lakad - suso ||| &quot; lakad - pagong &quot; ||| 1 0.0770194 0.25 9.78674e-05 ||| 0-1 1-2 2-2 2-3 2-4 ||| 1 4 1 ||| |||
Lakad - suso ||| Same as &quot; lakad - pagong &quot; ||| 1 0.0770194 0.25 3.95857e-09 ||| 0-3 1-4 2-4 2-5 2-6 ||| 1 4 1 ||| |||
Lakad - suso ||| as &quot; lakad - pagong &quot; ||| 1 0.0770194 0.25 6.723e-07 ||| 0-2 1-3 2-3 2-4 2-5 ||| 1 4 1 ||| |||
Lakad - suso ||| lakad - pagong &quot; ||| 1 0.0770194 0.25 0.00554038 ||| 0-0 1-1 2-1 2-2 2-3 ||| 1 4 1 ||| |||
Lakad ||| &quot; lakad ||| 1 1 0.25 0.0044161 ||| 0-1 ||| 1 4 1 ||| |||
Lakad ||| Same as &quot; lakad ||| 1 1 0.25 1.78624e-07 ||| 0-3 ||| 1 4 1 ||| |||
Lakad ||| as &quot; lakad ||| 1 1 0.25 3.03364e-05 ||| 0-2 ||| 1 4 1 ||| |||
Lakad ||| lakad ||| 1 1 0.25 0.25 ||| 0-0 ||| 1 4 1 ||| |||
Lakas - loob ||| Courageously ; bravely ||| 1 0.0349448 1 0.00520283 ||| 0-0 1-1 0-2 1-2 2-2 ||| 1 1 1 ||| |||
Lakas ng lagnat ||| High temperature due to a sever fever ||| 1 0.194444 1 1.00541e-09 ||| 2-0 1-1 0-5 0-6 ||| 1 1 1 ||| |||
Lakas ng ||| temperature due to a sever fever ||| 1 0.583333 1 1.00541e-09 ||| 1-0 0-4 0-5 ||| 1 1 1 ||| |||
Lakas ||| a sever fever ||| 1 0.583333 0.25 0.00196271 ||| 0-1 0-2 ||| 1 4 1 ||| |||
Lakas ||| due to a sever fever ||| 1 0.583333 0.25 1.89019e-07 ||| 0-3 0-4 ||| 1 4 1 ||| |||
Lakas ||| sever fever ||| 1 0.583333 0.25 0.0625 ||| 0-0 0-1 ||| 1 4 1 ||| |||
Lakas ||| to a sever fever ||| 1 0.583333 0.25 9.63055e-05 ||| 0-2 0-3 ||| 1 4 1 ||| |||
Laki sa lansangan ||| Lacking in good manners and parents advice ||| 1 0.0414529 1 5.92082e-07 ||| 0-0 0-1 0-2 0-3 0-4 0-5 0-6 1-6 2-6 ||| 1 1 1 ||| |||
Laki sa nuno ||| Pampered grandchild ||| 1 0.0740741 1 0.105383 ||| 2-0 0-1 1-1 2-1 ||| 1 1 1 ||| |||
Lalabasan ||| Possessing intelligence or ability ||| 1 0.364516 1 0.00390625 ||| 0-0 0-1 0-2 0-3 ||| 1 1 1 ||| |||
Laman ng kapitbahay ||| Always in the home of neighbors ||| 1 0.0058785 1 2.77889e-06 ||| 0-0 0-1 0-2 0-3 0-4 0-5 1-5 2-5 ||| 1 1 1 ||| |||
Laman ng laman ||| Daughter or son ||| 0.5 0.00156115 1 0.00410638 ||| 2-0 2-1 1-2 2-2 ||| 2 1 1 ||| |||
Laman ng lansangan ||| Vagabond ||| 0.5 0.00462963 1 0.154551 ||| 0-0 1-0 2-0 ||| 2 1 1 ||| |||
Lamang - kati ||| Meat of butchered animals ||| 1 0.025703 1 0.000816394 ||| 2-0 2-1 1-2 2-2 0-3 2-3 ||| 1 1 1 ||| |||
Lamang - lupa ||| Fruit that grow under the ground ||| 0.5 0.00117224 1 2.94961e-07 ||| 2-0 2-1 2-2 1-3 2-3 2-4 2-5 ||| 2 1 1 ||| |||
Lamang - tiyan ||| Anything good to eat ||| 1 0.00390875 1 0.000120492 ||| 0-0 1-1 2-1 2-2 2-3 ||| 1 1 1 ||| |||
Lamang ||| Anything ||| 1 0.25 0.5 0.2 ||| 0-0 ||| 1 2 1 ||| |||
Lamang ||| inside organs ||| 1 1 0.5 0.04 ||| 0-0 0-1 ||| 1 2 1 ||| |||
Lamok ang katawan ||| beating , pinching or other forms of ||| 1 0.00204413 0.1 8.96581e-11 ||| 0-0 1-0 0-1 0-2 2-3 ||| 1 10 1 ||| |||
Lamok ang katawan ||| beating , pinching or other forms ||| 1 0.00204413 0.1 2.85505e-09 ||| 0-0 1-0 0-1 0-2 2-3 ||| 1 10 1 ||| |||
Lamok ang katawan ||| beating , pinching or other ||| 1 0.00204413 0.1 2.90916e-06 ||| 0-0 1-0 0-1 0-2 2-3 ||| 1 10 1 ||| |||
Lamok ang katawan ||| beating , pinching or ||| 1 0.00204413 0.1 0.000988133 ||| 0-0 1-0 0-1 0-2 2-3 ||| 1 10 1 ||| |||
Lamok ang katawan ||| been subjected to beating , pinching or ||| 1 0.00204413 0.1 9.33923e-11 ||| 0-3 1-3 0-4 0-5 2-6 ||| 1 10 1 ||| |||
Lamok ang katawan ||| subjected to beating , pinching or other ||| 1 0.00204413 0.1 1.40091e-10 ||| 0-2 1-2 0-3 0-4 2-5 ||| 1 10 1 ||| |||
Lamok ang katawan ||| subjected to beating , pinching or ||| 1 0.00204413 0.1 4.75836e-08 ||| 0-2 1-2 0-3 0-4 2-5 ||| 1 10 1 ||| |||
Lamok ang katawan ||| to beating , pinching or other forms ||| 1 0.00204413 0.1 1.40091e-10 ||| 0-1 1-1 0-2 0-3 2-4 ||| 1 10 1 ||| |||
Lamok ang katawan ||| to beating , pinching or other ||| 1 0.00204413 0.1 1.42746e-07 ||| 0-1 1-1 0-2 0-3 2-4 ||| 1 10 1 ||| |||
Lamok ang katawan ||| to beating , pinching or ||| 1 0.00204413 0.1 4.84854e-05 ||| 0-1 1-1 0-2 0-3 2-4 ||| 1 10 1 ||| |||
Lamok ang ||| beating , pinching ||| 1 0.253472 0.2 0.0187745 ||| 0-0 1-0 0-1 0-2 ||| 1 5 1 ||| |||
Lamok ang ||| been subjected to beating , pinching ||| 1 0.253472 0.2 1.77445e-09 ||| 0-3 1-3 0-4 0-5 ||| 1 5 1 ||| |||
Lamok ang ||| has been subjected to beating , pinching ||| 1 0.253472 0.2 6.96544e-12 ||| 0-4 1-4 0-5 0-6 ||| 1 5 1 ||| |||
Lamok ang ||| subjected to beating , pinching ||| 1 0.253472 0.2 9.04088e-07 ||| 0-2 1-2 0-3 0-4 ||| 1 5 1 ||| |||
Lamok ang ||| to beating , pinching ||| 1 0.253472 0.2 0.000921223 ||| 0-1 1-1 0-2 0-3 ||| 1 5 1 ||| |||
Landas na matinik ||| Difficulties or sacrifices ||| 1 0.0496814 1 0.0499044 ||| 0-0 0-1 0-2 1-2 2-2 ||| 1 1 1 ||| |||
Langaw at gatas ||| Applies to a couple , when the ||| 1 0.037037 0.142857 1.22628e-12 ||| 0-0 1-0 2-0 ||| 1 7 1 ||| |||
Langaw at gatas ||| Applies to a couple , when ||| 1 0.037037 0.142857 3.78659e-11 ||| 0-0 1-0 2-0 ||| 1 7 1 ||| |||
Langaw at gatas ||| Applies to a couple , ||| 1 0.037037 0.142857 1.28616e-08 ||| 0-0 1-0 2-0 ||| 1 7 1 ||| |||
Langaw at gatas ||| Applies to a couple ||| 1 0.037037 0.142857 8.19123e-07 ||| 0-0 1-0 2-0 ||| 1 7 1 ||| |||
Langaw at gatas ||| Applies to a ||| 1 0.037037 0.142857 0.000834648 ||| 0-0 1-0 2-0 ||| 1 7 1 ||| |||
Langaw at gatas ||| Applies to ||| 1 0.037037 0.142857 0.0265783 ||| 0-0 1-0 2-0 ||| 1 7 1 ||| |||
Langaw at gatas ||| Applies ||| 1 0.037037 0.142857 0.541667 ||| 0-0 1-0 2-0 ||| 1 7 1 ||| |||
Langis - langisan ||| ; to win the sympathy ||| 1 0.0311703 0.2 5.40979e-05 ||| 0-2 0-3 0-4 1-4 2-4 ||| 1 5 1 ||| |||
Langis - langisan ||| favor ; to win the sympathy ||| 1 0.0311703 0.2 5.30916e-08 ||| 0-3 0-4 0-5 1-5 2-5 ||| 1 5 1 ||| |||
Langis - langisan ||| the favor ; to win the sympathy ||| 1 0.0311703 0.2 1.71936e-09 ||| 0-4 0-5 0-6 1-6 2-6 ||| 1 5 1 ||| |||
Langis - langisan ||| to win the sympathy ||| 1 0.0311703 0.2 0.00128199 ||| 0-1 0-2 0-3 1-3 2-3 ||| 1 5 1 ||| |||
Langis - langisan ||| win the sympathy ||| 1 0.0311703 0.2 0.026127 ||| 0-0 0-1 0-2 1-2 2-2 ||| 1 5 1 ||| |||
Langis at tubig ||| Rivals ||| 1 0.037037 1 0.162037 ||| 0-0 1-0 2-0 ||| 1 1 1 ||| |||
Langit ng buhay ||| Complete happiness ||| 1 0.024 1 0.00469854 ||| 0-0 0-1 1-1 2-1 ||| 1 1 1 ||| |||
Lawit ang pusod ||| Selfish ; very stingy ||| 1 0.0127454 1 0.00393025 ||| 0-0 0-1 0-2 0-3 1-3 2-3 ||| 1 1 1 ||| |||
Laylay ang balikat ||| Appearance of a disappointed person ||| 0.5 0.0012945 1 0.000163687 ||| 0-0 0-1 0-2 0-3 1-3 0-4 ||| 2 1 1 ||| |||
Laylay ang ||| Appearance of a disappointed person ||| 0.5 0.104207 1 0.000163687 ||| 0-0 0-1 0-2 0-3 1-3 0-4 ||| 2 1 1 ||| |||
Ligaw tingin ||| Courting with the eyes only ; a ||| 1 0.0890209 0.333333 5.2573e-08 ||| 0-0 1-0 1-1 1-2 1-3 1-4 ||| 1 3 1 ||| |||
