1 1 1 100 1
0 2 1 100 0.108391
1 2 1 100 0.891609
0 3 1 100 0.0895927
1 3 1 100 0.910407
0 4 1 100 0.0977277
1 4 1 100 0.902272
0 5 1 100 0.114845
1 5 1 100 0.885155
0 6 1 100 0.130504
1 6 1 100 0.869496
0 7 1 100 0.00416289
1 7 1 100 0.995837
0 8 1 100 0.00143939
1 8 1 100 0.998561
1 9 1 100 1
0 1 2 100 7.51043e-07
1 1 2 100 0.471246
2 1 2 100 0.528753
0 2 2 100 0.128129
1 2 2 100 0.361534
2 2 2 100 0.510337
0 3 2 100 0.0887249
1 3 2 100 0.353234
2 3 2 100 0.558041
0 4 2 100 0.14577
1 4 2 100 0.399778
2 4 2 100 0.454452
0 5 2 100 0.0353262
1 5 2 100 0.402006
2 5 2 100 0.562668
0 6 2 100 0.177176
1 6 2 100 0.357827
2 6 2 100 0.464997
0 7 2 100 0.144225
1 7 2 100 0.325512
2 7 2 100 0.530263
0 8 2 100 0.0894493
1 8 2 100 0.479956
2 8 2 100 0.430594
0 9 2 100 0.05
1 9 2 100 0.35
2 9 2 100 0.6
0 10 2 100 0.0721487
1 10 2 100 0.428136
2 10 2 100 0.499716
1 11 2 100 0.333333
2 11 2 100 0.666667
0 12 2 100 0.00381818
1 12 2 100 0.492307
2 12 2 100 0.503874
0 13 2 100 0.0734776
1 13 2 100 0.593189
2 13 2 100 0.333333
1 14 2 100 1
1 15 2 100 1
0 16 2 100 1
1 17 2 100 1
1 18 2 100 1
0 1 3 100 2.98741e-05
1 1 3 100 0.808583
2 1 3 100 0.00350421
3 1 3 100 0.187883
0 2 3 100 0.129484
1 2 3 100 0.655049
2 2 3 100 0.01288
3 2 3 100 0.202587
0 3 3 100 0.13791
1 3 3 100 0.618539
2 3 3 100 0.0161045
3 3 3 100 0.227447
0 4 3 100 0.156948
1 4 3 100 0.571781
2 4 3 100 0.0232562
3 4 3 100 0.248015
0 5 3 100 0.108868
1 5 3 100 0.596989
2 5 3 100 0.01677
3 5 3 100 0.277374
0 6 3 100 0.15849
1 6 3 100 0.569798
2 6 3 100 0.0199657
3 6 3 100 0.251746
0 7 3 100 0.0925736
1 7 3 100 0.583196
2 7 3 100 0.0216242
3 7 3 100 0.302606
0 8 3 100 0.071028
1 8 3 100 0.605392
2 8 3 100 0.0230416
3 8 3 100 0.300539
0 9 3 100 0.157628
1 9 3 100 0.581378
2 9 3 100 0.0225432
3 9 3 100 0.238451
0 10 3 100 0.120175
1 10 3 100 0.653827
2 10 3 100 0.00210398
3 10 3 100 0.223893
0 11 3 100 0.114997
1 11 3 100 0.601839
2 11 3 100 0.026756
3 11 3 100 0.256407
0 12 3 100 0.180586
1 12 3 100 0.435128
2 12 3 100 0.0322215
3 12 3 100 0.352065
0 13 3 100 0.0606103
1 13 3 100 0.519251
2 13 3 100 5.99446e-06
3 13 3 100 0.420133
0 14 3 100 0.0807991
1 14 3 100 0.367093
2 14 3 100 0.0277778
3 14 3 100 0.52433
0 15 3 100 0.119064
1 15 3 100 0.284988
2 15 3 100 0.107859
3 15 3 100 0.488088
0 16 3 100 0.0944607
1 16 3 100 0.270769
2 16 3 100 1.13737e-05
3 16 3 100 0.634759
0 17 3 100 0.0454546
1 17 3 100 0.227273
3 17 3 100 0.727273
0 18 3 100 0.113389
1 18 3 100 0.388889
3 18 3 100 0.497722
0 19 3 100 0.000238476
1 19 3 100 0.461538
3 19 3 100 0.538223
0 20 3 100 0.218721
3 20 3 100 0.781279
0 21 3 100 0.2
3 21 3 100 0.8
0 22 3 100 0.00210043
1 22 3 100 0.4
2 22 3 100 0.200946
3 22 3 100 0.396954
0 23 3 100 1.3457e-05
1 23 3 100 0.25
2 23 3 100 0.749987
1 24 3 100 0.5
2 24 3 100 0.5
2 25 3 100 1
1 1 4 100 0.448536
2 1 4 100 0.191785
3 1 4 100 0.0180816
4 1 4 100 0.341597
0 2 4 100 0.0999221
1 2 4 100 0.37881
2 2 4 100 0.201859
3 2 4 100 0.0477427
4 2 4 100 0.271665
0 3 4 100 0.119197
1 3 4 100 0.317519
2 3 4 100 0.291609
3 3 4 100 0.0441173
4 3 4 100 0.227558
0 4 4 100 0.102198
1 4 4 100 0.309501
2 4 4 100 0.273336
3 4 4 100 0.079928
4 4 4 100 0.235038
0 5 4 100 0.168889
1 5 4 100 0.295249
2 5 4 100 0.235114
3 5 4 100 0.121318
4 5 4 100 0.179431
0 6 4 100 0.119115
1 6 4 100 0.215471
2 6 4 100 0.308445
3 6 4 100 0.143533
4 6 4 100 0.213436
0 7 4 100 0.0758091
1 7 4 100 0.312725
2 7 4 100 0.201379
3 7 4 100 0.207931
4 7 4 100 0.202156
0 8 4 100 0.211503
1 8 4 100 0.303629
2 8 4 100 0.237087
3 8 4 100 0.10985
4 8 4 100 0.137931
0 9 4 100 0.0682929
1 9 4 100 0.484545
2 9 4 100 0.319865
3 9 4 100 0.117149
4 9 4 100 0.0101478
0 10 4 100 0.107201
1 10 4 100 0.526305
2 10 4 100 0.208565
3 10 4 100 0.105256
4 10 4 100 0.0526731
0 11 4 100 0.207689
1 11 4 100 0.407231
2 11 4 100 0.230769
3 11 4 100 0.153846
4 11 4 100 0.000465156
0 12 4 100 5.85508e-05
1 12 4 100 0.444444
2 12 4 100 0.333333
3 12 4 100 0.00180223
4 12 4 100 0.220361
0 13 4 100 0.126746
1 13 4 100 0.375
2 13 4 100 0.125
3 13 4 100 0.123254
4 13 4 100 0.25
0 14 4 100 0.125
1 14 4 100 0.375
2 14 4 100 0.375
4 14 4 100 0.125
0 15 4 100 0.248982
1 15 4 100 0.125
2 15 4 100 0.375018
3 15 4 100 0.125999
4 15 4 100 0.125
0 16 4 100 6.5693e-06
1 16 4 100 0.285714
2 16 4 100 0.285708
3 16 4 100 0.142857
4 16 4 100 0.285714
1 17 4 100 0.166667
2 17 4 100 0.333333
3 17 4 100 0.166667
4 17 4 100 0.333333
2 18 4 100 0.25
3 18 4 100 0.5
4 18 4 100 0.25
2 19 4 100 0.25
3 19 4 100 0.5
4 19 4 100 0.25
0 20 4 100 0.250074
2 20 4 100 0.249927
3 20 4 100 0.499999
0 21 4 100 0.25
3 21 4 100 0.25
4 21 4 100 0.5
1 22 4 100 0.249991
3 22 4 100 9.01385e-06
4 22 4 100 0.75
1 23 4 100 0.333333
4 23 4 100 0.666667
1 24 4 100 0.666667
4 24 4 100 0.333333
0 25 4 100 0.333333
1 25 4 100 0.666667
1 26 4 100 0.666667
4 26 4 100 0.333333
0 27 4 100 0.5
4 27 4 100 0.5
0 28 4 100 0.5
4 28 4 100 0.5
0 29 4 100 0.423691
1 29 4 100 0.5
2 29 4 100 0.000890568
4 29 4 100 0.0754182
1 30 4 100 1
1 31 4 100 1
1 1 5 100 0.512093
2 1 5 100 0.0466013
3 1 5 100 0.353837
4 1 5 100 0.000110188
5 1 5 100 0.0873592
0 2 5 100 0.127813
1 2 5 100 0.50921
2 2 5 100 0.0279358
3 2 5 100 0.251411
4 2 5 100 4.26858e-07
5 2 5 100 0.0836297
0 3 5 100 0.0585699
1 3 5 100 0.546623
2 3 5 100 0.0558085
3 3 5 100 0.249657
4 3 5 100 0.000258911
5 3 5 100 0.0890821
0 4 5 100 0.182665
1 4 5 100 0.424376
2 4 5 100 0.0605978
3 4 5 100 0.271198
5 4 5 100 0.0611631
0 5 5 100 0.265252
1 5 5 100 0.296326
2 5 5 100 0.0778005
3 5 5 100 0.167393
4 5 5 100 0.00101199
5 5 5 100 0.192217
0 6 5 100 0.0524409
1 6 5 100 0.362792
2 6 5 100 0.0909096
3 6 5 100 0.220504
5 6 5 100 0.273353
0 7 5 100 0.00224605
1 7 5 100 0.374819
2 7 5 100 0.0555552
3 7 5 100 0.210503
4 7 5 100 0.00515591
5 7 5 100 0.351721
0 8 5 100 0.10014
1 8 5 100 0.293667
3 8 5 100 0.106295
5 8 5 100 0.499899
0 9 5 100 0.333333
1 9 5 100 0.221879
3 9 5 100 0.443835
5 9 5 100 0.000952838
0 10 5 100 0.0957936
1 10 5 100 0.242796
3 10 5 100 0.25
5 10 5 100 0.41141
0 11 5 100 0.398071
1 11 5 100 0.2
3 11 5 100 0.4
5 11 5 100 0.00192908
5 12 5 100 1
5 13 5 100 1
0 14 5 100 1
5 15 5 100 1
5 16 5 100 1
5 17 5 100 1
1 18 5 100 1
0 19 5 100 0.500792
5 19 5 100 0.499208
1 20 5 100 1
3 21 5 100 1
3 22 5 100 1
3 23 5 100 1
0 24 5 100 3.55918e-05
3 24 5 100 0.999964
1 1 6 100 0.375425
3 1 6 100 0.0437903
4 1 6 100 0.241419
6 1 6 100 0.339365
1 2 6 100 0.244984
2 2 6 100 0.00243117
3 2 6 100 0.0132374
4 2 6 100 0.624359
5 2 6 100 0.0016327
6 2 6 100 0.113356
1 3 6 100 0.097624
2 3 6 100 0.375
3 3 6 100 0.0472341
4 3 6 100 0.452765
5 3 6 100 0.0273761
0 4 6 100 0.285549
1 4 6 100 0.139179
2 4 6 100 0.28588
4 4 6 100 0.289392
0 5 6 100 0.047737
1 5 6 100 0.000346714
2 5 6 100 0.600212
3 5 6 100 0.0036427
4 5 6 100 0.348062
0 6 6 100 4.24779e-05
1 6 6 100 0.199997
2 6 6 100 0.594848
4 6 6 100 0.205113
0 7 6 100 0.0203188
1 7 6 100 6.5656e-06
2 7 6 100 0.6
4 7 6 100 0.379675
0 8 6 100 0.390187
1 8 6 100 5.63377e-06
2 8 6 100 0.467835
4 8 6 100 0.11409
6 8 6 100 0.027883
2 9 6 100 0.5
4 9 6 100 0.5
4 10 6 100 1
5 1 7 100 0.142857
7 1 7 100 0.857143
0 2 7 100 0.166606
2 2 7 100 0.00674394
3 2 7 100 5.16394e-06
5 2 7 100 0.166667
6 2 7 100 6.01425e-05
7 2 7 100 0.659918
0 3 7 100 0.167076
3 3 7 100 0.166667
5 3 7 100 0.333333
7 3 7 100 0.332924
0 4 7 100 0.0112276
3 4 7 100 0.200003
4 4 7 100 0.00410024
5 4 7 100 0.588774
7 4 7 100 0.195895
0 5 7 100 0.399066
1 5 7 100 0.2
3 5 7 100 0.200453
5 5 7 100 0.2
7 5 7 100 0.000480323
0 6 7 100 0.000261156
1 6 7 100 0.2
2 6 7 100 0.2
5 6 7 100 0.599739
0 7 7 100 0.00255094
1 7 7 100 0.399984
2 7 7 100 0.197089
3 7 7 100 1.17367e-05
4 7 7 100 0.000505031
5 7 7 100 0.2
6 7 7 100 0.000375282
7 7 7 100 0.199484
0 8 7 100 0.00127856
1 8 7 100 0.4
2 8 7 100 0.2
3 8 7 100 1.81665e-05
7 8 7 100 0.398703
1 9 7 100 0.5
2 9 7 100 0.25
7 9 7 100 0.25
0 10 7 100 0.155042
1 10 7 100 0.666667
7 10 7 100 0.178291
0 11 7 100 0.0168297
1 11 7 100 0.333333
3 11 7 100 0.288328
7 11 7 100 0.361508
1 12 7 100 0.500003
7 12 7 100 0.499997
6 1 8 100 0.997857
8 1 8 100 0.00214338
8 2 8 100 1
8 3 8 100 1
0 4 8 100 0.00622972
7 4 8 100 0.00121514
8 4 8 100 0.992555
8 5 8 100 1
0 6 8 100 1
8 7 8 100 1
8 8 8 100 1
8 9 8 100 1
8 10 8 100 1
1 1 9 100 0.996009
3 1 9 100 0.0036171
8 1 9 100 0.000373616
1 2 9 100 1
0 3 9 100 0.924107
1 3 9 100 0.0610079
3 3 9 100 0.0146231
4 3 9 100 0.000261427
1 4 9 100 1
