0 7 0.0597668
0 9 0.0753775
0 16 8.03406e-05
0 17 0.0796824
0 20 2.03734e-05
0 29 0.48025
0 43 0.286183
0 47 0.0141496
0 117 0.000427742
0 153 9.9408e-05
0 306 1.22409e-07
0 346 0.00396256
2 2 0.250003
2 3 0.250002
2 4 0.250003
2 5 0.249993
3 33 0.182961
3 47 0.179452
3 62 0.0890701
3 117 0.014009
3 240 0.0890051
3 346 0.0903908
3 725 0.0887897
3 1120 0.0887743
3 1121 0.0887743
3 1182 0.0887742
4 9 0.325997
4 985 0.337001
4 986 0.337001
5 43 1
6 3 0.0915596
6 5 0.0915631
6 7 0.0834056
6 26 0.0915596
6 29 0.000995366
6 311 0.0915595
6 513 0.0915595
6 898 0.0915596
6 1254 0.0915596
6 1255 0.0915596
6 1256 0.0915595
6 1857 0.0915596
7 6 0.172341
7 7 0.154912
7 8 0.172341
7 9 0.155726
7 10 0.172338
7 11 0.172341
8 430 1
9 9 0.999675
9 10 0.000324802
10 12 0.00344327
10 19 0.331997
10 20 0.331997
10 21 0.331997
10 22 0.000566063
11 12 0.134729
11 13 0.136141
11 14 0.136141
11 15 0.136141
11 16 0.135937
11 17 0.0860675
11 18 0.136141
11 114 0.098703
12 20 0.167546
12 47 0.499703
12 491 0.166376
12 492 0.166376
13 22 1
14 16 0.498339
14 17 0.501661
15 23 1
16 20 0.285713
16 24 0.142858
16 25 0.142855
16 31 0.142858
16 32 0.142858
16 33 0.142858
17 17 0.0193593
17 25 5.76339e-06
17 26 0.245159
17 27 0.245159
17 28 0.245159
17 30 0.245159
18 34 1
19 34 1
20 20 0.333331
20 35 0.333334
20 36 0.333334
21 37 0.5
21 38 0.5
22 29 0.999297
22 43 0.000703362
23 39 0.850784
23 40 0.149216
24 39 0.0359619
24 40 0.964038
25 41 0.333317
25 42 0.333317
25 43 4.96164e-05
25 44 0.333317
26 43 1
27 17 0.190119
27 45 0.213019
27 46 0.213019
27 47 0.212206
27 48 0.171637
28 17 0.319475
28 48 0.680525
29 20 0.333318
29 34 0.333341
29 49 0.333341
30 20 0.341252
30 50 0.000564452
30 51 0.658183
31 20 0.325185
31 50 0.674815
32 2 0.200002
32 3 0.200002
32 20 0.199993
32 52 0.200002
32 53 0.200002
33 7 0.333283
33 54 0.333358
33 59 0.333358
34 7 0.166295
34 20 0.16674
34 55 0.166741
34 56 0.166741
34 57 0.166741
34 58 0.166741
35 20 0.166651
35 60 0.16667
35 61 0.16667
35 62 0.16667
35 63 0.16667
35 64 0.16667
36 29 0.275483
36 65 0.362259
36 66 0.362259
37 67 0.5
37 68 0.5
38 62 0.705509
38 808 0.294491
39 20 0.333332
39 52 0.333334
39 69 0.333334
40 126 0.167367
40 231 0.166644
40 277 0.166644
40 393 0.165942
40 639 0.000113398
40 640 0.166644
40 641 0.166644
41 23 1
42 70 1
43 7 0.164006
43 17 0.16343
43 82 0.168141
43 83 0.168141
43 84 0.168141
43 85 0.168141
44 86 0.25
44 87 0.25
44 88 0.25
44 89 0.25
45 7 0.0989146
45 26 0.100814
45 29 0.000529029
45 73 0.100814
45 207 0.100814
45 418 0.100814
45 636 0.100814
45 752 0.0940542
45 1063 0.100814
45 1064 0.100814
45 1111 0.100806
46 20 0.3323
46 90 0.33385
46 91 0.33385
47 47 0.198325
47 60 0.199976
47 103 0.200566
47 104 0.200566
47 105 0.200566
48 20 0.332844
48 92 0.333578
48 93 0.333578
49 7 0.197286
49 10 0.200653
49 29 0.000101382
49 60 0.200653
49 94 0.200653
49 95 0.200653
50 7 0.164242
50 26 0.167149
50 43 1.25166e-05
50 56 0.167149
50 96 0.167149
50 97 0.167149
50 98 0.167149
51 60 0.00184007
51 109 0.49908
51 110 0.49908
52 60 0.199881
52 99 0.20003
52 100 0.20003
52 101 0.20003
52 102 0.20003
53 29 5.50163e-06
53 47 0.166303
53 103 0.166738
53 106 0.166738
53 107 0.333476
53 108 0.166738
54 17 0.245158
54 1196 0.251614
54 1472 0.251614
54 1782 0.251614
55 111 0.5
55 112 0.5
56 113 1
57 13 0.111111
57 58 0.111111
57 100 0.111111
57 204 0.111111
57 207 0.111111
57 229 0.111111
57 740 0.111111
57 896 0.111111
57 1223 0.111111
58 60 0.233918
58 114 0.0643262
58 178 0.233919
58 186 0.233918
58 187 0.233919
59 17 0.00174143
59 115 0.199652
59 116 0.199652
59 119 0.199652
59 120 0.199652
59 121 0.199652
60 16 0.244246
60 17 0.0227628
60 57 0.244331
60 117 0.244329
60 118 0.244331
61 17 0.249759
61 121 0.25008
61 125 0.25008
61 128 0.25008
62 3 0.24991
62 29 0.00036075
62 122 0.24991
62 123 0.24991
62 124 0.24991
63 58 0.250006
63 117 0.249982
63 126 0.250006
63 127 0.250006
64 16 0.124887
64 47 0.123083
64 129 0.125338
64 130 0.125338
64 131 0.125338
64 132 0.125338
64 133 0.125338
64 134 0.125338
65 16 0.124933
65 37 0.12501
65 131 0.12501
65 132 0.12501
65 133 0.12501
65 134 0.12501
65 135 0.12501
65 136 0.12501
66 16 0.333326
66 79 0.333337
66 137 0.333337
67 20 0.247304
67 362 0.247305
67 371 0.24721
67 653 0.00130947
67 868 0.247305
67 871 0.00956689
68 138 0.983031
68 139 0.0169688
69 29 0.000142964
69 139 0.329428
69 140 0.335214
69 141 0.335214
70 16 0.333298
70 142 0.333351
70 143 0.333351
71 56 0.142857
71 73 0.142857
71 133 0.142857
71 224 0.142857
71 374 0.142857
71 846 0.142857
71 860 0.142857
72 29 0.00749591
72 33 0.18238
72 47 0.205124
72 144 0.207247
72 145 0.190518
72 146 0.207235
73 33 0.597649
73 145 0.402073
73 146 0.00027791
74 13 0.26913
74 60 0.243605
74 151 0.243659
74 158 0.243605
75 7 0.13975
75 13 0.130638
75 147 0.145929
75 148 0.145929
75 149 0.145929
75 150 0.145929
75 151 0.145896
76 17 0.00258948
76 152 0.166243
76 153 0.166196
76 154 0.166243
76 155 0.166243
76 156 0.166243
76 157 0.166243
77 159 0.333333
77 160 0.333333
77 161 0.333333
78 47 0.130067
78 57 0.0789642
78 58 0.0789642
78 117 0.0788467
78 121 0.0789642
78 143 0.0789642
78 153 0.0804084
78 737 0.0789641
78 1648 0.0789642
78 1824 0.0789642
78 1855 0.0789642
78 1858 0.0789642
79 162 0.5
79 163 0.5
80 17 9.8548e-05
80 158 3.62027e-05
80 304 0.0033191
80 1290 0.996546
81 60 0.500289
81 95 0.499711
82 60 0.0970081
82 95 0.902992
83 47 0.249978
83 167 0.250007
83 170 0.250007
83 171 0.250007
84 6 0.201228
84 7 0.195088
84 164 0.201228
84 165 0.201228
84 166 0.201228
85 9 0.193148
85 43 0.000495549
85 52 0.201589
85 120 0.201589
85 168 0.201589
85 169 0.201589
86 29 0.275483
86 172 0.362259
86 173 0.362259
87 29 0.236761
87 43 0.02679
87 118 0.245483
87 174 0.245483
87 175 0.245483
88 13 0.0848307
88 14 0.050889
88 33 0.101778
88 47 0.0462013
88 132 0.102528
88 157 0.050889
88 190 0.050889
88 302 0.050889
88 303 0.103648
88 322 0.050889
88 442 0.050889
88 865 0.050889
88 984 0.050889
88 990 0.050889
88 1113 0.00123548
88 1332 0.0508889
88 1333 0.050889
89 17 0.195785
89 37 0.198261
89 43 0.0111706
89 175 0.198261
89 176 0.198261
89 177 0.198261
90 3 0.25217
90 179 0.25217
90 180 0.25217
90 181 0.243489
91 16 0.0896605
91 29 9.82332e-06
91 181 0.0927884
91 190 0.0897004
91 284 0.0999385
91 287 0.0897004
91 288 0.0897003
91 289 0.0897003
91 290 0.0897004
91 291 0.0897004
91 292 0.0897004
91 293 0.0897003
92 16 0.111092
92 42 0.111113
92 118 0.111113
92 132 0.111113
92 133 0.111113
92 182 0.111113
92 183 0.111113
92 184 0.111113
92 185 0.111113
93 304 0.477457
93 625 5.46863e-05
93 677 0.510179
93 962 0.000959144
93 963 0.011351
94 13 0.111111
94 60 0.111111
94 157 0.111111
94 187 0.111111
94 188 0.111111
94 189 0.111111
94 190 0.111111
94 191 0.111111
94 192 0.111111
95 2 0.268194
95 29 0.195419
95 145 0.268194
95 1686 0.268194
96 3 0.251719
96 20 0.125844
96 43 0.118998
96 193 0.12586
96 194 0.12586
96 195 0.12586
96 196 0.12586
97 47 0.124715
97 73 0.125041
97 108 0.125041
97 197 0.125041
97 198 0.125041
97 199 0.125041
97 200 0.125041
97 201 0.125041
98 9 0.0295349
98 101 0.161756
98 203 0.161757
98 204 0.161728
98 205 0.161711
98 206 0.161757
98 207 0.161757
99 202 1
100 9 0.999357
100 204 0.000248836
100 205 0.000394386
101 111 0.5
101 208 0.5
102 9 0.08957
102 37 0.152288
102 47 0.14899
102 207 0.152288
102 209 0.152288
102 210 0.152288
102 211 0.152288
103 212 0.5
103 213 0.5
104 7 0.141435
104 207 0.143094
104 214 0.143094
104 215 0.143094
104 216 0.143094
104 217 0.143094
104 218 0.143094
105 17 0.123248
105 43 2.70416e-06
105 132 0.12525
105 183 0.12525
105 210 0.12525
105 219 0.12525
105 220 0.12525
105 221 0.12525
105 222 0.12525
106 223 1
107 73 0.488247
107 117 0.0230492
107 133 0.162777
107 187 0.163175
107 374 2.8519e-06
107 1263 0.162749
108 13 0.125044
108 43 2.86109e-05
108 96 0.125044
108 153 0.124661
108 194 0.125044
108 215 0.125044
108 224 0.125044
108 225 0.125044
108 226 0.125044
109 227 1
110 227 1
111 207 0.0476666
111 228 0.238562
111 229 0.2377
111 230 0.238552
111 231 0.23752
112 207 0.990065
112 229 0.00447328
112 230 5.35822e-05
112 231 0.00540797
113 232 1
114 29 2.61721e-05
114 233 0.249993
114 234 0.249993
114 235 0.249993
114 236 0.249993
115 29 0.276923
115 237 0.361538
115 238 0.361538
116 16 0.497913
116 79 0.00373841
116 1684 0.498349
117 132 0.304465
117 133 0.304465
117 239 0.303164
117 240 0.0879056
118 239 0.00599437
118 240 0.994006
119 7 0.246724
119 241 0.251092
119 242 0.251092
119 243 0.251092
120 29 0.367153
120 244 0.261694
120 245 0.371153
121 29 0.00397433
121 244 0.97064
121 245 0.0253855
122 147 0.15615
122 246 0.447129
122 247 0.396722
123 147 0.852347
123 247 0.147653
124 248 0.0248414
124 249 0.975159
125 248 0.631955
125 249 0.368045
126 250 1
127 60 0.333333
127 259 0.333333
127 260 0.333333
128 60 0.25
128 261 0.25
128 262 0.25
128 263 0.25
129 14 0.125511
129 16 0.125467
129 17 0.12147
129 591 0.125511
129 1227 0.125511
129 1672 0.125511
129 1673 0.125511
129 1674 0.125511
130 43 0.0762682
130 204 0.184746
130 264 0.184746
130 265 0.184746
130 266 0.184746
130 267 0.184746
131 29 0.21468
131 268 0.261773
131 269 0.261773
131 270 0.261773
132 9 0.247214
132 271 0.250929
132 272 0.250929
132 273 0.250929
133 7 0.0845366
133 13 0.0685353
133 43 0.00658881
133 62 0.0683881
133 96 0.0686604
133 121 0.136776
133 153 0.066719
133 187 0.0689553
133 346 0.0205127
133 547 0.136776
133 808 0.0683881
133 846 0.0683881
133 1831 0.0683881
133 1832 0.0683881
134 17 0.123282
134 29 0.00044192
134 47 0.125961
134 274 0.126921
134 275 0.126921
134 278 0.126921
134 279 0.126921
134 280 0.126921
134 281 0.115711
135 9 0.0777177
135 17 0.0179996
135 64 0.226071
135 383 0.226071
135 1613 0.226071
135 1614 0.226071
136 43 0.313215
136 276 0.343392
136 277 0.343392
137 3 0.100186
137 26 0.100186
137 29 0.000252259
137 62 0.0999053
137 418 0.100186
137 616 0.100186
137 752 0.0983555
137 1046 0.100186
137 1048 0.100186
137 1049 0.100186
137 1062 0.100186
138 26 0.122307
138 29 6.88204e-05
138 153 7.03864e-06
138 281 0.138638
138 311 0.122281
138 562 0.12223
138 1095 0.127604
138 1153 0.122288
138 1334 0.122288
138 1335 0.122288
139 2 0.26092
139 4 0.26092
139 5 0.26092
139 29 0.217239
140 64 0.334937
140 147 0.329811
140 249 0.335251
141 64 0.00268615
141 147 0.995865
141 249 0.00144876
142 37 0.2
142 132 0.2
142 133 0.2
142 282 0.2
142 283 0.2
143 126 1
144 9 0.112821
144 60 0.44359
144 846 0.44359
145 231 0.257343
145 284 0.227971
145 285 0.257343
145 286 0.257343
146 20 0.0781662
146 32 0.0781734
146 33 0.0781734
146 47 0.293529
146 121 2.04205e-06
146 346 0.23656
146 347 0.0781476
146 348 0.0790618
146 349 0.0781862
146 418 8.39613e-07
147 7 0.155157
147 60 0.0545551
147 153 0.158037
147 1418 0.316125
147 1797 0.158063
147 1798 0.158063
148 294 0.249925
148 295 0.249925
148 296 0.249925
148 297 0.249925
148 298 0.00029904
149 12 0.121252
149 29 0.271231
149 43 0.000815403
149 725 0.121694
149 1012 0.121252
149 1188 0.121252
149 1224 0.121252
149 1414 0.121252
150 298 1
151 43 9.7964e-06
151 73 0.227819
151 299 0.227819
151 300 0.1926
151 301 0.20469
151 302 0.147062
152 300 0.253182
152 301 0.166271
152 302 0.580547
153 12 0.111221
153 13 0.111221
153 16 0.111206
153 153 0.111221
153 303 0.111221
153 304 0.111221
153 305 0.111221
153 306 0.110245
153 311 0.111221
154 9 0.0898947
154 16 0.0276753
154 47 0.132605
154 117 0.0166896
154 134 0.0271833
154 153 0.00497467
154 178 0.0271833
154 306 0.0546032
154 307 0.0543666
154 308 0.0543665
154 309 0.0271833
154 310 0.0271832
154 346 0.162004
154 348 0.0271833
154 770 0.0271831
154 1002 0.0271833
154 1059 0.0271833
154 1103 0.0272254
154 1117 0.0271833
154 1118 0.0271833
154 1119 0.0271833
154 1126 0.0271833
154 1227 0.0222147
154 1835 0.0271819
155 96 1
156 16 0.249734
156 62 0.250089
156 222 0.250089
156 316 0.250089
157 17 0.157111
157 126 0.174477
157 317 0.174477
157 318 0.174477
157 319 0.174477
157 320 0.144981
158 9 6.46058e-05
158 17 0.0648407
158 304 0.254706
158 320 0.679033
158 1426 0.00135556
159 10 0.166652
159 11 0.000111083
159 17 5.19824e-06
159 303 0.166652
159 321 0.166652
159 322 0.16665
159 323 0.166626
159 324 0.166652
160 11 0.615569
160 17 0.384338
160 323 9.36746e-05
161 47 0.249521
161 325 0.25016
161 326 0.25016
161 327 0.25016
162 43 1
163 328 0.333333
163 329 0.333333
163 336 0.333333
164 9 0.0359965
164 13 0.160667
164 97 0.160667
164 663 0.160667
164 878 0.160667
164 1091 0.160667
164 1599 0.160667
165 20 0.142857
165 301 0.142857
165 330 0.142857
165 331 0.142857
165 332 0.142857
165 333 0.142857
165 334 0.142857
166 297 0.5
166 337 0.5
167 1625 0.5
167 1626 0.5
168 335 1
169 29 0.000799924
169 346 0.9992
170 13 0.472045
170 24 0.527955
171 7 0.0441358
171 16 0.119424
171 42 0.119493
171 47 0.119484
171 338 0.119493
171 339 0.119493
171 340 0.119493
171 341 0.119493
171 342 0.119493
172 7 1
173 343 0.5
173 344 0.5
174 42 0.143131
174 345 0.143131
174 346 0.284395
174 347 0.143125
174 348 0.143113
174 349 0.143105
175 29 3.09628e-06
175 145 0.249999
175 350 0.249999
175 351 0.249999
175 352 0.249999
176 60 0.610501
176 187 0.00041538
176 353 0.389084
177 60 6.94178e-05
177 187 0.733631
177 353 0.2663
178 354 1
179 43 0.0534525
179 1094 0.946548
180 47 0.393675
180 355 0.202108
180 358 0.202108
180 359 0.202108
181 26 0.25
181 57 0.25
181 356 0.25
181 357 0.25
182 132 1
183 360 0.993508
183 367 0.00649232
184 88 0.011268
184 361 0.328892
184 364 0.00205463
184 365 0.328892
184 366 0.328892
185 88 0.194726
185 304 0.201634
185 362 0.201634
185 363 0.201633
185 364 0.200374
186 367 1
187 29 0.0031465
187 368 0.498427
187 369 0.498427
188 29 0.49931
188 1457 0.50069
189 370 1
190 12 0.125
190 13 0.125
190 26 0.125
190 190 0.125
190 371 0.125
190 372 0.125
190 373 0.125
190 374 0.125
191 375 1
192 42 0.200258
192 345 0.200258
192 346 0.399226
192 379 0.200258
193 16 1.2668e-05
193 54 0.981467
193 510 0.0185206
194 72 0.142857
194 372 0.142857
194 380 0.142857
194 381 0.142857
194 382 0.142857
194 383 0.142857
194 384 0.142857
195 3 0.25
195 27 0.25
195 84 0.25
195 385 0.25
196 386 1
197 7 0.249089
197 29 0.000550737
197 288 0.25012
197 375 0.25012
197 387 0.25012
198 29 0.000154971
198 157 0.333282
198 1194 0.166641
198 1427 0.166641
198 1578 0.166641
198 1579 0.166641
199 64 0.49062
199 147 0.0188794
199 249 0.490501
200 147 1
201 7 0.16333
201 18 0.169478
201 73 0.169478
201 159 0.169478
201 217 0.15876
201 388 0.169478
202 7 0.00577218
202 217 0.994228
203 12 0.17019
203 13 0.170188
203 132 0.170189
203 303 0.105785
203 389 0.0444679
203 390 0.17019
203 391 0.16899
204 13 9.61535e-06
204 303 0.33662
204 389 0.657097
204 391 0.00627298
205 7 0.249292
205 29 0.00144976
205 288 0.249753
205 375 0.249753
205 387 0.249753
206 3 0.166744
206 47 0.166279
206 392 0.166744
206 393 0.166744
206 394 0.166744
206 395 0.166744
207 29 0.13965
207 396 0.430175
207 397 0.430175
208 47 0.176578
208 73 0.182538
208 183 0.182135
208 398 0.116797
208 399 0.182622
208 400 0.15933
209 20 0.115097
209 43 0.0194165
209 47 0.865486
210 47 0.00177853
210 73 0.00101019
210 183 0.00549747
210 398 0.732432
210 399 6.84699e-05
210 400 0.259213
211 3 0.154333
211 42 7.81086e-06
211 346 0.306832
211 375 0.154333
211 401 0.0758298
211 402 0.154333
211 403 0.154333
212 42 0.661807
212 346 0.00154107
212 401 0.336652
213 16 0.200153
213 60 0.19929
213 249 0.200186
213 404 0.200186
213 405 0.200186
214 13 0.249721
214 60 0.250838
214 132 0.249721
214 1629 0.249721
215 12 0.199914
215 231 0.199914
215 365 0.199914
215 408 0.000432031
215 409 0.199914
215 410 0.199914
216 126 0.142901
216 132 0.142901
216 389 0.142901
216 406 0.285803
216 407 0.142901
216 408 0.142592
217 13 0.200004
217 60 0.200004
217 187 0.200004
217 411 0.200004
217 412 0.199983
218 17 0.139594
218 26 0.215768
218 47 0.21308
218 412 2.34451e-05
218 413 0.215768
218 414 0.215767
219 29 0.275573
219 415 0.362213
219 416 0.362213
220 37 0.2
220 132 0.2
220 133 0.2
220 283 0.2
220 417 0.2
221 47 0.249515
221 60 0.250162
221 418 0.250162
221 419 0.250162
222 43 0.0110396
222 182 0.329653
222 304 0.329653
222 871 0.329653
223 60 0.500025
223 420 0.499975
224 7 0.000193046
224 29 0.00100778
224 420 0.000212854
224 564 4.1112e-05
224 845 0.119163
224 846 0.879383
225 13 0.200165
225 112 0.199342
225 132 0.200165
225 365 0.200165
225 1318 0.200165
226 13 0.111111
226 73 0.111111
226 96 0.111111
226 121 0.111111
226 421 0.111111
226 423 0.111111
226 425 0.111111
226 426 0.111111
226 427 0.111111
227 57 0.111113
227 73 0.111113
227 117 0.111094
227 301 0.111113
227 372 0.111113
227 422 0.111113
227 424 0.111113
227 428 0.111113
227 429 0.111113
228 133 0.111111
228 198 0.111111
228 199 0.111111
228 302 0.111111
228 431 0.111111
228 432 0.111111
228 433 0.111111
228 435 0.111111
228 436 0.111111
229 132 0.327986
229 157 0.336004
229 434 0.33601
230 3 0.13339
230 17 0.00150845
230 28 0.0760986
230 132 0.136288
230 231 0.133328
230 395 0.119403
230 441 0.133328
230 442 0.133328
230 443 0.133328
231 29 0.184885
231 437 0.271705
231 438 0.271705
231 439 0.271705
232 147 0.502712
232 463 0.497288
233 3 0.0800338
233 17 0.164962
233 27 0.240212
233 28 0.0343687
233 303 0.0800706
233 318 0.0800706
233 440 0.0800706
233 444 0.0800706
233 447 0.0800706
233 454 0.0800706
234 29 0.000339779
234 445 0.66644
234 446 0.33322
235 187 0.111111
235 301 0.111111
235 303 0.111111
235 448 0.111111
235 449 0.111111
235 450 0.111111
235 451 0.111111
235 452 0.111111
235 453 0.111111
236 29 0.100144
236 455 0.299952
236 456 0.299952
236 457 0.299952
237 60 0.333333
237 187 0.333333
237 458 0.333333
238 7 0.196218
238 404 0.200945
238 459 0.200945
238 460 0.200945
238 461 0.200945
239 20 0.333332
239 462 0.333334
239 463 0.333334
240 20 0.168306
240 42 0.000127424
240 84 0.168307
240 345 0.168307
240 346 0.158339
240 464 0.168307
240 469 0.168307
241 42 0.165456
241 346 0.172218
241 465 0.165582
241 466 0.165582
241 467 0.165582
241 468 0.165581
242 13 0.111422
242 33 0.108714
242 152 0.111422
242 441 0.111422
242 1085 0.111331
242 1358 0.111422
242 1850 0.111422
242 1851 0.111422
242 1852 0.111422
243 60 0.000248176
243 345 0.00173604
243 470 0.998016
244 60 0.166632
244 126 0.166674
244 261 0.166674
244 471 0.166674
244 472 0.166674
244 473 0.166674
245 3 0.125386
245 42 0.125386
245 345 0.125168
245 346 0.247903
245 464 0.125386
245 474 0.125386
245 475 0.125386
246 476 1
247 9 0.331767
247 477 0.335065
247 478 0.333168
248 29 0.00388604
248 261 0.65958
248 478 0.0166233
248 1005 0.31991
249 26 0.222222
249 132 0.111111
249 133 0.111111
249 157 0.111111
249 365 0.111111
249 479 0.111111
249 480 0.111111
249 481 0.111111
250 9 0.323961
250 386 0.33802
250 482 0.33802
251 244 1
252 3 0.143001
252 42 0.143001
252 345 0.143001
252 346 0.284997
252 402 0.143001
252 403 0.143001
253 153 0.249923
253 483 0.250026
253 484 0.250026
253 485 0.250026
254 47 0.00190117
254 62 4.86511e-06
254 608 0.332698
254 645 0.332697
254 646 0.332698
255 111 0.480553
255 486 0.519447
256 111 0.706757
256 486 0.293243
257 111 0.5
257 486 0.5
258 16 0.111111
258 17 0.111111
258 100 0.111111
258 145 0.111111
258 401 0.111111
258 487 0.111111
258 488 0.111111
258 489 0.111111
258 490 0.111111
259 493 0.404474
259 494 0.191193
259 495 0.404333
260 43 7.95306e-06
260 111 0.468133
260 386 0.0247398
260 521 0.000152252
260 1762 0.506967
261 494 0.999336
261 495 0.000664343
262 47 0.109492
262 277 0.111313
262 401 0.111313
262 496 0.111313
262 497 0.111313
262 498 0.111313
262 499 0.111313
262 500 0.111313
262 501 0.111313
263 17 0.000898661
263 132 0.142729
263 194 0.142729
263 231 0.142729
263 303 0.142729
263 741 0.142729
263 742 0.142729
263 743 0.142729
264 7 0.24893
264 29 7.40246e-05
264 60 0.250332
264 502 0.250332
264 503 0.250332
265 7 3.55782e-05
265 9 5.95208e-05
265 33 0.150004
265 71 0.0500012
265 72 0.0500012
265 97 0.0500012
265 117 0.0498863
265 121 0.0500035
265 147 0.0500012
265 157 0.0499945
265 323 0.0500012
265 616 0.0500011
265 706 0.0500012
265 1011 0.0500012
265 1181 0.0500012
265 1182 0.0500012
265 1252 0.0500012
265 1393 0.0500012
265 1510 0.0500012
265 1511 0.0500012
266 7 0.192428
266 20 0.206924
266 47 0.186798
266 70 0.206925
266 508 0.206925
267 47 0.00149829
267 504 0.249625
267 505 0.249625
267 506 0.249625
267 507 0.249625
268 16 0.166663
268 62 0.166666
268 187 0.166668
268 509 0.166668
268 510 0.166668
268 511 0.166668
269 47 0.0588228
269 158 0.313726
269 193 0.313726
269 904 0.313726
270 29 0.171221
270 512 0.280318
270 513 0.27576
270 514 0.272702
271 29 0.13516
271 513 0.323819
271 514 0.54102
272 42 0.258893
272 346 0.482789
272 515 0.258318
273 515 1
274 3 0.5
274 464 0.5
275 42 0.141746
275 345 0.283492
275 346 0.29422
275 515 0.280542
276 40 0.5
276 456 0.5
277 346 0.33137
277 466 0.167158
277 516 0.167158
277 517 0.167158
277 518 0.167158
278 26 0.419308
278 29 0.161383
278 519 0.209654
278 520 0.209654
279 17 0.131017
279 47 0.179374
279 126 0.000541961
279 521 0.172227
279 522 5.54744e-06
279 525 0.172278
279 529 0.172278
279 530 0.172278
280 47 0.185959
280 153 0.203487
280 522 0.203514
280 523 0.20352
280 524 0.20352
281 17 0.162408
281 126 0.208904
281 526 0.209563
281 527 0.209563
281 528 0.209563
282 198 0.25
282 199 0.25
282 261 0.25
282 531 0.25
283 3 0.166667
283 532 0.166667
283 536 0.166667
283 537 0.166667
283 538 0.166667
283 539 0.166667
284 17 0.0151008
284 453 0.246225
284 533 0.246225
284 534 0.246225
284 535 0.246225
285 37 0.199973
285 277 0.199973
285 532 0.000135556
285 543 0.199973
285 545 0.199973
285 546 0.199973
286 29 4.82537e-06
286 311 0.166685
286 532 0.166572
286 537 0.166685
286 540 0.166685
286 541 0.166685
286 542 0.166685
287 7 0.111896
287 8 0.253741
287 9 0.000118563
287 16 0.126763
287 126 0.12687
287 183 0.12687
287 434 0.12687
287 544 0.12687
288 20 0.249991
288 545 0.250003
288 547 0.250003
288 548 0.250003
289 16 0.333259
289 133 0.333371
289 1113 0.333371
290 532 0.549647
290 549 0.450353
291 549 1
292 29 0.0175128
292 33 0.327485
292 550 0.327501
292 551 0.327501
293 7 0.247814
293 499 0.250729
293 552 0.250729
293 553 0.250729
294 16 0.910227
294 547 0.0897731
295 60 0.2
295 126 0.2
295 187 0.2
295 326 0.2
295 554 0.2
296 17 0.160845
296 156 0.167831
296 706 0.167831
296 980 0.167831
296 981 0.167831
296 982 0.167831
297 555 1
298 555 1
299 555 1
300 7 0.0620161
300 13 0.208591
300 60 0.104296
300 96 0.104296
300 187 0.207914
300 409 0.104296
300 615 0.104296
300 1360 0.104296
301 29 0.0672896
301 112 0.466355
301 1347 0.466355
302 29 0.162889
302 277 0.119587
302 303 0.119587
302 556 0.119587
302 557 0.119587
302 558 0.119587
302 559 0.119587
302 560 0.119587
303 37 0.333333
303 207 0.333333
303 561 0.333333
304 37 0.188282
304 231 0.270573
304 562 0.270573
304 563 0.270573
305 37 1
306 42 0.0764853
306 345 0.0765447
306 346 0.311172
306 348 0.152953
306 506 0.0764765
306 1267 0.0764767
306 1268 0.0764767
306 1356 0.0764767
306 1357 0.0769377
307 29 2.00799e-05
307 564 0.197805
307 565 0.397537
307 566 0.404638
308 564 0.69392
308 565 0.162487
308 566 0.143593
309 16 0.196297
309 153 0.200886
309 567 0.200939
309 568 0.200939
309 569 0.200939
310 16 0.246072
310 133 0.240593
310 374 0.240593
310 591 1.13914e-05
310 1190 0.240593
310 1191 0.0321368
311 37 1
312 56 0.5
312 60 0.5
313 16 0.333326
313 82 0.333337
313 576 0.333337
314 29 0.00583966
314 577 0.497076
314 578 0.497085
315 29 0.98372
315 266 0.0162448
315 577 3.46892e-05
316 579 1
317 88 0.166915
317 231 0.332375
317 580 0.333807
317 584 0.166903
318 88 0.142674
318 188 0.142684
318 231 0.00122359
318 297 0.285367
318 581 0.142684
318 582 0.142684
318 583 0.142684
319 133 0.166667
319 585 0.166667
319 586 0.166667
319 587 0.166667
319 588 0.166667
319 589 0.166667
320 17 0.110984
320 43 6.48689e-06
320 58 0.127007
320 111 0.127007
320 117 0.12697
320 121 0.127007
320 590 0.127007
320 591 0.127007
320 592 0.127007
321 29 7.0245e-05
321 111 0.199986
321 126 0.199986
321 593 0.199986
321 594 0.199986
321 595 0.199986
322 43 0.988499
322 55 0.0115015
323 7 0.333043
323 261 0.333478
323 596 0.333478
324 55 0.499996
324 111 0.250002
324 529 0.250002
325 3 0.145513
325 7 0.143111
325 16 0.129326
325 504 0.145513
325 599 0.145513
325 600 0.145513
325 601 0.145513
326 16 0.0351425
326 153 0.32161
326 597 0.321624
326 598 0.321624
327 111 0.330604
327 117 0.00664474
327 121 0.330604
327 602 0.330604
327 604 0.00154344
328 47 0.251151
328 117 0.246538
328 603 0.251743
328 604 0.250568
329 3 0.222223
329 20 0.111108
329 261 0.111111
329 266 0.111111
329 304 0.111112
329 399 0.111112
329 531 0.111112
329 605 0.111112
330 42 0.166667
330 504 0.166667
330 606 0.166667
330 607 0.166667
330 608 0.166667
330 609 0.166667
331 7 0.322829
331 73 0.169293
331 414 0.169293
331 611 0.169293
331 612 0.169293
332 20 0.249955
332 153 0.250006
332 291 0.250019
332 610 0.250019
333 613 0.333041
333 614 0.000863354
333 615 0.333048
333 616 0.333047
334 29 0.0315764
334 613 3.35787e-05
334 614 0.968363
334 615 1.16622e-05
334 616 1.53471e-05
335 335 1
336 20 0.16622
336 117 0.1662
336 153 0.168917
336 154 0.166221
336 1735 0.166221
336 1861 0.166221
337 617 0.514233
337 618 0.485767
338 449 0.000125267
338 618 0.514239
338 1025 0.485636
339 7 0.149908
339 26 0.170018
339 60 0.170018
339 187 0.170018
339 619 0.170018
339 620 0.170018
340 37 0.175287
340 43 0.123563
340 254 0.175287
340 365 0.175287
340 621 0.175287
340 622 0.175287
341 16 9.57741e-05
341 456 0.231082
341 457 0.231082
341 623 0.231082
341 624 0.0785007
341 626 0.228158
342 16 0.272173
342 47 0.270948
342 624 0.180325
342 625 0.273099
342 626 0.00345561
343 7 0.332106
343 107 0.333947
343 629 0.333947
344 42 0.012497
344 346 0.881874
344 348 0.0376795
344 1592 0.0154358
344 1594 0.0525134
345 627 0.499999
345 628 0.500001
346 111 0.2
346 374 0.2
346 434 0.2
346 630 0.2
346 631 0.2
347 632 0.5
347 633 0.5
348 17 0.000981679
348 73 0.249835
348 306 0.249835
348 634 0.249515
348 635 0.249835
349 17 0.998477
349 634 0.00152346
350 3 0.2499
350 29 0.000398183
350 394 0.2499
350 395 0.2499
350 636 0.2499
351 60 0.333333
351 263 0.333333
351 637 0.333333
352 60 0.25005
352 126 0.248966
352 393 0.00105397
352 638 0.25005
352 639 0.24988
353 29 0.139371
353 642 0.430315
353 643 0.430315
354 33 0.14395
354 47 0.280249
354 62 0.143948
354 644 0.143951
354 647 0.143951
354 648 0.143951
355 9 2.06359e-05
355 33 0.142915
355 37 0.142915
355 135 0.142488
355 251 0.142915
355 652 0.142915
355 653 0.142915
355 654 0.142915
356 9 0.0131319
356 135 0.000737819
356 573 0.246533
356 649 0.246533
356 650 0.246533
356 651 0.246533
357 17 0.29343
357 655 0.297669
357 656 0.29767
357 657 0.111231
358 17 0.0126997
358 657 0.9873
359 33 0.125014
359 42 0.125014
359 345 0.125014
359 346 0.249916
359 659 0.125014
359 660 0.125014
359 661 0.125014
360 37 0.333333
360 224 0.333333
360 658 0.333333
361 6 0.079418
361 9 0.0455069
361 12 0.079418
361 13 0.0808956
361 121 0.079418
361 303 0.079418
361 305 0.079418
361 554 0.079418
361 813 0.0794179
361 1122 0.079418
361 1123 0.0794179
361 1124 0.079418
361 1125 0.0794179
362 17 0.24566
362 33 0.301736
362 663 0.150868
362 665 0.301736
363 16 0.110946
363 126 0.111132
363 217 0.111132
363 401 0.111132
363 536 0.111132
363 547 0.111132
363 554 0.111132
363 662 0.111132
363 664 0.111132
364 111 0.166667
364 303 0.166667
364 538 0.166667
364 539 0.166667
364 666 0.166667
364 667 0.166667
365 9 0.140673
365 33 0.14323
365 43 3.81458e-06
365 82 0.14323
365 207 0.14323
365 668 0.143212
365 669 0.143192
365 670 0.14323
366 43 0.999499
366 668 0.000159301
366 669 0.000342176
367 147 0.5
367 671 0.5
368 672 0.307515
368 673 0.0992707
368 674 0.285699
368 675 0.307515
369 673 0.905173
369 674 0.0948267
370 17 0.250027
370 55 0.245967
370 73 0.252005
370 676 0.252001
371 55 0.999442
371 676 0.000558264
372 121 0.166667
372 133 0.166667
372 442 0.166667
372 677 0.166667
372 678 0.166667
372 682 0.166667
373 9 0.0783892
373 20 0.0921606
373 33 0.0921611
373 96 0.0921611
373 857 0.0921611
373 879 0.0921611
373 880 0.0921611
373 1000 0.0921611
373 1001 0.0921611
373 1002 0.0921611
373 1003 0.0921611
374 459 1
375 47 0.124152
375 62 0.125083
375 108 0.125083
375 459 0.0002681
375 599 0.125083
375 679 0.250166
375 680 0.125083
375 681 0.125083
376 7 0.087258
376 17 0.0263666
376 47 0.106009
376 117 0.111443
376 488 0.111487
376 683 0.111487
376 684 0.111487
376 685 0.111487
376 686 0.111487
376 687 0.111487
377 183 0.2
377 564 0.2
377 688 0.2
377 689 0.2
377 690 0.2
378 29 6.14306e-05
378 43 0.112236
378 153 0.222011
378 572 0.221897
378 876 0.221897
378 877 0.221897
379 96 0.166202
379 153 0.166331
379 230 0.166867
379 362 0.166867
379 691 0.166867
379 692 0.166867
380 3 0.5
380 693 0.5
381 17 0.158199
381 29 0.18296
381 43 0.00811377
381 384 0.162682
381 559 0.162682
381 719 0.162682
381 720 0.162682
382 812 1
383 43 0.000634433
383 132 0.249852
383 133 0.24981
383 400 0.249852
383 447 0.249852
384 17 0.000287292
384 37 0.151579
384 76 0.151579
384 303 0.151574
384 706 0.151579
384 721 0.0902495
384 722 0.151572
384 723 0.151579
385 17 0.678513
385 303 2.53696e-05
385 721 0.321425
385 722 3.63504e-05
386 121 0.128387
386 724 0.871613
387 29 0.0248781
387 724 0.0185957
387 725 0.637684
387 726 0.318842
388 29 0.0248733
388 724 0.0185954
388 726 0.318844
388 727 0.637688
389 29 0.00520525
389 637 0.658073
389 724 0.00768563
389 726 0.329036
390 9 0.101369
390 117 0.112294
390 303 0.112334
390 304 0.112334
390 552 0.112334
390 564 0.112334
390 728 0.112334
390 729 0.112334
390 730 0.112334
391 29 0.0248929
391 358 0.637673
391 724 0.0185973
391 726 0.318837
392 564 0.666663
392 724 5.43021e-06
392 726 0.333332
393 43 4.88188e-06
393 206 0.249999
393 261 0.249999
393 731 0.249999
393 732 0.249999
394 29 0.0027697
394 261 0.331009
394 463 0.331009
394 724 0.0042037
394 733 0.331009
395 7 6.014e-05
395 9 0.141566
395 47 0.143045
395 108 0.143066
395 118 0.143066
395 134 0.143066
395 734 0.143066
395 735 0.143066
396 7 1
397 20 0.22222
397 674 0.111111
397 736 0.111111
397 737 0.111111
397 738 0.111111
397 739 0.111111
397 740 0.111111
397 744 0.111111
398 7 0.152265
398 9 0.161494
398 82 0.17156
398 83 0.17156
398 745 0.17156
398 746 0.17156
399 16 6.29384e-05
399 52 0.991898
399 126 0.00323687
399 362 0.00480206
400 126 0.333333
400 747 0.333333
400 748 0.333333
401 154 0.25
401 194 0.25
401 750 0.25
401 751 0.25
402 126 0.333333
402 152 0.333333
402 749 0.333333
403 7 0.205869
403 20 0.113439
403 57 0.113449
403 752 0.113449
403 753 0.226897
403 754 0.113449
403 755 0.113449
404 9 0.238798
404 126 0.119928
404 129 0.121375
404 756 0.121375
404 757 0.11568
404 758 0.0400927
404 759 0.121375
404 760 0.121375
405 126 0.0163741
405 757 0.0644101
405 758 0.919216
406 98 0.401526
406 147 0.200763
406 303 0.196948
406 761 0.200763
407 97 0.331235
407 303 0.00629466
407 488 0.331235
407 758 0.331235
408 16 0.166689
408 47 0.166304
408 111 0.166752
408 510 0.166752
408 762 0.166752
408 763 0.166752
409 153 0.372293
409 483 0.448838
409 768 0.178714
409 770 0.00015553
410 111 0.015091
410 117 0.196971
410 121 0.196984
410 684 0.196984
410 762 0.196984
410 764 0.196984
411 3 0.0130875
411 193 8.49837e-05
411 605 0.986828
412 3 0.485821
412 16 1.97477e-05
412 193 0.492122
412 605 0.0139462
412 1684 0.00809033
413 43 5.26778e-05
413 153 0.479789
413 765 0.520158
414 182 0.25
414 194 0.249999
414 303 0.25
414 706 0.25
415 663 0.200001
415 733 0.2
415 766 0.200001
415 767 0.200001
415 927 0.199996
416 7 0.139317
416 126 0.143468
416 217 0.143468
416 653 0.143468
416 732 0.143468
416 769 0.143468
416 770 0.143343
417 9 0.133009
417 20 0.144304
417 706 0.144537
417 1325 0.144537
417 1326 0.144537
417 1327 0.144537
417 1328 0.144537
418 132 0.166667
418 133 0.166667
418 283 0.166667
418 542 0.166667
418 563 0.166667
418 580 0.166667
419 73 0.20008
419 153 0.199678
419 771 0.20008
419 772 0.20008
419 773 0.20008
420 17 0.290586
420 43 0.11528
420 774 0.297067
420 775 0.297067
421 88 0.333333
421 188 0.166667
421 580 0.166667
421 776 0.166667
421 777 0.166667
422 520 0.333333
422 778 0.333333
422 779 0.333333
423 580 0.333333
423 780 0.333333
423 781 0.333333
424 124 0.154153
424 153 0.30808
424 483 0.229459
424 782 0.154153
424 783 0.154153
425 346 0.247162
425 348 0.123956
425 1094 0.13306
425 1730 0.123956
425 1767 0.123956
425 1837 0.123956
425 1838 0.123956
426 181 0.333333
426 784 0.333333
426 785 0.333333
427 153 0.199591
427 304 0.200102
427 786 0.200102
427 787 0.200102
427 788 0.200102
428 29 6.84197e-05
428 40 0.249983
428 52 0.249983
428 456 0.249983
428 488 0.249983
429 47 0.283893
429 154 0.143221
429 165 0.143221
429 362 0.143221
429 513 0.143221
429 751 0.143221
430 72 0.2
430 132 0.2
430 303 0.2
430 381 0.2
430 790 0.2
431 60 0.391661
431 789 0.608339
432 60 0.996908
432 789 0.00309227
433 43 1
434 13 0.525143
434 1856 0.474857
435 13 0.125
435 42 0.125
435 704 0.125
435 1552 0.25
435 1553 0.125
435 1554 0.125
435 1555 0.125
436 791 1
437 17 0.24912
437 187 0.250293
437 794 0.250293
437 795 0.250293
438 82 0.2
438 132 0.2
438 706 0.2
438 792 0.2
438 793 0.2
439 111 0.5
439 497 0.5
440 796 1
441 17 0.988992
441 117 0.0110076
442 796 1
443 797 0.342727
443 798 0.657273
444 797 0.799814
444 798 0.200186
445 9 0.148367
445 43 0.147511
445 214 0.176036
445 249 0.176015
445 799 0.176036
445 800 0.176036
446 9 0.28298
446 43 0.716411
446 249 0.00060869
447 3 0.281404
447 22 0.155789
447 801 0.281404
447 802 0.281404
448 153 0.166658
448 251 0.166668
448 270 0.166668
448 303 0.166668
448 804 0.166668
448 805 0.166668
449 82 0.5
449 803 0.5
450 60 0.202571
450 62 0.193502
450 75 0.202571
450 807 0.202571
450 808 0.198785
451 806 1
452 17 0.00786194
452 449 0.196591
452 809 0.265221
452 810 0.265205
452 811 0.26512
453 17 0.785271
453 449 0.214363
453 810 5.02473e-05
453 811 0.000316197
454 812 1
455 812 1
456 29 0.0249756
456 565 0.325008
456 813 0.325008
456 814 0.325008
457 29 0.0601266
457 856 1.71832e-05
457 857 0.602756
457 858 0.3371
458 29 0.00332004
458 815 0.0378782
458 816 0.958802
459 29 0.351562
459 815 0.64843
459 816 8.21126e-06
460 29 2.56925e-06
460 73 0.249999
460 817 0.249999
460 818 0.249999
460 819 0.249999
461 47 0.266055
461 972 0.276432
461 973 0.276405
461 974 0.181108
462 47 0.110739
462 132 0.115969
462 153 0.117465
462 194 0.117179
462 251 0.0828905
462 303 0.103998
462 821 0.117511
462 822 0.117102
462 823 0.117147
463 820 1
464 132 0.177623
464 133 0.177922
464 283 0.177922
464 573 0.177922
464 786 0.177922
464 820 0.11069
465 132 0.000179768
465 194 0.00738858
465 251 0.770598
465 303 0.204643
465 822 0.00910063
465 823 0.00809047
466 17 0.0753895
466 47 0.184367
466 296 0.185061
466 374 0.185061
466 824 0.185061
466 825 0.185061
467 17 0.995627
467 47 0.00437301
468 157 0.326697
468 191 0.0138438
468 241 0.32973
468 566 0.32973
469 157 0.00951326
469 191 0.990487
470 157 0.2
470 191 0.2
470 256 0.2
470 573 0.2
470 827 0.2
471 9 0.331558
471 552 0.334221
471 826 0.334221
472 3 0.409945
472 828 0.409945
472 829 0.18011
473 37 0.079867
473 829 0.920133
474 37 0.111111
474 126 0.111111
474 131 0.111111
474 133 0.111111
474 135 0.111111
474 492 0.111111
474 571 0.111111
474 830 0.111111
474 831 0.111111
475 832 1
476 17 0.166949
476 29 1.21689e-05
476 37 0.169487
476 43 0.155091
476 779 0.169487
476 833 0.169487
476 834 0.169487
477 7 0.256543
477 37 0.132539
477 71 0.132539
477 73 0.0958392
477 187 0.132539
477 835 0.118231
477 836 0.13177
478 7 0.0289477
478 73 0.68828
478 835 0.268342
478 836 0.0144311
479 37 0.166766
479 132 0.16617
479 133 0.166766
479 837 0.166766
479 838 0.166766
479 839 0.166766
480 132 1
481 42 0.156654
481 345 0.157749
481 346 0.213157
481 660 0.157727
481 840 0.15773
481 841 0.156984
482 42 0.0108477
482 346 0.981172
482 660 0.000216541
482 840 0.000190497
482 841 0.00757296
483 604 0.195739
483 842 0.804261
484 604 0.684224
484 842 0.315776
485 843 1
486 843 1
487 37 0.486487
487 844 0.513513
488 37 0.712143
488 844 0.287857
489 37 0.49615
489 38 0.50385
490 37 0.122959
490 43 0.0317682
490 207 0.140879
490 409 0.140879
490 410 0.140879
490 1355 0.140879
490 1385 0.140879
490 1386 0.140879
491 7 0.28303
491 29 1.59679e-05
491 564 0.283515
491 845 0.267577
491 846 0.165862
492 847 1
493 187 0.333333
493 459 0.333333
493 848 0.333333
494 42 0.200597
494 346 0.398208
494 401 0.200597
494 849 0.200597
495 37 0.4
495 850 0.2
495 851 0.2
495 852 0.2
496 7 0.30583
496 37 0.201102
496 853 0.194466
496 854 0.298602
497 7 0.0223601
497 37 0.446975
497 853 0.473508
497 854 0.0571569
498 855 1
499 147 1
500 856 0.825116
500 857 0.174884
501 57 0.00168785
501 117 0.332736
501 566 0.332788
501 859 0.332788
502 43 0.000502616
502 57 0.199088
502 121 0.200102
502 331 0.200102
502 860 0.200102
502 861 0.200102
503 37 0.5
503 862 0.5
504 3 0.250007
504 153 0.24998
504 195 0.250007
504 1106 0.250007
505 9 0.106764
505 37 0.148873
505 374 0.148873
505 624 0.148873
505 863 0.148873
505 864 0.148873
505 865 0.148873
506 47 0.150143
506 126 0.168607
506 536 0.170312
506 867 0.170312
506 868 0.170312
506 869 0.170312
507 47 0.0144905
507 256 0.328503
507 308 0.328503
507 866 0.328503
508 9 0.0482787
508 73 0.15862
508 210 0.15862
508 744 0.15862
508 767 0.15862
508 872 0.15862
508 873 0.15862
509 7 0.198739
509 37 0.200315
509 404 0.200315
509 870 0.200315
509 871 0.200315
510 42 0.222715
510 345 0.111358
510 346 0.220497
510 412 0.111358
510 660 0.111358
510 874 0.111358
510 875 0.111358
511 37 0.00394651
511 207 0.498027
511 709 0.498026
512 37 1
513 17 0.00100383
513 26 0.11746
513 126 0.146923
513 401 0.146923
513 431 0.146923
513 878 0.146923
513 879 0.146923
513 880 0.146923
514 17 0.187586
514 26 0.232192
514 249 0.193407
514 1010 0.193407
514 1011 0.193407
515 37 0.166575
515 47 0.000547598
515 88 0.0832877
515 132 0.166575
515 133 0.166575
515 881 0.0832877
515 882 0.0832877
515 883 0.0832877
515 884 0.0832877
515 885 0.0832877
516 42 0.143585
516 345 0.143585
516 346 0.282074
516 348 0.143585
516 886 0.143585
516 887 0.143585
517 888 1
518 37 0.5
518 38 0.5
519 87 0.142887
519 88 0.142887
519 153 0.142675
519 706 0.142887
519 889 0.142887
519 890 0.142887
519 891 0.142887
520 37 0.201126
520 47 0.195496
520 513 0.201126
520 663 0.201126
520 892 0.201126
521 88 0.499155
521 549 0.500845
522 37 0.996638
522 88 0.00336194
523 304 0.333333
523 565 0.333333
523 893 0.333333
524 47 0.248774
524 573 0.250409
524 668 0.250409
524 894 0.250409
525 7 0.123169
525 73 0.125262
525 97 0.125262
525 414 0.125262
525 612 0.125262
525 895 0.125262
525 896 0.125262
525 897 0.125262
526 26 0.333333
526 755 0.333333
526 898 0.333333
527 26 0.276221
527 532 0.183852
527 899 0.263705
527 900 0.276222
528 532 0.999877
528 899 0.000123418
529 899 1
530 10 0.0593684
530 17 0.170842
530 47 0.0573685
530 55 0.0593684
530 384 0.0593684
530 449 0.118737
530 532 0.118737
530 554 0.0593684
530 901 0.0593684
530 902 0.0593684
530 903 0.0593684
530 904 0.0593684
530 905 0.0593684
531 42 0.143512
531 345 0.143512
531 346 0.282438
531 348 0.143512
531 906 0.143512
531 907 0.143512
532 17 0.332256
532 908 0.333872
532 909 0.333872
533 37 0.360694
533 132 0.278612
533 910 0.360694
534 83 0.333333
534 133 0.333333
534 269 0.333333
535 132 1
536 7 0.324984
536 73 0.0534054
536 95 0.32845
536 911 0.293161
537 7 7.24122e-05
537 73 0.886225
537 911 0.113703
538 47 0.198129
538 73 0.200468
538 911 0.200468
538 912 0.200468
538 913 0.200468
539 153 0.293345
539 290 0.119942
539 540 0.293356
539 1286 0.293356
540 29 0.0154245
540 37 0.251625
540 43 0.2297
540 209 0.251625
540 914 0.251625
541 37 0.5
541 559 0.5
542 42 0.2
542 215 0.2
542 572 0.2
542 912 0.2
542 915 0.2
543 73 0.2
543 132 0.2
543 133 0.2
543 911 0.2
543 916 0.2
544 42 0.142863
544 345 0.142863
544 346 0.285684
544 466 0.142863
544 917 0.142863
544 918 0.142863
545 346 1
546 73 0.5
546 919 0.5
547 346 0.000647539
547 348 0.279715
547 1592 0.154526
547 1594 0.565112
548 16 0.196862
548 79 0.196937
548 117 0.196893
548 121 0.0154344
548 920 0.196937
548 921 0.196937
549 121 0.998802
549 190 0.000888041
549 929 0.000309764
550 17 0.321839
550 37 0.335965
550 779 0.335963
550 922 0.00623266
551 922 1
552 147 0.0127712
552 923 0.986079
552 926 0.00115
553 7 0.251314
553 26 0.253354
553 281 0.241857
553 923 0.000122244
553 924 0.253354
554 55 1
555 43 0.000187699
555 304 0.000320877
555 648 0.676034
555 690 0.0021734
555 1278 0.314776
555 1437 0.00650801
556 1039 1
557 55 0.324218
557 111 0.337891
557 846 0.337891
558 73 0.166662
558 101 0.166662
558 147 2.67239e-05
558 303 0.166662
558 766 0.166662
558 905 0.166662
558 925 0.166662
559 147 1
560 926 1
561 60 0.110385
561 88 0.148269
561 143 0.148269
561 188 0.148269
561 706 0.148269
561 891 0.148269
561 1312 0.148269
562 26 1.27771e-05
562 927 0.999987
563 13 0.111111
563 16 0.111111
563 88 0.111111
563 625 0.111111
563 663 0.111111
563 1133 0.111111
563 1136 0.111111
563 1137 0.111111
563 1138 0.111111
564 26 0.496204
564 565 0.49621
564 927 0.00758618
565 770 1
566 2 0.255703
566 3 0.220209
566 4 0.253211
566 5 0.255695
566 29 0.0151816
567 2 0.00795164
567 3 0.912422
567 4 0.0714745
567 5 0.008152
568 37 0.112017
568 43 0.110963
568 132 0.224034
568 289 0.111969
568 818 0.112017
568 928 0.112017
568 929 0.104966
568 930 0.112017
569 43 0.291775
569 289 0.00473181
569 929 0.703494
570 37 0.185801
570 657 0.814199
571 37 1
572 37 0.893606
572 657 0.106394
573 627 0.25
573 674 0.25
573 931 0.25
573 932 0.25
574 9 0.248325
574 289 0.250558
574 933 0.250558
574 934 0.250558
575 95 0.111117
575 117 0.111067
575 121 0.111117
575 935 0.111117
575 936 0.111117
575 937 0.111117
575 938 0.111117
575 939 0.111117
575 940 0.111117
576 943 1
577 9 0.325999
577 941 0.336999
577 942 0.337002
578 132 0.32659
578 133 0.32659
578 943 0.0202286
578 944 0.32659
579 33 0.166667
579 60 0.166667
579 266 0.166667
579 625 0.166667
579 872 0.166667
579 945 0.166667
580 13 0.142857
580 26 0.142857
580 56 0.142857
580 126 0.142857
580 946 0.142857
580 947 0.142857
580 948 0.142857
581 20 0.166665
581 660 0.333334
581 949 0.166667
581 950 0.166667
581 951 0.166667
582 29 0.0908892
582 801 0.30633
582 952 0.295996
582 953 0.306784
583 346 0.00177893
583 475 0.513803
583 801 0.0130352
583 952 0.309803
583 1773 0.16158
584 3 0.143461
584 42 0.143461
584 345 0.143461
584 346 0.282697
584 954 0.143461
584 955 0.143461
585 29 4.99747e-06
585 755 0.250208
585 956 0.250208
585 957 0.250208
585 958 0.24937
586 7 0.249051
586 43 6.14718e-06
586 587 0.250035
586 958 0.000837365
586 959 0.250035
586 960 0.250035
587 16 0.165483
587 126 0.165582
587 304 0.0106201
587 625 0.165564
587 961 0.165582
587 962 0.165271
587 963 0.161898
588 964 0.5
588 965 0.5
589 455 0.450977
589 966 0.549023
590 455 0.999173
590 966 0.000827356
591 29 4.92301e-06
591 147 0.202286
591 303 0.202286
591 352 0.19085
591 967 0.202286
591 968 0.202286
592 352 0.345664
592 752 0.327168
592 1232 0.327168
593 9 0.249056
593 969 0.250315
593 970 0.250315
593 971 0.250315
594 20 0.21402
594 973 0.10702
594 974 0.143911
594 975 0.10701
594 976 0.10701
594 977 0.10701
594 978 0.10701
594 979 0.10701
595 16 0.171089
595 17 0.145508
595 47 0.16989
595 343 0.171171
595 983 0.171171
595 984 0.171171
596 26 0.166667
596 365 0.166667
596 372 0.166667
596 531 0.166667
596 580 0.166667
596 1072 0.166667
597 20 0.111111
597 100 0.111111
597 147 0.111111
597 177 0.111111
597 199 0.111111
597 896 0.111111
597 987 0.111111
597 988 0.111111
597 989 0.111111
598 9 0.471021
598 991 0.0598735
598 992 0.469105
599 9 0.000591325
599 991 0.990823
599 992 0.00858595
600 60 1
601 7 0.124151
601 13 0.124858
601 60 0.00184228
601 75 0.124858
601 838 0.124858
601 839 0.124858
601 846 0.124858
601 872 0.124858
601 993 0.124858
602 17 0.119165
602 20 0.125831
602 33 0.125834
602 358 0.125834
602 434 0.125832
602 846 0.125834
602 994 0.125834
602 995 0.125834
603 17 0.122077
603 56 0.125418
603 126 0.125418
603 261 0.250835
603 303 0.250835
603 637 0.125418
604 17 0.279377
604 37 0.144126
604 825 2.36967e-06
604 996 0.144126
604 997 0.14412
604 998 0.144122
604 999 0.144126
605 17 0.0457949
605 43 0.00036434
605 825 0.953773
605 997 4.00587e-05
605 998 2.77141e-05
606 29 0.225506
606 261 0.22522
606 1004 0.290458
606 1005 0.258816
607 7 0.170642
607 47 0.197848
607 187 0.210503
607 280 0.210503
607 1006 0.210503
608 7 0.175826
608 33 0.0916407
608 47 0.182688
608 75 0.0916408
608 108 0.0916408
608 315 0.183282
608 1007 0.0916408
608 1012 0.0916408
609 231 0.25
609 846 0.25
609 1008 0.25
609 1009 0.25
610 7 0.133283
610 17 0.14626
610 674 0.15086
610 1013 0.152721
610 1014 0.111438
610 1015 0.152721
610 1016 0.152717
611 7 0.000105734
611 674 0.0431421
611 1014 0.956667
611 1016 8.56019e-05
612 147 0.333385
612 346 0.33323
612 1017 0.333385
613 449 0.4991
613 1024 0.499229
613 1025 0.00167114
614 3 0.199813
614 20 0.199849
614 531 0.200113
614 1026 0.200113
614 1027 0.200113
615 3 0.0611143
615 20 0.547617
615 29 0.333742
615 449 0.00241322
615 958 0.00167831
615 1046 0.0534348
616 6 0.244682
616 7 0.244642
616 359 0.0342798
616 1028 0.231725
616 1029 0.244671
617 359 0.94194
617 1028 0.0580083
617 1029 5.21202e-05
618 17 0.239651
618 37 0.25345
618 1030 0.25345
618 1031 0.253449
619 16 3.4146e-05
619 73 0.999099
619 1577 0.000866665
620 37 0.240502
620 224 0.378056
620 658 0.381442
621 37 0.976533
621 224 0.0234668
622 29 0.00543154
622 1032 0.331523
622 1033 0.331523
622 1034 0.331523
623 547 1
624 103 0.248313
624 406 0.248313
624 547 0.0067482
624 1035 0.248313
624 1036 0.248313
625 17 0.0318951
625 47 0.120064
625 147 0.121145
625 303 0.121145
625 449 0.121145
625 513 0.121145
625 936 0.121145
625 1037 0.121145
625 1038 0.121145
625 1039 2.37007e-05
626 29 0.276843
626 1040 0.361579
626 1041 0.361579
627 812 1
628 812 1
629 3 0.333335
629 193 0.333335
629 1042 0.33333
630 343 0.908117
630 673 0.0918688
630 1042 1.4308e-05
631 12 0.21516
631 13 0.140177
631 311 0.214681
631 1043 0.21479
631 1044 0.215191
632 12 0.000415538
632 13 0.987575
632 311 0.00672034
632 1043 0.00528915
633 29 0.16405
633 153 0.278433
633 1045 0.278758
633 1046 0.278758
634 17 0.161755
634 43 0.00613272
634 58 0.166423
634 118 0.166423
634 264 0.166423
634 434 0.166423
634 1047 0.166422
635 6 0.043558
635 7 0.167407
635 9 0.000977874
635 10 0.043558
635 16 0.0433919
635 20 0.0435541
635 29 0.000487819
635 57 0.0871161
635 58 0.043558
635 153 0.0435359
635 752 0.0472744
635 753 0.0871161
635 754 0.043558
635 755 0.043558
635 1060 0.043558
635 1061 0.043558
635 1065 0.043558
635 1066 0.043558
635 1067 0.043558
635 1071 0.043558
636 16 0.110569
636 17 0.128487
636 18 0.222222
636 47 0.0942784
636 216 0.111111
636 343 0.111111
636 372 0.111111
636 1050 0.111111
637 43 0.216469
637 352 0.261177
637 1068 0.261177
637 1069 0.261177
638 29 0.276915
638 196 0.361543
638 1070 0.361543
639 26 0.238595
639 43 0.045622
639 658 0.238595
639 1068 0.238595
639 1072 0.238595
640 16 0.166444
640 365 0.166711
640 449 0.166711
640 573 0.166711
640 1073 0.166711
640 1074 0.166711
641 60 0.485674
641 126 0.0285692
641 1075 8.2641e-05
641 1077 0.485674
642 60 9.73648e-06
642 107 0.25001
642 126 0.250004
642 1075 0.249967
642 1076 0.25001
643 126 0.320001
643 1017 0.339993
643 1077 1.37229e-05
643 1078 0.339993
644 29 0.00102601
644 1079 0.499487
644 1080 0.499487
645 7 0.0712431
645 9 0.138856
645 16 0.0717601
645 177 0.0718141
645 304 0.143628
645 319 0.0718141
645 359 0.0718141
645 579 0.0718141
645 1081 0.0718141
645 1082 0.0718141
645 1083 0.0718141
645 1084 0.0718141
646 9 0.183003
646 304 0.204249
646 813 0.204249
646 1053 0.204249
646 1085 0.204249
647 9 0.234523
647 60 0.236443
647 217 0.236304
647 861 0.0562873
647 1086 0.236443
648 9 0.000573533
648 217 0.000767516
648 861 0.998659
649 20 0.11111
649 251 0.111111
649 535 0.111111
649 916 0.111111
649 1062 0.111111
649 1087 0.111111
649 1088 0.111111
649 1089 0.111111
649 1090 0.111111
650 9 0.105585
650 17 0.110331
650 37 0.112564
650 47 0.1087
650 84 0.112564
650 88 0.112564
650 224 0.112564
650 482 0.112564
650 1091 0.112564
651 9 0.269742
651 1011 0.263473
651 1092 0.194183
651 1093 0.272602
652 1011 0.104422
652 1092 0.895371
652 1093 0.00020667
653 29 0.299034
653 462 0.11768
653 463 0.11768
653 1094 0.11768
653 1095 0.112565
653 1096 0.11768
653 1097 0.11768
654 3 0.143001
654 42 0.143001
654 345 0.143001
654 346 0.284997
654 1098 0.143001
654 1099 0.143001
655 29 0.067992
655 43 0.00289567
655 60 0.0846508
655 346 0.167711
655 348 0.08465
655 725 0.0843275
655 1100 0.0846508
655 1101 0.0846507
655 1102 0.0846508
655 1103 0.0845196
655 1104 0.0846507
655 1105 0.0846507
656 16 0.200528
656 47 0.199749
656 82 0.100269
656 107 0.100269
656 352 0.100269
656 510 0.098377
656 1107 0.100269
656 1108 0.100269
657 29 0.276924
657 1004 0.361538
657 1005 0.361538
658 9 0.261109
658 290 0.300272
658 551 0.145077
658 1109 0.293542
659 9 0.161216
659 551 0.803915
659 1109 0.0348688
660 6 0.0577807
660 12 0.115561
660 13 0.0769072
660 20 0.0577807
660 207 0.0577807
660 311 0.0577807
660 374 0.0577807
660 607 0.0577807
660 1110 0.0577807
660 1111 0.0577852
660 1112 0.0577807
660 1113 0.114159
660 1114 0.0577807
660 1115 0.0577807
660 1116 0.0577807
661 9 0.0947798
661 13 0.127249
661 60 0.129662
661 187 0.129662
661 970 0.129662
661 1127 0.129662
661 1128 0.129662
661 1129 0.129662
662 3 0.169797
662 29 0.151013
662 395 0.169797
662 1130 0.169797
662 1131 0.169797
662 1132 0.169797
663 17 0.242121
663 37 0.252626
663 1210 0.252626
663 1211 0.252626
664 673 1
665 33 0.111076
665 96 0.111118
665 183 0.111118
665 346 0.111118
665 559 0.111118
665 625 0.111118
665 706 0.111118
665 1134 0.111096
665 1135 0.111118
666 33 0.122725
666 346 0.0185043
666 626 0.122678
666 667 0.122678
666 867 0.122678
666 868 0.122678
666 1134 0.122703
666 1139 0.122678
666 1140 0.122678
667 29 2.14348e-06
667 37 0.168166
667 43 0.159169
667 73 0.168166
667 134 0.168166
667 400 0.168166
667 1141 0.168166
668 37 0.246943
668 100 0.00224943
668 230 0.246943
668 751 0.00997756
668 896 0.246943
668 1142 0.246943
669 100 0.508022
669 751 0.491978
670 29 0.00343612
670 37 0.0378734
670 43 0.317093
670 1143 0.320798
670 1144 0.320798
671 37 0.999942
671 43 5.81913e-05
672 17 0.113007
672 37 0.117927
672 43 0.0615028
672 132 0.117927
672 751 0.117927
672 810 0.117927
672 1145 0.117927
672 1146 0.117927
672 1147 0.117927
673 126 0.142857
673 302 0.142857
673 351 0.142857
673 401 0.142857
673 431 0.142857
673 1148 0.142857
673 1149 0.142857
674 17 1
675 37 0.341411
675 88 0.31696
675 1150 0.341629
676 37 0.0088678
676 88 0.991132
677 29 0.00537025
677 37 0.249967
677 43 0.244729
677 95 0.249967
677 1151 0.249967
678 60 0.5
678 995 0.5
679 627 0.333333
679 909 0.333333
679 1152 0.333333
680 29 0.000214695
680 37 0.201218
680 43 0.194912
680 562 0.201218
680 1153 0.201218
680 1154 0.201218
681 7 0.315082
681 16 0.340448
681 47 0.00395356
681 1476 0.340517
682 153 0.111098
682 156 0.111113
682 346 0.111113
682 597 0.111113
682 735 0.111113
682 737 0.111113
682 1155 0.222225
682 1156 0.111113
683 88 0.166668
683 346 0.166662
683 499 0.333335
683 692 0.166668
683 1157 0.166668
684 7 0.136489
684 88 0.172702
684 249 0.172702
684 384 0.172702
684 692 0.172702
684 1158 0.172702
685 37 0.111111
685 190 0.111111
685 236 0.111111
685 570 0.111111
685 735 0.111111
685 1159 0.111111
685 1160 0.111111
685 1161 0.111111
685 1162 0.111111
686 33 0.146552
686 37 0.120685
686 58 0.146553
686 301 0.146553
686 400 0.146553
686 1163 0.146553
686 1164 0.146553
687 29 0.00020388
687 37 0.196969
687 43 0.197599
687 829 0.187142
687 1165 0.209043
687 1166 0.209043
688 37 0.166667
688 1167 0.166667
688 1168 0.166667
688 1169 0.166667
688 1170 0.166667
688 1171 0.166667
689 17 0.142857
689 37 0.142857
689 88 0.285714
689 224 0.142857
689 1172 0.142857
689 1173 0.142857
690 43 1
691 37 1
692 37 0.125
692 43 2.8991e-06
692 73 0.125
692 573 0.249999
692 767 0.125
692 910 0.125
692 1174 0.125
692 1175 0.125
693 33 0.5
693 1176 0.5
694 73 0.125
694 562 0.125
694 654 0.125
694 751 0.125
694 909 0.125
694 1177 0.125
694 1178 0.125
694 1179 0.125
695 16 0.151456
695 37 0.105394
695 117 0.151447
695 121 0.151478
695 134 0.150472
695 675 0.138284
695 871 0.151469
696 37 0.764155
696 117 0.00023266
696 134 0.0166792
696 675 0.21879
696 871 0.000143211
697 37 1
698 37 0.267769
698 1184 0.262229
698 1185 0.209126
698 1186 0.260876
699 1186 1
700 1184 0.0562831
700 1185 0.943717
701 1184 1
702 9 0.129497
702 16 0.132615
702 36 0.13273
702 37 0.131894
702 581 0.1327
702 1187 0.13273
702 1188 0.132715
702 1189 0.0751192
703 16 0.000113488
703 37 0.0142941
703 581 0.000500302
703 1188 0.000255994
703 1189 0.984836
704 26 0.127123
704 37 0.127123
704 42 0.127124
704 73 0.127123
704 591 0.254241
704 1191 0.110143
704 1192 0.127124
705 7 0.0895497
705 9 0.0693235
705 15 0.168223
705 37 0.168226
705 1197 0.168226
705 1198 0.168226
705 1199 0.168226
706 15 3.28079e-06
706 126 0.199999
706 1193 0.199999
706 1194 0.199999
706 1195 0.199999
706 1196 0.199999
707 37 0.333333
707 1049 0.333333
707 1200 0.333333
708 9 0.0963196
708 37 0.226027
708 436 0.226027
708 562 0.226027
708 1202 0.2256
709 7 1.70594e-05
709 9 0.00677982
709 13 2.27585e-05
709 132 0.306585
709 133 0.220351
709 311 0.0253351
709 1201 0.220351
709 1202 0.110383
709 1780 0.110175
710 37 0.155593
710 132 0.168881
710 133 0.168881
710 283 0.168881
710 1203 0.168881
710 1204 0.168881
711 37 0.355169
711 1200 0.354602
711 1205 0.290229
712 37 0.00145877
712 1200 0.0100714
712 1205 0.98847
713 29 0.285206
713 1206 0.357397
713 1207 0.357397
714 37 0.2
714 409 0.4
714 1208 0.4
715 14 0.25
715 126 0.25
715 1150 0.25
715 1209 0.25
716 383 0.5
716 1214 0.5
717 126 0.25
717 199 0.25
717 1212 0.25
717 1213 0.25
718 37 0.172829
718 43 0.135999
718 88 0.172686
718 573 0.172829
718 1049 0.172829
718 1215 0.172829
719 47 0.498188
719 88 0.000414023
719 1216 0.501398
720 33 0.0714458
720 126 0.0714569
720 150 0.0714569
720 153 0.12947
720 157 0.0714568
720 303 0.142914
720 368 0.0714569
720 751 0.0714568
720 1221 0.0714569
720 1222 0.0714569
720 1225 0.0714569
720 1226 0.0714569
720 1227 0.0130589
721 9 0.110205
721 16 0.11128
721 47 0.110786
721 251 0.111288
721 740 0.111288
721 1217 0.111288
721 1218 0.111288
721 1219 0.111288
721 1220 0.111288
722 7 0.00967627
722 20 0.137502
722 132 0.142139
722 448 0.14214
722 449 0.142124
722 529 0.142139
722 1228 0.142139
722 1229 0.14214
723 29 0.285205
723 1046 0.357397
723 1230 0.357397
724 1231 1
725 97 0.25
725 419 0.25
725 1359 0.25
725 1685 0.25
726 29 0.272141
726 50 0.371634
726 51 0.356225
727 29 0.678285
727 50 0.000671612
727 51 0.321043
728 3 0.110771
728 4 0.0553985
728 11 0.0553986
728 33 0.0553984
728 52 0.0553985
728 96 0.0553986
728 117 0.0553342
728 121 0.055397
728 347 2.07448e-05
728 349 1.03353e-06
728 395 0.0553986
728 752 0.0582953
728 970 0.0553986
728 1002 0.0553985
728 1234 0.0553986
728 1239 0.0553986
728 1240 0.0553986
728 1241 0.0553986
728 1242 0.0553986
729 752 0.321507
729 1232 0.339246
729 1233 0.339246
730 47 0.222051
730 177 0.111136
730 513 0.111136
730 1178 0.111136
730 1235 0.111136
730 1236 0.111136
730 1237 0.111136
730 1238 0.111136
731 16 0.199837
731 126 0.200649
731 1243 0.199838
731 1246 0.199838
731 1247 0.199838
732 126 0.14236
732 362 0.14294
732 586 0.14294
732 1117 0.14294
732 1194 0.14294
732 1244 0.14294
732 1245 0.14294
733 12 0.111112
733 13 0.111112
733 16 0.111107
733 152 0.111112
733 153 0.11111
733 414 0.111112
733 1248 0.111112
733 1249 0.111112
733 1250 0.111112
734 3 0.055653
734 16 0.0543237
734 33 0.0556265
734 82 0.0556265
734 132 0.0556265
734 133 0.0556265
734 158 0.0556265
734 290 0.0556265
734 304 0.0556265
734 499 0.0556265
734 904 0.0556265
734 974 0.0556264
734 1053 0.0556265
734 1251 0.0556265
734 1253 0.0556265
734 1257 0.0556265
734 1258 0.0556265
734 1259 0.0556264
735 20 0.1
735 107 0.1
735 251 0.1
735 303 0.1
735 591 0.2
735 706 0.1
735 1260 0.1
735 1261 0.1
735 1262 0.1
736 9 0.0985461
736 43 0.0018901
736 76 0.098665
736 187 0.098665
736 303 0.098665
736 352 0.104659
736 534 0.104066
736 706 0.098665
736 777 0.098665
736 1238 0.098665
736 1264 0.098848
737 7 0.108474
737 47 1.70977e-05
737 60 0.153022
737 132 0.105498
737 187 0.210996
737 564 0.105498
737 658 0.105498
737 1137 0.105498
737 1266 0.105498
738 7 0.273249
738 12 0.14535
738 26 0.14535
738 366 0.14535
738 393 0.14535
738 1265 0.14535
739 7 0.150358
739 47 0.152281
739 60 0.0842325
739 1269 0.306564
739 1270 0.153282
739 1271 0.153282
740 58 0.166668
740 117 0.166662
740 121 0.166668
740 1272 0.166668
740 1273 0.166668
740 1274 0.166668
741 2 0.25
741 3 0.25
741 4 0.25
741 1275 0.25
742 179 0.433986
742 1233 0.566014
743 179 0.997414
743 1233 0.0025865
744 92 0.11222
744 93 0.11222
744 117 0.112181
744 346 0.214508
744 348 0.112213
744 349 0.112219
744 1276 0.11222
744 1277 0.11222
745 522 0.25
745 1278 0.25
745 1279 0.25
745 1280 0.25
746 16 0.111159
746 117 0.111159
746 346 0.111968
746 348 0.109918
746 464 0.111159
746 506 0.111159
746 1222 0.111159
746 1281 0.111159
746 1282 0.111159
747 3 0.249914
747 958 0.250219
747 1046 0.249628
747 1283 0.250239
748 1284 0.190389
748 1285 0.809611
749 1284 0.980648
749 1285 0.0193522
750 3 0.131691
750 29 0.00031553
750 290 0.209539
750 395 0.131691
750 526 0.131691
750 1130 0.131691
750 1287 0.131691
750 1288 0.131691
751 20 0.111105
751 60 0.111112
751 126 0.111112
751 304 0.111112
751 614 0.111112
751 878 0.111112
751 974 0.111112
751 1053 0.111112
751 1251 0.111112
752 16 0.192423
752 17 0.192309
752 29 2.67197e-05
752 47 0.187745
752 158 0.192427
752 304 0.191935
752 1290 0.0431349
753 1289 1
754 13 0.111111
754 100 0.111111
754 101 0.111111
754 126 0.111111
754 187 0.111111
754 303 0.111111
754 409 0.111111
754 488 0.111111
754 1293 0.111111
755 58 0.166669
755 117 0.166657
755 121 0.166668
755 1291 0.166669
755 1292 0.333337
756 29 0.218902
756 346 0.390523
756 1294 0.390575
757 29 0.319536
757 368 0.340232
757 1225 0.340232
758 29 5.84184e-05
758 290 0.000153498
758 551 0.499894
758 1300 0.499894
759 290 1
760 449 0.333333
760 1301 0.333333
760 1302 0.333333
761 693 0.5
761 1303 0.5
762 12 0.142857
762 13 0.142857
762 311 0.142857
762 365 0.142857
762 751 0.142857
762 1304 0.142857
762 1305 0.142857
763 20 0.144613
763 32 0.0723088
763 33 0.0723087
763 346 0.204609
763 737 0.072308
763 745 0.0723088
763 780 0.0723088
763 781 0.0723087
763 1359 0.0723087
763 1390 0.0723088
763 1641 0.0723088
764 20 0.166665
764 513 0.166667
764 1000 0.166667
764 1306 0.166667
764 1307 0.166667
764 1308 0.166667
765 7 0.151075
765 13 0.169796
765 152 0.169796
765 153 0.16974
765 187 0.169796
765 663 0.169796
766 9 1.17664e-05
766 225 0.166665
766 252 0.166665
766 401 0.166665
766 414 0.166665
766 938 0.333329
767 9 1.49145e-05
767 13 0.244294
767 17 0.510425
767 207 0.000578119
767 537 0.0068722
767 1789 0.237815
768 37 0.333333
768 860 0.333333
768 1194 0.333333
769 60 0.5
769 1309 0.5
770 43 0.0135517
770 88 0.246612
770 224 0.246612
770 1310 0.246612
770 1311 0.246612
771 37 0.163712
771 60 0.0418293
771 117 0.139615
771 121 0.163712
771 374 0.163709
771 670 0.163712
771 1270 0.163712
772 9 0.245222
772 162 0.251593
772 163 0.251593
772 405 0.251593
773 60 0.5
773 1105 0.5
774 9 0.140255
774 12 0.143291
774 13 0.143291
774 97 0.143291
774 916 0.143291
774 1313 0.143291
774 1314 0.143291
775 1315 0.40014
775 1316 0.59986
776 1315 0.908009
776 1316 0.091991
777 13 0.166561
777 14 0.166561
777 29 0.000632166
777 132 0.166561
777 365 0.166561
777 1317 0.166561
777 1318 0.166561
778 3 0.142857
778 13 0.142857
778 365 0.142857
778 1319 0.142857
778 1320 0.142857
778 1321 0.142857
778 1322 0.142857
779 9 0.221811
779 182 0.00477858
779 186 0.25793
779 1323 0.257926
779 1324 0.257554
780 9 0.000155362
780 182 0.998351
780 1323 1.30769e-05
780 1324 0.0014803
781 9 0.159944
781 26 0.168011
781 418 0.168011
781 564 0.168011
781 752 0.168011
781 916 0.168011
782 13 0.165386
782 60 0.165397
782 187 0.165397
782 303 0.165366
782 732 0.165395
782 1194 0.164784
782 1329 0.00827472
783 1329 1
784 13 7.38321e-05
784 303 0.000219507
784 1194 0.00430131
784 1329 0.995405
785 3 0.0589573
785 21 0.0589573
785 42 0.0589573
785 62 0.0589258
785 297 0.117915
785 345 0.0589573
785 346 0.115673
785 348 0.0589573
785 418 0.0589565
785 616 0.0589573
785 752 0.0589569
785 1330 0.0589573
785 1331 0.0589573
785 1341 0.0589573
785 1342 0.0589573
786 6 0.203272
786 7 0.186912
786 10 0.203272
786 11 0.203272
786 322 0.203272
787 100 0.111111
787 162 0.111111
787 564 0.111111
787 1112 0.111111
787 1336 0.111111
787 1337 0.111111
787 1338 0.111111
787 1339 0.111111
787 1340 0.111111
788 6 0.200081
788 7 0.199675
788 359 0.200081
788 564 0.200081
788 1256 0.200081
789 29 0.285172
789 1343 0.357414
789 1344 0.357414
790 29 0.000622324
790 60 0.249844
790 500 0.249844
790 1345 0.249844
790 1346 0.249844
791 9 0.49927
791 112 0.00102676
791 462 0.249851
791 1347 0.249851
792 3 0.426096
792 43 0.147808
792 194 0.213048
792 531 0.213048
793 261 0.167887
793 371 6.3871e-05
793 653 0.166998
793 871 0.329279
793 1232 0.167887
793 1348 0.167887
794 29 0.319536
794 579 0.340232
794 1084 0.340232
795 47 0.19959
795 608 0.200102
795 1122 0.200102
795 1349 0.200102
795 1350 0.200102
796 39 0.5
796 110 0.5
797 55 0.00113092
797 1351 0.998869
798 55 0.249788
798 1194 0.250071
798 1195 0.250071
798 1352 0.250071
799 3 0.111172
799 7 0.105804
799 9 0.00482282
799 73 0.111172
799 97 0.111172
799 414 0.111172
799 418 0.111172
799 616 0.111172
799 916 0.111172
799 1353 0.111172
800 9 0.130429
800 12 0.144929
800 133 0.144928
800 365 0.144928
800 1000 0.144928
800 1354 0.144929
800 1355 0.144929
801 178 1
802 178 1
803 60 0.102866
803 124 0.0815064
803 152 0.0815064
803 153 0.163002
803 187 0.0820359
803 287 0.0815064
803 311 0.0815115
803 365 0.0815064
803 483 0.0815064
803 562 3.87069e-05
803 1094 0.0815064
803 1358 0.0815064
804 126 0.0833334
804 152 0.0833333
804 365 0.0833334
804 751 0.0833334
804 782 0.0833333
804 1279 0.0833334
804 1280 0.0833333
804 1305 0.0833333
804 1359 0.0833334
804 1853 0.0833334
804 1854 0.0833334
804 1855 0.0833332
805 26 0.211062
805 60 0.15575
805 846 0.211062
805 1361 0.211062
805 1362 0.211062
806 3 0.00240151
806 898 0.997598
807 3 0.499395
807 898 5.43284e-06
807 1254 0.5006
808 9 0.331822
808 463 0.168207
808 484 0.167145
808 927 4.22758e-06
808 1369 0.166411
808 1370 0.166411
809 386 0.487502
809 1739 0.512498
810 60 1
811 9 0.241732
811 29 0.00126115
811 195 0.252336
811 1366 0.252336
811 1367 0.252336
812 266 0.0589292
812 1368 0.941071
813 266 0.999914
813 1368 8.56101e-05
814 7 0.245153
814 638 0.251616
814 1371 0.251616
814 1372 0.251616
815 9 0.206506
815 175 0.206655
815 190 0.206655
815 573 0.206655
815 1374 0.17353
816 1373 0.861853
816 1374 0.138147
817 62 0.2
817 752 0.2
817 1201 0.2
817 1375 0.2
817 1376 0.2
818 139 0.25
818 147 0.25
818 1377 0.25
818 1378 0.25
819 224 1
820 1571 1
821 98 0.333333
821 1371 0.333333
821 1379 0.333333
822 1380 1
823 1380 1
824 1381 0.333333
824 1382 0.333333
824 1383 0.333333
825 60 0.5
825 187 0.5
826 126 5.83286e-06
826 361 0.499998
826 1732 0.499996
827 9 0.248831
827 195 0.25039
827 462 0.25039
827 1367 0.25039
828 9 0.111019
828 33 0.148148
828 39 0.148166
828 488 0.148166
828 971 0.148167
828 1398 0.148167
828 1818 0.148167
829 521 1
830 521 1
831 43 3.92378e-06
831 145 0.250275
831 484 0.249171
831 752 0.250275
831 1140 0.250275
832 60 0.334258
832 187 0.331485
832 1384 0.334258
833 579 1
834 37 1
835 55 0.5
835 147 0.5
836 9 0.191822
836 47 0.200361
836 245 0.202606
836 384 0.202606
836 911 0.202606
837 7 0.194828
837 26 0.201293
837 281 0.201293
837 1335 0.201293
837 1387 0.201293
838 16 0.166705
838 352 0.333411
838 355 0.166499
838 360 0.166705
838 1388 0.16668
839 13 0.334283
839 47 0.330969
839 132 0.334283
839 355 0.000413492
839 1388 5.15193e-05
840 29 0.136713
840 343 0.287762
840 502 0.287762
840 1389 0.287762
841 266 0.313824
841 1368 0.686176
842 266 0.983666
842 1368 0.0163337
843 1279 0.250001
843 1280 0.249999
843 1359 0.25
843 1390 0.25
845 60 0.25
845 101 0.25
845 291 0.25
845 499 0.25
846 72 0.111111
846 100 0.111111
846 153 0.111111
846 303 0.111111
846 381 0.111111
846 717 0.111111
846 740 0.111111
846 1371 0.111111
846 1392 0.111111
847 1394 1
848 3 0.25
848 554 0.25
848 1371 0.25
848 1397 0.25
849 9 0.138324
849 47 0.123326
849 145 0.147659
849 146 0.147672
849 532 0.147673
849 1323 0.147673
849 1398 0.147673
850 47 0.999318
850 145 0.000682126
851 9 0.331346
851 1399 0.334327
851 1400 0.334327
852 7 0.254073
852 499 0.262586
852 1401 0.262784
852 1402 0.220557
853 7 0.125096
853 499 0.00409327
853 1402 0.87081
854 1403 1
855 147 0.142857
855 501 0.142857
855 513 0.142857
855 1075 0.142857
855 1404 0.285714
855 1405 0.142857
856 232 1
857 47 0.166392
857 161 0.166722
857 277 0.166722
857 532 0.166722
857 767 0.166722
857 1278 0.166722
858 7 0.15216
858 9 0.152161
858 241 0.17392
858 1406 0.17392
858 1407 0.17392
858 1408 0.17392
859 29 0.00332004
859 1409 0.0378782
859 1410 0.958802
860 29 0.351562
860 1409 0.64843
860 1410 8.21126e-06
861 532 1
862 16 0.333326
862 316 0.333337
862 1412 0.333337
863 26 0.279008
863 207 0.279008
863 895 0.170436
863 1414 0.271548
864 7 0.289824
864 43 1.4787e-05
864 895 0.114389
864 1413 0.587913
864 1414 0.00785993
865 16 0.20353
865 17 0.185476
865 343 0.203665
865 1415 0.203665
865 1416 0.203665
866 207 0.99993
866 1417 7.03456e-05
867 207 0.00655999
867 1417 0.99344
868 7 0.280743
868 326 0.143851
868 895 0.143851
868 1418 0.143851
868 1419 0.143851
868 1420 0.143851
869 1421 0.5
869 1422 0.5
870 17 0.100956
870 190 0.112024
870 346 0.225061
870 605 0.111198
870 670 0.112699
870 752 0.112699
870 1423 0.112699
870 1424 0.112662
871 29 0.100137
871 62 0.0447923
871 190 0.00692236
871 346 1.73869e-05
871 351 0.782253
871 564 8.52116e-05
871 573 0.0154978
871 605 0.0153915
871 1161 0.0345215
871 1424 0.00038158
872 1351 1
873 7 0.142398
873 9 0.143808
873 304 0.135433
873 781 0.144603
873 881 0.144603
873 1425 0.144603
873 1426 0.144554
874 17 0.157216
874 47 0.168073
874 384 0.168678
874 1427 0.168678
874 1428 0.168678
874 1429 0.168678
875 16 0.15655
875 26 0.217249
875 33 0.15655
875 365 0.15655
875 1430 0.15655
875 1431 0.15655
875 1433 1.817e-06
876 26 0.133714
876 47 0.211118
876 207 0.21839
876 1432 0.21839
876 1433 0.218388
877 126 0.25
877 488 0.25
877 1434 0.25
877 1435 0.25
878 224 0.5
878 1436 0.5
879 304 0.173033
879 532 0.173045
879 648 0.147169
879 690 0.172962
879 1278 0.160995
879 1437 0.172796
880 43 0.890206
880 1438 0.109794
881 6 0.251083
881 7 0.246752
881 10 0.251083
881 11 0.251083
882 10 0.124999
882 58 0.124999
882 117 0.124998
882 121 0.124999
882 383 0.124999
882 613 0.124999
882 916 0.124999
882 1438 1.20609e-05
882 1439 0.124999
883 1438 1
884 29 0.32489
884 1384 0.337555
884 1440 0.337555
885 7 0.22078
885 73 0.223753
885 732 0.224023
885 1431 0.185992
885 1441 0.145452
886 7 0.000578773
886 73 0.00231689
886 1431 0.32522
886 1441 0.671884
887 42 0.126686
887 345 0.126588
887 346 0.238984
887 466 0.126701
887 500 0.00184222
887 573 0.126561
887 1357 0.125937
887 1442 0.126701
888 126 0.143132
888 324 0.143132
888 500 0.141051
888 573 0.000157336
888 1256 0.143132
888 1384 0.143132
888 1443 0.143132
888 1444 0.143132
889 147 0.25
889 1445 0.25
889 1446 0.25
889 1447 0.25
890 17 0.0886334
890 147 0.130195
890 442 0.130195
890 537 0.130195
890 794 0.130195
890 1448 0.130195
890 1449 0.130195
890 1450 0.130195
891 29 0.285206
891 1451 0.357397
891 1452 0.357397
892 7 0.16973
892 73 0.170968
892 187 0.170968
892 458 0.170968
892 770 0.146398
892 817 0.170968
893 297 0.25
893 564 0.25
893 1453 0.25
893 1454 0.25
894 343 0.25
894 1455 0.25
894 1456 0.25
894 1457 0.25
895 13 0.142857
895 56 0.142857
895 152 0.142857
895 153 0.142857
895 1458 0.142857
895 1459 0.142857
895 1460 0.142857
896 17 0.200551
896 418 0.199173
896 860 0.198098
896 1461 0.201294
896 1462 0.200884
897 29 0.85263
897 418 0.0545793
897 860 0.0822432
897 1462 0.0105471
898 564 0.333333
898 573 0.333333
898 911 0.333333
899 73 0.203256
899 111 0.203254
899 497 0.203256
899 1463 0.186977
899 1464 0.203256
900 1463 1
901 207 0.424454
901 1417 0.575546
902 207 0.995239
902 1417 0.00476113
903 42 0.166796
903 345 0.000754023
903 346 0.332061
903 348 0.166796
903 1520 0.166796
903 1521 0.166796
904 132 0.2
904 133 0.2
904 191 0.2
904 1465 0.2
904 1466 0.2
905 9 0.184883
905 236 0.18417
905 1467 0.185055
905 1468 0.0757808
905 1469 0.185055
905 1470 0.185055
906 236 0.00804172
906 1468 0.991958
907 7 0.0540888
907 261 0.187462
907 753 0.189932
907 1194 0.188588
907 1471 0.189965
907 1472 0.189965
908 7 0.965974
908 261 0.0217675
908 753 0.000283314
908 1194 0.0119755
909 6 0.166944
909 17 0.165282
909 108 0.166944
909 259 0.166944
909 324 0.166944
909 529 0.166944
910 1153 0.5
910 1473 0.5
911 6 0.143376
911 7 2.48404e-06
911 47 0.28312
911 165 0.286751
911 513 0.143376
911 1477 0.143376
912 3 0.143035
912 42 0.143035
912 345 0.143035
912 346 0.284825
912 1474 0.143035
912 1475 0.143035
913 29 0.00140588
913 55 0.332865
913 613 0.332865
913 1478 0.332865
914 26 0.25
914 613 0.25
914 916 0.25
914 1479 0.25
915 3 0.121343
915 62 0.116641
915 351 0.0392161
915 418 0.121343
915 564 0.121334
915 573 0.119716
915 616 0.121343
915 1161 0.117719
915 1480 0.121343
916 9 0.211524
916 94 0.112639
916 489 0.112639
916 937 0.112639
916 938 0.112639
916 1481 0.112639
916 1482 0.112639
916 1483 0.112639
917 43 0.000738359
917 145 0.333087
917 739 0.333087
917 1174 0.333087
918 1484 1
919 111 0.25
919 594 0.25
919 915 0.25
919 1485 0.25
920 692 0.333218
920 1486 0.000347223
920 1487 0.333217
920 1488 0.333218
921 17 0.451472
921 1486 0.548528
922 29 0.211359
922 137 0.26288
922 1404 0.26288
922 1489 0.26288
923 7 0.176524
923 175 0.205869
923 674 0.205869
923 1490 0.205869
923 1491 0.205869
924 126 0.303159
924 1058 0.301945
924 1492 0.091737
924 1493 0.303159
925 1058 0.0057125
925 1492 0.994287
926 76 0.199925
926 132 0.199925
926 133 0.199925
926 283 0.199925
926 1457 0.00037516
926 1494 0.199925
927 1457 1
928 73 0.166667
928 157 0.166667
928 825 0.166667
928 998 0.166667
928 1386 0.166667
928 1441 0.166667
929 60 0.166667
929 224 0.166667
929 482 0.166667
929 846 0.166667
929 872 0.166667
929 1495 0.166667
930 60 0.166667
930 266 0.166667
930 846 0.166667
930 1361 0.166667
930 1385 0.166667
930 1496 0.166667
931 3 0.129142
931 42 0.112498
931 345 0.129142
931 346 0.255784
931 464 0.129142
931 1497 0.124331
931 1498 0.11996
932 42 0.541121
932 346 0.0039222
932 1497 0.156421
932 1498 0.298536
933 29 0.035765
933 1109 0.482117
933 1499 0.482118
934 9 0.10964
934 17 2.19678e-05
934 47 0.111012
934 73 0.111333
934 117 0.111328
934 121 0.111333
934 384 0.111333
934 414 0.111333
934 1500 0.111333
934 1501 0.111333
935 1185 0.333333
935 1502 0.333333
935 1503 0.333333
936 7 0.147238
936 75 0.149325
936 117 0.106573
936 121 0.149325
936 126 0.149325
936 1504 0.149321
936 1505 0.148892
937 117 0.989857
937 1504 9.42409e-05
937 1505 0.010049
938 42 0.142857
938 345 0.142857
938 346 0.285714
938 466 0.142857
938 1357 0.142857
938 1506 0.142857
939 42 0.166667
939 345 0.166667
939 346 0.166667
939 466 0.166667
939 1357 0.166667
939 1506 0.166667
940 223 1
941 73 0.11112
941 117 0.111033
941 121 0.111114
941 157 0.111134
941 872 0.11112
941 1183 0.11112
941 1507 0.11112
941 1508 0.11112
941 1509 0.11112
942 29 0.294975
942 1256 0.352513
942 1512 0.352513
943 9 0.00250531
943 157 0.142499
943 194 0.142499
943 241 0.142499
943 573 0.142499
943 971 0.142499
943 1514 0.142499
943 1515 0.142499
944 29 0.139154
944 1502 0.430423
944 1513 0.430423
945 1516 1
946 9 0.388888
946 872 0.203704
946 1214 0.203704
946 1517 0.203704
947 73 0.333333
947 157 0.166667
947 199 0.166667
947 1085 0.166667
947 1518 0.166667
948 26 0.249479
948 29 0.00208548
948 923 0.249479
948 1314 0.249479
948 1519 0.249479
949 26 0.166792
949 345 0.166038
949 900 0.166792
949 1516 0.166792
949 1522 0.166792
949 1523 0.166792
950 16 0.249987
950 29 4.42098e-05
950 352 0.24999
950 1524 0.24999
950 1525 0.24999
951 7 0.24487
951 47 0.247313
951 846 0.253909
951 1526 0.253909
952 43 0.182422
952 897 0.204394
952 1049 0.204394
952 1414 0.204394
952 1527 0.204394
953 9 0.325894
953 1289 0.337053
953 1774 0.337053
954 14 0.111113
954 26 0.111113
954 117 0.111097
954 118 0.111113
954 346 0.111114
954 1371 0.111113
954 1528 0.111113
954 1529 0.111113
954 1530 0.111113
955 153 0.299857
955 767 0.149922
955 786 0.149939
955 1174 0.100405
955 1396 0.149939
955 1531 0.149939
956 767 0.000329594
956 1174 0.99967
957 26 0.200094
957 29 3.58442e-05
957 47 0.199589
957 352 0.200094
957 1366 0.200094
957 1532 0.200094
958 52 0.25
958 126 0.25
958 1533 0.25
958 1534 0.25
959 7 0.247009
959 239 0.250997
959 810 0.250997
959 1402 0.250997
960 17 0.00101281
960 47 0.0830256
960 113 0.0832692
960 147 0.0832692
960 351 0.0832692
960 499 0.0832692
960 537 0.0832692
960 838 0.0832692
960 1052 0.0832692
960 1100 0.0832692
960 1535 0.0832692
960 1536 0.0832692
960 1537 0.0832692
961 16 0.166412
961 132 0.166718
961 136 0.166718
961 303 0.166718
961 751 0.166718
961 1538 0.166718
962 16 0.166479
962 395 0.166704
962 667 0.166704
962 860 0.166704
962 1533 0.166704
962 1539 0.166704
963 6 0.212246
963 17 0.151016
963 126 0.212246
963 513 0.212246
963 1413 0.212246
964 88 0.25
964 627 0.25
964 1540 0.25
964 1541 0.25
965 13 0.111111
965 96 0.111111
965 187 0.111111
965 346 0.111111
965 1542 0.111111
965 1543 0.111111
965 1544 0.111111
965 1545 0.111111
965 1546 0.111111
966 17 0.0727946
966 73 0.132458
966 454 0.132458
966 690 0.132458
966 692 0.132458
966 1547 0.132458
966 1548 0.132458
966 1549 0.132458
967 17 0.113963
967 33 0.111198
967 47 0.107651
967 58 0.111198
967 73 0.111198
967 223 0.111198
967 301 0.111198
967 1550 0.111198
967 1551 0.111198
968 346 0.329629
968 449 0.335186
968 1556 0.335186
969 29 0.339235
969 1109 0.165191
969 1561 0.165191
969 1562 0.165191
969 1563 0.165191
970 7 0.222219
970 56 0.111111
970 58 0.111111
970 88 0.111111
970 117 0.111111
970 121 0.111111
970 1564 0.111111
970 1565 0.111111
971 43 0.000443883
971 1161 0.499778
971 1566 0.499778
972 9 0.194284
972 16 0.201119
972 520 0.201532
972 1567 0.201532
972 1568 0.201532
973 16 0.3333
973 1569 0.33335
973 1570 0.33335
974 17 6.47786e-05
974 47 3.28253e-05
974 694 0.999902
975 17 0.140815
975 26 0.145665
975 47 0.130861
975 117 0.145663
975 121 0.145665
975 365 0.145665
975 694 2.51472e-06
975 1113 0.145665
976 87 0.111111
976 153 0.111111
976 207 0.111111
976 706 0.111111
976 740 0.111111
976 810 0.111111
976 1572 0.111111
976 1573 0.111111
976 1574 0.111111
977 6 0.169208
977 7 0.153961
977 10 0.169208
977 26 0.169208
977 754 0.169208
977 1575 0.169208
978 16 0.156505
978 47 0.156641
978 73 0.0603456
978 136 0.156648
978 691 0.156648
978 1576 0.156648
978 1577 0.156564
979 895 0.333332
979 1580 0.333332
979 1585 3.3342e-06
979 1587 0.333332
980 16 0.111825
980 17 0.104958
980 88 0.111888
980 188 0.111888
980 203 0.111888
980 251 0.111888
980 513 0.111888
980 695 0.111888
980 1581 0.111888
981 362 0.328921
981 594 0.0132384
981 1583 0.328921
981 1584 0.328921
982 594 0.489731
982 1582 0.510269
983 1419 0.333334
983 1585 0.333331
983 1586 0.333334
984 438 0.2
984 514 0.2
984 613 0.2
984 1404 0.2
984 1588 0.2
985 671 0.5
985 1589 0.5
986 29 3.15243e-06
986 153 0.258452
986 1158 0.258462
986 1414 0.256244
986 1590 0.226838
987 1414 0.0655523
987 1590 0.934448
988 695 0.5
988 1591 0.5
989 42 0.128021
989 345 0.128339
989 346 0.232968
989 348 0.127381
989 1592 0.127947
989 1593 0.128339
989 1594 0.127004
990 893 0.5
990 1595 0.5
991 42 0.126763
991 345 0.126763
991 346 0.252121
991 348 0.123209
991 1592 0.124799
991 1593 0.126763
991 1594 0.119582
992 13 0.111103
992 57 0.11112
992 58 0.11112
992 100 0.11112
992 117 0.111057
992 456 0.11112
992 459 0.11112
992 1404 0.11112
992 1596 0.11112
993 12 0.25
993 13 0.25
993 548 0.25
993 838 0.25
994 9 0.00258889
994 33 0.166235
994 186 0.166235
994 587 0.166235
994 1597 0.166235
994 1598 0.166235
994 1600 0.166235
995 249 0.25
995 326 0.25
995 327 0.25
995 1601 0.25
998 60 0.111111
998 118 0.111111
998 146 0.111111
998 207 0.111111
998 346 0.111111
998 352 0.111111
998 739 0.111111
998 1603 0.111111
998 1604 0.111111
999 60 1
1000 7 0.192132
1000 26 0.201967
1000 627 0.201967
1000 1608 0.201967
1000 1609 0.201967
1001 1610 0.5
1001 1611 0.5
1002 9 0.107293
1002 33 0.111588
1002 204 0.111588
1002 231 0.111588
1002 260 0.111588
1002 671 0.111588
1002 1260 0.111588
1002 1612 0.223177
1003 3 0.200023
1003 29 2.98256e-05
1003 153 0.199877
1003 395 0.200023
1003 574 0.200023
1003 1615 0.200023
1004 29 6.29908e-05
1004 865 0.333312
1004 1616 0.333312
1004 1617 0.333312
1005 9 0.15052
1005 47 0.167481
1005 200 0.1705
1005 621 0.1705
1005 1618 0.1705
1005 1619 0.1705
1006 9 0.165085
1006 37 0.166982
1006 43 2.92283e-06
1006 254 0.166983
1006 322 0.166983
1006 1620 0.166983
1006 1621 0.166982
1007 17 0.156918
1007 47 0.210258
1007 448 0.210941
1007 1195 0.210941
1007 1427 0.210941
1008 9 4.41108e-05
1008 17 0.110972
1008 56 0.111123
1008 60 0.111123
1008 73 0.111123
1008 75 0.111123
1008 157 0.111123
1008 625 0.111123
1008 1622 0.111123
1008 1623 0.111123
1009 1624 1
1010 29 0.00081925
1010 1624 0.49959
1010 1627 0.49959
1011 455 1
1012 62 0.111114
1012 87 0.111114
1012 147 0.111114
1012 153 0.11109
1012 414 0.111114
1012 499 0.111114
1012 706 0.111114
1012 1248 0.111114
1012 1628 0.111114
1013 20 0.166665
1013 57 0.166667
1013 58 0.166667
1013 454 0.166667
1013 459 0.166667
1013 1487 0.166667
1014 190 0.25
1014 292 0.25
1014 1630 0.25
1014 1631 0.25
1015 9 0.12629
1015 207 0.130209
1015 573 0.260419
1015 1348 0.130209
1015 1632 0.130209
1015 1633 0.0924548
1015 1634 0.130209
1016 1633 1
1017 16 0.157394
1017 60 0.168521
1017 73 0.168521
1017 187 0.168521
1017 1386 0.168521
1017 1635 0.168521
1018 3 0.122972
1018 20 0.122971
1018 346 0.1392
1018 1636 0.122972
1018 1637 0.122972
1018 1638 0.122972
1018 1639 0.122972
1018 1640 0.122972
1019 13 0.206578
1019 24 0.206572
1019 186 0.178724
1019 314 0.201548
1019 1642 0.206578
1020 24 0.000206516
1020 186 0.846855
1020 314 0.152938
1021 7 0.241433
1021 43 3.16283e-05
1021 58 0.126423
1021 88 0.126423
1021 346 0.252842
1021 1643 0.126423
1021 1645 0.126423
1022 118 0.25
1022 450 0.25
1022 671 0.25
1022 1644 0.25
1023 17 0.099482
1023 33 0.112565
1023 203 0.112565
1023 204 0.112565
1023 206 0.112565
1023 868 0.112565
1023 1386 0.112565
1023 1646 0.112565
1023 1647 0.112565
1024 132 0.2
1024 203 0.2
1024 706 0.2
1024 1075 0.2
1024 1649 0.2
1025 3 0.14364
1025 42 0.14364
1025 345 0.14364
1025 346 0.281801
1025 1650 0.14364
1025 1651 0.14364
1026 14 0.142862
1026 152 0.142862
1026 153 0.142829
1026 362 0.142862
1026 1652 0.142862
1026 1653 0.142862
1026 1654 0.142862
1027 7 0.102073
1027 16 0.112668
1027 47 0.109247
1027 60 0.112669
1027 107 0.112669
1027 457 0.112669
1027 1566 0.112669
1027 1655 0.112669
1027 1656 0.112669
1028 7 0.123079
1028 47 0.123434
1028 75 0.125581
1028 157 0.125581
1028 434 0.125581
1028 740 0.125581
1028 997 0.125581
1028 1657 0.125581
1029 13 0.111111
1029 96 0.111111
1029 152 0.111111
1029 153 0.111111
1029 187 0.111111
1029 303 0.222222
1029 346 0.111111
1029 1658 0.111111
1030 3 0.143364
1030 4 0.143364
1030 346 0.139817
1030 702 0.143364
1030 744 0.143364
1030 1659 0.143364
1030 1660 0.143364
1031 7 0.0258838
1031 9 0.138521
1031 17 0.205978
1031 187 0.209873
1031 1809 0.209873
1031 1810 0.209873
1032 9 0.201168
1032 43 0.000655367
1032 352 0.193086
1032 534 0.194321
1032 591 0.205576
1032 1264 0.205194
1033 29 0.285206
1033 1480 0.357397
1033 1661 0.357397
1034 12 0.0666724
1034 13 0.066672
1034 33 0.200017
1034 76 0.0666724
1034 117 0.000277335
1034 152 0.0666723
1034 153 0.0663092
1034 160 0.0666724
1034 421 0.0666724
1034 537 0.0666724
1034 587 0.0666724
1034 717 0.0666724
1034 1682 0.0666724
1034 1683 0.0666724
1035 26 1
1036 26 0.325905
1036 1662 0.337048
1036 1663 0.337048
1037 343 0.5
1037 1664 0.5
1038 9 0.237258
1038 20 0.127122
1038 58 0.127124
1038 358 0.127124
1038 1665 0.127124
1038 1666 0.127124
1038 1667 0.127124
1039 7 0.222198
1039 13 0.111114
1039 187 0.111115
1039 326 0.111115
1039 1237 0.111115
1039 1238 0.111115
1039 1670 0.111115
1039 1671 0.111115
1040 126 0.111111
1040 187 0.111111
1040 257 0.111111
1040 261 0.111111
1040 303 0.111111
1040 412 0.111111
1040 450 0.111111
1040 1668 0.111111
1040 1669 0.111111
1041 1675 1
1042 1675 1
1043 153 0.249946
1043 483 0.250018
1043 779 0.250018
1043 1676 0.250018
1044 153 0.249985
1044 771 0.250005
1044 1414 0.250005
1044 1677 0.250005
1045 9 0.00320591
1045 16 0.332041
1045 1721 0.332377
1045 1722 0.332376
1046 407 0.5
1046 1678 0.5
1047 20 0.111159
1047 26 0.111164
1047 117 0.110693
1047 121 0.111164
1047 216 0.111164
1047 454 0.111164
1047 1679 0.111164
1047 1680 0.111164
1047 1681 0.111164
1048 111 0.164466
1048 762 0.835534
1049 111 0.999184
1049 762 0.00081589
1050 16 0.0389333
1050 79 0.946835
1050 1684 0.0142319
1051 1687 1
1052 60 0.25
1052 107 0.25
1052 133 0.25
1052 1164 0.25
1053 17 0.156806
1053 43 0.000542935
1053 47 0.165681
1053 365 0.169242
1053 881 0.169242
1053 1688 0.169242
1053 1689 0.169242
1054 29 0.0165724
1054 926 0.327809
1054 1690 0.327809
1054 1691 0.327809
1055 60 0.995906
1055 1150 0.00409386
1056 187 0.50103
1056 1150 0.49897
1057 6 0.169701
1057 7 0.151493
1057 10 0.169701
1057 11 0.169701
1057 261 0.169701
1057 1429 0.169701
1058 20 0.111111
1058 33 0.111111
1058 62 0.111111
1058 118 0.111111
1058 406 0.111111
1058 1201 0.111111
1058 1665 0.111111
1058 1693 0.111111
1058 1694 0.111111
1059 1692 1
1060 17 0.192403
1060 37 0.201899
1060 216 0.201899
1060 929 0.201899
1060 1695 0.201899
1061 145 0.2
1061 780 0.2
1061 1035 0.2
1061 1158 0.2
1061 1839 0.2
1062 3 0.25
1062 22 0.25
1062 801 0.25
1062 802 0.25
1063 29 0.139408
1063 956 0.430296
1063 1696 0.430296
1064 1054 1
1065 117 1
1066 7 0.241904
1066 16 0.253928
1066 1684 0.249995
1066 1711 0.254173
1067 153 0.333314
1067 158 0.166672
1067 513 0.166672
1067 786 0.166672
1067 1396 0.166672
1068 17 0.177835
1068 47 0.204296
1068 207 0.205956
1068 1712 0.205956
1068 1713 0.205956
1069 1417 1
1070 26 0.142857
1070 207 0.285714
1070 1052 0.142857
1070 1523 0.142857
1070 1571 0.142857
1070 1714 0.142857
1071 1417 1
1072 7 0.181678
1072 153 0.18588
1072 771 0.186268
1072 1201 0.186267
1072 1305 0.0736389
1072 1715 0.186269
1073 7 0.0177597
1073 153 0.00337823
1073 1201 1.73706e-05
1073 1305 0.978845
1074 1716 1
1075 1716 1
1076 29 0.275148
1076 1717 0.362426
1076 1718 0.362426
1077 13 0.123376
1077 132 0.000238851
1077 152 0.123376
1077 153 0.123242
1077 190 0.123376
1077 365 0.123376
1077 395 0.0128861
1077 562 0.123376
1077 1068 0.123376
1077 1153 0.123376
1078 47 0.225903
1078 343 0.258032
1078 1719 0.258032
1078 1720 0.258032
1079 17 0.154141
1079 100 0.169172
1079 126 0.169172
1079 406 0.169172
1079 1112 0.169172
1079 1256 0.169172
1080 60 0.333333
1080 393 0.333333
1080 748 0.333333
1081 47 0.236548
1081 60 0.236558
1081 61 0.135489
1081 671 0.154846
1081 1143 0.236558
1082 7 0.210164
1082 9 0.206836
1082 61 0.0898362
1082 260 0.210267
1082 671 0.0726302
1082 674 0.210267
1083 86 0.998932
1083 303 0.00106822
1084 13 0.166704
1084 14 0.166704
1084 132 0.166659
1084 303 0.33323
1084 564 0.166703
1085 12 0.25
1085 133 0.25
1085 191 0.25
1085 983 0.25
1086 6 0.114267
1086 17 0.0858618
1086 87 0.114267
1086 88 0.114267
1086 381 0.114267
1086 383 0.114267
1086 384 0.114267
1086 1723 0.114267
1086 1724 0.114267
1087 26 0.249373
1087 96 0.249373
1087 568 0.00262847
1087 626 0.249253
1087 1725 0.249373
1088 269 0.200403
1088 568 0.198291
1088 626 9.64153e-05
1088 758 0.200403
1088 1138 0.200403
1088 1174 0.200403
1089 82 0.333333
1089 653 0.333333
1089 1726 0.333333
1090 26 0.333299
1090 207 0.33335
1090 923 0.33335
1091 82 0.430608
1091 1727 0.569392
1092 82 1
1093 47 0.129091
1093 346 0.217655
1093 348 0.130665
1093 923 0.130666
1093 1728 0.130659
1093 1729 0.130665
1093 1730 0.130599
1094 47 0.0268163
1094 346 0.971452
1094 1728 0.000178664
1094 1729 3.13363e-05
1094 1730 0.00152197
1095 29 4.03214e-06
1095 36 0.249769
1095 43 0.000922589
1095 132 0.249769
1095 1224 0.249766
1095 1731 0.249769
1096 43 0.999986
1096 1224 1.36578e-05
1097 43 4.43098e-05
1097 88 0.33332
1097 126 0.333316
1097 304 0.33332
1098 147 0.171789
1098 352 0.179901
1098 1376 0.179901
1098 1424 0.16498
1098 1733 0.123527
1098 1734 0.179901
1099 147 0.102163
1099 1424 0.187906
1099 1733 0.709931
1101 812 1
1102 812 1
1103 96 1
1104 9 0.101398
1104 42 0.112325
1104 204 0.112325
1104 216 0.112325
1104 303 0.112325
1104 706 0.112325
1104 881 0.112325
1104 1659 0.112325
1104 1736 0.112325
1105 183 0.199999
1105 220 0.199999
1105 231 0.199999
1105 685 3.37336e-06
1105 1386 0.199999
1105 1737 0.199999
1106 7 0.172489
1106 9 0.041516
1106 16 0.196495
1106 71 0.196501
1106 134 0.196501
1106 685 0.196498
1107 47 0.164988
1107 183 0.167002
1107 231 0.167002
1107 297 0.167002
1107 637 0.167002
1107 1738 0.167002
1107 1739 4.43711e-06
1108 9 0.248426
1108 29 2.86567e-06
1108 1740 0.250524
1108 1741 0.250524
1108 1742 0.250524
1109 17 0.249438
1109 43 5.94106e-06
1109 767 0.250185
1109 971 0.250185
1109 1743 0.250185
1110 7 0.141751
1110 47 0.141645
1110 57 0.143369
1110 187 0.143127
1110 418 0.143369
1110 1335 0.143369
1110 1744 0.143369
1111 223 1
1112 1745 1
1113 37 0.298378
1113 139 0.290416
1113 1168 0.298828
1113 1746 0.112378
1114 37 0.00243664
1114 139 0.0431798
1114 1168 0.000132499
1114 1746 0.954251
1115 16 0.170206
1115 17 0.148178
1115 37 0.170404
1115 216 0.170404
1115 372 0.170404
1115 1747 0.170404
1116 17 0.00523246
1116 126 0.165798
1116 223 0.165798
1116 559 0.165795
1116 701 0.165794
1116 1723 0.165786
1116 1724 0.165797
1117 17 0.999867
1117 559 1.97061e-05
1117 701 2.85159e-05
1117 1723 8.51122e-05
1118 29 0.00586219
1118 37 0.250335
1118 43 0.243132
1118 1748 0.250335
1118 1749 0.250335
1119 26 0.249824
1119 29 0.000704682
1119 1750 0.249824
1119 1751 0.249824
1119 1752 0.249824
1120 223 1
1121 223 1
1122 7 0.0121242
1122 153 0.123483
1122 483 0.123485
1122 587 0.123485
1122 871 0.123485
1122 925 0.123485
1122 1339 0.123484
1122 1753 0.123484
1122 1754 0.123485
1123 7 1
1124 147 0.25
1124 216 0.25
1124 968 0.25
1124 1755 0.25
1125 261 0.201801
1125 613 0.287856
1125 695 0.222214
1125 1256 0.28813
1126 261 0.564127
1126 613 0.0032864
1126 695 0.431086
1126 1256 0.00150113
1127 43 0.0199567
1127 289 0.327116
1127 1756 0.325811
1127 1757 0.327116
1128 43 0.801696
1128 1756 0.198304
1129 1756 1
1130 9 0.110917
1130 117 0.111134
1130 121 0.111136
1130 133 0.222271
1130 260 0.111136
1130 393 0.111136
1130 671 0.111136
1130 1758 0.111136
1131 412 0.982259
1131 1759 0.0177407
1132 73 0.359707
1132 412 0.281989
1132 1759 0.358304
1133 7 3.87589e-06
1133 9 0.112228
1133 56 0.224703
1133 60 0.117812
1133 83 0.0740068
1133 126 0.117812
1133 181 0.117809
1133 319 0.117812
1133 915 0.117812
1134 9 0.00184857
1134 56 0.199183
1134 83 0.7989
1134 181 6.88783e-05
1135 16 0.160185
1135 52 0.0396377
1135 126 0.159838
1135 177 0.160231
1135 362 0.159647
1135 1534 0.16023
1135 1761 0.160231
1136 1094 1
1137 14 0.141968
1137 29 0.00727375
1137 47 0.140917
1137 208 0.141968
1137 1217 0.141968
1137 1763 0.141968
1137 1764 0.141968
1137 1765 0.141968
1138 29 4.42086e-06
1138 1284 0.220635
1138 1766 0.25336
1138 1767 0.266688
1138 1768 0.259312
1139 29 0.0265546
1139 1284 0.671553
1139 1766 0.194343
1139 1768 0.107549
1140 26 0.166667
1140 126 0.166667
1140 1184 0.166667
1140 1769 0.166667
1140 1770 0.166667
1140 1771 0.166667
1141 3 0.144752
1141 42 0.144752
1141 345 0.144752
1141 346 0.287335
1141 475 0.136311
1141 1773 0.142098
1142 26 0.25
1142 291 0.25
1142 1016 0.25
1142 1772 0.25
1143 1094 1
1144 43 0.333245
1144 88 0.333378
1144 1775 0.333378
1145 361 1
1146 73 0.166682
1146 111 0.166682
1146 753 0.166682
1146 881 0.166682
1146 1776 0.166682
1146 1777 0.166592
1147 9 0.24771
1147 1255 0.250718
1147 1256 0.250718
1147 1777 0.00013566
1147 1778 0.250718
1148 13 0.125175
1148 62 0.125201
1148 132 0.0272059
1148 153 0.125201
1148 311 0.0964109
1148 483 0.125201
1148 559 0.125201
1148 1248 0.125201
1148 1779 0.125201
1149 16 0.16804
1149 17 0.159452
1149 147 0.168127
1149 352 0.168127
1149 1376 0.168127
1149 1781 0.168127
1150 13 0.166649
1150 17 0.0001296
1150 153 0.166628
1150 663 0.166649
1150 1085 0.333297
1150 1396 0.166649
1151 47 0.16637
1151 240 0.166726
1151 277 0.166726
1151 752 0.166726
1151 1177 0.166726
1151 1783 0.166726
1152 29 0.000759728
1152 37 0.201676
1152 43 0.192536
1152 207 0.201676
1152 1153 0.201676
1152 1154 0.201676
1153 7 0.249779
1153 674 0.250169
1153 1785 0.249883
1153 1786 0.250169
1154 60 0.333207
1154 1784 0.333207
1154 1785 0.333587
1155 752 0.333333
1155 1787 0.333333
1155 1788 0.333333
1156 13 6.6515e-06
1156 47 0.248664
1156 207 0.125007
1156 537 0.121779
1156 916 0.125304
1156 1314 0.125304
1156 1745 0.125304
1156 1748 0.125303
1156 1789 0.00332957
1157 223 1
1158 223 1
1159 223 1
1160 223 1
1161 3 0.2
1161 418 0.2
1161 1062 0.2
1161 1089 0.2
1161 1790 0.2
1162 9 0.14595
1162 303 0.213513
1162 389 0.213513
1162 406 0.213512
1162 777 0.213512
1163 17 0.000123345
1163 303 0.246267
1163 706 0.491785
1163 1791 0.015557
1163 1792 0.246267
1164 17 0.32658
1164 706 0.00105623
1164 1791 0.325217
1164 1793 0.347147
1165 147 0.5
1165 1794 0.5
1166 16 0.166656
1166 261 0.166669
1166 740 0.166669
1166 868 0.166669
1166 1148 0.166669
1166 1606 0.166669
1167 7 0.190917
1167 251 0.202271
1167 361 0.202271
1167 499 0.202271
1167 1063 0.202271
1168 1795 1
1169 33 0.068966
1169 52 0.068966
1169 60 0.183094
1169 110 0.137932
1169 126 0.127256
1169 684 0.068966
1169 1012 0.137921
1169 1236 0.068966
1169 1800 0.137932
1170 7 0.239742
1170 56 0.240973
1170 126 0.0373013
1170 266 0.240973
1170 1012 3.75593e-05
1170 1799 0.240973
1171 187 0.111139
1171 346 0.222025
1171 453 0.111139
1171 1101 0.111139
1171 1767 0.111139
1171 1801 0.111139
1171 1802 0.111139
1171 1803 0.111139
1172 9 0.131381
1172 17 0.0599604
1172 47 0.133193
1172 587 0.135093
1172 785 0.135093
1172 916 0.135093
1172 1804 0.135093
1172 1805 0.135093
1173 20 0.331086
1173 32 0.167228
1173 96 0.167228
1173 187 0.167228
1173 1771 0.167228
1174 13 0.125001
1174 16 0.124994
1174 152 0.125001
1174 153 0.124999
1174 362 0.125001
1174 490 0.125001
1174 1806 0.125001
1174 1807 0.125001
1175 1808 1
1176 43 0.00590118
1176 88 0.331463
1176 580 0.331463
1176 631 0.331173
1177 73 0.111112
1177 117 0.222217
1177 121 0.222224
1177 499 0.111112
1177 1704 0.111112
1177 1706 0.111112
1177 1811 0.111112
1178 17 0.156226
1178 37 0.168792
1178 190 0.168654
1178 929 0.168744
1178 1812 0.168792
1178 1813 0.168792
1179 37 1
1180 9 0.133135
1180 17 0.141215
1180 277 0.14513
1180 563 0.14513
1180 752 0.14513
1180 1686 0.14513
1180 1816 0.14513
1181 9 0.171109
1181 60 0.144156
1181 261 0.182207
1181 393 0.182207
1181 564 0.182207
1181 1817 0.138114
1182 9 0.027463
1182 60 0.4505
1182 1817 0.522037
1183 9 0.310292
1183 260 0.311096
1183 671 0.311083
1183 1818 0.0675288
1184 671 5.8544e-05
1184 1818 0.999941
1185 1745 0.484621
1185 1819 0.515379
1186 1745 0.999582
1186 1819 0.000418473
1187 187 0.333127
1187 374 0.333436
1187 1820 0.333436
1188 33 0.125
1188 62 0.125
1188 88 0.125
1188 706 0.125
1188 1137 0.125
1188 1779 0.25
1188 1822 0.125
1189 60 0.25
1189 1181 0.25
1189 1182 0.25
1189 1821 0.25
1190 752 0.241494
1190 1823 0.758506
1191 5 0.17668
1191 7 0.172869
1191 153 0.176662
1191 195 0.17668
1191 513 0.17668
1191 752 0.120429
1192 47 0.332205
1192 889 0.333898
1192 1824 0.333898
1193 7 0.127232
1193 88 0.128283
1193 706 0.128234
1193 1825 0.128283
1193 1826 0.128283
1193 1827 0.103117
1193 1828 0.128283
1193 1829 0.128283
1194 706 0.00194409
1194 1827 0.998056
1195 33 0.123529
1195 153 0.416034
1195 154 0.0425894
1195 483 0.208406
1195 737 0.0416817
1195 771 0.0843615
1195 1085 0.0417153
1195 1181 0.0416812
1195 1835 1.80248e-06
1196 7 0.243596
1196 393 0.252135
1196 752 0.252135
1196 1830 0.252135
1197 547 0.5
1197 1807 0.5
1198 273 0.5
1198 1833 0.5
1199 73 0.2
1199 145 0.2
1199 365 0.2
1199 1153 0.2
1199 1834 0.2
1200 547 0.498371
1200 1836 0.501629
1201 9 0.328449
1201 506 0.335775
1201 1840 0.335776
1202 33 0.166667
1202 132 0.166667
1202 251 0.166667
1202 401 0.166667
1202 1147 0.166667
1202 1843 0.166667
1203 9 0.0419363
1203 88 0.159677
1203 351 0.159677
1203 1137 0.159677
1203 1767 0.159677
1203 1841 0.159677
1203 1842 0.159677
1204 47 0.166944
1204 143 0.167341
1204 154 0.163694
1204 1824 0.16734
1204 1844 0.16734
1204 1845 0.167341
1205 7 0.191013
1205 9 0.19083
1205 1818 0.206052
1205 1846 0.206052
1205 1847 0.206052
1206 16 0.195857
1206 249 0.201036
1206 304 0.201036
1206 314 0.201036
1206 520 0.201036
1207 16 0.111106
1207 199 0.111112
1207 520 0.111112
1207 648 0.111112
1207 708 0.111112
1207 779 0.111112
1207 829 0.111112
1207 1848 0.111112
1207 1849 0.111112
1208 47 0.247261
1208 157 0.250913
1208 433 0.250913
1208 746 0.250913
1209 9 0.117947
1209 33 0.220512
1209 60 0.220514
1209 187 0.220514
1209 404 0.220514
1210 7 0.197647
1210 153 0.200935
1210 771 0.197244
1210 854 0.202087
1210 1215 0.202087
1211 73 0.239374
1211 548 0.0429264
1211 727 0.239374
1211 737 0.239302
1211 1372 0.239023
1212 548 0.997851
1212 737 0.000364716
1212 1372 0.00178411
1213 47 0.249502
1213 143 0.250166
1213 1654 0.250166
1213 1824 0.250166
1214 4 0.1111
1214 33 0.1111
1214 152 0.1111
1214 631 0.111197
1214 667 0.1111
1214 740 0.1111
1214 1456 0.1111
1214 1860 0.1111
1214 1863 0.1111
1215 9 0.172904
1215 17 0.0552201
1215 82 0.192969
1215 401 0.192969
1215 971 0.192969
1215 1859 0.192969
1216 121 0.111318
1216 153 0.109454
1216 314 0.111318
1216 365 0.111318
1216 744 0.111318
1216 751 0.222636
1216 1775 0.111318
1216 1862 0.111318
1217 26 0.111111
1217 76 0.111111
1217 111 0.111111
1217 132 0.111111
1217 303 0.111111
1217 374 0.111111
1217 376 0.111111
1217 449 0.111111
1217 1864 0.111111
1218 7 0.13291
1218 9 0.0124399
1218 47 0.141152
1218 459 0.142837
1218 1865 0.142837
1218 1866 0.142149
1218 1867 0.142837
1218 1868 0.142837
1219 9 0.993377
1219 47 3.56992e-05
1219 1866 0.00658709
