2 0.897942 0.0092141 0.0128937 0.010025 0.0379257 0.00292517 0.00976609 0.00962308 0 0.00968471 
3 0.961894 0.0072029 0.00322365 0.0102337 0.00944593 0.00073143 0.00244152 0.00240577 0 0.00242118 
4 0.492647 0.0960596 0.0676523 0.072334 0.101049 0.0549177 0.0547049 0.0224269 0.00895548 0.0292533 
5 0.991589 0.000941251 0.00398166 0.00144916 0.000679652 0.000679652 0 0 0.000679652 0 
6 0.906898 0.00731109 0.0102206 0.00794611 0.0189395 0.0133683 0.0199742 0.0076648 0 0.00767691 
7 0.489906 0.159797 0.0290941 0.0971982 0.0223324 0.0516264 0.0787388 0.0344997 0.0289649 0.00784156 
8 0.993511 0.00524057 0 0 0.00124866 0 0 0 0 0 
9 0.504472 0.160616 0.0290941 0.0971982 0.0223324 0.048587 0.0663936 0.0344997 0.0289649 0.00784156 
10 0.504978 0.155182 0.0282257 0.109197 0.0216912 0.0471367 0.0644117 0.0334698 0.0281003 0.00760749 
11 0.473975 0.1085 0.0681826 0.0587732 0.10258 0.0557498 0.0612864 0.0321656 0.00909117 0.0296966 
12 0.960164 0.00957206 0.0156246 0.0107407 0.00129949 0.00129949 0 0 0.00129949 0 
13 0.493568 0.115892 0.0661773 0.0570446 0.0995629 0.0541101 0.0539005 0.0220971 0.00882378 0.0288231 
14 0.974582 0.00103976 0.0200432 0.00184901 0.000828759 0.000828759 0 0 0.000828759 0 
15 0.489906 0.175182 0.0290941 0.0971982 0.0223324 0.048587 0.0663936 0.0344997 0.0289649 0.00784156 
16 0.36525 0.0920075 0.136939 0.0524312 0.136612 0.0378405 0.0451314 0.0641733 0.0148946 0.0547201 
17 0.477036 0.0990153 0.0692316 0.0596774 0.118327 0.0578227 0.0563882 0.023117 0.00923104 0.0301534 
18 0.496739 0.16835 0.0290941 0.0971982 0.0223324 0.048587 0.0663936 0.0344997 0.0289649 0.00784156 
19 0.373802 0.09884 0.136939 0.0524312 0.136612 0.0378405 0.0451307 0.0487893 0.0148946 0.0547201 
20 0.28718 0.143623 0.0448361 0.166404 0.0591018 0.0586155 0.0935486 0.030197 0.0687644 0.0477301 
21 0.36525 0.0920075 0.152323 0.0524312 0.136612 0.0378405 0.0451307 0.0487893 0.0148946 0.0547201 
22 0.537194 0.160455 0.0262656 0.0877484 0.0201612 0.0438633 0.0599387 0.0311455 0.0261489 0.00707919 
23 0.490382 0.172093 0.0317077 0.0971983 0.0223324 0.048587 0.0663936 0.0344997 0.0289649 0.00784156 
24 0.49252 0.172093 0.0295694 0.0971982 0.0223324 0.048587 0.0663936 0.0344997 0.0289649 0.00784156 
25 0.489906 0.159797 0.0290942 0.112581 0.0223346 0.048587 0.0663936 0.0344997 0.0289649 0.00784156 
26 0.30178 0.152799 0.0441566 0.148731 0.0582063 0.0577274 0.0921312 0.0297395 0.0677226 0.0470069 
27 0.497635 0.157376 0.0286533 0.0957255 0.0266241 0.0583723 0.0653876 0.0339769 0.0285261 0.00772275 
28 0.298173 0.148014 0.044836 0.151019 0.0591018 0.0586155 0.0935486 0.030197 0.0687644 0.0477301 
29 0.477036 0.0990153 0.0692327 0.0750609 0.104158 0.0566075 0.0563882 0.023117 0.00923104 0.0301534 
30 0.0550536 0.185859 0.152288 0.033607 0.103817 0.162292 0.0744587 0.193725 0.0123869 0.0265132 
31 0.100949 0.141814 0.0757294 0.237467 0.145821 0.0777331 0.0789333 0.0107705 0.0370562 0.0937265 
32 0.477036 0.0990153 0.0692316 0.0596774 0.104159 0.0719914 0.0563882 0.023117 0.00923104 0.0301534 
33 0.497635 0.157376 0.028683 0.110821 0.0220202 0.0478509 0.0653876 0.0339769 0.0285261 0.00772275 
34 0.477036 0.0990153 0.0692316 0.0596774 0.104158 0.0566628 0.0717034 0.023131 0.00923104 0.0301534 
35 0.477036 0.0990153 0.0692316 0.0596774 0.104158 0.0566092 0.0717711 0.023117 0.00923104 0.0301534 
36 0.489906 0.159797 0.0327794 0.108898 0.0223324 0.048587 0.0663936 0.0344997 0.0289649 0.00784156 
37 0.36525 0.0920075 0.152323 0.0524312 0.136612 0.0378405 0.0451307 0.0487893 0.0148946 0.0547201 
38 0.332401 0.13822 0.0428579 0.144357 0.0564943 0.0560296 0.0894215 0.0288648 0.0657307 0.0456243 
39 0.897942 0.0092141 0.0128937 0.0254089 0.0225418 0.00292517 0.00976609 0.00962308 0 0.00968471 
40 0.497635 0.157376 0.0286533 0.0957255 0.021994 0.0479148 0.0803992 0.0340529 0.0285261 0.00772275 
41 0.477036 0.1144 0.0692316 0.0596774 0.104158 0.0566075 0.0563882 0.023117 0.00923104 0.0301534 
42 0.477036 0.1144 0.0692316 0.0596774 0.104158 0.0566075 0.0563882 0.023117 0.00923104 0.0301534 
43 0.477036 0.0990153 0.0692316 0.0596774 0.104158 0.0574169 0.0709634 0.023117 0.00923104 0.0301534 
44 0.36525 0.0920075 0.136939 0.0524312 0.151997 0.0378405 0.0451307 0.0487893 0.0148946 0.0547201 
45 0.512053 0.148386 0.027016 0.0902555 0.0219504 0.0724174 0.0617085 0.0320354 0.026896 0.00728145 
46 0.476997 0.105477 0.0762152 0.0658921 0.10258 0.0557498 0.0555338 0.0227667 0.00909117 0.0296966 
47 0.48496 0.097515 0.0681826 0.0587732 0.102794 0.0706873 0.0555338 0.0227667 0.00909117 0.0296966 
48 0.114562 0.131813 0.0673245 0.248987 0.143612 0.0765554 0.0777373 0.0106073 0.0364948 0.0923064 
49 0.10094 0.133841 0.0683264 0.237467 0.146079 0.0928529 0.0789405 0.0107705 0.0370562 0.0937265 
50 0.28718 0.143623 0.044836 0.151019 0.0591018 0.0588829 0.108665 0.030198 0.0687644 0.0477301 
51 0.3932 0.0880026 0.145603 0.0501181 0.130585 0.036171 0.0431397 0.0466368 0.0142375 0.052306 
52 0.489906 0.159797 0.0290941 0.0971982 0.0223438 0.0639602 0.0663936 0.0344997 0.0289649 0.00784156 
53 0.29798 0.141447 0.0441566 0.148731 0.0582063 0.0577669 0.107243 0.0297399 0.0677225 0.0470069 
54 0.900989 0.00893905 0.0125088 0.010108 0.0364113 0.00283785 0.00947456 0.00933583 0 0.00939562 
55 0.477036 0.0990153 0.0846162 0.0596774 0.104158 0.0566075 0.0563882 0.023117 0.00923104 0.0301534 
56 0.477036 0.1144 0.0692316 0.0596774 0.104158 0.0566075 0.0563882 0.023117 0.00923104 0.0301534 
57 0.374868 0.0906135 0.134864 0.0516368 0.134543 0.0372671 0.0444469 0.0480501 0.014669 0.0690425 
58 0.486103 0.174057 0.0282258 0.109222 0.0216657 0.0471367 0.0644117 0.0334698 0.0281003 0.00760749 
59 0.477036 0.0990153 0.0692316 0.0596774 0.104158 0.0718579 0.0565224 0.023117 0.00923104 0.0301534 
60 0.36525 0.0920075 0.136939 0.052435 0.150562 0.039272 0.0451307 0.0487893 0.0148946 0.0547201 
61 0.48496 0.097515 0.0681826 0.0587926 0.117712 0.0557498 0.0555338 0.0227667 0.00909117 0.0296966 
62 0.29798 0.141447 0.0441566 0.148731 0.0733359 0.0577493 0.0921312 0.0297395 0.0677226 0.0470069 
63 0.28718 0.143623 0.044836 0.151021 0.0744849 0.0586155 0.0935486 0.030197 0.0687644 0.0477301 
64 0.0572672 0.208885 0.0489615 0.0342713 0.127149 0.182111 0.14756 0.078932 0.0670046 0.0478595 
65 0.0572672 0.208885 0.0489615 0.0342713 0.127149 0.182111 0.14756 0.0786092 0.0673274 0.0478595 
66 0.10094 0.133841 0.0683269 0.252851 0.145821 0.0777331 0.0789333 0.0107705 0.0370562 0.0937265 
67 0.534347 0.0881643 0.0616446 0.0531417 0.105836 0.0510054 0.0502087 0.0205836 0.00821942 0.026849 
68 0.10094 0.14896 0.0685919 0.237467 0.145821 0.0777331 0.0789333 0.0107705 0.0370562 0.0937265 
69 0.28718 0.143623 0.0451015 0.166132 0.0591084 0.0586155 0.0935486 0.030197 0.0687644 0.0477301 
70 0.477036 0.0990153 0.0692341 0.0750595 0.104158 0.0566075 0.0563882 0.023117 0.00923104 0.0301534 
71 0.497635 0.157376 0.0286533 0.0957255 0.021994 0.0478509 0.0653877 0.0491284 0.0285261 0.00772275 
72 0.489906 0.159797 0.0290941 0.0971982 0.0255556 0.0602149 0.0669271 0.0344997 0.0289649 0.00784156 
73 0.502202 0.162886 0.0290941 0.0971982 0.0223324 0.048587 0.0663936 0.0344997 0.0289649 0.00784156 
74 0.373277 0.0922044 0.134864 0.0516368 0.149694 0.0372671 0.0444469 0.0480501 0.014669 0.053891 
75 0.28718 0.143623 0.044836 0.151019 0.0591017 0.0586155 0.0958154 0.0433148 0.0687644 0.0477301 
76 0.36525 0.0920075 0.136939 0.0524312 0.136612 0.0378444 0.060272 0.0490286 0.0148946 0.0547201 
77 0.489906 0.159797 0.0290941 0.112583 0.0223324 0.048587 0.0663936 0.0344997 0.0289649 0.00784156 
78 0.485402 0.0946469 0.0661772 0.0570446 0.0995629 0.0550562 0.0716558 0.0328074 0.00882379 0.0288231 
79 0.489906 0.159798 0.0444788 0.0971983 0.0223324 0.048587 0.0663936 0.0344997 0.0289649 0.00784156 
80 0.488337 0.109267 0.0682046 0.0587732 0.10258 0.0557498 0.0555338 0.0227667 0.00909117 0.0296966 
81 0.477036 0.0990373 0.0845941 0.0596774 0.104158 0.0566075 0.0563882 0.023117 0.00923104 0.0301534 
82 0.913305 0.00923618 0.0128937 0.0100243 0.0225418 0.00292517 0.00976609 0.00962308 0 0.00968471 
83 0.374868 0.0906134 0.134864 0.0516386 0.149692 0.0372671 0.0444469 0.0480501 0.014669 0.053891 
84 0.477036 0.0990153 0.0692316 0.0596774 0.104628 0.0715226 0.0563882 0.023117 0.00923104 0.0301534 
85 0.489906 0.159798 0.0290941 0.0971983 0.0229687 0.0633054 0.0664236 0.0344997 0.0289649 0.00784156 
86 0.489906 0.159797 0.0327794 0.108898 0.0223324 0.048587 0.0663936 0.0344997 0.0289649 0.00784156 
87 0.477036 0.0990153 0.0692316 0.0598606 0.118044 0.0579231 0.0563882 0.023117 0.00923104 0.0301534 
88 0.366859 0.133169 0.0373633 0.125849 0.0504348 0.073304 0.0779572 0.0251642 0.061262 0.0486372 
89 0.28718 0.143623 0.044836 0.151019 0.059266 0.072997 0.0943875 0.030197 0.0687644 0.0477301 
90 0.374868 0.0906134 0.134864 0.0521584 0.149172 0.0372671 0.0444469 0.0480501 0.014669 0.053891 
91 0.476214 0.0954283 0.0797105 0.0562247 0.112606 0.0678175 0.0531204 0.0217769 0.0086959 0.0284054 
92 0.0572672 0.208885 0.0489615 0.0342713 0.127149 0.182111 0.14756 0.0785997 0.0519552 0.0632411 
93 0.0710982 0.231865 0.0475198 0.0332483 0.123353 0.176675 0.143155 0.0762534 0.0504015 0.0464308 
94 0.36525 0.0920075 0.136939 0.0524312 0.136612 0.0378404 0.0451307 0.0487893 0.0148947 0.0701047 
95 0.384198 0.089261 0.132851 0.0549161 0.14341 0.0367109 0.0437835 0.0473329 0.01445 0.0530867 
96 0.28718 0.143623 0.044836 0.151019 0.0591018 0.0586155 0.0935486 0.0310376 0.0833084 0.0477301 
97 0.28718 0.143623 0.044836 0.151019 0.0591017 0.0586155 0.0935486 0.030237 0.084109 0.0477301 
98 0.48496 0.097515 0.0681826 0.0587732 0.10258 0.0557561 0.0679135 0.0255323 0.00909117 0.0296966 
99 0.489906 0.175182 0.0290941 0.0971982 0.0223324 0.048587 0.0663936 0.0344997 0.0289649 0.00784156 
100 0.494143 0.170939 0.0291005 0.0971982 0.0223324 0.048587 0.0663936 0.0344997 0.0289649 0.00784156 
101 0.36525 0.0920075 0.152323 0.0524312 0.136612 0.0378405 0.0451307 0.0487893 0.0148946 0.0547201 
102 0.28718 0.143623 0.044836 0.151019 0.0591017 0.0586155 0.100218 0.0389124 0.0687644 0.0477301 
103 0.10094 0.133841 0.083711 0.237467 0.145821 0.0777331 0.0789333 0.0107705 0.0370562 0.0937265 
104 0.0550536 0.178455 0.144316 0.0335981 0.103817 0.162292 0.0746371 0.208931 0.0123869 0.0265132 
105 0.28718 0.143623 0.044836 0.151019 0.0591017 0.0586155 0.0935486 0.0304428 0.0839029 0.0477303 
106 0.10094 0.149226 0.0683263 0.237467 0.145821 0.0777331 0.0789333 0.0107705 0.0370562 0.0937265 
107 0.562557 0.0804848 0.0669801 0.0502584 0.0971284 0.0459936 0.0458154 0.0187826 0.00750022 0.0244997 
108 0.477036 0.0990153 0.0692316 0.0596774 0.104158 0.0566075 0.0563882 0.0231642 0.024565 0.0301569 
109 0.0582248 0.223312 0.0489615 0.0342713 0.127149 0.182111 0.14756 0.0785997 0.0519523 0.0478595 
110 0.379677 0.0929651 0.136939 0.0524312 0.136612 0.0378405 0.0451307 0.0487893 0.0148946 0.0547201 
111 0.36525 0.0920075 0.136939 0.0524487 0.149011 0.0408084 0.0451307 0.0487893 0.0148946 0.0547201 
112 0.480004 0.111414 0.0692491 0.0596774 0.104158 0.0566075 0.0563882 0.023117 0.00923104 0.0301534 
113 0.28718 0.159007 0.044836 0.151019 0.0591018 0.0586155 0.0935486 0.030197 0.0687644 0.0477301 
114 0.10094 0.133841 0.0683264 0.237467 0.161204 0.0777348 0.0789333 0.0107705 0.0370562 0.0937265 
115 0.28718 0.143623 0.0484366 0.162803 0.0591018 0.0586155 0.0935486 0.030197 0.0687644 0.0477301 
116 0.506982 0.0944574 0.0787953 0.0563216 0.09812 0.0533259 0.0531193 0.0217769 0.0086959 0.0284054 
117 0.10094 0.133841 0.068336 0.248457 0.150207 0.0777331 0.0789333 0.0107705 0.0370562 0.0937265 
118 0.369676 0.102957 0.136948 0.0524312 0.136612 0.0378405 0.0451307 0.0487893 0.0148946 0.0547201 
119 0.477036 0.0990153 0.0692316 0.059945 0.119275 0.0566075 0.0563882 0.023117 0.00923104 0.0301534 
120 0.489906 0.159798 0.0341228 0.107554 0.0223324 0.048587 0.0663936 0.0344997 0.0289649 0.00784156 
121 0.297803 0.148385 0.044836 0.151019 0.0591018 0.0586155 0.0935486 0.030197 0.0687644 0.0477301 
122 0.471413 0.121025 0.0733706 0.0587732 0.10258 0.0557498 0.0555338 0.0227667 0.00909117 0.0296966 
123 0.482304 0.107503 0.070861 0.0596774 0.104158 0.0566075 0.0563882 0.023117 0.00923104 0.0301534 
124 0.295877 0.15031 0.044836 0.151019 0.0591018 0.0586155 0.0935486 0.030197 0.0687644 0.0477301 
125 0.374868 0.0971998 0.143429 0.0516368 0.134543 0.0372671 0.0444469 0.0480501 0.014669 0.053891 
126 0.477036 0.1144 0.0692316 0.0596774 0.104158 0.0566075 0.0563882 0.023117 0.00923104 0.0301534 
127 0.477036 0.0990153 0.0692316 0.075062 0.104158 0.0566075 0.0563882 0.023117 0.00923104 0.0301534 
128 0.477036 0.0990153 0.0692316 0.0596774 0.119543 0.0566075 0.0563882 0.023117 0.00923104 0.0301534 
129 0.497635 0.157376 0.0286533 0.0957255 0.021994 0.0478509 0.0653876 0.0344701 0.0431844 0.00772275 
130 0.28718 0.143623 0.044836 0.151019 0.0591018 0.067649 0.0998998 0.030197 0.0687644 0.0477301 
131 0.477036 0.0990153 0.0692316 0.0624451 0.116775 0.0566075 0.0563882 0.023117 0.00923104 0.0301534 
132 0.36525 0.0920075 0.136939 0.0526589 0.151769 0.0378405 0.0451307 0.0487893 0.0148946 0.0547201 
133 0.567713 0.0854045 0.0555796 0.0618105 0.0997612 0.0419152 0.0416504 0.0170751 0.00681838 0.0222724 
134 0.470696 0.0946469 0.0955378 0.0589274 0.112437 0.0541101 0.0539005 0.0220971 0.00882378 0.0288231 
135 0.534127 0.0883844 0.0616446 0.0531374 0.100862 0.0559838 0.0502087 0.0205836 0.00821942 0.026849 
136 0.477036 0.0990153 0.0705836 0.07371 0.104158 0.0566075 0.0563882 0.023117 0.00923104 0.0301534 
137 0.47176 0.0747624 0.111263 0.0550826 0.111015 0.0307454 0.0369321 0.0518705 0.0121093 0.0444601 
138 0.518219 0.0905935 0.0616446 0.0531448 0.120125 0.0504122 0.0502087 0.0205836 0.00821942 0.026849 
139 0.477036 0.0990153 0.0692316 0.062253 0.116967 0.0566075 0.0563882 0.023117 0.00923104 0.0301534 
140 0.28718 0.143623 0.0451119 0.166128 0.0591018 0.0586155 0.0935486 0.030197 0.0687644 0.0477301 
141 0.504273 0.165882 0.0286608 0.0957255 0.021994 0.0478509 0.0653876 0.0339769 0.0285261 0.00772275 
142 0.28718 0.143623 0.044836 0.151019 0.0591018 0.0740001 0.0935486 0.030197 0.0687644 0.0477301 
143 0.138421 0.155213 0.0643654 0.223701 0.137368 0.0732269 0.0743575 0.0101461 0.034908 0.0882931 
144 0.374868 0.0906135 0.146162 0.0554904 0.134543 0.0372671 0.0444469 0.0480501 0.014669 0.053891 
145 0.28718 0.143623 0.044836 0.152775 0.0727304 0.0586155 0.0935486 0.030197 0.0687644 0.0477301 
146 0.576512 0.155496 0.0221705 0.0799876 0.0185459 0.0357468 0.0594635 0.0251967 0.0211542 0.00572698 
147 0.500107 0.0946476 0.0661772 0.0570446 0.0995629 0.0543834 0.0632573 0.0271728 0.00882378 0.0288231 
148 0.114544 0.131831 0.0672911 0.233869 0.158763 0.0765554 0.0777373 0.0106073 0.0364948 0.0923064 
149 0.527123 0.147271 0.0267929 0.0993579 0.0206446 0.0561523 0.0591667 0.0307189 0.0257907 0.00698221 
150 0.287199 0.158989 0.044836 0.151019 0.0591018 0.0586155 0.0935486 0.030197 0.0687644 0.0477301 
151 0.36525 0.0920075 0.136939 0.0524312 0.146006 0.0438306 0.0451314 0.0487893 0.0148946 0.0547201 
152 0.495897 0.169191 0.0290941 0.0971982 0.0223324 0.048587 0.0663936 0.0344997 0.0289649 0.00784156 
153 0.477036 0.0990153 0.0692316 0.0596774 0.104158 0.0566075 0.0563882 0.023117 0.00936811 0.045401 
154 0.55911 0.0790996 0.0708568 0.0418219 0.085926 0.0478325 0.0414969 0.0304876 0.0153128 0.0280558 
155 0.0870718 0.268171 0.139144 0.0532149 0.0785473 0.0602655 0.141833 0.0609751 0.0623955 0.0483819 
156 0.28718 0.143623 0.044836 0.151041 0.0744645 0.0586155 0.0935486 0.030197 0.0687644 0.0477301 
157 0.10094 0.133841 0.0683263 0.237467 0.145821 0.0818652 0.0901858 0.0107705 0.0370562 0.0937265 
158 0.496339 0.101287 0.0681826 0.0587732 0.10258 0.0557498 0.0555338 0.0227667 0.00909117 0.0296966 
159 0.0572672 0.208885 0.0489615 0.0342713 0.127149 0.182113 0.162931 0.0786104 0.0519523 0.0478595 
160 0.0550536 0.184251 0.153902 0.0336006 0.103817 0.162292 0.0744587 0.193725 0.0123869 0.0265132 
161 0.36525 0.0920075 0.136939 0.0524705 0.151958 0.0378404 0.0451307 0.0487893 0.0148946 0.0547201 
162 0.11624 0.156309 0.0662868 0.230379 0.141468 0.0754127 0.0765771 0.010449 0.0359501 0.0909287 
163 0.282829 0.156598 0.0593081 0.148731 0.0582063 0.0577274 0.0921312 0.0297395 0.0677226 0.0470069 
164 0.505133 0.155027 0.0282257 0.0942968 0.0216657 0.0471367 0.0759931 0.0368137 0.0281003 0.00760749 
165 0.36525 0.0920075 0.136939 0.0524312 0.136612 0.0378405 0.0451307 0.0641739 0.0148946 0.0547201 
166 0.484959 0.0975151 0.0833341 0.0587732 0.10258 0.0557498 0.0555338 0.0227667 0.00909117 0.0296966 
167 0.902445 0.00880759 0.0270307 0.00958207 0.0215473 0.00279612 0.00933523 0.00919853 0 0.00925745 
168 0.489906 0.175182 0.0290941 0.0971982 0.0223324 0.048587 0.0663936 0.0344997 0.0289649 0.00784156 
169 0.347552 0.145436 0.0410472 0.138257 0.0541072 0.0536621 0.0856431 0.0276451 0.0629534 0.0436965 
170 0.374868 0.092218 0.148411 0.0516368 0.134543 0.0372671 0.0444469 0.0480501 0.014669 0.053891 
171 0.28718 0.143623 0.044836 0.151019 0.0591018 0.0586155 0.0935486 0.0302068 0.0784568 0.0534125 
172 0.294786 0.151402 0.044836 0.151019 0.0591018 0.0586155 0.0935486 0.030197 0.0687644 0.0477301 
173 0.36525 0.0920075 0.152323 0.0524312 0.136612 0.0378405 0.0451307 0.0487893 0.0148946 0.0547201 
174 0.897942 0.0092141 0.0128937 0.0100243 0.0225418 0.00292517 0.00997236 0.0248014 0 0.00968471 
175 0.477036 0.0990153 0.0692316 0.0596774 0.119543 0.0566077 0.0563882 0.023117 0.00923104 0.0301534 
176 0.10094 0.139423 0.0781184 0.237478 0.145821 0.0777331 0.0789333 0.0107705 0.0370562 0.0937265 
177 0.489917 0.16959 0.0346762 0.0971982 0.0223324 0.048587 0.0663936 0.0344997 0.0289649 0.00784156 
178 0.477036 0.1144 0.0692316 0.0596774 0.104158 0.0566075 0.0563882 0.023117 0.00923104 0.0301534 
179 0.509885 0.099576 0.0661773 0.0570446 0.0995629 0.0541101 0.0539005 0.0220971 0.00882378 0.0288231 
180 0.28718 0.143623 0.044836 0.151019 0.0599042 0.0731977 0.0935486 0.030197 0.0687644 0.0477301 
181 0.974928 0.00509639 0 0 0.0199759 0 0 0 0 0 
182 0.0572672 0.224269 0.0489615 0.0342713 0.127149 0.182111 0.14756 0.0785997 0.0519523 0.0478595 
183 0.374769 0.105864 0.134864 0.0516368 0.134543 0.0372671 0.0444469 0.0480501 0.014669 0.053891 
184 0.10094 0.133841 0.0683263 0.252229 0.146444 0.0777331 0.0789333 0.0107705 0.0370562 0.0937265 
185 0.477036 0.0990153 0.0692316 0.0596774 0.104781 0.0713689 0.0563882 0.023117 0.00923104 0.0301534 
186 0.287281 0.158907 0.044836 0.151019 0.0591018 0.0586155 0.0935486 0.030197 0.0687644 0.0477301 
187 0.36525 0.0920075 0.152226 0.0525283 0.136612 0.0378405 0.0451307 0.0487893 0.0148946 0.0547201 
188 0.306761 0.155857 0.0435986 0.146511 0.0573375 0.0568658 0.0907561 0.0292956 0.0667118 0.0463053 
189 0.0572672 0.224269 0.0489615 0.0342713 0.127149 0.182111 0.14756 0.0785997 0.0519523 0.0478595 
190 0.10094 0.133841 0.0683264 0.237467 0.145821 0.0777331 0.0789333 0.0107705 0.0524408 0.0937265 
191 0.0572672 0.224269 0.0489615 0.0342713 0.127149 0.182111 0.14756 0.0785997 0.0519523 0.0478595 
192 0.0550536 0.178455 0.144316 0.0335981 0.103916 0.177578 0.0744587 0.193725 0.0123869 0.0265132 
193 0.48496 0.11238 0.0684687 0.0587732 0.10258 0.0557498 0.0555338 0.0227667 0.00909117 0.0296966 
194 0.10094 0.133841 0.0683263 0.237467 0.145821 0.0777331 0.0789333 0.0261551 0.0370562 0.0937265 
195 0.477036 0.0990153 0.0692316 0.0596774 0.119543 0.0566075 0.0563882 0.023117 0.00923104 0.0301534 
196 0.28718 0.159007 0.044836 0.151019 0.0591018 0.0586155 0.0935486 0.030197 0.0687644 0.0477301 
197 0.0870718 0.252786 0.139144 0.0532754 0.0938404 0.0602965 0.141833 0.0609751 0.0623955 0.0483819 
198 0.338095 0.133365 0.0416334 0.140232 0.0548802 0.0544287 0.10114 0.0280526 0.0638527 0.0443208 
199 0.36525 0.0920151 0.15173 0.0530173 0.136612 0.0378405 0.0451307 0.0487893 0.0148946 0.0547201 
200 0.374205 0.0984374 0.136939 0.0524312 0.136612 0.0378405 0.0451307 0.0487893 0.0148946 0.0547201 
201 0.28718 0.143623 0.044836 0.151019 0.0591018 0.0601465 0.107402 0.030197 0.0687644 0.0477301 
202 0.491442 0.0999939 0.0692316 0.0596774 0.104158 0.0566075 0.0563882 0.023117 0.00923104 0.0301534 
203 0.10094 0.133841 0.0683263 0.237467 0.145821 0.0809159 0.0898634 0.0120423 0.0370562 0.0937265 
204 0.491178 0.170728 0.0322769 0.0971982 0.0223324 0.048587 0.0663936 0.0344997 0.0289649 0.00784156 
205 0.0572672 0.208885 0.0489615 0.0342955 0.142424 0.182196 0.14756 0.0785997 0.0519523 0.0478595 
206 0.0870718 0.252786 0.139144 0.0532149 0.0785473 0.0603084 0.157175 0.0609751 0.0623955 0.0483819 
207 0.477036 0.0990153 0.0796218 0.0646718 0.104158 0.0566075 0.0563882 0.023117 0.00923104 0.0301534 
208 0.477036 0.0990153 0.0692316 0.0596774 0.104158 0.0646753 0.063705 0.023117 0.00923104 0.0301534 
209 0.557107 0.144684 0.0259057 0.0865464 0.019885 0.0432624 0.0591176 0.0307189 0.0257907 0.00698221 
210 0.484849 0.106587 0.0692316 0.0596774 0.104158 0.0566075 0.0563882 0.023117 0.00923104 0.0301534 
211 0.0550536 0.178455 0.144316 0.0335981 0.103817 0.162443 0.0821635 0.201253 0.0123869 0.0265132 
212 0.36525 0.099536 0.144791 0.0524356 0.136612 0.0378405 0.0451307 0.0487893 0.0148946 0.0547201 
213 0.0572672 0.208885 0.0489615 0.0342713 0.12722 0.197424 0.14756 0.0785997 0.0519523 0.0478595 
214 0.484892 0.0975828 0.0681826 0.0587732 0.117731 0.0557498 0.0555338 0.0227667 0.00909117 0.0296966 
215 0.489906 0.159797 0.0290941 0.0971982 0.0223324 0.0639384 0.0664269 0.0344997 0.0289649 0.00784156 
216 0.36525 0.0920075 0.136939 0.0524312 0.136612 0.0378405 0.045164 0.0641407 0.0148946 0.0547201 
217 0.069371 0.175751 0.142129 0.0330891 0.102246 0.174983 0.0733306 0.19079 0.0121992 0.0261115 
218 0.28718 0.143623 0.044836 0.151019 0.0647247 0.0683755 0.0935503 0.030197 0.0687644 0.0477301 
219 0.489906 0.159797 0.0327741 0.108903 0.0223324 0.048587 0.0663936 0.0344997 0.0289649 0.00784156 
220 0.0572672 0.208885 0.0489615 0.0342713 0.127149 0.197495 0.14756 0.0785997 0.0519523 0.0478595 
221 0.477036 0.0990153 0.0692316 0.0597172 0.119503 0.0566075 0.0563882 0.023117 0.00923104 0.0301534 
222 0.52788 0.0893888 0.0625007 0.0672992 0.0944967 0.051104 0.050906 0.0208695 0.00833357 0.0272219 
223 0.0550536 0.178457 0.159699 0.0335981 0.103817 0.162292 0.0744587 0.193725 0.0123869 0.0265132 
224 0.382869 0.0977636 0.134864 0.0516368 0.134543 0.0372671 0.0444469 0.0480501 0.014669 0.053891 
225 0.492647 0.0960596 0.067165 0.057896 0.10111 0.0697817 0.054705 0.0224269 0.00895548 0.0292533 
226 0.28718 0.143623 0.044836 0.151019 0.0591018 0.0586155 0.0935486 0.030197 0.0687645 0.0631147 
227 0.308458 0.139335 0.0434976 0.146511 0.0573375 0.0568658 0.0907561 0.0292956 0.0667143 0.0612282 
228 0.10094 0.133841 0.0683263 0.237467 0.145821 0.0777331 0.0789333 0.0107705 0.0370563 0.109111 
229 0.957668 0.00254192 0.0139394 0.0188887 0.00232053 0.00232053 0 0 0.00232053 0 
230 0.485047 0.0950019 0.0677417 0.070186 0.105874 0.0623325 0.0540726 0.0220971 0.00882378 0.0288231 
231 0.477036 0.0990153 0.0692316 0.0645934 0.114627 0.0566075 0.0563882 0.023117 0.00923104 0.0301534 
232 0.505133 0.155188 0.04299 0.0942968 0.0216657 0.0471367 0.0644117 0.0334698 0.0281003 0.00760749 
233 0.477721 0.0960596 0.067165 0.057896 0.101049 0.0549508 0.0771914 0.0297581 0.00895548 0.0292533 
234 0.28718 0.143623 0.044836 0.166388 0.0591174 0.0586155 0.0935486 0.030197 0.0687644 0.0477301 
235 0.492647 0.0960596 0.067165 0.057896 0.101049 0.0549177 0.0547049 0.0224269 0.00895551 0.0441787 
236 0.10094 0.133841 0.0683264 0.247716 0.150957 0.0777331 0.0789333 0.0107705 0.0370562 0.0937265 
237 0.10094 0.133841 0.0683263 0.252852 0.145821 0.0777331 0.0789333 0.0107705 0.0370562 0.0937265 
238 0 0.130315 0.101359 0.0586174 0.188208 0.161707 0.0716487 0.114389 1.25868e-07 0.173756 
239 0.28718 0.143623 0.044836 0.166404 0.0591018 0.0586155 0.0935486 0.030197 0.0687644 0.0477301 
240 0.282829 0.141447 0.0450551 0.178123 0.0582188 0.0577274 0.0921312 0.0297395 0.0677226 0.0470069 
241 0.10094 0.133841 0.0683264 0.237467 0.145821 0.0777654 0.0936485 0.0114077 0.0370562 0.0937265 
242 0.589213 0.136459 0.0227846 0.0761191 0.0174892 0.0380501 0.051995 0.0270221 0.0342941 0.00657419 
243 0.492617 0.111015 0.067165 0.057896 0.101049 0.0549177 0.054705 0.0224269 0.00895548 0.0292533 
244 0.29798 0.141447 0.0441566 0.148731 0.0582063 0.0577312 0.107279 0.0297395 0.0677225 0.0470069 
245 0.489906 0.159797 0.0290941 0.0971982 0.0223324 0.048587 0.0663936 0.0348784 0.0439708 0.00784156 
246 0.477036 0.1144 0.0692316 0.0596774 0.104158 0.0566075 0.0563882 0.023117 0.00923104 0.0301534 
247 0.28718 0.143623 0.0450744 0.166165 0.0591018 0.0586155 0.0935486 0.030197 0.0687644 0.0477301 
248 0.494952 0.102675 0.0681826 0.0587732 0.10258 0.0557498 0.0555338 0.0227667 0.00909117 0.0296966 
249 0.477036 0.0990153 0.0692316 0.0596774 0.104158 0.0566075 0.0563882 0.023117 0.00923104 0.045538 
250 0.0572672 0.208885 0.0496014 0.0490161 0.127149 0.182111 0.14756 0.0785997 0.0519523 0.0478595 
251 0.0870718 0.268171 0.139144 0.0532149 0.0785473 0.0602655 0.141833 0.0609751 0.0623955 0.0483819 
252 0.0550536 0.178455 0.144316 0.0335981 0.103817 0.162292 0.0745668 0.209001 0.0123869 0.0265132 
253 0.0572672 0.208885 0.0489615 0.0342776 0.142527 0.182111 0.14756 0.0785997 0.0519523 0.0478595 
254 0.497635 0.157376 0.0286534 0.11079 0.0220808 0.0478509 0.0653876 0.0339769 0.0285261 0.00772275 
255 0.10094 0.136487 0.0810657 0.237467 0.145821 0.0777331 0.0789333 0.0107705 0.0370562 0.0937265 
256 0.37799 0.0946527 0.136939 0.0524312 0.136612 0.0378405 0.0451307 0.0487893 0.0148946 0.0547201 
257 0 0.130315 0.116744 0.0586174 0.187846 0.146684 0.0716487 0.114389 1.25868e-07 0.173756 
258 0 0.130315 0.101359 0.0586174 0.187846 0.146684 0.0716487 0.114389 1.34278e-07 0.18914 
259 0.35972 0.113752 0.142025 0.0516368 0.134543 0.0372671 0.0444469 0.0480501 0.014669 0.053891 
260 0.512449 0.176562 0.027016 0.0902555 0.0207372 0.0451165 0.0616512 0.0320354 0.026896 0.00728145 
261 0.497177 0.167907 0.0290983 0.0971982 0.0223324 0.048587 0.0663936 0.0344997 0.0289649 0.00784156 
262 0.0550536 0.178455 0.144316 0.0335981 0.103817 0.162292 0.0744587 0.193725 0.0126386 0.0416461 
263 0.402044 0.0866768 0.129 0.0493917 0.128693 0.0356468 0.0425145 0.0603655 0.0141193 0.0515479 
264 0.477036 0.0990153 0.0692316 0.0597632 0.119453 0.0566117 0.0563882 0.023117 0.00923104 0.0301534 
265 0.511404 0.153876 0.0255557 0.0853768 0.0196163 0.0561729 0.0718434 0.0303451 0.0389196 0.0068898 
266 0.36525 0.0920075 0.136939 0.0524312 0.139187 0.0506509 0.0451307 0.0487893 0.0148946 0.0547201 
267 0.477036 0.0990153 0.0692316 0.0596774 0.11945 0.0566998 0.0563882 0.023117 0.00923104 0.0301534 
268 0.36525 0.0920075 0.136939 0.0524312 0.136612 0.037841 0.0605147 0.0487893 0.0148946 0.0547201 
269 0.497635 0.157376 0.0286533 0.108036 0.0248349 0.0478509 0.0653877 0.0339769 0.0285261 0.00772275 
270 0.374868 0.0906135 0.134864 0.0581917 0.143139 0.0372671 0.0444469 0.0480501 0.014669 0.053891 
271 0.389258 0.0913743 0.134864 0.0516368 0.134543 0.0372671 0.0444469 0.0480501 0.014669 0.053891 
272 0.484528 0.170482 0.0286938 0.110836 0.0219954 0.0478509 0.0653876 0.0339769 0.0285261 0.00772275 
273 0.990032 0.00528514 0 0 0.00468247 0 0 0 0 0 
274 0.477036 0.0990153 0.0846162 0.0596774 0.104158 0.0566075 0.0563882 0.023117 0.00923104 0.0301534 
275 0.482483 0.157376 0.0287898 0.111053 0.0355537 0.0491307 0.0653877 0.0339769 0.0285261 0.00772275 
276 0.28718 0.143623 0.0602206 0.151019 0.0591018 0.0586155 0.0935486 0.030197 0.0687644 0.0477301 
277 0.0572672 0.208885 0.0489615 0.0342713 0.127149 0.182382 0.162673 0.0785997 0.0519523 0.0478595 
278 0.0572672 0.208885 0.0489615 0.0342713 0.130691 0.193953 0.14756 0.0785997 0.0519523 0.0478595 
279 0.109972 0.158568 0.065312 0.231164 0.149841 0.0743828 0.0754509 0.0102954 0.0354214 0.0895915 
280 0.497635 0.157376 0.0286533 0.0957255 0.0233044 0.061692 0.0653876 0.0339769 0.0285261 0.00772275 
281 0.10094 0.133841 0.0683263 0.237467 0.15093 0.0864101 0.0805321 0.0107705 0.0370562 0.0937265 
282 0.384198 0.089261 0.132851 0.0508661 0.14746 0.0367109 0.0437835 0.0473329 0.01445 0.0530867 
283 0.28718 0.143623 0.044836 0.151019 0.0591017 0.0586155 0.108933 0.0301971 0.0687644 0.0477301 
284 0.36525 0.0920075 0.136939 0.0524312 0.151054 0.038784 0.0451307 0.0487893 0.0148946 0.0547201 
285 0.0715408 0.20573 0.0482197 0.0337521 0.125222 0.194503 0.145324 0.0774088 0.0511651 0.0471343 
286 0.489906 0.159797 0.0290941 0.0971982 0.0223324 0.0485975 0.0817673 0.0345001 0.0289649 0.00784156 
287 0.28718 0.143623 0.044836 0.151019 0.0591017 0.0586155 0.0935486 0.0320181 0.0823214 0.0477366 
288 0.10094 0.133841 0.0683264 0.237468 0.161205 0.0777331 0.0789333 0.0107705 0.0370562 0.0937265 
289 0.507337 0.0932914 0.0652392 0.0706896 0.09812 0.0533259 0.0531193 0.0217769 0.00869591 0.0284054 
290 0.36525 0.0947867 0.149544 0.0524312 0.136612 0.0378405 0.0451307 0.0487893 0.0148946 0.0547201 
291 0.489641 0.101794 0.0692316 0.0596774 0.104158 0.0566075 0.0563882 0.023117 0.00923104 0.0301534 
292 0.10094 0.133841 0.0683271 0.252028 0.146644 0.0777331 0.0789333 0.0107705 0.0370562 0.0937265 
293 0.36525 0.0920075 0.136939 0.0526101 0.151818 0.0378405 0.0451307 0.0487893 0.0148946 0.0547201 
294 0.518978 0.156107 0.0282257 0.0942968 0.0216657 0.0471367 0.0644117 0.0334698 0.0281003 0.00760749 
295 0.36525 0.0920075 0.136939 0.0524312 0.136612 0.053225 0.0451307 0.0487893 0.0148946 0.0547201 
296 0.526341 0.148383 0.027016 0.0902555 0.0207372 0.0457112 0.0753422 0.0320354 0.026896 0.00728145 
297 0.296501 0.149686 0.044836 0.151019 0.0591018 0.0586155 0.0935486 0.030197 0.0687644 0.0477301 
298 0.296501 0.149686 0.044836 0.151019 0.0591018 0.0586155 0.0935486 0.030197 0.0687644 0.0477301 
299 0.377377 0.0952656 0.136939 0.0524312 0.136612 0.0378405 0.0451307 0.0487893 0.0148946 0.0547201 
300 0.511826 0.148614 0.027016 0.104541 0.0207372 0.0451165 0.0677654 0.0402069 0.026896 0.00728145 
301 0.957056 0.00257791 0.0261965 0.00710737 0.00235416 0.00235416 0 0 0.00235416 0 
302 0.28718 0.143623 0.044836 0.151019 0.0591017 0.0586155 0.0935486 0.0304853 0.0780018 0.053589 
303 0.36525 0.0920075 0.136939 0.0678158 0.136612 0.0378405 0.0451307 0.0487893 0.0148946 0.0547201 
304 0.36525 0.0920075 0.136939 0.0571102 0.147318 0.0378405 0.0451307 0.0487893 0.0148946 0.0547201 
305 0.487741 0.103694 0.0692316 0.0596774 0.104158 0.0566075 0.0563882 0.023117 0.00923104 0.0301534 
306 0.517333 0.147888 0.0266355 0.0889843 0.0204451 0.0445423 0.0752712 0.0452037 0.0265172 0.00717889 
307 0.477036 0.0990482 0.081773 0.0624876 0.104158 0.0566075 0.0563882 0.023117 0.00923104 0.0301534 
308 0.0600768 0.221427 0.0489946 0.0342713 0.127149 0.182111 0.14756 0.0785997 0.0519523 0.0478595 
309 0.36525 0.0920075 0.136939 0.0524312 0.136972 0.0528656 0.0451307 0.0487893 0.0148946 0.0547201 
310 0.492305 0.0964009 0.067165 0.0578974 0.113978 0.0569122 0.054705 0.0224269 0.00895548 0.0292533 
311 0.10094 0.149226 0.0683263 0.237467 0.145821 0.0777331 0.0789333 0.0107705 0.0370562 0.0937265 
312 0.95996 0.00240063 0.0263732 0.0046804 0.00219509 0.00219509 0 0 0.00219509 0 
313 0.10094 0.133841 0.0683269 0.252851 0.145821 0.0777331 0.0789333 0.0107705 0.0370562 0.0937265 
314 0.36525 0.0920078 0.152142 0.0526119 0.136612 0.0378405 0.0451307 0.0487893 0.0148946 0.0547201 
315 0.492146 0.10548 0.0681829 0.0587732 0.10258 0.0557498 0.0555338 0.0227667 0.00909117 0.0296966 
316 0.477036 0.1144 0.0692316 0.0596774 0.104158 0.0566075 0.0563882 0.023117 0.00923104 0.0301534 
317 0.359716 0.0907427 0.149886 0.0516371 0.149694 0.0372671 0.0444469 0.0480501 0.014669 0.053891 
318 0.489906 0.159797 0.0290941 0.0971982 0.0223324 0.048587 0.066394 0.0497527 0.0290961 0.00784156 
319 0.477036 0.0990153 0.0692316 0.0596774 0.104158 0.0566075 0.0717728 0.023117 0.00923104 0.0301534 
320 0.0870718 0.252786 0.139144 0.0532149 0.0785473 0.0602655 0.141833 0.0629204 0.0758342 0.0483825 
321 0.0572672 0.208885 0.0489615 0.0342713 0.127149 0.19749 0.147565 0.0785997 0.0519523 0.0478595 
322 0.913285 0.00925554 0.0128937 0.0100243 0.0225418 0.00292517 0.00976609 0.00962308 0 0.00968471 
323 0.489906 0.159797 0.0291142 0.112563 0.0223324 0.048587 0.0663936 0.0344997 0.0289649 0.00784156 
324 0.489906 0.159797 0.0290941 0.0971987 0.0377165 0.048587 0.0663936 0.0344997 0.0289649 0.00784156 
325 0.0550536 0.178455 0.144316 0.0335981 0.103817 0.162292 0.076424 0.207144 0.0123869 0.0265132 
326 0.36525 0.0920075 0.136939 0.0661341 0.138293 0.0378405 0.0451307 0.0487893 0.0148946 0.0547201 
327 0.0550536 0.178455 0.144316 0.0486017 0.104198 0.162292 0.0744587 0.193725 0.0123869 0.0265132 
328 0.897942 0.0092141 0.0128937 0.0104505 0.0375002 0.00292517 0.00976609 0.00962308 0 0.00968471 
329 0.36525 0.0920075 0.136939 0.0524312 0.136612 0.0378404 0.0451307 0.0487893 0.0148951 0.0701042 
330 0.36525 0.0920075 0.136939 0.0524312 0.136612 0.0378405 0.0605153 0.0487893 0.0148946 0.0547201 
331 0.0550536 0.178455 0.144316 0.0335981 0.103817 0.163724 0.0884115 0.193725 0.0123869 0.0265132 
332 0.489906 0.159797 0.0290941 0.097203 0.0377122 0.0485871 0.0663936 0.0344997 0.0289649 0.00784156 
333 0.10094 0.133841 0.068327 0.252812 0.145861 0.0777331 0.0789333 0.0107705 0.0370562 0.0937265 
334 0.0550931 0.193299 0.144817 0.0335981 0.103817 0.162292 0.0744587 0.193725 0.0123869 0.0265132 
335 0.489906 0.175182 0.0290941 0.0971982 0.0223324 0.048587 0.0663936 0.0344997 0.0289649 0.00784156 
336 0.308458 0.139335 0.0434976 0.146511 0.0573375 0.0568679 0.105437 0.0295377 0.0667118 0.0463053 
337 0.36525 0.0928591 0.151472 0.0524312 0.136612 0.0378405 0.0451307 0.0487893 0.0148946 0.0547201 
338 0.491821 0.0969357 0.0820365 0.0578998 0.101049 0.0549177 0.0547049 0.0224269 0.00895548 0.0292533 
339 0.36525 0.0920075 0.136939 0.0524312 0.136612 0.0396602 0.0586956 0.0487893 0.0148946 0.0547201 
340 0.28718 0.143623 0.044836 0.151019 0.0591018 0.0631553 0.104394 0.030197 0.0687644 0.0477301 
341 0.477036 0.0990153 0.0692316 0.0597493 0.114361 0.0617175 0.0563882 0.023117 0.00923104 0.0301534 
342 0.10094 0.133841 0.0683263 0.242744 0.155857 0.0778051 0.0789333 0.0107705 0.0370562 0.0937265 
343 0.10094 0.133841 0.0684112 0.252767 0.145821 0.0777331 0.0789333 0.0107705 0.0370562 0.0937265 
344 0.387019 0.0936136 0.134864 0.0516368 0.134543 0.0372671 0.0444469 0.0480501 0.014669 0.053891 
345 0.897942 0.00921418 0.0282782 0.0100243 0.0225418 0.00292517 0.00976609 0.00962308 0 0.00968471 
346 0 0 0 0 0 0.999999 0 0 0 0 
347 0.36525 0.0920075 0.152323 0.0524312 0.136612 0.0378405 0.0451307 0.0487893 0.0148946 0.0547201 
348 0.477036 0.0990153 0.0692316 0.0596971 0.119463 0.0566679 0.0563882 0.023117 0.00923104 0.0301534 
349 0.49238 0.172689 0.0291138 0.0971982 0.0223324 0.048587 0.0663936 0.0344997 0.0289649 0.00784156 
350 0.069371 0.175751 0.142129 0.0330891 0.117371 0.159857 0.0733306 0.19079 0.0121992 0.0261115 
351 0.477036 0.0990153 0.0692316 0.075062 0.104158 0.0566075 0.0563882 0.023117 0.00923104 0.0301534 
352 0.28718 0.143623 0.044836 0.151096 0.0743443 0.0586804 0.0935486 0.030197 0.0687644 0.0477301 
353 0.477036 0.0990153 0.0796334 0.0646602 0.104158 0.0566075 0.0563882 0.023117 0.00923104 0.0301534 
354 0.489906 0.159797 0.0290941 0.0971982 0.0223324 0.048587 0.0672116 0.0490662 0.028965 0.00784156 
355 0.0572672 0.208885 0.0489615 0.0342713 0.127149 0.182111 0.147606 0.093936 0.0519545 0.0478595 
356 0.36525 0.0920075 0.136939 0.0524312 0.151132 0.038706 0.0451307 0.0487893 0.0148946 0.0547201 
357 0.28718 0.143623 0.0449325 0.160681 0.0647279 0.0586155 0.0935486 0.030197 0.0687644 0.0477301 
358 0.292806 0.15338 0.0448373 0.151019 0.0591018 0.0586155 0.0935486 0.030197 0.0687644 0.0477301 
359 0.29798 0.141447 0.0441566 0.148731 0.0582063 0.0577274 0.0921312 0.029753 0.0828605 0.0470069 
360 0.28718 0.143623 0.044836 0.166404 0.0591018 0.0586155 0.0935486 0.030197 0.0687644 0.0477301 
361 0.125624 0.128211 0.065312 0.233271 0.147814 0.0743037 0.0754509 0.0102954 0.0354214 0.104297 
362 0.0994103 0.131813 0.0673172 0.254956 0.152445 0.0769116 0.0777373 0.0106073 0.0364948 0.0923064 
363 0.28718 0.143623 0.044836 0.151019 0.0591018 0.0586155 0.0935486 0.030197 0.0687901 0.063089 
364 0.477036 0.0990153 0.0692316 0.0596774 0.104158 0.0566075 0.0717728 0.023117 0.00923104 0.0301534 
365 0.36525 0.0920075 0.136939 0.0524312 0.136612 0.0378405 0.0454113 0.0638929 0.014895 0.0547201 
366 0.369922 0.101448 0.138211 0.0524312 0.136612 0.0378405 0.0451307 0.0487893 0.0148946 0.0547201 
367 0.36525 0.0920075 0.152323 0.0524312 0.136612 0.0378405 0.0451307 0.0487893 0.0148946 0.0547201 
368 0.489906 0.159798 0.0299473 0.107002 0.0270605 0.048587 0.0663936 0.0344997 0.0289649 0.00784156 
369 0.369978 0.101811 0.137792 0.0524312 0.136612 0.0378405 0.0451307 0.0487893 0.0148946 0.0547201 
370 0.477036 0.0990153 0.0692316 0.0601669 0.119053 0.0566075 0.0563882 0.023117 0.00923104 0.0301534 
371 0.912958 0.00958291 0.0128937 0.0100243 0.0225418 0.00292517 0.00976609 0.00962308 0 0.00968471 
372 0.363842 0.102654 0.145603 0.0648239 0.130585 0.036171 0.0431397 0.0466368 0.0142375 0.052306 
373 0.369273 0.089261 0.147776 0.0508661 0.132534 0.0367109 0.0437835 0.0473329 0.0166805 0.0657816 
374 0.365283 0.107359 0.136939 0.0524312 0.136612 0.0378405 0.0451307 0.0487893 0.0148946 0.0547201 
375 0.477036 0.0990153 0.0692316 0.0596774 0.104158 0.0566075 0.0563882 0.0232315 0.0244681 0.0301864 
376 0.477036 0.0990153 0.0692316 0.0596774 0.104158 0.0566075 0.0563882 0.023117 0.00969824 0.0450708 
377 0.477036 0.0990153 0.0692316 0.0596774 0.104158 0.0719921 0.0563882 0.023117 0.00923104 0.0301534 
378 0.500093 0.0946618 0.0661773 0.0570446 0.106834 0.0615443 0.0539009 0.0220971 0.00882378 0.0288231 
379 0.127777 0.129846 0.0662868 0.230379 0.141468 0.0755201 0.0913951 0.010449 0.0359501 0.0909287 
380 0.477036 0.0990153 0.0846162 0.0596774 0.104158 0.0566075 0.0563882 0.023117 0.00923104 0.0301534 
381 0.502126 0.158035 0.0282257 0.0942968 0.0216657 0.048322 0.07778 0.0338416 0.0281003 0.00760749 
382 0.48496 0.112666 0.0681826 0.0587732 0.10258 0.0557498 0.0555338 0.0227667 0.00909117 0.0296966 
383 0.477036 0.0990153 0.0692316 0.05968 0.119501 0.0566466 0.0563882 0.023117 0.00923104 0.0301534 
384 0.28718 0.143623 0.044836 0.151019 0.0591018 0.0586155 0.0997744 0.0393267 0.0687935 0.0477301 
385 0.289425 0.150537 0.0510618 0.151019 0.0591018 0.0586155 0.0935486 0.030197 0.0687644 0.0477301 
386 0.445208 0.252441 0.0262655 0.0877484 0.0201612 0.0438633 0.0599387 0.0311455 0.0261489 0.00707919 
387 0.36525 0.0920075 0.136939 0.0657181 0.13871 0.0378405 0.0451307 0.0487893 0.0148946 0.0547201 
388 0.36525 0.0920075 0.136939 0.0657184 0.13871 0.0378405 0.0451307 0.0487893 0.0148946 0.0547201 
389 0.477036 0.0990153 0.0692316 0.0744593 0.104761 0.0566075 0.0563882 0.023117 0.00923104 0.0301534 
390 0.10094 0.133841 0.0683263 0.237467 0.145821 0.0777331 0.0789333 0.0107705 0.0385634 0.107604 
391 0.36525 0.0920075 0.136939 0.0657173 0.138711 0.0378405 0.0451307 0.0487893 0.0148946 0.0547201 
392 0.489906 0.159797 0.0290941 0.112583 0.0223326 0.048587 0.0663936 0.0344997 0.0289649 0.00784156 
393 0.36525 0.0920075 0.136939 0.0524312 0.151997 0.0378408 0.0451307 0.0487893 0.0148946 0.0547201 
394 0.48496 0.097515 0.0681826 0.0736055 0.102899 0.0557498 0.0555338 0.0227667 0.00909117 0.0296966 
395 0.36525 0.0920075 0.136939 0.0524312 0.136612 0.0378405 0.0452942 0.0640039 0.0149011 0.0547201 
396 0.491712 0.173377 0.0290941 0.0971982 0.0223324 0.048587 0.0663936 0.0344997 0.0289649 0.00784156 
397 0.477036 0.0990153 0.0692316 0.0596774 0.104158 0.0566075 0.0563882 0.023117 0.00923136 0.0455377 
398 0.36525 0.0920075 0.136939 0.0524312 0.136612 0.0404735 0.0578823 0.0487893 0.0148946 0.0547201 
399 0.488674 0.108892 0.0682426 0.0587732 0.10258 0.0557498 0.0555338 0.0227667 0.00909117 0.0296966 
400 0.477036 0.0990153 0.0692316 0.075062 0.104158 0.0566075 0.0563882 0.023117 0.00923104 0.0301534 
401 0.36525 0.0920075 0.136939 0.0524312 0.151997 0.0378405 0.0451307 0.0487893 0.0148946 0.0547201 
402 0.10094 0.133841 0.0683264 0.252852 0.145821 0.0777331 0.0789333 0.0107705 0.0370562 0.0937265 
403 0.0870718 0.252786 0.139144 0.0532149 0.0785473 0.0602655 0.141833 0.0609751 0.0652486 0.0609134 
404 0.0715511 0.20572 0.0482197 0.0337521 0.125222 0.179352 0.145324 0.0784251 0.0606642 0.0517704 
405 0.291888 0.153769 0.045367 0.151019 0.0591018 0.0586155 0.0935486 0.030197 0.0687644 0.0477301 
406 0.0572672 0.208885 0.0489615 0.0342713 0.127441 0.197203 0.14756 0.0785997 0.0519523 0.0478595 
407 0.28718 0.143623 0.044836 0.166111 0.0593941 0.0586155 0.0935486 0.030197 0.0687644 0.0477301 
408 0.477036 0.0990153 0.0692316 0.0596774 0.104158 0.0566547 0.0717256 0.023117 0.00923104 0.0301534 
409 0.553813 0.0979246 0.0792793 0.0473052 0.0825644 0.0448718 0.044698 0.0183244 0.00731729 0.0239021 
410 0.10094 0.133841 0.0683263 0.237467 0.145822 0.0919381 0.0801119 0.0107705 0.0370562 0.0937265 
411 0.057703 0.223634 0.0491609 0.0342713 0.127149 0.182111 0.14756 0.0785997 0.0519523 0.0478595 
412 0.114312 0.132259 0.081817 0.234298 0.143612 0.0765554 0.0777373 0.0106073 0.0364948 0.0923064 
413 0.36525 0.0932015 0.151128 0.0524328 0.136612 0.0378405 0.0451307 0.0487893 0.0148946 0.0547201 
414 0.28718 0.143623 0.044836 0.151019 0.0744863 0.0586155 0.0935486 0.030197 0.0687644 0.0477301 
415 0.482483 0.157377 0.0438044 0.110877 0.021994 0.0478509 0.0653877 0.0339769 0.0285261 0.00772275 
416 0.36525 0.0920075 0.136939 0.0524312 0.136612 0.0378405 0.0455892 0.0637154 0.0148947 0.0547201 
417 0.497635 0.157376 0.0286533 0.0957256 0.021994 0.0478509 0.0666206 0.0478955 0.0285261 0.00772275 
418 0.36525 0.0920075 0.136939 0.0524312 0.136612 0.0378405 0.0605153 0.0487893 0.0148946 0.0547201 
419 0.0550536 0.178455 0.144316 0.0335981 0.103848 0.177646 0.0744587 0.193725 0.0123869 0.0265132 
420 0.29798 0.141447 0.0441744 0.158298 0.0637732 0.0577274 0.0921312 0.0297395 0.0677226 0.0470069 
421 0.899489 0.00907449 0.0126983 0.00987244 0.0222002 0.00288085 0.0247696 0.0094773 0 0.00953798 
422 0.10094 0.133841 0.0683263 0.252852 0.145821 0.0777331 0.0789333 0.0107705 0.0370562 0.0937265 
423 0.10094 0.133841 0.0683263 0.252852 0.145821 0.0777331 0.0789333 0.0107705 0.0370562 0.0937265 
424 0 0.132128 0.111187 0.0577293 0.188985 0.155629 0.0705632 0.112656 1.23961e-07 0.171123 
425 0.504037 0.156124 0.0282257 0.0942968 0.0216657 0.0471367 0.0644117 0.0335601 0.0429354 0.00760749 
426 0.477036 0.0990153 0.0692316 0.075062 0.104158 0.0566075 0.0563882 0.023117 0.00923104 0.0301534 
427 0.36525 0.0920075 0.136939 0.0524312 0.136652 0.0531858 0.0451307 0.0487893 0.0148946 0.0547201 
428 0.0572672 0.208885 0.0489615 0.0342713 0.142529 0.182115 0.14756 0.0785997 0.0519523 0.0478595 
429 0.492647 0.0960596 0.067165 0.057896 0.101049 0.0549177 0.0549707 0.0370865 0.00895548 0.0292533 
430 0.0550536 0.178455 0.144316 0.0335981 0.103817 0.177677 0.0744587 0.193725 0.0123869 0.0265132 
431 0.0550536 0.183963 0.154193 0.0335981 0.103817 0.162292 0.0744587 0.193725 0.0123869 0.0265132 
432 0.486913 0.104523 0.0692316 0.0596774 0.104158 0.0566075 0.0563882 0.023117 0.00923104 0.0301534 
433 0.387575 0.0930581 0.134864 0.0516368 0.134543 0.0372671 0.0444469 0.0480501 0.014669 0.053891 
434 0.491066 0.0976402 0.0820903 0.057896 0.101049 0.0549177 0.0547049 0.0224269 0.00895548 0.0292533 
435 0.29798 0.141447 0.0441566 0.148731 0.0582063 0.0577274 0.0921312 0.0297395 0.082874 0.0470069 
436 0.28718 0.159007 0.044836 0.151019 0.0591018 0.0586155 0.0935486 0.030197 0.0687644 0.0477301 
437 0 0.130315 0.101359 0.0586895 0.203159 0.146684 0.0716487 0.114389 1.25868e-07 0.173756 
438 0.505133 0.155027 0.0282257 0.0942968 0.0216657 0.062062 0.0644117 0.0334698 0.0281003 0.00760749 
439 0.10094 0.133841 0.083711 0.237467 0.145821 0.0777331 0.0789333 0.0107705 0.0370562 0.0937265 
440 0.0560722 0.192821 0.144316 0.0335981 0.103817 0.162292 0.0744587 0.193725 0.0123869 0.0265132 
441 0.923604 0.008358 0.0113255 0.00880515 0.0198002 0.0025694 0.00857832 0.00845271 0 0.00850684 
442 0.389016 0.0916166 0.134864 0.0516368 0.134543 0.0372671 0.0444469 0.0480501 0.014669 0.053891 
443 0.102469 0.14137 0.0746533 0.237467 0.145821 0.0777331 0.0789333 0.0107705 0.0370562 0.0937265 
444 0.371577 0.0995358 0.138468 0.0524312 0.136612 0.0378405 0.0451307 0.0487893 0.0148946 0.0547201 
445 0.477036 0.0990153 0.0692316 0.0596774 0.104158 0.0618107 0.0662792 0.0234073 0.00923104 0.0301534 
446 0.489369 0.102067 0.0692316 0.0596774 0.104158 0.0566075 0.0563882 0.023117 0.00923104 0.0301534 
447 0.36525 0.0920075 0.136939 0.0592987 0.14513 0.0378405 0.0451307 0.0487893 0.0148946 0.0547201 
448 0.48496 0.097515 0.0681826 0.0587732 0.10258 0.0557507 0.0706844 0.0227667 0.00909117 0.0296966 
449 0.10094 0.133841 0.083711 0.237467 0.145821 0.0777331 0.0789333 0.0107705 0.0370562 0.0937265 
450 0.48496 0.097515 0.0681826 0.0587732 0.103541 0.0699398 0.0555338 0.0227667 0.00909117 0.0296966 
451 0.0550536 0.19384 0.144316 0.0335981 0.103817 0.162292 0.0744587 0.193725 0.0123869 0.0265132 
452 0.477036 0.0990153 0.0692316 0.0634451 0.115539 0.0568435 0.0563882 0.023117 0.00923104 0.0301534 
453 0.0876528 0.263822 0.142912 0.0532149 0.0785473 0.0602655 0.141833 0.0609751 0.0623955 0.0483819 
454 0.379677 0.0929651 0.136939 0.0524312 0.136612 0.0378405 0.0451307 0.0487893 0.0148946 0.0547201 
455 0.0582248 0.223312 0.0489615 0.0342713 0.127149 0.182111 0.14756 0.0785997 0.0519523 0.0478595 
456 0.477036 0.0990153 0.0692316 0.0738797 0.10534 0.0566075 0.0563882 0.023117 0.00923104 0.0301534 
457 0.392777 0.088425 0.134014 0.0595602 0.132732 0.036171 0.0431397 0.0466368 0.0142375 0.052306 
458 0.0572674 0.223608 0.0496226 0.0342713 0.127149 0.182111 0.14756 0.0785997 0.0519523 0.0478595 
459 0.477036 0.106996 0.0766353 0.0596775 0.104158 0.0566075 0.0563882 0.023117 0.00923104 0.0301534 
460 0.0572672 0.208885 0.0489615 0.0342713 0.142533 0.182111 0.14756 0.0785997 0.0519523 0.0478595 
461 0.497635 0.157376 0.0286533 0.101521 0.0313504 0.0478509 0.0653876 0.0339769 0.0285261 0.00772275 
462 0.297955 0.141472 0.0441566 0.148731 0.0582063 0.0577274 0.0921312 0.0297395 0.0751745 0.0547064 
463 0.374821 0.0978209 0.136939 0.0524312 0.136612 0.0378405 0.0451307 0.0487893 0.0148946 0.0547201 
464 0.0572672 0.208885 0.0489615 0.0342713 0.127149 0.18795 0.157105 0.0785997 0.0519523 0.0478595 
465 0.486539 0.104897 0.0692316 0.0596774 0.104158 0.0566075 0.0563882 0.023117 0.00923104 0.0301534 
466 0.0572672 0.208885 0.0489615 0.0342713 0.127171 0.19124 0.153792 0.0785997 0.0519523 0.0478595 
467 0.294253 0.151933 0.0448374 0.151019 0.0591018 0.0586155 0.0935486 0.030197 0.0687644 0.0477301 
468 0.28718 0.143623 0.0449681 0.165635 0.0597382 0.0586155 0.0935486 0.030197 0.0687644 0.0477301 
469 0.365887 0.106624 0.137071 0.0524312 0.136612 0.0378405 0.0451307 0.0487893 0.0148946 0.0547201 
470 0.0572672 0.208885 0.0489615 0.0342713 0.127149 0.197495 0.14756 0.0785997 0.0519523 0.0478595 
471 0.10094 0.133841 0.0684489 0.252729 0.145821 0.0777331 0.0789333 0.0107705 0.0370562 0.0937265 
472 0.477036 0.0990153 0.0778569 0.0664367 0.104158 0.0566075 0.0563882 0.023117 0.00923104 0.0301534 
473 0.501829 0.168333 0.0286533 0.0957255 0.021994 0.0478509 0.0653876 0.0339769 0.0285261 0.00772275 
474 0.36525 0.0920075 0.136939 0.0524312 0.136612 0.0378405 0.0451307 0.0487893 0.0148946 0.0701047 
475 0.36525 0.107392 0.136939 0.0524312 0.136612 0.0378405 0.0451307 0.0487893 0.0148946 0.0547201 
476 0.477036 0.0990153 0.0692316 0.0596774 0.104158 0.0581438 0.0702363 0.0231172 0.00923104 0.0301534 
477 0.28718 0.143623 0.044836 0.151019 0.0591018 0.0586155 0.0935486 0.037198 0.0771481 0.0477301 
478 0.499102 0.165987 0.0290941 0.0971982 0.0223324 0.048587 0.0663936 0.0344997 0.0289649 0.00784156 
479 0.28718 0.143623 0.044836 0.151019 0.0591017 0.0586705 0.108878 0.030197 0.0687644 0.0477301 
480 0.50508 0.170006 0.0282257 0.0942968 0.0216657 0.0471367 0.0644117 0.0334698 0.0281003 0.00760749 
481 0.477036 0.0990153 0.0692316 0.0596774 0.104158 0.0566379 0.0664937 0.0283657 0.00923104 0.0301534 
482 0.490434 0.107172 0.0682032 0.0587732 0.10258 0.0557498 0.0555338 0.0227667 0.00909117 0.0296966 
483 0.292815 0.151519 0.0466901 0.151019 0.0591018 0.0586155 0.0935486 0.030197 0.0687644 0.0477301 
484 0.47889 0.106911 0.0748662 0.0596774 0.104158 0.0566075 0.0563882 0.023117 0.00923104 0.0301534 
485 0.497599 0.16749 0.0290941 0.0971982 0.0223324 0.048587 0.0663936 0.0344997 0.0289649 0.00784156 
486 0.497599 0.16749 0.0290941 0.0971982 0.0223324 0.048587 0.0663936 0.0344997 0.0289649 0.00784156 
487 0.0572672 0.210727 0.0625036 0.0342713 0.127149 0.182111 0.14756 0.0785997 0.0519523 0.0478595 
488 0.490578 0.100858 0.0692316 0.0596774 0.104158 0.0566075 0.0563882 0.023117 0.00923104 0.0301534 
489 0.28718 0.143858 0.0599854 0.151019 0.0591018 0.0586155 0.0935486 0.030197 0.0687644 0.0477301 
490 0.497403 0.157608 0.0286533 0.0957255 0.021994 0.0478509 0.0675465 0.0435529 0.0319427 0.00772275 
491 0.492647 0.0960596 0.067165 0.0649553 0.108914 0.0549185 0.054705 0.0224269 0.00895548 0.0292533 
492 0.36525 0.107392 0.136939 0.0524312 0.136612 0.0378405 0.0451307 0.0487893 0.0148946 0.0547201 
493 0.489906 0.159797 0.0290941 0.112583 0.0223324 0.048587 0.0663936 0.0344997 0.0289649 0.00784156 
494 0.477036 0.0990153 0.0692316 0.0596774 0.104387 0.0717631 0.0563882 0.023117 0.00923104 0.0301534 
495 0.359716 0.0906135 0.150015 0.0667883 0.134543 0.0372671 0.0444469 0.0480501 0.014669 0.053891 
496 0.28718 0.143623 0.044987 0.163088 0.062267 0.0586155 0.0935486 0.030197 0.0687644 0.0477301 
497 0.290345 0.155764 0.0449144 0.151019 0.0591018 0.0586155 0.0935486 0.030197 0.0687644 0.0477301 
498 0.28718 0.159007 0.044836 0.151019 0.0591018 0.0586155 0.0935486 0.030197 0.0687644 0.0477301 
499 0 0.261538 0 0 0.176041 0.152163 1.80029e-07 0.164102 2.67504e-06 0.246151 
500 0.0572679 0.221008 0.0522221 0.0342713 0.127149 0.182111 0.14756 0.0785997 0.0519523 0.0478595 
501 0.10094 0.133841 0.0683288 0.252771 0.145899 0.0777331 0.0789333 0.0107705 0.0370562 0.0937265 
502 0.0572672 0.208885 0.0489615 0.0342713 0.127227 0.197379 0.147599 0.0785997 0.0519523 0.0478595 
503 0.36525 0.0920075 0.152323 0.0524312 0.136612 0.0378405 0.0451307 0.0487893 0.0148946 0.0547201 
504 0.900989 0.00893905 0.0125088 0.00972669 0.0367926 0.00283785 0.00947456 0.00933583 0 0.00939562 
505 0.0572672 0.208885 0.0489615 0.0342713 0.127149 0.182111 0.151911 0.0896327 0.0519523 0.0478595 
506 0.28718 0.143623 0.044836 0.151019 0.0591018 0.0605915 0.106957 0.030197 0.0687644 0.0477301 
507 0.48496 0.097515 0.0681826 0.0732563 0.103248 0.0557498 0.0555338 0.0227667 0.00909117 0.0296966 
508 0.477036 0.0990153 0.0692316 0.0596774 0.104158 0.0566075 0.0670901 0.0277996 0.00923104 0.0301534 
509 0.28718 0.143623 0.044836 0.151019 0.0592228 0.0738791 0.0935486 0.030197 0.0687644 0.0477301 
510 0.359716 0.0906135 0.150016 0.0516368 0.134543 0.0372671 0.0447487 0.0628999 0.014669 0.053891 
511 0.36525 0.0920075 0.152202 0.0525531 0.136612 0.0378405 0.0451307 0.0487893 0.0148946 0.0547201 
512 0.287302 0.158885 0.044836 0.151019 0.0591018 0.0586155 0.0935486 0.030197 0.0687644 0.0477301 
513 0.489906 0.159797 0.0290941 0.0971982 0.0223324 0.048587 0.0694788 0.046694 0.02907 0.00784156 
514 0.389885 0.0913172 0.130897 0.0501181 0.131448 0.0500144 0.0431397 0.0466368 0.0142375 0.052306 
515 0.469808 0.097515 0.0681826 0.0587732 0.10258 0.0557498 0.0857372 0.0228664 0.00909117 0.0296966 
516 0.477036 0.0990153 0.0692316 0.0596774 0.104158 0.0566075 0.0569343 0.0379555 0.00923104 0.0301534 
517 0.489906 0.175182 0.0290941 0.0971982 0.0223324 0.048587 0.0663936 0.0344997 0.0289649 0.00784156 
518 0.28718 0.143623 0.0602206 0.151019 0.0591018 0.0586155 0.0935486 0.030197 0.0687644 0.0477301 
519 0.36525 0.0920075 0.136939 0.0524312 0.136612 0.0378405 0.0451536 0.0641511 0.0148946 0.0547201 
520 0.36525 0.0920075 0.136939 0.0524312 0.137043 0.0527944 0.0451307 0.0487893 0.0148946 0.0547201 
521 0.36525 0.0920594 0.152271 0.0524313 0.136612 0.0378405 0.0451307 0.0487893 0.0148946 0.0547201 
522 0.0572673 0.224217 0.0490134 0.0342713 0.127149 0.182111 0.14756 0.0785997 0.0519523 0.0478595 
523 0.28718 0.143623 0.044836 0.166404 0.0591018 0.0586155 0.0935486 0.030197 0.0687644 0.0477301 
524 0.28718 0.143623 0.044836 0.15112 0.0743859 0.0586156 0.0935486 0.030197 0.0687644 0.0477301 
525 0.28718 0.143623 0.044836 0.151019 0.0591018 0.0586155 0.0935486 0.0304541 0.083892 0.0477301 
526 0.28718 0.143623 0.044836 0.166404 0.0591018 0.0586155 0.0935486 0.030197 0.0687644 0.0477301 
527 0.36525 0.0920075 0.136939 0.0582731 0.146155 0.0378404 0.0451307 0.0487893 0.0148946 0.0547201 
528 0.37549 0.0971528 0.136939 0.0524312 0.136612 0.0378405 0.0451307 0.0487893 0.0148946 0.0547201 
529 0.491724 0.0997119 0.0692316 0.0596774 0.104158 0.0566075 0.0563882 0.023117 0.00923104 0.0301534 
530 0.369273 0.089261 0.132851 0.0508661 0.132534 0.0367109 0.0437835 0.0481782 0.0300137 0.0665285 
531 0.0572672 0.208885 0.0489615 0.0342713 0.127149 0.182111 0.148052 0.0934926 0.0519523 0.0478595 
532 0.10094 0.133841 0.0684008 0.252777 0.145821 0.0777331 0.0789333 0.0107705 0.0370562 0.0937265 
533 0.28718 0.143623 0.048337 0.162903 0.0591018 0.0586155 0.0935486 0.030197 0.0687644 0.0477301 
534 0.477036 0.0990153 0.0692316 0.075062 0.104158 0.0566075 0.0563882 0.023117 0.00923104 0.0301534 
535 0.488919 0.102516 0.0692316 0.0596774 0.104158 0.0566075 0.0563882 0.023117 0.00923104 0.0301534 
536 0.10094 0.133841 0.0685473 0.251724 0.146728 0.0777331 0.0789333 0.0107705 0.0370562 0.0937265 
537 0.101847 0.148259 0.068386 0.237467 0.145821 0.0777331 0.0789333 0.0107705 0.0370562 0.0937265 
538 0.10094 0.133841 0.0683263 0.237467 0.146001 0.0929383 0.0789333 0.0107705 0.0370562 0.0937265 
539 0.500108 0.0946469 0.0661778 0.0657372 0.105576 0.0541101 0.0539005 0.0220971 0.00882378 0.0288231 
540 0.10094 0.133841 0.0683264 0.238122 0.160293 0.0779907 0.0789333 0.0107705 0.0370562 0.0937265 
541 0.0572672 0.208885 0.0643461 0.0342713 0.127149 0.182111 0.14756 0.0785997 0.0519523 0.0478595 
542 0.954417 0.00273303 0.0146403 0.00532846 0.00249903 0.0178836 0 0 0.00249903 0 
543 0.0870718 0.252786 0.139144 0.0532149 0.0785473 0.07565 0.141833 0.0609751 0.0623955 0.0483819 
544 0 0 0 0 0 0 0.000301158 0.999698 0 0 
545 0.30256 0.143627 0.044836 0.151019 0.0591018 0.0586155 0.0935486 0.030197 0.0687644 0.0477301 
546 0.0870718 0.252786 0.154528 0.0532149 0.0785473 0.0602655 0.141833 0.0609751 0.0623955 0.0483819 
547 0.311613 0.142965 0.0441566 0.148731 0.0582063 0.0577274 0.0921312 0.0297395 0.0677226 0.0470069 
548 0.28718 0.143623 0.044836 0.151019 0.059111 0.0727852 0.0947543 0.030197 0.0687644 0.0477301 
549 0.299151 0.155427 0.0441566 0.148731 0.0582063 0.0577274 0.0921312 0.0297395 0.0677226 0.0470069 
550 0.28718 0.143623 0.0454828 0.165472 0.0593871 0.0586155 0.0935486 0.030197 0.0687644 0.0477301 
551 0.287465 0.158722 0.044836 0.151019 0.0591018 0.0586155 0.0935486 0.030197 0.0687644 0.0477301 
552 0.499907 0.109553 0.0661772 0.0570446 0.0995629 0.0541101 0.0539005 0.0220971 0.00882378 0.0288231 
553 0.477036 0.0990153 0.0692316 0.0604994 0.118713 0.0566149 0.0563882 0.023117 0.00923104 0.0301534 
554 0.504668 0.16042 0.0290941 0.0971982 0.0223324 0.048587 0.0663936 0.0344997 0.0289649 0.00784156 
555 0.504271 0.0993609 0.067165 0.057896 0.101049 0.0549177 0.054705 0.0224269 0.00895548 0.0292533 
556 0.497638 0.172525 0.0286533 0.0957255 0.021994 0.0478509 0.0653876 0.0339769 0.0285261 0.00772275 
557 0.489906 0.159797 0.0297167 0.11196 0.0223324 0.048587 0.0663936 0.0344997 0.0289649 0.00784156 
558 0.477036 0.0990153 0.0692316 0.0596774 0.104158 0.0566075 0.0717703 0.0231195 0.00923104 0.0301534 
559 0.490108 0.17498 0.0290941 0.0971982 0.0223324 0.048587 0.0663936 0.0344997 0.0289649 0.00784156 
560 0.477054 0.114382 0.0692316 0.0596774 0.104158 0.0566075 0.0563882 0.023117 0.00923104 0.0301534 
561 0.402047 0.0866737 0.129 0.0493917 0.128693 0.0356468 0.0462174 0.0567507 0.0140312 0.0515479 
562 0.0575024 0.224034 0.0489617 0.0342713 0.127149 0.182111 0.14756 0.0785997 0.0519523 0.0478595 
563 0.903859 0.00867995 0.0121462 0.0094432 0.021235 0.00275559 0.00919994 0.00906522 0 0.023616 
564 0.10094 0.133841 0.0834756 0.237703 0.145821 0.0777331 0.0789333 0.0107705 0.0370562 0.0937265 
565 0.396978 0.0914059 0.132851 0.0508661 0.132534 0.0367109 0.0437835 0.0473329 0.01445 0.0530867 
566 0.489906 0.159797 0.0290941 0.0995565 0.0344464 0.0494993 0.0663936 0.0344997 0.0289649 0.00784156 
567 0.490062 0.101374 0.0692316 0.0596774 0.104158 0.0566075 0.0563882 0.023117 0.00923104 0.0301534 
568 0.477036 0.0990153 0.0692316 0.0596774 0.104158 0.0566075 0.0563882 0.023117 0.0103507 0.0444184 
569 0.491044 0.100392 0.0692316 0.0596774 0.104158 0.0566075 0.0563882 0.023117 0.00923104 0.0301534 
570 0.477879 0.110378 0.0724101 0.0596774 0.104158 0.0566075 0.0563882 0.023117 0.00923104 0.0301534 
571 0.376579 0.0960636 0.136939 0.0524312 0.136612 0.0378405 0.0451307 0.0487893 0.0148946 0.0547201 
572 0.294415 0.15093 0.0456788 0.151019 0.0591018 0.0586155 0.0935486 0.030197 0.0687644 0.0477301 
573 0.477036 0.0990153 0.0692316 0.0596774 0.119543 0.0566075 0.0563882 0.023117 0.00923104 0.0301534 
574 0.10094 0.133841 0.0683263 0.237604 0.161068 0.0777331 0.0789333 0.0107705 0.0370562 0.0937265 
575 0.28718 0.143623 0.044836 0.151019 0.0591017 0.0586155 0.0935486 0.030197 0.0687713 0.0631078 
576 0.485898 0.111728 0.0681826 0.0587732 0.10258 0.0557498 0.0555338 0.0227667 0.00909117 0.0296966 
577 0.477036 0.0990153 0.0697341 0.0745595 0.104158 0.0566075 0.0563882 0.023117 0.00923104 0.0301534 
578 0.28718 0.143623 0.044836 0.165451 0.0600547 0.0586155 0.0935486 0.030197 0.0687644 0.0477301 
579 0.497635 0.157376 0.0286533 0.0957255 0.021994 0.0478509 0.0805392 0.0339769 0.0285261 0.00772275 
580 0.899489 0.00907449 0.0126983 0.00987244 0.0222002 0.00288085 0.00961812 0.0246288 0 0.00953798 
581 0.477036 0.0990153 0.0692316 0.0596774 0.104158 0.0566076 0.0717726 0.023117 0.00923104 0.0301534 
582 0.48496 0.097515 0.0687378 0.0688806 0.107069 0.0557498 0.0555338 0.0227667 0.00909117 0.0296966 
583 0.388299 0.0923334 0.134864 0.0516368 0.134543 0.0372671 0.0444469 0.0480501 0.014669 0.053891 
584 0.489906 0.159797 0.0290941 0.0971982 0.0223324 0.048587 0.0668466 0.0494313 0.0289649 0.00784156 
585 0.469808 0.0975658 0.0984346 0.0587735 0.10258 0.0557498 0.0555338 0.0227667 0.00909117 0.0296966 
586 0.36525 0.0920075 0.136939 0.0524917 0.151885 0.0378923 0.0451307 0.0487893 0.0148946 0.0547201 
587 0.497635 0.157376 0.0286533 0.0957255 0.021994 0.04788 0.0798855 0.0346015 0.0285261 0.00772275 
588 0.489906 0.159797 0.0444788 0.0971982 0.0223324 0.048587 0.0663936 0.0344997 0.0289649 0.00784156 
589 0.36525 0.0947591 0.149572 0.0524312 0.136612 0.0378405 0.0451307 0.0487893 0.0148946 0.0547201 
590 0.489669 0.101767 0.0692316 0.0596774 0.104158 0.0566075 0.0563882 0.023117 0.00923104 0.0301534 
591 0.477036 0.0990153 0.0692316 0.0596774 0.105028 0.071122 0.0563885 0.023117 0.00923104 0.0301534 
592 0.496778 0.158233 0.0286533 0.110877 0.021994 0.0478509 0.0653876 0.0339769 0.0285261 0.00772275 
593 0.0572672 0.208885 0.0489615 0.0343487 0.142456 0.182111 0.14756 0.0785997 0.0519523 0.0478595 
594 0.388181 0.0930209 0.130897 0.0501181 0.130585 0.036171 0.0431397 0.0466368 0.0142376 0.0670118 
595 0.492647 0.0960596 0.067165 0.057896 0.101049 0.0572742 0.0672738 0.0224269 0.00895548 0.0292533 
596 0.069371 0.175751 0.142129 0.0330891 0.102244 0.159833 0.088482 0.19079 0.0121992 0.0261115 
597 0.477036 0.0990153 0.0692316 0.0596774 0.104158 0.0566075 0.0563882 0.023117 0.0092311 0.045538 
598 0.36525 0.0920582 0.150444 0.0542602 0.136612 0.0378405 0.0451307 0.0487893 0.0148946 0.0547201 
599 0.289009 0.157174 0.0448406 0.151019 0.0591018 0.0586155 0.0935486 0.030197 0.0687644 0.0477301 
600 0.287407 0.15878 0.044836 0.151019 0.0591018 0.0586155 0.0935486 0.030197 0.0687644 0.0477301 
601 0.10094 0.133841 0.0683263 0.237467 0.145821 0.0777331 0.0789333 0.0108577 0.0521267 0.0939535 
602 0.36525 0.0920075 0.136939 0.0524312 0.136612 0.0378405 0.0451307 0.0496236 0.0294265 0.0547385 
603 0.48496 0.097515 0.0681826 0.0587732 0.10258 0.0557498 0.0555338 0.023171 0.0238378 0.0296972 
604 0.359716 0.105765 0.134864 0.0516368 0.134543 0.0382013 0.058664 0.0480503 0.014669 0.053891 
605 0.10094 0.14848 0.069072 0.237467 0.145821 0.0777331 0.0789333 0.0107705 0.0370562 0.0937265 
606 0.477036 0.0990153 0.0692316 0.0682492 0.110971 0.0566075 0.0563882 0.023117 0.00923104 0.0301534 
607 0.36525 0.0920075 0.136939 0.0524312 0.140451 0.0493869 0.0451307 0.0487893 0.0148946 0.0547201 
608 0.469808 0.097515 0.0681826 0.0599406 0.116564 0.0557498 0.0558946 0.0373602 0.0092885 0.0296966 
609 0.36525 0.0920075 0.136939 0.0524312 0.151997 0.0378405 0.0451307 0.0487893 0.0148946 0.0547201 
610 0.36525 0.0920075 0.136939 0.0524312 0.136612 0.0378405 0.0520865 0.0572182 0.0148946 0.0547201 
611 0.500944 0.164145 0.0290941 0.0971982 0.0223324 0.048587 0.0663936 0.0344997 0.0289649 0.00784156 
612 0.36525 0.0920075 0.136946 0.0678087 0.136612 0.0378405 0.0451307 0.0487893 0.0148946 0.0547201 
613 0.36525 0.0920115 0.152268 0.0524827 0.136612 0.0378405 0.0451307 0.0487893 0.0148946 0.0547201 
614 0.477036 0.0990153 0.0692316 0.0596774 0.104201 0.0719488 0.0563882 0.023117 0.00923104 0.0301534 
615 0.918865 0.00920874 0.0119727 0.0093083 0.0209316 0.00271623 0.00906851 0.00893572 0 0.00899295 
616 0.477036 0.0990153 0.0692316 0.0604492 0.116662 0.0587167 0.0563882 0.023117 0.00923104 0.0301534 
617 0.103049 0.146347 0.0690957 0.237467 0.145821 0.0777331 0.0789333 0.0107705 0.0370562 0.0937265 
618 0.28718 0.143623 0.044836 0.151857 0.0736488 0.0586155 0.0935486 0.030197 0.0687644 0.0477301 
619 0.49079 0.106835 0.0681842 0.0587732 0.10258 0.0557498 0.0555338 0.0227667 0.00909117 0.0296966 
620 0.28718 0.143623 0.0506571 0.160583 0.0591018 0.0586155 0.0935486 0.030197 0.0687644 0.0477301 
621 0.296744 0.149444 0.044836 0.151019 0.0591018 0.0586155 0.0935486 0.030197 0.0687644 0.0477301 
622 0.10094 0.133841 0.0683263 0.2526 0.146073 0.0777331 0.0789333 0.0107705 0.0370562 0.0937265 
623 0.365668 0.106974 0.136939 0.0524312 0.136612 0.0378405 0.0451307 0.0487893 0.0148946 0.0547201 
624 0.10094 0.133841 0.0683263 0.237467 0.160788 0.0781512 0.0789333 0.0107705 0.0370562 0.0937265 
625 0.0854056 0.202652 0.0475 0.0332483 0.123353 0.176675 0.143155 0.0763175 0.0614025 0.050291 
626 0.28718 0.143623 0.0484414 0.162798 0.0591018 0.0586155 0.0935486 0.030197 0.0687644 0.0477301 
627 0.372943 0.0996998 0.136939 0.0524312 0.136612 0.0378405 0.0451307 0.0487893 0.0148946 0.0547201 
628 0.372943 0.0996998 0.136939 0.0524312 0.136612 0.0378405 0.0451307 0.0487893 0.0148946 0.0547201 
629 0.28718 0.143623 0.0448362 0.166404 0.0591018 0.0586155 0.0935486 0.030197 0.0687644 0.0477301 
630 0.114562 0.145432 0.0688239 0.233869 0.143612 0.0765554 0.0777373 0.0106073 0.0364948 0.0923064 
631 0.36525 0.0920075 0.136939 0.0524312 0.142043 0.0477945 0.0451307 0.0487893 0.0148946 0.0547201 
632 0.49986 0.165228 0.0290941 0.0971982 0.0223324 0.048587 0.0663936 0.0344997 0.0289649 0.00784156 
633 0.10094 0.133841 0.0683264 0.243816 0.154857 0.0777331 0.0789333 0.0107705 0.0370562 0.0937265 
634 0.36525 0.0920075 0.136939 0.0524312 0.136612 0.038224 0.0596128 0.0493083 0.0148946 0.0547201 
635 0.354418 0.125611 0.0388578 0.130883 0.0512215 0.0508001 0.0819112 0.0515678 0.0613273 0.0534018 
636 0.900989 0.00893911 0.0125088 0.00972509 0.0218689 0.00283785 0.00947457 0.00933583 0 0.0243208 
637 0.393254 0.0879484 0.130897 0.0526354 0.142774 0.036171 0.0431397 0.0466368 0.0142375 0.052306 
638 0.28718 0.143623 0.0484371 0.162803 0.0591018 0.0586155 0.0935486 0.030197 0.0687644 0.0477301 
639 0.0870718 0.252786 0.139144 0.0532149 0.0909902 0.0632072 0.141833 0.0609751 0.0623955 0.0483819 
640 0.28718 0.143623 0.044836 0.151019 0.0591018 0.0586402 0.108909 0.030197 0.0687644 0.0477301 
641 0.0542205 0.20516 0.143023 0.0330891 0.102244 0.159833 0.0733306 0.19079 0.0121992 0.0261115 
642 0.36525 0.0920075 0.136939 0.052434 0.151994 0.0378409 0.0451307 0.0487893 0.0148946 0.0547201 
643 0.28718 0.143623 0.0457405 0.165499 0.0591023 0.0586155 0.0935486 0.030197 0.0687644 0.0477301 
644 0.0550536 0.178455 0.159669 0.0336297 0.103817 0.162292 0.0744587 0.193725 0.0123869 0.0265132 
645 0.354347 0.089261 0.132851 0.0513414 0.16191 0.0373574 0.0580623 0.0473329 0.01445 0.0530867 
646 0.10094 0.133841 0.0683264 0.237467 0.147421 0.0915174 0.0789333 0.0107705 0.0370562 0.0937265 
647 0.0572672 0.208885 0.0489615 0.0343935 0.13876 0.185762 0.14756 0.0785997 0.0519523 0.0478595 
648 0.290831 0.155353 0.0448399 0.151019 0.0591018 0.0586155 0.0935486 0.030197 0.0687644 0.0477301 
649 0.0572672 0.208885 0.0489615 0.0342713 0.127149 0.182111 0.14756 0.0785997 0.0519525 0.0632438 
650 0.0572672 0.208885 0.0489615 0.0342713 0.127149 0.182111 0.14756 0.0785997 0.0537393 0.061457 
651 0.0550536 0.178455 0.144316 0.0387042 0.114096 0.162292 0.0744587 0.193725 0.0123869 0.0265132 
652 0.297621 0.148566 0.044836 0.151019 0.0591018 0.0586155 0.0935486 0.030197 0.0687644 0.0477301 
653 0.278608 0.139335 0.0509961 0.183789 0.0573375 0.0568658 0.0907561 0.0292956 0.0667118 0.0463053 
654 0.0550536 0.178455 0.144316 0.0335981 0.103817 0.162292 0.0745668 0.209001 0.0123869 0.0265132 
655 0.359716 0.0906134 0.134922 0.0656162 0.135657 0.0372671 0.0444469 0.0480501 0.018555 0.0651565 
656 0.282829 0.141447 0.0441566 0.149073 0.0730156 0.057792 0.107218 0.0297395 0.0677226 0.0470069 
657 0.28718 0.143623 0.0484366 0.162803 0.0591018 0.0586155 0.0935486 0.030197 0.0687644 0.0477301 
658 0.10094 0.133841 0.0687871 0.246849 0.151363 0.0777331 0.0789333 0.0107705 0.0370562 0.0937265 
659 0.292722 0.153416 0.0448848 0.151019 0.0591018 0.0586155 0.0935486 0.030197 0.0687644 0.0477301 
660 0.363841 0.0879496 0.141063 0.0546585 0.130585 0.0362005 0.057816 0.0466368 0.0142375 0.0670119 
661 0.489906 0.159797 0.0290941 0.0971982 0.0223324 0.048587 0.0663936 0.0389247 0.0399245 0.00784156 
662 0.0572672 0.208885 0.0489615 0.0342713 0.127149 0.1847 0.159468 0.079487 0.0519523 0.0478595 
663 0.900989 0.00893906 0.0125088 0.0103457 0.0361736 0.00283785 0.00947456 0.00933583 0 0.00939562 
664 0.288736 0.157451 0.044836 0.151019 0.0591018 0.0586155 0.0935486 0.030197 0.0687644 0.0477301 
665 0.10094 0.133841 0.0683263 0.237467 0.145821 0.0777331 0.0789333 0.0107705 0.0370654 0.109102 
666 0.10094 0.133841 0.0683263 0.237467 0.145821 0.0777331 0.0789333 0.0107705 0.0501112 0.0960562 
667 0.10094 0.133841 0.0683263 0.237467 0.145821 0.078556 0.093495 0.0107705 0.0370562 0.0937265 
668 0.10094 0.133841 0.0683263 0.237467 0.160444 0.0784949 0.0789333 0.0107705 0.0370562 0.0937265 
669 0.36525 0.0927693 0.151562 0.0524312 0.136612 0.0378405 0.0451307 0.0487893 0.0148946 0.0547201 
670 0.10094 0.133841 0.0683982 0.250905 0.147696 0.0777331 0.0789333 0.0107705 0.0370562 0.0937265 
671 0.53108 0.16231 0.0266355 0.0889843 0.0204451 0.0444811 0.0607829 0.0315842 0.0265172 0.00717889 
672 0.10094 0.133841 0.0683263 0.237467 0.145821 0.0777331 0.0789333 0.0107705 0.0450592 0.101108 
673 0.0550536 0.178455 0.144316 0.0335981 0.103817 0.162292 0.0744587 0.20911 0.0123869 0.0265132 
674 0.911496 0.0110454 0.0128937 0.0100243 0.0225418 0.00292517 0.00976609 0.00962308 0 0.00968471 
675 0.10094 0.133841 0.0694475 0.251731 0.145821 0.0777331 0.0789333 0.0107705 0.0370562 0.0937265 
676 0.50417 0.160919 0.0290941 0.0971982 0.0223324 0.048587 0.0663936 0.0344997 0.0289649 0.00784156 
677 0 0.130315 0.101359 0.058731 0.202996 0.146806 0.0716487 0.114389 1.25868e-07 0.173756 
678 0.0870718 0.252786 0.154528 0.0532149 0.0785473 0.0602655 0.141833 0.0609751 0.0623955 0.0483819 
679 0.0572672 0.208885 0.0489615 0.049656 0.127149 0.182111 0.14756 0.0785997 0.0519523 0.0478595 
680 0.0572672 0.208885 0.0489615 0.0342713 0.127619 0.197021 0.147564 0.0785997 0.0519523 0.0478595 
681 0.492647 0.0960596 0.0684019 0.0712921 0.101341 0.0549177 0.054705 0.0224269 0.00895548 0.0292533 
682 0.0572672 0.208885 0.0489615 0.0342713 0.127149 0.182111 0.14756 0.0785997 0.0519543 0.0632421 
683 0.36525 0.0920075 0.136939 0.0524312 0.136612 0.037841 0.0605147 0.0487893 0.0148946 0.0547201 
684 0.28718 0.143623 0.044836 0.151019 0.0591017 0.062567 0.104256 0.0309226 0.0687644 0.0477301 
685 0.10094 0.133841 0.0683263 0.237467 0.145821 0.0777331 0.0789333 0.0107705 0.0370562 0.109111 
686 0.0572672 0.208885 0.0489615 0.0342713 0.127149 0.182111 0.150275 0.0912688 0.0519523 0.0478595 
687 0.10094 0.133841 0.0683263 0.237467 0.149153 0.0897809 0.0789379 0.0107705 0.0370562 0.0937265 
688 0.10094 0.133841 0.0683263 0.237467 0.145821 0.0777331 0.0943179 0.0107705 0.0370562 0.0937265 
689 0 0.246154 0 0 0.176041 0.152164 1.80029e-07 0.179487 2.67504e-06 0.246151 
690 0.378283 0.0974237 0.13979 0.0516368 0.134543 0.0372671 0.0444469 0.0480501 0.014669 0.053891 
691 0 0.1457 0.101359 0.0586174 0.187846 0.146684 0.0716487 0.114389 1.25868e-07 0.173756 
692 0.28718 0.143623 0.044836 0.151019 0.0591018 0.0586155 0.0935486 0.030197 0.0841486 0.0477305 
693 0.0550536 0.178455 0.1597 0.0335981 0.103817 0.162292 0.0744587 0.193725 0.0123869 0.0265132 
694 0.954417 0.00273303 0.0146403 0.00532846 0.00249903 0.00249903 0 0 0.0178836 0 
695 0.0572672 0.208885 0.0489615 0.0342713 0.127149 0.182111 0.153689 0.0878553 0.0519523 0.0478595 
696 0.494079 0.103547 0.0681826 0.0587732 0.10258 0.0557498 0.0555338 0.0227667 0.00909117 0.0296966 
697 0.28718 0.159007 0.044836 0.151019 0.0591018 0.0586155 0.0935486 0.030197 0.0687644 0.0477301 
698 0.10094 0.133841 0.0683264 0.241551 0.157122 0.0777331 0.0789333 0.0107705 0.0370562 0.0937265 
699 0.989689 0.00548644 0 0 0.00482437 0 0 0 0 0 
700 0.48885 0.102586 0.0692316 0.0596774 0.104158 0.0566075 0.0563882 0.023117 0.00923104 0.0301534 
701 0.989964 0.00521198 0 0 0.00482437 0 0 0 0 0 
702 0.10094 0.133841 0.0683264 0.237467 0.145821 0.0777331 0.0789333 0.0179381 0.0452733 0.0937265 
703 0.316806 0.145914 0.0434976 0.146511 0.0573375 0.0568658 0.0907561 0.0292956 0.0667118 0.0463053 
704 0.0550536 0.178455 0.144316 0.0335981 0.103817 0.162292 0.0744587 0.195781 0.0257156 0.0265133 
705 0.10094 0.133841 0.0683264 0.237467 0.145821 0.0786162 0.0934073 0.010798 0.0370562 0.0937265 
706 0.477036 0.0990153 0.0692316 0.0596774 0.104158 0.0719918 0.0563884 0.023117 0.00923104 0.0301534 
707 0.28718 0.143623 0.044836 0.166404 0.0591018 0.0586155 0.0935486 0.030197 0.0687644 0.0477301 
708 0.0572672 0.208885 0.0489615 0.0343003 0.135948 0.188667 0.14756 0.0785997 0.0519523 0.0478595 
709 0.482483 0.157376 0.0286533 0.110709 0.022162 0.0479226 0.0794057 0.0350388 0.0285261 0.00772275 
710 0.10094 0.133841 0.0683263 0.237467 0.145821 0.0789437 0.0931074 0.0107705 0.0370562 0.0937265 
711 0.10094 0.133841 0.0711756 0.250003 0.145821 0.0777331 0.0789333 0.0107705 0.0370562 0.0937265 
712 0.502442 0.162647 0.0290941 0.0971982 0.0223324 0.048587 0.0663936 0.0344997 0.0289649 0.00784156 
713 0.10094 0.133841 0.0714339 0.249744 0.145821 0.0777331 0.0789333 0.0107705 0.0370562 0.0937265 
714 0.489906 0.159797 0.0290941 0.0971982 0.0223324 0.0639716 0.0663936 0.0344997 0.0289649 0.00784156 
715 0.477036 0.0990153 0.0692316 0.0596774 0.119543 0.0566075 0.0563882 0.023117 0.00923104 0.0301534 
716 0.477036 0.0990153 0.0846162 0.0596774 0.104158 0.0566075 0.0563882 0.023117 0.00923104 0.0301534 
717 0.28718 0.143623 0.044836 0.151019 0.0744864 0.0586155 0.0935486 0.030197 0.0687644 0.0477301 
718 0.0572672 0.208885 0.0489615 0.0342713 0.127149 0.185402 0.159653 0.0785997 0.0519523 0.0478595 
719 0.374851 0.0907445 0.149889 0.0516493 0.134543 0.0372671 0.0444469 0.0480501 0.014669 0.053891 
720 0.363843 0.0879508 0.145682 0.064743 0.130586 0.0361711 0.0431397 0.0466369 0.0142376 0.0670104 
721 0.36525 0.0920075 0.136939 0.0524312 0.136612 0.0378404 0.0451307 0.0487893 0.015115 0.0698843 
722 0.477036 0.0990153 0.0692316 0.0596774 0.104158 0.0566075 0.0568912 0.0369519 0.0102777 0.0301534 
723 0.10094 0.133841 0.0714339 0.249744 0.145821 0.0777331 0.0789333 0.0107705 0.0370562 0.0937265 
724 0.28718 0.159007 0.044836 0.151019 0.0591018 0.0586155 0.0935486 0.030197 0.0687644 0.0477301 
725 0.374868 0.0906135 0.134864 0.0516368 0.149694 0.0372671 0.0444469 0.0480501 0.014669 0.053891 
726 0.10094 0.133841 0.0730866 0.248092 0.145821 0.0777331 0.0789333 0.0107705 0.0370562 0.0937265 
727 0.490429 0.101006 0.0692316 0.0596774 0.104158 0.0566075 0.0563882 0.023117 0.00923104 0.0301534 
728 0.363073 0.0887173 0.130897 0.0501181 0.130585 0.0508839 0.057856 0.0613194 0.0142433 0.052306 
729 0.477036 0.0990153 0.070036 0.0742575 0.104158 0.0566075 0.0563882 0.023117 0.00923104 0.0301534 
730 0.48496 0.097515 0.0681826 0.0587732 0.10258 0.0557498 0.0555338 0.0227667 0.00912113 0.0448181 
731 0.0572672 0.208885 0.0489615 0.0342713 0.12715 0.197429 0.147624 0.0785997 0.0519523 0.0478595 
732 0.0550536 0.178455 0.144316 0.0335981 0.103817 0.162292 0.074523 0.209043 0.0123887 0.0265132 
733 0.374868 0.0906134 0.134864 0.0516368 0.134543 0.0372671 0.0444469 0.0480501 0.01467 0.0690415 
734 0.363835 0.0879554 0.145603 0.0501181 0.130585 0.036171 0.0434841 0.0609983 0.0142375 0.0670119 
735 0 0.257576 0 0 0.173374 0.149858 1.77301e-07 0.161616 2.63451e-06 0.257573 
736 0.475829 0.0979516 0.067165 0.058031 0.115697 0.0550596 0.0695096 0.0225476 0.00895548 0.0292533 
737 0.376924 0.0965354 0.132851 0.0508661 0.132534 0.0367109 0.0437835 0.0473329 0.0145772 0.0678849 
738 0.477036 0.0990153 0.0692316 0.0596774 0.104158 0.0566075 0.0582354 0.0366544 0.00923104 0.0301534 
739 0.0572672 0.208885 0.0489615 0.0342713 0.127149 0.182111 0.154884 0.08666 0.0519523 0.0478595 
740 0.489906 0.159797 0.0290941 0.0971982 0.0223324 0.0485876 0.0817777 0.0344997 0.0289649 0.00784156 
741 0.10094 0.133841 0.0683263 0.237467 0.161206 0.0777331 0.0789333 0.0107705 0.0370562 0.0937265 
742 0.36525 0.0956126 0.148718 0.0524312 0.136612 0.0378405 0.0451307 0.0487893 0.0148946 0.0547201 
743 0.37703 0.0956126 0.136939 0.0524312 0.136612 0.0378405 0.0451307 0.0487893 0.0148946 0.0547201 
744 0.29798 0.141447 0.0441566 0.148731 0.0582063 0.0577274 0.0921312 0.0297395 0.0690695 0.0608114 
745 0.36525 0.0920075 0.136939 0.0524312 0.151997 0.0378405 0.0451307 0.0487893 0.0148946 0.0547201 
746 0.36525 0.0920075 0.136939 0.0524312 0.136612 0.0378405 0.0451307 0.0487893 0.0149549 0.0700444 
747 0.10094 0.133841 0.0683263 0.237526 0.161147 0.0777332 0.0789333 0.0107705 0.0370562 0.0937265 
748 0.28733 0.155379 0.0483152 0.151019 0.0591018 0.0586155 0.0935486 0.030197 0.0687644 0.0477301 
749 0.493385 0.171553 0.0292437 0.0971982 0.0223324 0.048587 0.0663936 0.0344997 0.0289649 0.00784156 
750 0.104029 0.138669 0.0662868 0.245272 0.156422 0.0754162 0.0765771 0.010449 0.0359501 0.0909287 
751 0.28718 0.143623 0.044836 0.151019 0.0591018 0.0586155 0.0935486 0.030197 0.0687655 0.0631137 
752 0.29798 0.141447 0.0441566 0.148731 0.0586064 0.0690994 0.0955107 0.0297395 0.0677226 0.0470069 
753 0.28718 0.159007 0.044836 0.151019 0.0591018 0.0586155 0.0935486 0.030197 0.0687644 0.0477301 
754 0.36525 0.0920075 0.136939 0.0524312 0.136612 0.0378405 0.0451307 0.0487893 0.0148946 0.0701047 
755 0.10094 0.133841 0.0683263 0.237467 0.145821 0.0777342 0.0943169 0.0107705 0.0370562 0.0937265 
756 0.477036 0.0990153 0.0759958 0.0682978 0.104158 0.0566075 0.0563882 0.023117 0.00923104 0.0301534 
757 0.28718 0.143623 0.0457718 0.165468 0.0591018 0.0586155 0.0935486 0.030197 0.0687644 0.0477301 
758 0.36525 0.0920075 0.152317 0.0524377 0.136612 0.0378405 0.0451307 0.0487893 0.0148946 0.0547201 
759 0.100944 0.149221 0.0683263 0.237467 0.145821 0.0777331 0.0789333 0.0107705 0.0370562 0.0937265 
760 0.28718 0.143623 0.044836 0.166404 0.0591018 0.0586155 0.0935486 0.030197 0.0687644 0.0477301 
761 0.0572672 0.208885 0.0643461 0.0342713 0.127149 0.182111 0.14756 0.0785997 0.0519523 0.0478595 
762 0.28718 0.143623 0.044836 0.151019 0.0591018 0.0586155 0.0935486 0.0455816 0.0687644 0.0477301 
763 0.507146 0.0906478 0.063381 0.0546342 0.0953562 0.0659081 0.051623 0.0211634 0.010851 0.0392897 
764 0.28718 0.143623 0.044836 0.151019 0.0591017 0.0586157 0.108933 0.030197 0.0687644 0.0477301 
765 0.10094 0.133841 0.0683263 0.237467 0.145821 0.0800388 0.0914079 0.0113749 0.0370562 0.0937265 
766 0.10094 0.133841 0.0683264 0.237467 0.145821 0.0777332 0.0943168 0.0107716 0.0370562 0.0937265 
767 0.109341 0.148282 0.0687748 0.242448 0.141836 0.0754127 0.0765771 0.010449 0.0359501 0.0909287 
768 0.497635 0.157376 0.0286533 0.110877 0.021994 0.0478509 0.0653876 0.0339769 0.0285261 0.00772275 
769 0.0550536 0.178455 0.1597 0.0335981 0.103817 0.162292 0.0744587 0.193725 0.0123869 0.0265132 
770 0 0.130315 0.101359 0.0586174 0.202385 0.14753 0.0716487 0.114389 1.25868e-07 0.173756 
771 0.11069 0.135685 0.0672911 0.233869 0.143612 0.0787858 0.0906583 0.0106074 0.0364948 0.0923064 
772 0.36525 0.0920075 0.136939 0.0528208 0.151607 0.0378405 0.0451307 0.0487893 0.0148946 0.0547201 
773 0.0550536 0.178455 0.1597 0.0335981 0.103817 0.162292 0.0744587 0.193725 0.0123869 0.0265132 
774 0.0550536 0.178455 0.144316 0.0335981 0.103817 0.162292 0.0747847 0.208784 0.0123869 0.0265132 
775 0.36525 0.0980575 0.146273 0.0524312 0.136612 0.0378405 0.0451307 0.0487893 0.0148946 0.0547201 
776 0.296515 0.149673 0.044836 0.151019 0.0591018 0.0586155 0.0935486 0.030197 0.0687644 0.0477301 
777 0.0550536 0.178455 0.144316 0.0335981 0.103817 0.162292 0.0897849 0.193783 0.0123869 0.0265132 
778 0.0550536 0.178455 0.144316 0.0335981 0.103817 0.162292 0.0744587 0.209109 0.0123869 0.0265132 
779 0.10094 0.133841 0.0683263 0.239622 0.158789 0.0779958 0.0789333 0.0107705 0.0370562 0.0937265 
780 0.287443 0.158742 0.0448385 0.151019 0.0591018 0.0586155 0.0935486 0.030197 0.0687644 0.0477301 
781 0.297962 0.141465 0.0441566 0.148731 0.0582063 0.0584736 0.106537 0.0297395 0.0677225 0.0470069 
782 0.28718 0.143623 0.044836 0.151019 0.0591018 0.0586541 0.108147 0.0309442 0.0687644 0.0477301 
783 0.379207 0.0934353 0.136939 0.0524312 0.136612 0.0378405 0.0451307 0.0487893 0.0148946 0.0547201 
784 0.492081 0.172969 0.0291327 0.0971983 0.0223324 0.048587 0.0663936 0.0344997 0.0289649 0.00784156 
785 0.385295 0.0969512 0.123625 0.0473337 0.137227 0.0480427 0.041271 0.0574068 0.0134465 0.0494001 
786 0.477036 0.0990153 0.0692316 0.0596774 0.105396 0.0707539 0.0563882 0.023117 0.00923104 0.0301534 
787 0.308458 0.139335 0.0434976 0.146511 0.0573375 0.0568658 0.0907561 0.0292956 0.0667118 0.0612307 
788 0.489906 0.159797 0.0290941 0.0971982 0.0223636 0.0639404 0.0663936 0.0344997 0.0289649 0.00784156 
789 0.10094 0.133841 0.071436 0.249742 0.145821 0.0777331 0.0789333 0.0107705 0.0370562 0.0937265 
790 0.0550536 0.178455 0.144316 0.0335981 0.119163 0.16233 0.0744587 0.193725 0.0123869 0.0265132 
791 0.359716 0.0906397 0.165079 0.0516991 0.134543 0.0372671 0.0444469 0.0480501 0.014669 0.053891 
792 0.0572672 0.208885 0.0489615 0.0342713 0.13186 0.192784 0.14756 0.0785997 0.0519523 0.0478595 
793 0.36525 0.0920075 0.136939 0.0524312 0.136612 0.038516 0.0598351 0.0487941 0.0148946 0.0547201 
794 0.28718 0.143623 0.0457718 0.165468 0.0591018 0.0586155 0.0935486 0.030197 0.0687644 0.0477301 
795 0.28718 0.143623 0.044836 0.151019 0.0591411 0.0739608 0.0935486 0.030197 0.0687644 0.0477301 
796 0.28718 0.143623 0.0602206 0.151019 0.0591018 0.0586155 0.0935486 0.030197 0.0687644 0.0477301 
797 0.0572672 0.224252 0.048979 0.0342713 0.127149 0.182111 0.14756 0.0785997 0.0519523 0.0478595 
798 0.36525 0.0920075 0.136939 0.0524486 0.15198 0.0378405 0.0451307 0.0487893 0.0148946 0.0547201 
799 0.36525 0.0920075 0.136939 0.0524312 0.136612 0.0378405 0.0451307 0.0487893 0.0149702 0.0700292 
800 0.0572672 0.208885 0.0489615 0.0342713 0.127149 0.182111 0.149099 0.0924451 0.0519523 0.0478595 
801 0.495633 0.169455 0.0290941 0.0971982 0.0223324 0.048587 0.0663936 0.0344997 0.0289649 0.00784156 
802 0.486693 0.104742 0.0692316 0.0596774 0.104158 0.0566075 0.0563882 0.023117 0.00923104 0.0301534 
803 0.311085 0.14728 0.0543571 0.150233 0.0533557 0.0529174 0.0983419 0.0272612 0.062079 0.0430897 
804 0.282829 0.141447 0.0441566 0.163883 0.0582063 0.0577274 0.0921312 0.0297395 0.0677226 0.0621584 
805 0.477036 0.0990153 0.0692316 0.0596774 0.10819 0.0679603 0.0563882 0.023117 0.00923104 0.0301534 
806 0.087072 0.268134 0.139181 0.0532149 0.0785473 0.0602655 0.141833 0.0609751 0.0623955 0.0483819 
807 0.36525 0.0920445 0.152286 0.0524314 0.136612 0.0378405 0.0451307 0.0487893 0.0148946 0.0547201 
808 0.910004 0.00730301 0.0215545 0.00767541 0.0289931 0.00223689 0.00746819 0.00735883 0 0.00740596 
809 0.360456 0.120177 0.134864 0.0516368 0.134543 0.0372671 0.0444469 0.0480501 0.014669 0.053891 
810 0.10094 0.149226 0.0683263 0.237467 0.145821 0.0777331 0.0789333 0.0107705 0.0370562 0.0937265 
811 0.489906 0.159798 0.0290941 0.0978397 0.0370036 0.0486589 0.0663936 0.0344997 0.0289649 0.00784156 
812 0.0572683 0.223305 0.0499247 0.0342713 0.127149 0.182111 0.14756 0.0785997 0.0519523 0.0478595 
813 0.288275 0.157912 0.0448371 0.151019 0.0591018 0.0586155 0.0935486 0.030197 0.0687644 0.0477301 
814 0.492647 0.0960596 0.067165 0.0582794 0.115591 0.0549177 0.054705 0.0224269 0.00895548 0.0292533 
815 0.0572672 0.208885 0.0489615 0.0342713 0.129626 0.195018 0.14756 0.0785997 0.0519523 0.0478595 
816 0.0870718 0.265705 0.14161 0.0532149 0.0785473 0.0602655 0.141833 0.0609751 0.0623955 0.0483819 
817 0.0572672 0.208885 0.0489615 0.0342713 0.127149 0.197495 0.14756 0.0785997 0.0519523 0.0478595 
818 0.10094 0.133841 0.0683263 0.237467 0.161206 0.0777331 0.0789333 0.0107705 0.0370562 0.0937265 
819 0.36525 0.107392 0.136939 0.0524312 0.136612 0.0378405 0.0451307 0.0487893 0.0148946 0.0547201 
820 0.374868 0.105765 0.134864 0.0516368 0.134543 0.0372671 0.0444469 0.0480501 0.014669 0.053891 
821 0.0870718 0.252786 0.139144 0.0685995 0.0785473 0.0602655 0.141833 0.0609751 0.0623955 0.0483819 
822 0.484728 0.106708 0.0692316 0.0596774 0.104158 0.0566075 0.0563882 0.023117 0.00923104 0.0301534 
823 0.484728 0.106708 0.0692316 0.0596774 0.104158 0.0566075 0.0563882 0.023117 0.00923104 0.0301534 
824 0.489906 0.159797 0.0290941 0.112583 0.0223324 0.048587 0.0663936 0.0344997 0.0289649 0.00784156 
825 0.0550536 0.178455 0.1597 0.0335981 0.103817 0.162292 0.0744587 0.193725 0.0123869 0.0265132 
826 0.492647 0.0960596 0.0820901 0.0578961 0.101049 0.0549177 0.0547049 0.0224269 0.00895548 0.0292533 
827 0.36525 0.0920075 0.136939 0.052527 0.151901 0.0378405 0.0451307 0.0487893 0.0148946 0.0547201 
828 0.0994103 0.131813 0.0824426 0.233869 0.147412 0.0879063 0.0777373 0.0106073 0.0364948 0.0923064 
829 0.484728 0.106708 0.0692316 0.0596774 0.104158 0.0566075 0.0563882 0.023117 0.00923104 0.0301534 
830 0.484728 0.106708 0.0692316 0.0596774 0.104158 0.0566075 0.0563882 0.023117 0.00923104 0.0301534 
831 0.477036 0.0990153 0.0692316 0.0597453 0.119475 0.0566077 0.0563882 0.023117 0.00923104 0.0301534 
832 0.489906 0.159797 0.0292218 0.112455 0.0223324 0.048587 0.0663936 0.0344997 0.0289649 0.00784156 
833 0.897942 0.0245987 0.0128937 0.0100243 0.0225418 0.00292517 0.00976609 0.00962308 0 0.00968471 
834 0.912481 0.0112334 0.0126983 0.00987244 0.0222002 0.00288085 0.00961812 0.00947728 0 0.00953797 
835 0.28718 0.143623 0.0602206 0.151019 0.0591018 0.0586155 0.0935486 0.030197 0.0687644 0.0477301 
836 0.10094 0.133841 0.0683263 0.237467 0.14681 0.0921284 0.0789333 0.0107705 0.0370562 0.0937265 
837 0.477036 0.0990153 0.0692316 0.0596774 0.104652 0.071498 0.0563882 0.023117 0.00923104 0.0301534 
838 0.29798 0.141447 0.0441566 0.148731 0.0582063 0.0577485 0.107262 0.0297395 0.0677226 0.0470069 
839 0.10094 0.133841 0.0684789 0.252678 0.145842 0.0777331 0.0789333 0.0107705 0.0370562 0.0937265 
840 0.36525 0.0920075 0.136939 0.0605068 0.143921 0.0378404 0.0451307 0.0487893 0.0148946 0.0547201 
841 0.28732 0.151896 0.051808 0.151019 0.0591018 0.0586155 0.0935486 0.030197 0.0687644 0.0477301 
842 0.484008 0.107288 0.069371 0.0596774 0.104158 0.0566075 0.0563882 0.023117 0.00923104 0.0301534 
843 0.36525 0.0920075 0.136939 0.0524313 0.151997 0.0378405 0.0451307 0.0487893 0.0148946 0.0547201 
845 0.10094 0.133841 0.0683263 0.237467 0.161206 0.0777331 0.0789333 0.0107705 0.0370562 0.0937265 
846 0.10094 0.133841 0.0683264 0.237467 0.145821 0.0777331 0.0789333 0.0107705 0.0370563 0.109111 
847 0.0572672 0.224269 0.0489615 0.0342713 0.127149 0.182111 0.14756 0.0785997 0.0519523 0.0478595 
848 0.10094 0.133841 0.0683263 0.237467 0.161206 0.0777331 0.0789333 0.0107705 0.0370562 0.0937265 
849 0.0550536 0.178455 0.144316 0.0335981 0.103817 0.162292 0.0779708 0.205597 0.0123869 0.0265132 
850 0.378449 0.0941931 0.136939 0.0524312 0.136612 0.0378405 0.0451307 0.0487893 0.0148946 0.0547201 
851 0.10094 0.133841 0.0684635 0.252715 0.145821 0.0777331 0.0789333 0.0107705 0.0370562 0.0937265 
852 0.36525 0.0920075 0.136939 0.055425 0.149003 0.0378404 0.0451307 0.0487893 0.0148946 0.0547201 
853 0.377796 0.0948465 0.136939 0.0524312 0.136612 0.0378405 0.0451307 0.0487893 0.0148946 0.0547201 
854 0.36525 0.107392 0.136939 0.0524312 0.136612 0.0378405 0.0451307 0.0487893 0.0148946 0.0547201 
855 0.36525 0.0920075 0.136939 0.0524312 0.136612 0.0378405 0.0451307 0.0641739 0.0148946 0.0547201 
856 0.10094 0.149226 0.0683263 0.237467 0.145821 0.0777331 0.0789333 0.0107705 0.0370562 0.0937265 
857 0.10094 0.133841 0.0683263 0.237467 0.145821 0.0777635 0.0942875 0.0107705 0.0370562 0.0937265 
858 0.10094 0.133841 0.0683263 0.237467 0.145821 0.0815827 0.0904684 0.0107705 0.0370562 0.0937265 
859 0.0572674 0.223608 0.0496226 0.0342713 0.127149 0.182111 0.14756 0.0785997 0.0519523 0.0478595 
860 0.477036 0.106996 0.0766353 0.0596775 0.104158 0.0566075 0.0563882 0.023117 0.00923104 0.0301534 
861 0.0550536 0.19384 0.144316 0.0335981 0.103817 0.162292 0.0744587 0.193725 0.0123869 0.0265132 
862 0.10094 0.133841 0.0683269 0.252851 0.145821 0.0777331 0.0789333 0.0107705 0.0370562 0.0937265 
863 0.10094 0.133841 0.0683263 0.243865 0.154808 0.0777332 0.0789333 0.0107705 0.0370562 0.0937265 
864 0.10094 0.133841 0.0685425 0.246237 0.15222 0.0777331 0.0789333 0.0107705 0.0370562 0.0937265 
865 0.10094 0.133841 0.0683264 0.237467 0.147205 0.0917336 0.0789333 0.0107705 0.0370562 0.0937265 
866 0.0573688 0.224167 0.0489626 0.0342713 0.127149 0.182111 0.14756 0.0785997 0.0519523 0.0478595 
867 0.0550547 0.193737 0.144417 0.0335981 0.103817 0.162292 0.0744587 0.193725 0.0123869 0.0265132 
868 0.0572672 0.208885 0.0489615 0.0342713 0.127149 0.182111 0.148304 0.0932399 0.0519523 0.0478595 
869 0.0572672 0.208885 0.0643461 0.0342713 0.127149 0.182111 0.14756 0.0785997 0.0519523 0.0478595 
870 0.10094 0.133841 0.0683263 0.237467 0.145821 0.0777331 0.0789333 0.0107705 0.0390074 0.10716 
871 0.117144 0.143843 0.0678312 0.233869 0.143612 0.0765554 0.0777373 0.0106073 0.0364948 0.0923064 
872 0 0.1457 0.101359 0.0586174 0.187846 0.146684 0.0716487 0.114389 1.25868e-07 0.173756 
873 0.0550536 0.178455 0.144316 0.0335981 0.103817 0.162292 0.0757586 0.20781 0.0123869 0.0265132 
874 0.0572672 0.208885 0.0489615 0.0342713 0.127149 0.183211 0.161844 0.0785997 0.0519523 0.0478595 
875 0.100904 0.248956 0.137036 0.0524086 0.0773572 0.0593621 0.148942 0.0659359 0.0614501 0.0476488 
876 0.477036 0.0990153 0.0692316 0.0596774 0.110646 0.0654947 0.0563981 0.023117 0.00923104 0.0301534 
877 0.36525 0.0920075 0.136939 0.0524312 0.151997 0.0378405 0.0451307 0.0487893 0.0148946 0.0547201 
878 0 0 0.999999 0 0 0 0 0 0 0 
879 0.28718 0.143623 0.044836 0.151019 0.0591018 0.0620179 0.105531 0.030197 0.0687644 0.0477301 
880 0.920757 0.00931433 0.0116401 0.00904974 0.0203502 0.00264078 0.00881661 0.0086875 0 0.00874314 
881 0.36525 0.0920075 0.136939 0.0526965 0.151732 0.0378405 0.0451307 0.0487893 0.0148946 0.0547201 
882 0.887739 0.00880759 0.0270293 0.00958349 0.0215473 0.00279624 0.024041 0.00919854 0 0.00925745 
883 0.48508 0.112546 0.0681826 0.0587732 0.10258 0.0557498 0.0555338 0.0227667 0.00909117 0.0296966 
884 0.489906 0.159797 0.0296713 0.112006 0.0223324 0.048587 0.0663936 0.0344997 0.0289649 0.00784156 
885 0.0550536 0.178455 0.144316 0.0335981 0.112066 0.169428 0.0744587 0.193725 0.0123869 0.0265132 
886 0.372604 0.100038 0.136939 0.0524312 0.136612 0.0378405 0.0451307 0.0487893 0.0148946 0.0547201 
887 0.0542361 0.190666 0.142349 0.0330891 0.102244 0.159833 0.0751612 0.204111 0.0121992 0.0261115 
888 0.489906 0.159798 0.0290941 0.0971983 0.0223324 0.048587 0.0666173 0.0496437 0.0289818 0.00784156 
889 0.0572672 0.208885 0.0489615 0.0342713 0.142533 0.182111 0.14756 0.0785997 0.0519523 0.0478595 
890 0.10094 0.133841 0.0683264 0.237467 0.145821 0.0777331 0.0789333 0.0156817 0.0475297 0.0937265 
891 0.10094 0.133841 0.0714339 0.249744 0.145821 0.0777331 0.0789333 0.0107705 0.0370562 0.0937265 
892 0.100904 0.248956 0.137036 0.0524086 0.0773572 0.0616394 0.152549 0.0600512 0.0614501 0.0476488 
893 0.477036 0.0990153 0.0692316 0.0596774 0.119543 0.0566075 0.0563882 0.023117 0.00923104 0.0301534 
894 0.0870718 0.252786 0.139144 0.0532149 0.0939318 0.0602655 0.141833 0.0609751 0.0623955 0.0483819 
895 0.0550536 0.178455 0.144316 0.0335981 0.103817 0.162292 0.0744587 0.209109 0.0123869 0.0265132 
896 0.0550536 0.178455 0.144316 0.0335981 0.104311 0.177182 0.0744587 0.193725 0.0123869 0.0265132 
897 0.489451 0.101985 0.0692316 0.0596774 0.104158 0.0566075 0.0563882 0.023117 0.00923104 0.0301534 
898 0.10094 0.133841 0.0683263 0.252852 0.145821 0.0777331 0.0789333 0.0107705 0.0370562 0.0937265 
899 0.0572672 0.208885 0.0489615 0.0342713 0.128381 0.196263 0.14756 0.0785997 0.0519523 0.0478595 
900 0.379402 0.0932399 0.136939 0.0524312 0.136612 0.0378405 0.0451307 0.0487893 0.0148946 0.0547201 
901 0.0550536 0.182528 0.155628 0.0335981 0.103817 0.162292 0.0744587 0.193725 0.0123869 0.0265132 
902 0.488348 0.103088 0.0692316 0.0596774 0.104158 0.0566075 0.0563882 0.023117 0.00923104 0.0301534 
903 0.29798 0.141447 0.0441566 0.148731 0.0582063 0.0578665 0.107075 0.029808 0.0677225 0.0470069 
904 0.0550536 0.178455 0.144316 0.0335981 0.103817 0.177677 0.0744587 0.193725 0.0123869 0.0265132 
905 0.10094 0.133841 0.0683264 0.237467 0.145886 0.0867758 0.0852103 0.0107705 0.0370562 0.0937265 
906 0.496183 0.168854 0.0291448 0.0971982 0.0223324 0.048587 0.0663936 0.0344997 0.0289649 0.00784156 
907 0.29798 0.141447 0.0441566 0.148731 0.0584928 0.0683037 0.0964199 0.0297395 0.0677226 0.0470069 
908 0.371616 0.100735 0.13723 0.0524312 0.136612 0.0378405 0.0451307 0.0487893 0.0148946 0.0547201 
909 0.28718 0.143623 0.044836 0.151019 0.0591018 0.0587687 0.10878 0.030197 0.0687644 0.0477301 
910 0.0870718 0.252786 0.154528 0.0532149 0.0785473 0.0602655 0.141833 0.0609751 0.0623955 0.0483819 
911 0.071551 0.20572 0.0482197 0.0337521 0.125222 0.179352 0.145708 0.0921762 0.0511655 0.0471343 
912 0.897942 0.0092141 0.0128937 0.0100243 0.0225418 0.00292517 0.00990007 0.0248737 0 0.00968471 
913 0.0870718 0.252786 0.139144 0.0685345 0.0786123 0.0602655 0.141833 0.0609751 0.0623955 0.0483819 
914 0.0572672 0.208885 0.0489615 0.0342713 0.142533 0.182111 0.14756 0.0785997 0.0519523 0.0478595 
915 0.10094 0.133841 0.0683263 0.237467 0.145821 0.0777331 0.0789333 0.0113064 0.0476603 0.0979712 
916 0.0572672 0.208885 0.0489615 0.0342713 0.127149 0.182111 0.14756 0.0785997 0.0538309 0.0613654 
917 0.28718 0.143623 0.044836 0.16637 0.0591359 0.0586155 0.0935486 0.030197 0.0687644 0.0477301 
918 0.0572672 0.224269 0.0489615 0.0342713 0.127149 0.182111 0.14756 0.0785997 0.0519523 0.0478595 
919 0 0.246154 0 0 0.191426 0.152164 1.80029e-07 0.164102 2.67504e-06 0.246151 
920 0.28718 0.143623 0.044836 0.166388 0.0591178 0.0586155 0.0935486 0.030197 0.0687644 0.0477301 
921 0.0870718 0.255538 0.151777 0.0532149 0.0785473 0.0602655 0.141833 0.0609751 0.0623955 0.0483819 
922 0.0550536 0.178455 0.144316 0.0366133 0.116186 0.162292 0.0744587 0.193725 0.0123869 0.0265132 
923 0.36525 0.0920075 0.136939 0.0524312 0.138805 0.0510321 0.0451307 0.0487893 0.0148946 0.0547201 
924 0.28718 0.143623 0.0448517 0.161779 0.0637113 0.0586155 0.0935486 0.030197 0.0687644 0.0477301 
925 0.481645 0.109775 0.0692474 0.0596774 0.104158 0.0566075 0.0563882 0.023117 0.00923104 0.0301534 
926 0.0550536 0.178455 0.144316 0.0335981 0.103817 0.177648 0.0744876 0.193725 0.0123869 0.0265132 
927 0.485696 0.10574 0.0692316 0.0596774 0.104158 0.0566075 0.0563882 0.023117 0.00923104 0.0301534 
928 0.0572672 0.208885 0.0489615 0.0342713 0.127149 0.182111 0.162945 0.0785997 0.0519523 0.0478595 
929 0.0870718 0.252786 0.139144 0.0532149 0.0785473 0.0602655 0.157218 0.0609751 0.0623955 0.0483819 
930 0.0572672 0.208885 0.0489615 0.0342713 0.127149 0.182111 0.162945 0.0785997 0.0519523 0.0478595 
931 0.100904 0.248956 0.137036 0.0524086 0.0773572 0.0593523 0.139684 0.0639392 0.0727137 0.0476488 
932 0.2989 0.147287 0.044836 0.151019 0.0591018 0.0586155 0.0935486 0.030197 0.0687644 0.0477301 
933 0.36525 0.0920075 0.151182 0.0535725 0.136612 0.0378405 0.0451307 0.0487893 0.0148946 0.0547201 
934 0.0550536 0.178455 0.144316 0.0335981 0.103817 0.162292 0.0744587 0.193725 0.0126629 0.0416219 
935 0 0.130315 0.101359 0.074002 0.187846 0.146684 0.0716487 0.114389 1.25868e-07 0.173756 
936 0.0550536 0.178455 0.144316 0.0335981 0.103817 0.162292 0.0791235 0.204445 0.0123869 0.0265132 
937 0.500848 0.164241 0.0290941 0.0971982 0.0223324 0.048587 0.0663936 0.0344997 0.0289649 0.00784156 
938 0 0.246154 0 0 0.176041 0.152164 1.96573e-07 0.179487 2.67504e-06 0.246151 
939 0.380635 0.0920075 0.136939 0.0524312 0.136612 0.0378405 0.0451307 0.0487893 0.0148946 0.0547201 
940 0.0870718 0.268171 0.139144 0.0532149 0.0785473 0.0602655 0.141833 0.0609751 0.0623955 0.0483819 
941 0.10094 0.133841 0.0683263 0.237467 0.145821 0.0777331 0.0789333 0.0107705 0.0370669 0.1091 
942 0.0572672 0.208885 0.0514726 0.0471448 0.127149 0.182111 0.14756 0.0785997 0.0519523 0.0478595 
943 0.069371 0.175751 0.142129 0.0330891 0.102244 0.159833 0.0733305 0.205675 0.0124656 0.0261115 
944 0.477036 0.0990153 0.0796424 0.0646511 0.104158 0.0566075 0.0563882 0.023117 0.00923104 0.0301534 
945 0.0870718 0.268171 0.139144 0.0532149 0.0785473 0.0602655 0.141833 0.0609751 0.0623955 0.0483819 
946 0.0550536 0.178455 0.144316 0.0335981 0.105216 0.176278 0.0744587 0.193725 0.0123869 0.0265132 
947 0.28718 0.143623 0.044836 0.151019 0.0591018 0.0586156 0.108933 0.030197 0.0687644 0.0477301 
948 0.0550536 0.178455 0.144316 0.0335981 0.119073 0.162421 0.0744587 0.193725 0.0123869 0.0265132 
949 0.0542879 0.190834 0.142129 0.0330891 0.102244 0.174985 0.0733305 0.19079 0.0121992 0.0261115 
950 0.0550536 0.178455 0.144316 0.0335983 0.119199 0.162295 0.0744587 0.193725 0.0123869 0.0265132 
951 0.10094 0.133841 0.0683263 0.238415 0.160258 0.0777331 0.0789333 0.0107705 0.0370562 0.0937265 
952 0 0.246154 0 0 0.177695 0.165894 1.80029e-07 0.164102 2.67504e-06 0.246151 
953 0.374868 0.0906135 0.135366 0.0662866 0.134543 0.0372671 0.0444469 0.0480501 0.014669 0.053891 
954 0.10094 0.133841 0.0683263 0.237467 0.145821 0.0777331 0.0789333 0.0107705 0.0370583 0.109109 
955 0.0550536 0.178455 0.144316 0.0335981 0.103817 0.162292 0.079545 0.204023 0.0123869 0.0265132 
956 0.487336 0.1041 0.0692316 0.0596774 0.104158 0.0566075 0.0563882 0.023117 0.00923104 0.0301534 
957 0.0572672 0.208885 0.0489615 0.0342713 0.127187 0.197454 0.147563 0.0785997 0.0519523 0.0478595 
958 0.0572672 0.208885 0.0489615 0.0342713 0.142533 0.182111 0.14756 0.0785997 0.0519523 0.0478595 
959 0.0572672 0.208885 0.0489615 0.0345158 0.142289 0.182111 0.14756 0.0785997 0.0519523 0.0478595 
960 0.359716 0.0906135 0.134864 0.0516368 0.149694 0.0372671 0.0444469 0.0480874 0.0296058 0.0540683 
961 0 0.130315 0.101359 0.0586174 0.187846 0.146713 0.087005 0.114389 1.25868e-07 0.173756 
962 0.10094 0.133841 0.0683264 0.237467 0.145821 0.0777539 0.0942971 0.0107705 0.0370562 0.0937265 
963 0.0550536 0.178455 0.144316 0.0335981 0.108255 0.173238 0.0744587 0.193725 0.0123869 0.0265132 
964 0.28718 0.143623 0.044836 0.151019 0.0744864 0.0586155 0.0935486 0.030197 0.0687644 0.0477301 
965 0 0.130315 0.101359 0.0586174 0.187846 0.146684 0.0716487 0.114389 1.25868e-07 0.18914 
966 0.0870718 0.252786 0.139144 0.0532149 0.0785473 0.0602655 0.141833 0.067962 0.0707361 0.048439 
967 0.36525 0.0920075 0.136939 0.0524312 0.136612 0.0378405 0.0451307 0.0487893 0.015003 0.0699964 
968 0.0550536 0.178455 0.144571 0.0487277 0.103817 0.162292 0.0744587 0.193725 0.0123869 0.0265132 
969 0.0870718 0.252786 0.139144 0.0532149 0.0785473 0.0610392 0.154846 0.0625733 0.0623955 0.0483819 
970 0 0.246154 0 0 0.176041 0.152164 1.80029e-07 0.164102 3.15922e-06 0.261535 
971 0.0572672 0.208885 0.0643324 0.0342851 0.127149 0.182111 0.14756 0.0785997 0.0519523 0.0478595 
972 0 0.246154 0 0 0.176626 0.166963 1.80029e-07 0.164102 2.67504e-06 0.246151 
973 0.0572672 0.208885 0.0489638 0.0496536 0.127149 0.182111 0.14756 0.0785997 0.0519523 0.0478595 
974 0.0550539 0.193838 0.144317 0.0335981 0.103817 0.162292 0.0744587 0.193725 0.0123869 0.0265132 
975 0.489906 0.159798 0.0290941 0.0971983 0.0223324 0.048587 0.0713008 0.0421456 0.0317965 0.00784156 
976 0 0.130315 0.101359 0.0586174 0.187846 0.146684 0.0716487 0.114389 1.25868e-07 0.18914 
977 0.0572672 0.208885 0.0489615 0.0342713 0.127149 0.183497 0.161558 0.0785997 0.0519523 0.0478595 
978 0.0572672 0.208885 0.0489615 0.0342713 0.127149 0.182127 0.157009 0.0845194 0.0519523 0.0478595 
979 0.504984 0.165027 0.0419001 0.0915637 0.0210377 0.0457704 0.0625447 0.0324997 0.0272858 0.00738698 
980 0.10094 0.133841 0.0683263 0.237467 0.145821 0.0777331 0.0789333 0.0107705 0.0380178 0.10815 
981 0.497635 0.157376 0.0286533 0.110267 0.0226038 0.0478509 0.0653876 0.0339769 0.0285261 0.00772275 
982 0.489906 0.160417 0.0438595 0.0971982 0.0223324 0.048587 0.0663936 0.0344997 0.0289649 0.00784156 
983 0.10094 0.133841 0.0683265 0.252852 0.145821 0.0777331 0.0789333 0.0107705 0.0370562 0.0937265 
984 0.36525 0.0920075 0.136939 0.0524312 0.136612 0.053225 0.0451307 0.0487893 0.0148946 0.0547201 
985 0.10094 0.133841 0.083711 0.237467 0.145821 0.0777331 0.0789333 0.0107705 0.0370562 0.0937265 
986 0.10094 0.133841 0.0683264 0.239482 0.15919 0.0777333 0.0789333 0.0107705 0.0370562 0.0937265 
987 0.912656 0.0110586 0.0126983 0.00987244 0.0222002 0.00288085 0.00961812 0.00947728 0 0.00953797 
988 0.10094 0.133841 0.083711 0.237467 0.145821 0.0777331 0.0789333 0.0107705 0.0370562 0.0937265 
989 0.28718 0.143623 0.044836 0.151019 0.0591018 0.0586155 0.0935486 0.033399 0.080947 0.0477301 
990 0.0870718 0.252786 0.154528 0.0532149 0.0785473 0.0602655 0.141833 0.0609751 0.0623955 0.0483819 
991 0.28718 0.143623 0.044836 0.151019 0.0591018 0.0586155 0.0935486 0.0319087 0.0824374 0.0477301 
992 0.28718 0.143623 0.044836 0.151019 0.0591017 0.0586155 0.0935486 0.030197 0.0687754 0.0631037 
993 0.0572672 0.208885 0.0489615 0.0342713 0.142533 0.182111 0.14756 0.0785997 0.0519523 0.0478595 
994 0.0572672 0.208885 0.0489615 0.0342713 0.127149 0.182111 0.162705 0.0788393 0.0519523 0.0478595 
995 0.0572672 0.208885 0.0489615 0.0342713 0.142533 0.182111 0.14756 0.0785997 0.0519523 0.0478595 
998 0.897942 0.0092141 0.0128937 0.0100243 0.0225418 0.00292517 0.00976609 0.00962308 0 0.0250693 
999 0.10094 0.149226 0.0683263 0.237467 0.145821 0.0777331 0.0789333 0.0107705 0.0370562 0.0937265 
1000 0.28718 0.143623 0.044836 0.151019 0.0598509 0.073251 0.0935486 0.030197 0.0687644 0.0477301 
1001 0.0550536 0.178455 0.1597 0.0335981 0.103817 0.162292 0.0744587 0.193725 0.0123869 0.0265132 
1002 0.10094 0.133841 0.0683263 0.237467 0.145821 0.0777331 0.0789333 0.0107705 0.0376485 0.108519 
1003 0.10094 0.133841 0.0683263 0.237467 0.145832 0.0931042 0.0789356 0.0107705 0.0370562 0.0937265 
1004 0.10094 0.133841 0.0683264 0.252849 0.145824 0.0777331 0.0789333 0.0107705 0.0370562 0.0937265 
