1 1 100 1 1
1 2 100 1 1
1 3 100 1 1
1 4 100 1 1
1 5 100 1 1
1 7 100 1 1
1 1 100 2 0.479616
2 1 100 2 0.520384
1 2 100 2 0.505132
2 2 100 2 0.494868
1 3 100 2 0.641153
2 3 100 2 0.358847
1 4 100 2 0.672284
2 4 100 2 0.327716
1 5 100 2 0.238308
2 5 100 2 0.761692
1 0 100 3 0.00091797
2 0 100 3 0.922179
3 0 100 3 0.0769036
1 1 100 3 0.349387
2 1 100 3 0.291358
3 1 100 3 0.359255
1 2 100 3 0.25434
2 2 100 3 0.341215
3 2 100 3 0.404445
1 3 100 3 0.418935
2 3 100 3 0.293497
3 3 100 3 0.287568
1 4 100 3 0.34818
2 4 100 3 0.374648
3 4 100 3 0.277172
1 5 100 3 0.000373546
2 5 100 3 0.999018
3 5 100 3 0.000608355
1 7 100 3 0.344501
2 7 100 3 0.310998
3 7 100 3 0.344501
2 0 100 4 0.422245
3 0 100 4 0.52937
4 0 100 4 0.048385
1 1 100 4 0.263393
2 1 100 4 0.241936
3 1 100 4 0.23368
4 1 100 4 0.260991
1 2 100 4 0.272796
2 2 100 4 0.182026
3 2 100 4 0.256558
4 2 100 4 0.28862
1 3 100 4 0.267655
2 3 100 4 0.258192
3 3 100 4 0.222041
4 3 100 4 0.252112
1 4 100 4 0.174111
2 4 100 4 0.266865
3 4 100 4 0.266557
4 4 100 4 0.292467
2 5 100 4 0.210307
3 5 100 4 0.789552
4 5 100 4 0.000140902
1 6 100 4 0.438828
2 6 100 4 0.552485
3 6 100 4 0.00868693
1 8 100 4 0.663741
2 8 100 4 0.336136
3 8 100 4 0.000123247
2 0 100 5 0.301893
3 0 100 5 0.377127
4 0 100 5 0.320638
5 0 100 5 0.000341745
1 1 100 5 0.244368
2 1 100 5 0.170493
3 1 100 5 0.18972
4 1 100 5 0.180389
5 1 100 5 0.215031
1 2 100 5 0.172998
2 2 100 5 0.165328
3 2 100 5 0.206436
4 2 100 5 0.205263
5 2 100 5 0.249975
1 3 100 5 0.142517
2 3 100 5 0.267975
3 3 100 5 0.130409
4 3 100 5 0.200563
5 3 100 5 0.258537
1 4 100 5 0.284107
2 4 100 5 0.329242
3 4 100 5 0.0552008
4 4 100 5 0.165848
5 4 100 5 0.165602
1 5 100 5 0.999855
2 5 100 5 0.000145174
2 0 100 6 0.301095
3 0 100 6 0.17449
4 0 100 6 0.278377
5 0 100 6 0.24573
6 0 100 6 0.000307802
1 1 100 6 0.200278
2 1 100 6 0.16332
3 1 100 6 0.155237
4 1 100 6 0.139687
5 1 100 6 0.156523
6 1 100 6 0.184955
1 2 100 6 0.13394
2 2 100 6 0.138191
3 2 100 6 0.208068
4 2 100 6 0.154363
5 2 100 6 0.174079
6 2 100 6 0.191358
1 3 100 6 0.17576
2 3 100 6 0.125406
3 3 100 6 0.170062
4 3 100 6 0.198717
5 3 100 6 0.158642
6 3 100 6 0.171413
3 4 100 6 0.251658
4 4 100 6 0.253107
5 4 100 6 0.000222815
6 4 100 6 0.495012
2 5 100 6 0.0391785
3 5 100 6 0.889837
4 5 100 6 0.0709848
2 0 100 7 0.11534
3 0 100 7 0.178496
4 0 100 7 0.261432
5 0 100 7 0.198809
6 0 100 7 0.240289
7 0 100 7 0.00563413
1 1 100 7 0.170327
2 1 100 7 0.146474
3 1 100 7 0.134288
4 1 100 7 0.129886
5 1 100 7 0.139499
6 1 100 7 0.131376
7 1 100 7 0.148149
1 2 100 7 0.100729
2 2 100 7 0.10052
3 2 100 7 0.124222
4 2 100 7 0.159206
5 2 100 7 0.161182
6 2 100 7 0.15898
7 2 100 7 0.195162
1 3 100 7 0.11831
2 3 100 7 0.156924
3 3 100 7 0.17138
4 3 100 7 0.136601
5 3 100 7 0.123357
6 3 100 7 0.122147
7 3 100 7 0.171279
1 4 100 7 0.215837
2 4 100 7 0.189009
3 4 100 7 0.11589
4 4 100 7 0.0472475
5 4 100 7 0.142888
6 4 100 7 0.142877
7 4 100 7 0.146252
1 5 100 7 0.0888053
2 5 100 7 0.0879215
3 5 100 7 0.17578
4 5 100 7 0.177627
5 5 100 7 0.0885962
6 5 100 7 0.177525
7 5 100 7 0.203745
1 6 100 7 0.602501
2 6 100 7 0.397499
2 0 100 8 0.095374
3 0 100 8 0.186508
4 0 100 8 0.209404
5 0 100 8 0.181029
6 0 100 8 0.185333
7 0 100 8 0.140215
8 0 100 8 0.00213644
1 1 100 8 0.143673
2 1 100 8 0.123281
3 1 100 8 0.101465
4 1 100 8 0.116836
5 1 100 8 0.113925
6 1 100 8 0.121166
7 1 100 8 0.131059
8 1 100 8 0.148596
1 2 100 8 0.199702
2 2 100 8 0.267001
3 2 100 8 0.266323
4 2 100 8 0.0665846
5 2 100 8 0.0668234
6 2 100 8 0.0669881
8 2 100 8 0.0665776
1 3 100 8 0.094389
2 3 100 8 0.12733
3 3 100 8 0.160972
4 3 100 8 0.128415
5 3 100 8 0.150755
6 3 100 8 0.11449
7 3 100 8 0.113942
8 3 100 8 0.109707
1 4 100 8 0.262704
3 4 100 8 0.0764888
4 4 100 8 0.131359
5 4 100 8 0.13246
6 4 100 8 0.132218
7 4 100 8 0.132552
8 4 100 8 0.132218
2 5 100 8 0.5
6 5 100 8 0.5
1 7 100 8 0.334064
4 7 100 8 3.33138e-05
5 7 100 8 0.000802294
7 7 100 8 0.333201
8 7 100 8 0.331899
2 0 100 9 0.110309
3 0 100 9 0.116872
4 0 100 9 0.15888
5 0 100 9 0.182861
6 0 100 9 0.303064
7 0 100 9 0.096159
8 0 100 9 0.031204
9 0 100 9 0.000649697
1 1 100 9 0.142493
2 1 100 9 0.112624
3 1 100 9 0.100884
4 1 100 9 0.0852792
5 1 100 9 0.087035
6 1 100 9 0.0903385
7 1 100 9 0.112037
8 1 100 9 0.124984
9 1 100 9 0.144326
1 2 100 9 0.0497236
2 2 100 9 0.0861818
3 2 100 9 0.104028
4 2 100 9 0.121882
5 2 100 9 0.121824
6 2 100 9 0.0858217
7 2 100 9 0.135321
8 2 100 9 0.150302
9 2 100 9 0.144917
1 3 100 9 0.101924
2 3 100 9 0.102159
3 3 100 9 0.154099
4 3 100 9 0.190234
5 3 100 9 0.179414
6 3 100 9 0.0676094
7 3 100 9 0.101924
8 3 100 9 0.0813067
9 3 100 9 0.0213297
1 4 100 9 0.331136
2 4 100 9 0.329816
3 4 100 9 0.331171
4 4 100 9 0.0073033
8 4 100 9 0.00057339
4 5 100 9 0.333478
6 5 100 9 0.333043
7 5 100 9 0.333478
8 6 100 9 1
1 7 100 9 0.250002
2 7 100 9 0.249994
8 7 100 9 0.250002
9 7 100 9 0.250002
2 0 100 10 0.0887475
3 0 100 10 0.102367
4 0 100 10 0.195519
5 0 100 10 0.132272
6 0 100 10 0.157693
7 0 100 10 0.0909207
8 0 100 10 0.127984
9 0 100 10 0.0812722
10 0 100 10 0.0232243
1 1 100 10 0.136657
2 1 100 10 0.115697
3 1 100 10 0.1023
4 1 100 10 0.0868706
5 1 100 10 0.0856881
6 1 100 10 0.0706667
7 1 100 10 0.0743771
8 1 100 10 0.0936092
9 1 100 10 0.106005
10 1 100 10 0.128129
1 2 100 10 0.069883
2 2 100 10 0.0696265
3 2 100 10 0.0522962
4 2 100 10 0.0696963
5 2 100 10 0.0826741
6 2 100 10 0.156447
7 2 100 10 0.133156
8 2 100 10 0.139156
9 2 100 10 0.121632
10 2 100 10 0.105433
1 3 100 10 0.0683475
2 3 100 10 0.0682212
3 3 100 10 0.129461
4 3 100 10 0.103049
5 3 100 10 0.114414
6 3 100 10 0.148462
7 3 100 10 0.147148
8 3 100 10 0.0734831
9 3 100 10 0.0970443
10 3 100 10 0.0503689
1 4 100 10 0.0640507
2 4 100 10 0.128102
3 4 100 10 0.129318
4 4 100 10 0.192916
5 4 100 10 0.178632
6 4 100 10 1.10576e-06
7 4 100 10 0.164486
8 4 100 10 0.0143932
9 4 100 10 0.0640507
10 4 100 10 0.0640506
2 5 100 10 0.0904145
3 5 100 10 0.0904145
5 5 100 10 0.180829
6 5 100 10 0.182161
7 5 100 10 0.184146
8 5 100 10 0.180829
9 5 100 10 0.000775353
10 5 100 10 0.0904302
1 6 100 10 1
4 7 100 10 1
1 8 100 10 0.0002681
2 8 100 10 0.125083
3 8 100 10 0.125083
4 8 100 10 0.124152
5 8 100 10 0.125083
7 8 100 10 0.125083
8 8 100 10 0.125083
9 8 100 10 0.125083
10 8 100 10 0.125083
2 0 100 11 0.169567
3 0 100 11 0.132179
4 0 100 11 0.112597
5 0 100 11 0.0831913
6 0 100 11 0.0831198
7 0 100 11 0.0810578
8 0 100 11 0.0838946
9 0 100 11 0.19721
10 0 100 11 0.0547769
11 0 100 11 0.00240625
1 1 100 11 0.141873
2 1 100 11 0.0839261
3 1 100 11 0.0746385
4 1 100 11 0.0517411
5 1 100 11 0.0742671
6 1 100 11 0.0406062
7 1 100 11 0.0796955
8 1 100 11 0.0917561
9 1 100 11 0.0869115
10 1 100 11 0.126831
11 1 100 11 0.147754
3 2 100 11 0.000194509
5 2 100 11 3.68679e-05
6 2 100 11 0.230376
7 2 100 11 0.227207
8 2 100 11 0.0723559
9 2 100 11 0.153263
10 2 100 11 0.163302
11 2 100 11 0.153264
1 3 100 11 0.0126237
2 3 100 11 0.0432654
3 3 100 11 0.0871485
4 3 100 11 0.165983
5 3 100 11 0.151348
6 3 100 11 0.176334
7 3 100 11 0.104759
8 3 100 11 0.106434
9 3 100 11 0.0629003
10 3 100 11 0.0518676
11 3 100 11 0.0373363
1 4 100 11 0.323004
2 4 100 11 0.322996
3 4 100 11 0.262791
4 4 100 11 0.0912092
5 5 100 11 0.25
6 5 100 11 0.25
7 5 100 11 0.25
8 5 100 11 0.25
1 7 100 11 0.246218
2 7 100 11 0.246218
3 7 100 11 0.245613
4 7 100 11 0.24114
11 7 100 11 0.0208117
2 0 100 12 0.177185
3 0 100 12 0.107808
4 0 100 12 0.0742598
5 0 100 12 0.107736
6 0 100 12 0.107808
7 0 100 12 0.0782694
8 0 100 12 0.0410449
9 0 100 12 0.0736578
10 0 100 12 0.0885872
11 0 100 12 0.143555
12 0 100 12 8.77994e-05
1 1 100 12 0.148769
2 1 100 12 0.0457874
3 1 100 12 0.0587182
4 1 100 12 0.0843156
5 1 100 12 0.0229103
6 1 100 12 0.0569064
7 1 100 12 0.0457743
8 1 100 12 0.0494859
9 1 100 12 0.0911936
10 1 100 12 0.137103
11 1 100 12 0.102879
12 1 100 12 0.156156
1 2 100 12 0.0313443
2 2 100 12 0.0939994
3 2 100 12 0.122103
4 2 100 12 0.0626801
5 2 100 12 0.125317
6 2 100 12 0.125352
7 2 100 12 0.125082
8 2 100 12 0.0943103
9 2 100 12 0.124638
11 2 100 12 0.0940329
12 2 100 12 0.00114166
1 3 100 12 0.0275261
2 3 100 12 0.110357
3 3 100 12 0.081847
4 3 100 12 0.0997043
5 3 100 12 0.165211
6 3 100 12 0.0833527
7 3 100 12 0.160467
8 3 100 12 0.179628
9 3 100 12 0.0826848
10 3 100 12 0.000534672
12 3 100 12 0.00868757
2 4 100 12 0.897084
9 4 100 12 0.0181432
11 4 100 12 0.0847725
1 5 100 12 0.0626861
3 5 100 12 0.125372
4 5 100 12 0.121854
5 5 100 12 0.125372
6 5 100 12 0.125372
7 5 100 12 0.0626861
8 5 100 12 0.125309
10 5 100 12 0.125372
11 5 100 12 0.000604633
12 5 100 12 0.125372
2 6 100 12 0.161293
7 6 100 12 0.838707
1 7 100 12 0.220514
2 7 100 12 0.220514
10 7 100 12 0.117947
11 7 100 12 0.220514
12 7 100 12 0.220512
2 0 100 13 0.0692011
3 0 100 13 0.0679602
4 0 100 13 0.194398
5 0 100 13 0.0679023
6 0 100 13 0.169884
7 0 100 13 0.0912165
8 0 100 13 0.0665241
9 0 100 13 0.0695982
10 0 100 13 0.0915512
11 0 100 13 0.0341654
12 0 100 13 0.0775996
1 1 100 13 0.133204
2 1 100 13 0.0693475
3 1 100 13 0.0416297
4 1 100 13 0.0249758
5 1 100 13 0.0499517
6 1 100 13 0.0819372
7 1 100 13 0.0666022
8 1 100 13 0.0582664
9 1 100 13 0.0765025
10 1 100 13 0.0959316
11 1 100 13 0.0998575
12 1 100 13 0.0769158
13 1 100 13 0.124878
1 2 100 13 0.125012
2 2 100 13 0.125012
3 2 100 13 0.125012
4 2 100 13 0.0625058
5 2 100 13 0.0626111
6 2 100 13 2.6639e-05
7 2 100 13 0.0625058
9 2 100 13 0.0625058
10 2 100 13 0.0625058
11 2 100 13 0.125012
12 2 100 13 0.124777
13 2 100 13 0.0625155
1 3 100 13 0.0122767
2 3 100 13 0.0814393
3 3 100 13 0.122761
4 3 100 13 0.113913
5 3 100 13 0.122766
6 3 100 13 0.0510448
7 3 100 13 0.08981
8 3 100 13 0.1233
9 3 100 13 0.0830215
10 3 100 13 0.0464388
11 3 100 13 0.0491069
12 3 100 13 0.0672904
13 3 100 13 0.03683
2 0 100 14 0.0547605
3 0 100 14 0.211347
4 0 100 14 0.0467246
5 0 100 14 0.10952
6 0 100 14 0.109584
7 0 100 14 0.0991393
8 0 100 14 0.000328485
9 0 100 14 0.122182
10 0 100 14 0.0802561
11 0 100 14 0.0543849
12 0 100 14 0.11085
13 0 100 14 0.000921058
14 0 100 14 1.99336e-06
1 1 100 14 0.114947
2 1 100 14 0.098526
3 1 100 14 0.0656831
4 1 100 14 0.0642027
5 1 100 14 0.049263
6 1 100 14 0.0492439
7 1 100 14 0.0494953
8 1 100 14 0.0656838
9 1 100 14 0.0492656
10 1 100 14 0.0656837
11 1 100 14 0.0821038
12 1 100 14 0.0488511
13 1 100 14 0.082105
14 1 100 14 0.114946
1 2 100 14 0.168404
2 2 100 14 0.168404
3 2 100 14 0.158528
4 2 100 14 0.33508
5 2 100 14 0.168406
6 2 100 14 2.76003e-06
8 2 100 14 7.24161e-06
11 2 100 14 0.00116706
1 3 100 14 0.0244481
2 3 100 14 0.0244481
3 3 100 14 0.00487074
4 3 100 14 0.0549402
5 3 100 14 0.0733444
6 3 100 14 0.0977925
7 3 100 14 0.102082
8 3 100 14 0.122093
9 3 100 14 0.0921362
10 3 100 14 0.0864104
11 3 100 14 0.0733444
12 3 100 14 0.0978121
13 3 100 14 0.0973813
14 3 100 14 0.0488969
3 0 100 15 0.0899495
4 0 100 15 0.000113026
5 0 100 15 0.0683981
6 0 100 15 0.173527
7 0 100 15 0.17973
8 0 100 15 0.0899522
9 0 100 15 0.0899522
10 0 100 15 0.0884645
12 0 100 15 0.0903046
13 0 100 15 0.129609
1 1 100 15 0.13588
2 1 100 15 0.110028
3 1 100 15 0.0452932
4 1 100 15 0.09053
5 1 100 15 0.0912918
6 1 100 15 0.00321144
10 1 100 15 0.000236688
12 1 100 15 0.0452932
13 1 100 15 0.115911
14 1 100 15 0.181152
15 1 100 15 0.181173
1 2 100 15 0.0555676
2 2 100 15 0.0555676
3 2 100 15 0.111137
4 2 100 15 0.0555676
7 2 100 15 0.0555676
8 2 100 15 0.0555676
9 2 100 15 0.0555676
10 2 100 15 0.111135
11 2 100 15 0.111135
12 2 100 15 0.166485
13 2 100 15 0.0555676
14 2 100 15 0.0555676
15 2 100 15 0.0555675
2 3 100 15 0.0320499
4 3 100 15 0.0561529
5 3 100 15 0.0687336
6 3 100 15 0.112306
7 3 100 15 0.112415
8 3 100 15 0.168459
9 3 100 15 0.168459
10 3 100 15 0.112941
11 3 100 15 0.168459
14 3 100 15 2.58156e-05
1 4 100 15 0.166667
2 4 100 15 0.166667
3 4 100 15 0.166667
4 4 100 15 0.166665
5 4 100 15 0.166667
6 4 100 15 0.166667
2 0 100 16 0.185221
3 0 100 16 0.093339
5 0 100 16 0.0975636
6 0 100 16 0.0926105
7 0 100 16 0.0868741
8 0 100 16 0.0926105
9 0 100 16 1.6104e-06
10 0 100 16 0.185221
11 0 100 16 0.0644282
13 0 100 16 0.00853285
14 0 100 16 0.0010008
15 0 100 16 0.0925968
1 1 100 16 0.0990615
2 1 100 16 0.0330205
3 1 100 16 0.066041
4 1 100 16 0.0990615
5 1 100 16 0.0330205
6 1 100 16 0.0330205
7 1 100 16 0.0330205
8 1 100 16 0.0660409
9 1 100 16 0.066041
10 1 100 16 0.0330205
11 1 100 16 0.0760914
12 1 100 16 0.066041
13 1 100 16 0.0990614
14 1 100 16 0.066041
15 1 100 16 0.0323551
16 1 100 16 0.0990615
13 2 100 16 0.00762342
15 2 100 16 0.992377
5 3 100 16 0.108712
6 3 100 16 0.0558495
7 3 100 16 0.115158
8 3 100 16 0.0558495
9 3 100 16 0.111698
10 3 100 16 0.0558495
11 3 100 16 0.0558463
12 3 100 16 0.111699
13 3 100 16 0.0506949
14 3 100 16 0.111095
15 3 100 16 0.111699
16 3 100 16 0.0558493
1 4 100 16 0.200315
2 4 100 16 0.200315
3 4 100 16 0.198739
4 4 100 16 0.200315
6 4 100 16 0.200315
3 0 100 17 4.93367e-06
4 0 100 17 0.147204
5 0 100 17 0.147274
6 0 100 17 0.0749724
7 0 100 17 0.00283557
8 0 100 17 0.0736064
9 0 100 17 0.0563661
10 0 100 17 0.0736087
11 0 100 17 0.143185
12 0 100 17 0.0694009
14 0 100 17 0.13817
15 0 100 17 0.0483019
16 0 100 17 0.0250706
1 1 100 17 0.115876
2 1 100 17 0.0927007
3 1 100 17 0.0695253
4 1 100 17 0.0231752
5 1 100 17 0.0463311
6 1 100 17 0.0463503
7 1 100 17 0.0686327
8 1 100 17 0.0695255
9 1 100 17 0.0726015
10 1 100 17 0.0463503
11 1 100 17 0.0463506
12 1 100 17 0.0476744
13 1 100 17 0.0695255
14 1 100 17 0.0463503
15 1 100 17 0.046351
16 1 100 17 0.0231541
17 1 100 17 0.0695255
3 2 100 17 0.166659
4 2 100 17 0.166659
5 2 100 17 0.166659
15 2 100 17 0.166659
16 2 100 17 0.166706
17 2 100 17 0.166659
2 3 100 17 0.0370347
3 3 100 17 0.0370347
4 3 100 17 0.0370391
5 3 100 17 0.0370347
6 3 100 17 0.0733821
7 3 100 17 0.0740694
8 3 100 17 0.0370346
9 3 100 17 0.0681017
10 3 100 17 0.074068
11 3 100 17 0.0760956
12 3 100 17 0.0740694
13 3 100 17 0.0740694
14 3 100 17 0.0786192
15 3 100 17 0.0867999
16 3 100 17 0.0985131
17 3 100 17 0.0370346
1 4 100 17 0.081549
2 4 100 17 0.081549
3 4 100 17 0.0815435
4 4 100 17 0.081549
6 4 100 17 0.081549
7 4 100 17 0.081549
8 4 100 17 0.081549
9 4 100 17 0.0214174
10 4 100 17 0.081549
12 4 100 17 0.081549
13 4 100 17 0.081549
16 4 100 17 0.081549
17 4 100 17 0.081549
1 0 100 18 8.51129e-06
2 0 100 18 0.110026
3 0 100 18 0.11003
4 0 100 18 0.110002
5 0 100 18 2.77408e-06
6 0 100 18 0.00266544
7 0 100 18 0.0162899
9 0 100 18 0.0694515
10 0 100 18 0.000629245
11 0 100 18 0.110026
12 0 100 18 0.220329
13 0 100 18 0.00280407
14 0 100 18 0.00220753
15 0 100 18 0.133499
16 0 100 18 0.112029
1 1 100 18 0.0965842
2 1 100 18 0.0772032
3 1 100 18 0.0772031
4 1 100 18 0.0772031
5 1 100 18 0.0965033
6 1 100 18 0.0958978
7 1 100 18 0.112943
8 1 100 18 0.115634
9 1 100 18 0.0386015
10 1 100 18 0.0384912
11 1 100 18 2.58614e-06
13 1 100 18 2.30072e-05
14 1 100 18 0.0193012
15 1 100 18 0.0193008
16 1 100 18 1.80556e-06
17 1 100 18 0.0386016
18 1 100 18 0.0965039
1 2 100 18 0.11062
2 2 100 18 0.111091
3 2 100 18 0.111086
4 2 100 18 0.111115
5 2 100 18 0.111091
6 2 100 18 0.111724
11 2 100 18 0.111091
12 2 100 18 0.111091
13 2 100 18 0.111091
6 3 100 18 3.89e-05
7 3 100 18 5.21865e-06
8 3 100 18 0.000231506
9 3 100 18 0.0884234
10 3 100 18 0.104992
11 3 100 18 0.104988
12 3 100 18 0.0786775
13 3 100 18 0.13054
14 3 100 18 0.130713
15 3 100 18 0.0993919
16 3 100 18 0.130759
17 3 100 18 0.104992
18 3 100 18 0.0262479
2 0 100 19 0.0830112
3 0 100 19 0.0363153
4 0 100 19 0.0725603
5 0 100 19 0.0728613
6 0 100 19 0.0364411
7 0 100 19 0.0363339
8 0 100 19 0.0333775
9 0 100 19 0.215739
10 0 100 19 0.0362732
11 0 100 19 0.0846535
12 0 100 19 0.0725226
13 0 100 19 0.0369005
14 0 100 19 0.0725723
15 0 100 19 4.91733e-05
16 0 100 19 0.0725206
18 0 100 19 0.0377604
19 0 100 19 0.000108123
1 1 100 19 0.119649
2 1 100 19 0.0747804
3 1 100 19 0.0747805
4 1 100 19 0.0598243
5 1 100 19 0.0596945
6 1 100 19 0.0748019
7 1 100 19 0.0448683
8 1 100 19 0.0598244
9 1 100 19 0.0299122
10 1 100 19 0.0747805
11 1 100 19 0.0580885
12 1 100 19 0.0598244
13 1 100 19 0.0299122
14 1 100 19 0.00322851
15 1 100 19 0.0299091
16 1 100 19 0.0414291
17 1 100 19 0.0149561
18 1 100 19 0.0149561
19 1 100 19 0.0747804
4 2 100 19 0.316425
11 2 100 19 0.0507207
15 2 100 19 0.632855
2 3 100 19 0.0130769
3 3 100 19 0.0367375
4 3 100 19 0.0183726
5 3 100 19 0.0367588
6 3 100 19 0.0366474
7 3 100 19 0.0734868
8 3 100 19 0.0566054
9 3 100 19 0.000962889
10 3 100 19 0.0367588
11 3 100 19 0.0298113
12 3 100 19 0.0367709
13 3 100 19 0.0915791
14 3 100 19 0.106296
15 3 100 19 0.0734963
16 3 100 19 0.0593777
17 3 100 19 0.128656
18 3 100 19 0.109523
19 3 100 19 0.0550834
3 0 100 22 0.000789095
5 0 100 22 0.146993
6 0 100 22 0.138058
10 0 100 22 0.284814
11 0 100 22 0.142448
13 0 100 22 0.00199007
15 0 100 22 1.23211e-05
18 0 100 22 0.142448
20 0 100 22 0.142448
1 1 100 22 0.076965
2 1 100 22 0.076965
3 1 100 22 0.0765423
4 1 100 22 0.076965
5 1 100 22 0.0745096
6 1 100 22 0.00233623
7 1 100 22 0.15393
8 1 100 22 0.076965
9 1 100 22 0.076965
16 1 100 22 0.076965
17 1 100 22 0.076965
22 1 100 22 0.153927
2 2 100 22 0.0909064
3 2 100 22 0.090902
4 2 100 22 0.0909064
6 2 100 22 0.0909488
8 2 100 22 0.0909064
9 2 100 22 0.0909064
12 2 100 22 0.0909064
14 2 100 22 0.181813
15 2 100 22 0.181805
11 3 100 22 0.0834302
12 3 100 22 0.0834302
13 3 100 22 0.165695
16 3 100 22 0.0834302
17 3 100 22 0.0834302
18 3 100 22 0.0834302
19 3 100 22 0.16686
20 3 100 22 0.0834302
21 3 100 22 0.16686
22 3 100 22 3.00811e-06
1 4 100 22 0.999419
10 4 100 22 0.000581205
3 0 100 23 0.135344
4 0 100 23 0.133998
8 0 100 23 0.133998
9 0 100 23 0.132342
11 0 100 23 0.133998
12 0 100 23 0.000149948
15 0 100 23 0.0620121
16 0 100 23 0.00015791
20 0 100 23 0.133998
21 0 100 23 0.133998
23 0 100 23 5.01952e-06
1 1 100 23 0.111111
2 1 100 23 0.111111
4 1 100 23 0.0555556
5 1 100 23 0.111111
6 1 100 23 0.111111
7 1 100 23 0.0555556
8 1 100 23 0.0555556
10 1 100 23 0.0555556
11 1 100 23 0.0555556
13 1 100 23 0.0555556
18 1 100 23 0.0555556
19 1 100 23 0.0555556
22 1 100 23 0.0555556
23 1 100 23 0.0555556
3 2 100 23 0.248114
12 2 100 23 0.250628
22 2 100 23 0.250633
23 2 100 23 0.250624
7 3 100 23 0.0604329
9 3 100 23 0.0611793
10 3 100 23 0.0604329
12 3 100 23 0.0603665
13 3 100 23 0.0604329
14 3 100 23 0.120866
15 3 100 23 0.0928983
16 3 100 23 0.120794
17 3 100 23 0.120866
18 3 100 23 0.0604329
19 3 100 23 0.0604328
20 3 100 23 0.0604329
21 3 100 23 0.0604328
2 0 100 24 0.121802
3 0 100 24 1.56486e-05
6 0 100 24 0.121802
8 0 100 24 0.243604
10 0 100 24 0.0863448
11 0 100 24 2.05001e-05
13 0 100 24 0.121802
14 0 100 24 0.121802
17 0 100 24 0.121802
19 0 100 24 0.0609975
23 0 100 24 1.99367e-06
24 0 100 24 4.33516e-06
1 1 100 24 0.111112
2 1 100 24 0.055556
3 1 100 24 0.111105
4 1 100 24 0.111112
5 1 100 24 0.055556
6 1 100 24 0.055556
7 1 100 24 0.055556
9 1 100 24 0.0555559
14 1 100 24 0.055556
15 1 100 24 0.055556
16 1 100 24 0.055556
18 1 100 24 0.111112
20 1 100 24 0.055556
24 1 100 24 0.055556
23 2 100 24 1
5 3 100 24 0.0666676
7 3 100 24 0.0666676
9 3 100 24 0.0666676
10 3 100 24 0.0666676
11 3 100 24 0.133324
12 3 100 24 0.0666676
19 3 100 24 0.0666676
20 3 100 24 0.0666676
21 3 100 24 0.133335
22 3 100 24 0.133335
23 3 100 24 0.0666675
24 3 100 24 0.0666652
8 4 100 24 1
10 5 100 24 0.0502747
12 5 100 24 0.172702
13 5 100 24 0.172702
15 5 100 24 0.172702
16 5 100 24 0.172702
17 5 100 24 0.172702
19 5 100 24 0.0862144
2 0 100 25 0.170239
4 0 100 25 0.136372
6 0 100 25 0.170239
8 0 100 25 0.170239
12 0 100 25 0.16455
15 0 100 25 0.170239
16 0 100 25 0.000380582
19 0 100 25 2.03241e-05
20 0 100 25 0.0159349
22 0 100 25 0.00178787
1 1 100 25 0.111111
3 1 100 25 0.111111
5 1 100 25 0.111111
7 1 100 25 0.111111
9 1 100 25 0.111111
10 1 100 25 0.111111
11 1 100 25 0.111111
13 1 100 25 0.111111
14 1 100 25 0.111111
22 2 100 25 0.00157353
23 2 100 25 0.332809
24 2 100 25 0.332809
25 2 100 25 0.332809
4 3 100 25 0.0279354
12 3 100 25 0.00469209
16 3 100 25 0.140113
17 3 100 25 0.140427
18 3 100 25 0.140427
19 3 100 25 0.14041
20 3 100 25 0.127282
21 3 100 25 0.140427
22 3 100 25 0.138288
4 0 100 26 0.33326
8 0 100 26 0.33326
10 0 100 26 4.31053e-05
12 0 100 26 0.000175614
21 0 100 26 0.33326
1 1 100 26 0.125
2 1 100 26 0.125
3 1 100 26 0.125
5 1 100 26 0.125
23 1 100 26 0.125
24 1 100 26 0.125
25 1 100 26 0.125
26 1 100 26 0.125
8 2 100 26 0.488364
21 2 100 26 0.511636
6 3 100 26 0.166221
7 3 100 26 0.166221
9 3 100 26 0.166221
10 3 100 26 0.1662
11 3 100 26 0.166221
12 3 100 26 0.00269612
20 3 100 26 0.16622
12 4 100 26 0.109454
13 4 100 26 0.111318
14 4 100 26 0.111318
15 4 100 26 0.111318
16 4 100 26 0.111318
17 4 100 26 0.111318
18 4 100 26 0.111318
19 4 100 26 0.111318
22 4 100 26 0.111318
3 0 100 29 0.3512
25 0 100 29 0.3512
29 0 100 29 0.297601
1 1 100 29 0.111118
2 1 100 29 0.111118
4 1 100 29 0.111118
9 1 100 29 0.111118
10 1 100 29 0.111096
11 1 100 29 0.111076
12 1 100 29 0.111118
13 1 100 29 0.111118
14 1 100 29 0.111118
29 2 100 29 1
5 3 100 29 0.111111
6 3 100 29 0.111111
7 3 100 29 0.111111
15 3 100 29 0.111111
16 3 100 29 0.111111
17 3 100 29 0.111111
18 3 100 29 0.111111
19 3 100 29 0.111111
20 3 100 29 0.111111
8 4 100 29 0.122678
10 4 100 29 2.53119e-05
11 4 100 29 4.73394e-05
21 4 100 29 0.122678
22 4 100 29 0.122678
23 4 100 29 0.122678
24 4 100 29 0.122678
26 4 100 29 0.122678
27 4 100 29 0.122678
28 4 100 29 0.122678
29 4 100 29 0.0185043
2 0 100 31 0.166881
3 0 100 31 0.166872
13 0 100 31 0.166881
15 0 100 31 0.165547
16 0 100 31 7.67405e-06
20 0 100 31 4.87954e-05
27 0 100 31 0.166881
28 0 100 31 0.166881
10 1 100 31 0.142857
24 1 100 31 0.142857
25 1 100 31 0.142857
26 1 100 31 0.142857
29 1 100 31 0.142857
30 1 100 31 0.142857
31 1 100 31 0.142857
3 2 100 31 6.37172e-06
9 2 100 31 0.111115
11 2 100 31 0.111115
12 2 100 31 0.111115
14 2 100 31 0.111115
16 2 100 31 0.111109
17 2 100 31 0.111115
18 2 100 31 0.111114
19 2 100 31 0.111115
20 2 100 31 0.111082
15 3 100 31 1
1 4 100 31 0.111111
4 4 100 31 0.111111
5 4 100 31 0.111111
6 4 100 31 0.111111
7 4 100 31 0.111111
8 4 100 31 0.111111
21 4 100 31 0.111111
22 4 100 31 0.111111
23 4 100 31 0.111111
